473 100
pete.davis@enron.com 1.54044855195 -0.367885685832 0.726794967571 0.46325163497 -1.70540154904 1.76645875764 0.682805129794 0.159343166517 1.08722113837 -1.63998101012 2.07181958914 -1.85572370843 -0.055239089204 0.0961932917496 0.935181486775 1.04712727731 0.568160061703 0.64067111275 0.447419888459 0.384731340539 0.303644078641 1.8357776103 -0.33734199871 -1.38573047255 1.47814170072 -0.809710681965 3.01491970509 -0.661194362912 -1.28850323192 1.72767542075 0.356938428472 1.91913280915 -0.0986635723187 1.0840243393 1.40956701612 -0.285492669398 -0.664267438959 -0.00148858835054 -0.770136468666 -0.491418080548 -0.284392450171 1.1440825253 0.278754176747 -0.00901047686895 -0.32282637088 -0.992873395269 -0.521328667741 0.650328611926 2.09630837367 -0.986694779147 -0.771393980472 -0.913994104113 -1.13753946647 -0.854697515508 -0.765366065181 0.411952757107 1.38031957838 0.522986102558 0.305380964818 2.30668167504 2.34591366381 -0.30392776413 0.468052521524 0.690632188999 -1.66349956231 1.31634311888 1.72474065422 -1.51200524361 1.99346202541 -0.430012627709 0.574661012685 -0.311823863324 0.793919675132 -0.409585261127 -1.2259002426 -0.266241978457 -0.374109517954 1.10284270822 1.36395242814 1.1594592985 -0.110213894591 0.0977688069681 1.17353654174 -1.67885248541 -0.425049826072 -0.148881076973 0.673644089306 0.303987459363 -0.0523705449919 0.347784935235 -0.267625993756 -1.41474649165 0.00158128457889 -0.9711321714 -0.170615515133 -0.387520247066 1.37970570733 0.34986180645 -0.566712387746 0.415136980012
bill.williams@enron.com -1.12010792706 1.46069727237 0.833975557497 0.242546537439 0.714687528013 0.476814561248 -0.800783506399 0.500127491128 0.159558944926 -0.729720088365 0.268241966598 -0.64803649569 -0.712404828954 0.0493631043459 -0.577573874971 0.219028531717 0.11558841313 0.719856908696 0.00237266213825 0.635381206009 0.384467405212 0.385210443025 -1.02547202567 -0.506650267613 -0.584576063258 -0.999852425433 1.71844088686 1.91466714937 0.85948036373 -1.43637345924 -1.17217964496 -0.0616062438867 1.25071684707 -1.3093970716 0.0722014945554 -0.540598886638 -0.872603167021 -0.519612189163 0.317851455892 -1.131374106 -1.22393645562 0.838391855896 1.28140386263 0.38050579146 0.427489592725 -0.714299141857 0.180283855339 1.1562329951 0.399657224807 -1.74403934451 -0.252319157697 -1.46730437102 1.49089505083 1.47639414974 -0.0970810353798 -0.767268680937 -0.00881403107135 -0.337909636667 1.05381213634 -0.312071593818 -0.0200296196492 -0.965286760121 0.119181975134 -0.851535872504 -0.67261153586 0.869905734485 -0.364762155431 -0.691922739901 0.678514617743 -0.899169776617 -2.89330143277 0.990867506533 -0.245894946817 0.867303017906 0.854475665019 0.17742699505 -0.859223178062 0.98199110407 -0.634476794491 -0.394759828375 -0.830631986096 -1.35932221545 -1.35379950016 -0.202769490281 -0.102101672613 -0.342112733665 1.07471046487 0.128237285574 1.0007234272 -1.1660576705 -0.240895586109 0.669253846894 0.619243332051 0.207913396977 -0.013809682308 -0.025678922978 -1.70462623451 -0.299535535062 0.480895821963 2.42949293031
<unk> -0.193032929883 0.296647565569 -0.0220530369066 0.604706394551 -0.522403065503 -0.258198760709 -0.55073171838 0.144730487185 -0.521634244581 -0.223221452812 0.83170635334 0.205269246786 -0.560239261895 -0.648021044642 0.439651650456 0.682132391985 0.220024558106 0.361122418057 0.417498977911 -0.0971276348212 0.540900994207 0.245690746549 -0.0839345767456 -1.00166405623 0.446472475736 -0.32487836284 0.474040430086 0.6135023242 0.168389101375 0.458636830648 0.21644145231 -0.150426477473 -0.848574755775 -0.440544080599 -0.607806393571 -0.478798289219 -0.771575312912 0.305265201946 -1.19584284179 -0.678666760204 -0.660257188562 0.21214397473 0.421954030792 0.0118475886334 0.491438945753 0.574689654039 0.820658156035 0.959651087219 0.272962290637 -0.743018977183 -0.448786118767 -0.512637012495 -0.154282598683 -0.416288608073 0.344657636782 0.410824303976 0.766801842894 -0.721523837756 -0.0916121028183 0.973414241761 0.383681733948 -0.210596464533 0.552164474366 -0.256650911275 0.306213465509 0.473037927679 0.179637053332 0.358853389237 0.627783617879 -0.11173593239 -0.159772425683 -0.901122586986 0.336408725485 0.406815310282 0.597573596391 0.366360698394 0.786132439646 -0.405381379717 0.112634869309 0.0124792583808 -0.207045273793 -0.340417201051 -0.245884323905 0.461981012276 0.84936536839 0.907889560965 0.307188963709 -0.0786503410048 0.790479417083 -0.611498433532 -0.12173468767 0.699974916855 0.650674137405 0.285910305535 -0.811721089749 0.718452445549 -0.830526912176 -0.159847077637 0.332013931107 0.264262594436
mark.guzman@enron.com -1.73990486433 0.569894545436 -1.29270782908 -0.900818739098 1.26685306455 1.4117404916 -0.843750203802 -1.98708398464 -0.48592242283 -1.04998508367 -0.58381587329 -1.60385159054 -1.02130425001 -0.3095371452 0.664497012915 1.16997402195 0.0485231045115 -0.686584622554 1.85233468892 -0.0851322463082 0.169560142286 1.7827461002 0.750764949268 0.483385730157 -0.594527794778 0.370837938835 -0.429639406309 -0.478856405144 -1.16575191365 0.614594776394 1.16281889335 0.54138203822 0.322657382846 0.161925890792 -1.62953748401 -1.42217493326 -0.309783745308 1.11071166115 -0.614345166914 -1.61009854909 0.024049398519 0.33297066021 -0.80483758903 0.471644847584 0.212660659636 0.80278075865 0.384811718601 -0.150109480995 0.768637557855 -0.785823784886 -0.239624496811 -0.707156757651 -0.463769708726 -0.698070803975 -0.241088410939 0.140091581865 1.08431991622 0.0115601043079 0.43690824913 -0.411788598854 2.10052214063 1.6093684536 1.19975190395 -0.602266543032 1.02650573962 1.5889607663 1.620081517 0.10452190025 0.881755576406 -1.32335484288 -0.0421482721698 -1.420601147 0.10444205795 1.13511260064 -0.0330624801652 0.274682344872 -0.0426038955926 0.868088392349 -0.57108614072 0.39262097547 -0.461065748999 0.580565962739 -1.01874679984 -0.517782808865 0.59609709845 1.12781373935 0.66602503342 1.15174818581 -0.975333749335 -0.98064910134 -0.262861335597 -0.671745387819 0.261399169202 -1.85565212776 -0.0485646893158 0.0123622456996 -0.749325917164 0.0186529165852 -0.0936327914391 -0.304995088159
geir.solberg@enron.com -0.129743288279 -0.23351169072 0.344601059741 0.672274094374 -1.01929581286 -0.32428052513 0.142123996432 0.134281111701 -0.54469846827 -1.05290716403 1.30820463172 -0.943234930547 -1.01844534603 0.187751233245 -0.263625866616 -0.274884939007 0.693996021691 -1.27659642847 -0.438536213748 1.00691988834 0.871217421092 -0.185328851234 -1.42718008585 -1.5457603713 0.958347222039 0.932050779238 0.966310196746 0.319386036063 -1.17477649742 -0.136112646727 0.609628968586 0.0999057608759 -0.0287481478843 -0.241062285873 0.152661492533 0.11941309468 0.171595630534 0.194595292382 -1.89492716218 0.230539241966 -0.302413651726 -0.583478386783 1.15597174375 0.207092181392 -0.386875502067 -0.208182627225 0.539655477563 1.38153644554 0.33845048785 -0.617777517012 0.173806254597 -0.349224194272 -0.908689908309 -0.647581787394 -0.445259639085 -0.628165708996 0.873738624909 0.11301823073 -0.81419488389 1.79767218129 0.977342278535 0.172958344809 0.710353174199 -0.939725363125 0.696569775075 0.731755241819 -0.494423385522 -0.782986416356 0.276806624218 0.310307486755 -0.638103014883 -0.737899051404 -0.342390926916 -0.0644609098638 0.794616407999 -0.00166290647424 0.309389964978 -0.352188250108 0.852314287893 0.941819437575 0.55217822841 -1.16771396472 0.466906949679 -0.337336329762 -0.6001163444 0.692484963939 1.17532975057 -0.507769053661 0.869248904505 -0.932554960378 -0.633592730083 0.877043831008 -0.0493944353343 -0.805294549589 -0.140077284126 1.62742758391 -1.16102077108 0.623018784363 -0.642079748083 0.63297626511
ryan.slinger@enron.com -0.392276098903 -1.07743066253 -0.239121380543 0.000542380667281 -1.88699081331 -0.106799107822 0.305764716218 -1.80099459539 -0.0421198802928 0.401141989682 -0.00833128827985 0.0384315268877 -0.214650919442 0.671891066813 1.04716039084 -1.01805518585 0.192386196346 -0.309778333861 2.31456250396 -0.933584844111 0.861535194832 -0.0623449810996 -0.978597976205 0.296920992119 0.091560737022 -0.476682655793 0.347928180803 0.160744383832 0.690876105202 -0.0428447908537 -0.426487478865 -1.06302609026 -0.555456429968 -1.87228826689 -1.38329831498 -1.04668592483 0.317288742981 0.125984008071 0.645589128158 -0.0701039356554 0.602849482222 1.27615246249 -0.532987541806 0.047868321915 -0.228056184414 0.30045496196 0.547589459426 0.68856962676 -1.0217782452 0.716288796504 -0.263118403154 0.703354473518 0.666868418475 -0.769529147203 1.39771942695 1.60863121208 -0.755321175803 -0.291902569419 -0.83289008039 -0.460785556216 -0.285178412433 -0.247557164532 -0.943625924916 0.391954062838 0.296958389096 -0.398790372084 -0.375424105801 0.0727841419817 0.767060902488 -1.5202149274 0.613812701099 -1.0612146544 0.732355919532 1.78377885427 1.53128263478 1.21863678314 1.01338012436 1.26702503299 0.440776213142 1.53949658175 1.12295096465 -0.762132308092 -1.1306913891 -0.320304535729 0.338961044791 0.367019428305 0.912277942596 0.0340819297578 1.38642116511 -1.20869293734 0.650010867674 0.864107029619 0.882491876262 0.00832837637234 0.0903472940497 0.308374078328 -1.75095785021 -0.555321491988 1.30446087554 -0.469531341466
craig.dean@enron.com 0.435616238934 -0.458371157129 -0.794685310906 1.21914623017 -1.5003423496 -0.655129460043 -0.302040695607 0.439665038776 -0.99548129938 0.696642966647 0.76511910422 1.05426709183 -1.10667489248 -0.999024498936 0.773574480393 0.615966801587 -0.156699310216 1.09121772785 1.45264278775 -0.790747803236 0.355801250697 -0.215171876168 0.412216786794 0.321925649806 0.474982575996 -0.540380194096 -0.258707385554 0.00748886999357 0.0717720165557 1.08163967917 0.492763062255 -0.254953190689 -1.13517446597 -1.41877626925 -0.92514386111 -1.28977215399 0.198631450636 -0.481541646887 -1.04223329392 -0.120140710282 -0.52328624546 0.516515849499 -0.0871988293539 -0.979800963105 0.704847356022 0.401740582078 1.2094781705 0.223485194246 0.677430679152 -0.737781425308 -0.00510540401165 -0.961553842863 -0.740249403727 -0.851836639268 0.24281024214 0.845040571703 0.738790437885 -0.569055139994 -1.08052474877 1.68195791876 0.825006903918 -0.595504381841 -0.174165045835 0.718770789895 0.80554622199 -0.159194103876 0.0640554193532 1.47092369415 0.0720727312777 -0.558653504436 0.54642559333 -1.59908441053 1.08397861954 0.0197090361351 -0.00870658847646 1.26053003874 0.667047445243 -0.541417381992 0.661614357389 0.370920787439 -0.397152542158 -0.224064916265 -0.761745416503 0.781189728238 1.22641714057 0.566556219205 0.286961822755 -0.728666258523 -0.00619143339615 0.106266385542 -1.00606490426 0.226131811898 0.846356460179 0.839613702979 -0.336398210811 0.145766047039 0.126723124936 -0.260923629744 -0.223640312769 -0.302805156684
john.anderson@enron.com 1.37089607537 -0.17593679666 0.641443086808 0.148191495609 -0.771256404181 0.482685614473 -0.74164934169 0.917516918951 0.438255342108 -0.514287886155 0.749463233158 0.681116011497 0.813649982795 -0.922194293208 1.23629826663 0.897311744706 0.026093778591 0.411121385961 -0.463051288601 -0.120220657033 0.384350793275 0.754518822489 0.528945387255 -1.53948754101 0.779409157662 -1.2779936921 1.97867247783 0.74822825102 -0.242266021087 0.796704734182 0.0481519739663 0.903968595811 -0.61188839823 1.73876609859 1.40396910058 0.723292049798 -0.956355651493 0.239091870926 -1.5606377955 -0.513801557354 -0.143146526208 0.291917038222 -0.228941497758 0.770390166664 -0.0362416380406 1.02538160422 -0.377677349261 0.371493398053 1.64577902385 0.0665561084949 -1.47779487909 -0.674506244567 0.0337511951394 -1.01184123297 -0.00777290903906 0.811621707886 1.10637456947 -0.545455805295 0.576457760476 0.775720042396 0.354416132725 -1.44999405072 0.434416049313 1.54903608924 -1.45857415692 0.0633972226315 1.50527575568 -0.679231630816 1.84669810424 0.542156502023 0.451479970011 -0.0121064564756 0.385743756884 0.0134552039335 -0.981900930696 0.847067818208 0.781624054338 0.572469507224 1.48692518937 0.565753701436 -0.401585252445 -0.00981754952995 0.4638214237 -0.725306023288 1.44793061755 0.267225399333 -0.425662057653 0.167632841182 0.70734833445 0.117093766064 -0.126507973314 -0.191803126986 1.27144340267 0.435627345901 -0.508092416762 0.639082447733 0.634312456506 0.657544442243 0.429152262178 0.310815691112
albert.meyers@enron.com -1.57062714203 -0.476773887022 -0.642872439804 -1.10129169206 1.30909650496 0.542028474523 -0.157540104781 -1.46128294376 -0.868649189216 -0.0540284357009 -0.994211300887 -0.207594697731 0.708879403503 -1.25123716739 -0.15955409792 0.656400809183 -0.746637492985 -0.615559503006 1.19505127124 -0.157196745213 0.924954882125 0.79467166741 0.601195382477 -0.580128813795 0.0878592274299 1.24537250452 -1.53785774679 -0.465858984797 0.579334348437 0.527590256328 0.558193903054 -0.484668270775 -1.42971651196 0.913630016695 -2.02102102385 -0.465027251827 -1.0174372085 1.96844670932 -0.372798790258 -0.92896301391 -0.0810056919714 -0.784758388253 -1.12412311014 1.08558784628 0.200390695426 2.03242277166 1.17445291615 0.294290851901 -1.06780991501 0.406620259991 -0.395645457475 0.850427038853 0.807337180077 -0.523845995733 0.834294707942 0.761905046982 -0.0279963836907 -0.63883215607 0.320289008825 -0.214675214774 -0.154489696863 1.92182456949 0.410948275605 -0.610170040158 1.58070263062 0.477731320419 0.788816133897 -0.125776127039 0.597424255071 0.163168547656 1.01425670107 -1.11888338627 0.0280996699576 1.09654230362 1.40800705917 -0.951849568987 2.18514918089 -1.53228135523 -1.21405366927 -0.204306533349 1.05069162938 1.03745000338 -0.371289302131 0.897780951391 0.964605776855 1.82681149181 -0.417131832396 1.29888236585 0.617079287153 -2.09724728508 1.35170257445 0.997052122748 0.152285952701 -0.702548363963 -1.3441249223 0.655552234254 -1.78036299007 -0.391242262622 1.62699811972 -1.35439198615
michael.mier@enron.com -0.997255167335 -0.0675591091265 1.08157447338 0.339768725711 0.1142947299 -0.288265625222 0.044804073467 0.366828549796 -0.44741184425 0.116517848567 0.101991601016 -0.00450858408508 0.164488873042 -0.405517358389 -0.5572268785 0.863848141561 -0.0230607160284 1.26929809034 -0.111944882429 -0.215907497085 0.166923676289 -0.212023909136 -0.477862907294 -1.34154235133 -0.00165045148155 -0.0624707075012 0.320699224762 1.09070764108 2.36070850704 0.260617855788 -1.12534342628 -1.23615029218 -0.938416159428 -0.773374281338 -1.20490319962 -0.638699888282 -0.939068136793 1.12687183848 0.293307367882 -0.187988321132 -1.62320338617 0.779879001432 0.75496663442 -0.168189564759 0.24250778637 0.136619192825 2.46814881778 1.6525904959 -1.61306981527 -0.73509618899 -0.598913621302 0.153375258401 1.69786479784 1.32065500323 0.283573038834 0.0673658519064 -0.104504593786 -0.715419507803 1.36403648969 0.0254671182889 -0.993643026562 0.351936596465 -0.235906853094 -1.34544974453 0.567688436885 0.494655403804 -0.731194668277 -0.239221386725 0.268159192449 0.0850953708357 -0.516104335852 0.558439056086 -0.765484422613 0.950035911307 2.123430735 -1.26183277744 1.69794200389 -1.56389665847 -1.97297255915 -0.369990549048 0.11191299586 0.315859114303 -0.44924333557 0.649289318855 0.274389484979 0.678906831374 0.510713042868 -0.271647024335 1.72269691208 -1.32918509798 1.49902089873 2.14518322314 -0.308222243571 1.22867497032 -1.32456643104 0.312364002182 -1.71752293774 -1.26144523909 1.4955120322 0.658466391241
kate.symes@enron.com -0.0745760384756 -0.0611846161608 0.00637337965772 0.257565289679 -0.384562517194 0.0361886262336 -0.174433702592 0.0113728685296 -0.242514927092 -0.223773964012 0.446528565957 -0.0546464859356 -0.271920298649 -0.331805023393 0.182649589967 0.195210227671 0.059721997589 0.0179777215358 0.35387045499 0.0415178850253 0.414566441583 0.196343448139 -0.220702977452 -0.513760180642 0.336301436026 -0.059105847336 0.410737896175 0.220196046119 -0.0653557089991 0.199632232724 0.113523682615 0.0472270810017 -0.347099002174 -0.199022075475 -0.229067873671 -0.260504277124 -0.293853876084 0.143969908801 -0.629602830946 -0.283009735705 -0.264340516555 0.0720382576375 0.173170250411 0.0877397939969 0.132442911645 0.256137225149 0.367215594005 0.512655198447 0.267108379258 -0.376742218353 -0.207977293267 -0.321637613554 -0.0558028988856 -0.308443359862 0.116648812061 0.207410959406 0.383410069414 -0.244276556118 -0.129447274042 0.679104549034 0.345174744882 -0.0870166762562 0.17168677175 -0.0068788205015 0.158193362951 0.244130081695 0.13936953686 -0.0720480939479 0.468978138597 -0.128180841391 -0.115949808327 -0.479834432524 0.213731216535 0.234151690429 0.284699228043 0.216300739617 0.40353238002 -0.0946691858381 0.235780200138 0.250225508438 0.0486823023633 -0.266682849622 -0.145172334478 0.0406646646183 0.320647922154 0.408763167891 0.314556539909 0.00963800986154 0.434885591751 -0.500264453462 -0.111424016292 0.296539130708 0.344473538094 -0.0486881703706 -0.296746071123 0.410354124722 -0.501157770838 0.0471978384635 0.161439822549 0.160966797726
tim.belden@enron.com -0.237456665525 0.0953413652411 0.0286030717654 0.242331178743 -0.259002781578 0.111755180194 -0.323650280719 -0.0494714721293 -0.216815728506 -0.24419129548 0.402553654516 -0.107005898456 -0.330051335533 -0.304995077042 0.257938818995 0.366941985032 0.105343970529 0.208068237893 0.440089393491 -0.0771102049781 0.289449651711 0.310121773765 -0.14353714647 -0.487934588715 0.172791406631 -0.255815985476 0.505253760242 0.368517116862 0.127668923103 0.251454244819 0.01070283272 -0.00608794005602 -0.304578524378 -0.326535731655 -0.368305552852 -0.415674579423 -0.38807379202 0.225699815354 -0.517749363445 -0.442779419633 -0.411883115201 0.323296091525 0.19105922653 0.0354322281765 0.210856264007 0.233511587457 0.520918759936 0.597507477503 0.227687523878 -0.522794515012 -0.335541875971 -0.425637955531 0.114385866782 -0.15834979292 0.119743020943 0.231254588099 0.448272782624 -0.321548945259 0.158278679616 0.453787559237 0.3565827012 -0.0904483190923 0.207310766694 -0.0992241205377 0.092607253514 0.358108654995 0.202028170677 -0.0186625753368 0.576264846145 -0.283329595224 -0.24267277979 -0.403064014931 0.127487172617 0.411918255124 0.345975225962 0.229296298016 0.383452605708 0.0321858742174 -0.00946560173987 0.191349163211 -0.1571097151 -0.17519851938 -0.299726491592 -0.00914369490982 0.431485888557 0.409935057499 0.382694696539 0.0433410210304 0.454712733732 -0.501237926671 -0.0174152340294 0.32121377325 0.360488613898 0.0363146986917 -0.342160910064 0.304247302636 -0.559898107915 -0.0883190179735 0.255973390428 0.296382528171
diana.scholtes@enron.com -0.222009306178 0.131147387312 0.00975679630166 0.151667976388 -0.0988801923775 0.114729447338 -0.282844474452 -0.0327916266606 -0.145401965068 -0.194431020694 0.244691457128 -0.0872302735792 -0.239006156676 -0.251647526991 0.168394824306 0.293294597411 0.0570773039217 0.172192377864 0.317019678735 -0.04373751708 0.207060025463 0.254462354701 -0.0815792765663 -0.323279286055 0.0869762750052 -0.208485039161 0.368992378739 0.298076270656 0.111567835982 0.138117034307 -0.0204280537095 0.014539677798 -0.171414721685 -0.226377584533 -0.277503382543 -0.301493399535 -0.316095857454 0.171024216964 -0.349045907044 -0.37135860351 -0.316146717202 0.238369601773 0.139296075337 0.0485512795218 0.180403469211 0.17164104793 0.361325429835 0.413244979838 0.181988560085 -0.412790151121 -0.253366845885 -0.353536996397 0.127266925036 -0.0671401314838 0.0902193481708 0.137043614919 0.317177835407 -0.245869459224 0.171233837537 0.276209095889 0.244185233895 -0.0641598001101 0.165787401621 -0.0775852854183 0.0521335797696 0.273788806702 0.172996744334 -0.0204403623651 0.429793974343 -0.222843263605 -0.24689817986 -0.258659652976 0.0927874060757 0.317849787045 0.24334953752 0.157848077834 0.24667151222 0.0475056724306 -0.0496278172612 0.0829440859569 -0.158561751392 -0.130616829386 -0.260331756678 0.000508453507837 0.33090271405 0.285718224395 0.28023064049 0.0716964905879 0.309703140713 -0.390379297097 -0.0132972092876 0.212488148618 0.278480062037 0.013635763703 -0.248017944165 0.198050635721 -0.430785088011 -0.0750166627406 0.201131018684 0.253320420476
chris.mallory@enron.com -0.225388084513 0.129145376196 0.00644553270507 0.175620102322 -0.128964490173 0.109970533546 -0.301897544587 -0.0319089523686 -0.17387865795 -0.191504656801 0.280381956812 -0.0745893934904 -0.258363256386 -0.283598070751 0.205622888115 0.338821264655 0.0583207003851 0.212490495109 0.36630329612 -0.0758135797767 0.210816897831 0.281658012237 -0.0645127523007 -0.36893346665 0.0977946890277 -0.241423366029 0.387102735295 0.31278466412 0.145545569599 0.199299734078 -0.0171727866827 0.0030809006236 -0.232985785161 -0.254564490286 -0.324861535001 -0.344745243867 -0.348596275082 0.19121471744 -0.391322879613 -0.399554255722 -0.350465450365 0.275436349879 0.144820860303 0.0237872110422 0.200848008345 0.199368958519 0.427408538914 0.458458323439 0.189252802376 -0.452108587641 -0.282769804966 -0.379385816391 0.12935225903 -0.084410934531 0.104959499049 0.176006069602 0.354701819309 -0.282229774988 0.180348370348 0.314212740541 0.275663835872 -0.0679514506883 0.183044513623 -0.0728860840959 0.067934274728 0.294513576508 0.194500620185 -0.000640373543826 0.472244939025 -0.241303435027 -0.231565561199 -0.305923013052 0.104224093648 0.338530232195 0.259241880826 0.175878979456 0.294731835606 0.0299549290577 -0.0639857727822 0.0939426640634 -0.178368571247 -0.117887925256 -0.282152819417 0.00882305619078 0.385739007658 0.331420875225 0.292106944317 0.0675340714963 0.33535703595 -0.398590191193 0.000972998826268 0.23920652906 0.304653113685 0.0476923082845 -0.285902146838 0.207553827575 -0.442410151261 -0.0864750630898 0.223504653204 0.254110322501
grace.rodriguez@enron.com -0.224279986659 0.132276986731 0.0408144039367 0.191900064743 -0.154626958994 0.122930234297 -0.289408479023 -0.0176957217327 -0.163140075975 -0.227955094541 0.317815166874 -0.0981378029496 -0.268433273326 -0.297040186971 0.187614832519 0.345794310447 0.0572663978391 0.225806672896 0.364095167144 -0.0341101931702 0.256003110175 0.291323757241 -0.102792621529 -0.418608286132 0.132015825888 -0.241793875691 0.452249417285 0.353912067922 0.145376073253 0.173346599759 -0.0224257361584 0.0133190589004 -0.21923539331 -0.259551239867 -0.300771874511 -0.346103624893 -0.377833436043 0.184060224631 -0.408456084712 -0.419155606735 -0.378069474301 0.270572395875 0.178293532973 0.059412074033 0.198096162131 0.199761878471 0.430632311535 0.499593277461 0.217937705168 -0.475926944811 -0.291035902719 -0.401775506242 0.14640794372 -0.0748464545621 0.10017379477 0.172567276783 0.364736610751 -0.277680927826 0.174761817507 0.372938409513 0.292815418376 -0.0927421299404 0.178925839135 -0.0871975435322 0.0550383548165 0.32902609946 0.196594861566 -0.0381070750043 0.497779461032 -0.242474261233 -0.267099063848 -0.300871812538 0.116994519474 0.351831398916 0.293535434348 0.171597633002 0.298391910006 0.0265925370298 -0.0320617387876 0.105112820738 -0.157472702413 -0.165236549829 -0.291294667462 0.00867173109321 0.375710121423 0.333885494538 0.309300340975 0.0682768463412 0.383654795642 -0.454206640405 -0.00937022409672 0.275428768621 0.3211427464 0.0396389271 -0.298622822128 0.232614521517 -0.492150834952 -0.0888128082393 0.236099563439 0.297992110311
jeff.richter@enron.com -0.262762870531 0.148117598657 0.0164008681056 0.173844348059 -0.129914993981 0.130993852159 -0.325802329457 -0.0572768203244 -0.161129863215 -0.212042533202 0.276351848643 -0.11303985598 -0.294561629362 -0.263106679133 0.210264771517 0.340407383317 0.0801878553975 0.212349334678 0.395173326791 -0.0829563319326 0.203161696732 0.299418812969 -0.0864704251031 -0.358617339696 0.0784166652758 -0.259559341008 0.42389555034 0.340394523475 0.154586546447 0.174384523432 -0.0297337528817 -0.00324618432348 -0.196103093584 -0.295204453933 -0.33911275044 -0.378443389403 -0.351100069762 0.190755089539 -0.371994348069 -0.431926174592 -0.369592968022 0.310801471011 0.152778152146 0.0331923138855 0.202501911431 0.184789953133 0.432102882924 0.478955522557 0.191744882835 -0.474637504279 -0.291506701122 -0.391689777761 0.156908264059 -0.0664584232279 0.103119827429 0.171471193388 0.358158022969 -0.278317231519 0.21322765644 0.285436043311 0.284830241524 -0.0760757698001 0.180218213212 -0.100536961143 0.0638405180817 0.320297942737 0.191570444972 -0.0131873624117 0.490127982757 -0.288765240818 -0.268902372216 -0.298085367936 0.0957266008933 0.388886402377 0.282654150002 0.188068335836 0.276051214566 0.0828138186164 -0.088173980042 0.113615737805 -0.197261021507 -0.132737942522 -0.312879001771 -0.00521284010151 0.372633878555 0.326137490133 0.327640180067 0.0655285889896 0.355636993759 -0.422737129394 -0.0043599452769 0.255961070435 0.312688889511 0.0270407412977 -0.274003962694 0.201751505798 -0.485747238129 -0.0996740937078 0.230830084575 0.294266282453
shift.dl-portland@enron.com -0.217836454055 0.0994133163663 0.0422353220592 0.172616375239 -0.18693079464 0.118572436048 -0.252394522037 -0.0569888362901 -0.146515593843 -0.221250417231 0.301289459829 -0.122787252067 -0.256613462314 -0.222082962286 0.19717539087 0.272657678404 0.0782675955282 0.168712890743 0.36711596574 -0.0365791690272 0.26380529552 0.273223362391 -0.145317328677 -0.390853706149 0.121657092122 -0.22262037554 0.443603274612 0.323582987654 0.124040820116 0.145734573031 -0.0334853208783 -0.00150680734233 -0.191473096119 -0.274383369361 -0.283935236256 -0.332906887321 -0.335840607773 0.16769277828 -0.374472635491 -0.379745959436 -0.324622332408 0.277811544248 0.161143351903 0.0680382969641 0.166131651538 0.164343464311 0.376989934953 0.486560724248 0.175692439548 -0.429351021607 -0.264957990992 -0.348612926655 0.135759647083 -0.093475337899 0.115266053305 0.179429191101 0.321294402539 -0.247428340935 0.140556889992 0.327220683424 0.274946343728 -0.0897655280182 0.154219161136 -0.0888941248952 0.0466492531851 0.304349606438 0.163055045423 -0.0536666585842 0.482320321769 -0.256993241668 -0.254234894429 -0.290268814727 0.116173529148 0.367488491992 0.29658877124 0.184456357869 0.282077876489 0.078532583672 -0.0128491037808 0.148155663512 -0.106995428324 -0.187142114569 -0.277386106809 -0.0203016686392 0.327231412019 0.314505978067 0.328141600287 0.0605649381099 0.384787575132 -0.446155171609 0.0043464969924 0.267057040512 0.316172540011 0.00261003843633 -0.260646699989 0.230555822179 -0.503691230009 -0.0803947203462 0.236210868934 0.28329228561
tom.alonso@enron.com -0.255151309297 0.142833044387 0.0248429907355 0.174697431014 -0.119305971461 0.125341153404 -0.310672336678 -0.0523630771624 -0.162324237938 -0.206747573244 0.2771984422 -0.109752625239 -0.270199750821 -0.254315554207 0.195139811781 0.340888302734 0.0735659199681 0.216031769993 0.373156389067 -0.0723485185049 0.200422416012 0.293845970801 -0.0892661166666 -0.364375009044 0.0774288122941 -0.25198364306 0.407132808824 0.327090436775 0.152739004304 0.179679464171 -0.0300969107878 -0.00571297769646 -0.199735277853 -0.280812068755 -0.332332076419 -0.366120500275 -0.351651521419 0.187152841294 -0.357105898784 -0.41409159944 -0.36427161646 0.305300369637 0.151388020216 0.0307143233159 0.194435419986 0.175677902262 0.429518702598 0.466911051531 0.184442965052 -0.468544063119 -0.283492834332 -0.381719527277 0.155343024309 -0.0602880025504 0.0992704162348 0.169951548619 0.349713496415 -0.270042046314 0.20447170286 0.28693290122 0.281783201241 -0.0604957061776 0.17882610642 -0.100863610407 0.0614349864884 0.316923756651 0.194465640846 -0.0119207657796 0.475625119915 -0.272195085811 -0.268529675557 -0.285001682431 0.0885474131208 0.365794190443 0.281966757584 0.175459797586 0.268737950836 0.0612361014053 -0.0875090736736 0.106696909733 -0.181439992686 -0.124465000703 -0.300765128724 -0.00389489566675 0.358482000558 0.319897088943 0.319516435387 0.0660100809172 0.347989164739 -0.412206922866 0.00660304214874 0.247639276949 0.29920395495 0.0293104740926 -0.273228734607 0.202030618398 -0.475410703738 -0.0998691757139 0.229948866982 0.285592078753
cara.semperger@enron.com -0.200605720732 0.0954987648288 0.0249734635284 0.199823170204 -0.194558614562 0.0820288766002 -0.256792361784 -0.0307770261348 -0.174872665199 -0.212140029699 0.324339848146 -0.0893204361184 -0.271206728963 -0.260411121599 0.188580334233 0.288254950006 0.0773766563766 0.162128142927 0.345166971442 -0.039746796268 0.258270552906 0.241963154596 -0.128724861486 -0.403308382297 0.144673292026 -0.200373118155 0.406244684035 0.308217598129 0.0985805986843 0.168121157026 0.00440088638539 -0.0061875559391 -0.226784595142 -0.25774254205 -0.296967363393 -0.324128574791 -0.330351548981 0.172821090893 -0.423972001092 -0.364176258753 -0.331530654861 0.241697440115 0.164488029509 0.0412001671134 0.176475020576 0.184794905152 0.407126263568 0.48319826885 0.188216541501 -0.421332401935 -0.259762619649 -0.353014030573 0.0983358439425 -0.122271733023 0.100105635788 0.170054540876 0.349223801823 -0.258747474554 0.111168421685 0.378187863039 0.284171935453 -0.0768546769841 0.171366870178 -0.0893088589285 0.0784377959232 0.290972391347 0.155386822073 -0.024544562932 0.454831750283 -0.229295623 -0.22673536639 -0.320599479868 0.118276460315 0.330670484269 0.286959155166 0.179676050518 0.298854034835 0.0177736610197 0.00555345609336 0.136765010647 -0.109516072339 -0.169483981088 -0.248556530563 0.0132487975302 0.34090877265 0.335364415092 0.312160895875 0.0452469897744 0.367267227522 -0.42904675968 -0.0240629403935 0.269114779122 0.301062136675 0.0165458486353 -0.276004043721 0.256860736129 -0.475839220236 -0.0637179375893 0.207398053162 0.256129435312
mark.fischer@enron.com -0.242881476313 0.137409590014 0.0293707038577 0.185585966535 -0.130018413194 0.11714374042 -0.318794522288 -0.0292359143304 -0.164202320244 -0.206392531937 0.301043125999 -0.0897573537734 -0.274873745211 -0.280121631459 0.214196463551 0.35156919762 0.0645951866812 0.230066181973 0.365998424851 -0.0745040081266 0.204824265925 0.291443485489 -0.0767973795134 -0.383220359933 0.0931999832013 -0.255037118585 0.422297775808 0.34110786722 0.162295671847 0.19664065791 -0.0326779953579 -0.000237295425445 -0.229567350645 -0.271510816093 -0.325902245179 -0.36024841833 -0.367286522526 0.206951493772 -0.388230903028 -0.415577839769 -0.382984237388 0.297051300581 0.164028700591 0.0311548290653 0.207482395075 0.193656557889 0.444425054782 0.489671945362 0.186362272036 -0.476430428508 -0.307620578794 -0.394950338298 0.153644678809 -0.0758322429099 0.0994959382941 0.180322823559 0.366764934191 -0.286147594815 0.218978889697 0.31327282922 0.284383253621 -0.0730061741827 0.183784604849 -0.0905947374465 0.0593214700889 0.315458178211 0.193476898182 -0.0119377815465 0.494179269232 -0.252867515618 -0.252146830513 -0.291267616162 0.0864535889621 0.36587915337 0.286098584678 0.17262029779 0.304040679146 0.0421210155503 -0.0843614316702 0.107061955569 -0.1805888027 -0.11429802329 -0.290036184686 -0.00360589954615 0.388337510674 0.335134915387 0.317660455977 0.0656032722353 0.365915133292 -0.415717063875 0.00692876949414 0.26297960923 0.305445653835 0.0431311915057 -0.294957433258 0.217554702512 -0.475440765693 -0.104373527778 0.239196628705 0.290391397673
matt.motley@enron.com -0.234499110105 0.136543709568 0.016116558815 0.138355389949 -0.0765028063055 0.119683142948 -0.271789862149 -0.0534968763999 -0.124865450497 -0.183815774687 0.222171238882 -0.103946122629 -0.233240322006 -0.213959719227 0.180064754628 0.314956622276 0.0583250467749 0.199272066655 0.316022137035 -0.0733779724888 0.15490082615 0.268583282563 -0.0541700647209 -0.297632941127 0.0503024922267 -0.230384483608 0.353990833135 0.282947121702 0.154515923158 0.168618159625 -0.0333333419299 -0.00664229122747 -0.173019906111 -0.233381293848 -0.298002284642 -0.315530303964 -0.310899425565 0.182163818072 -0.288760812834 -0.373221422637 -0.319041457183 0.276509504869 0.127618804445 0.0225491184232 0.178201606779 0.1602694823 0.373426448393 0.396066701299 0.150712815082 -0.40270286744 -0.259992776383 -0.330946490101 0.141455224683 -0.0445271105936 0.076058903289 0.144993285134 0.302730396812 -0.239814460825 0.20716374602 0.211137143115 0.237729523932 -0.0506089021057 0.162873172773 -0.0883931867413 0.0397252002781 0.283152872971 0.17634191452 -0.00348589624029 0.412840355292 -0.241670185413 -0.213714998491 -0.238548355074 0.0679768601424 0.322282620127 0.240206800478 0.138745868517 0.235521325079 0.0575224193617 -0.0982979705427 0.080453077086 -0.17454432204 -0.0838990279345 -0.256573643257 -0.00578392138835 0.322824971472 0.27740092573 0.263557401643 0.0722703136272 0.282955352845 -0.338918057356 0.0240038208174 0.203113333275 0.246002583567 0.0297100129492 -0.245306845327 0.146776369921 -0.389875882728 -0.104457845764 0.204339576302 0.24615119583
mike.swerzbin@enron.com -0.234711827456 0.103540201093 0.025382179533 0.169312636087 -0.163324015368 0.114145447041 -0.270770786234 -0.0681725238472 -0.146383111938 -0.210239200336 0.274839497668 -0.118463734673 -0.27031358494 -0.218383175962 0.196922134599 0.300757986941 0.0861527552527 0.18300584774 0.364202094239 -0.0666286775123 0.205808471541 0.269445624141 -0.114559547391 -0.355343562386 0.0924134968352 -0.225105502321 0.412074502691 0.301225116225 0.133576702456 0.16861131933 -0.0226595382558 -0.00729429027379 -0.188260048632 -0.268641456345 -0.303844017043 -0.343991917909 -0.319835469533 0.186327785852 -0.354315593264 -0.375978552171 -0.326665971907 0.292455984637 0.148087896442 0.0297875154243 0.163879558924 0.157304024972 0.408973201232 0.455156315298 0.163096501862 -0.422939001815 -0.269767377582 -0.349332288645 0.123727851691 -0.0775947339537 0.0963922995688 0.164885240337 0.328872311326 -0.244741369992 0.173399064261 0.292695824948 0.275759669534 -0.0669850448614 0.16216954601 -0.103303637121 0.0562743119667 0.301482067437 0.172997000673 -0.0284005359059 0.460828579739 -0.263319267875 -0.227554829427 -0.28627898516 0.0885235552168 0.352064755956 0.28358083115 0.16345491009 0.276164817155 0.0750024864417 -0.0571931732669 0.138697058616 -0.141852758375 -0.13993471541 -0.26896305226 -0.0268536468422 0.323760000994 0.305906695713 0.319109735389 0.0568570422415 0.344868166134 -0.403428564788 0.0103068351526 0.24898261028 0.275463874955 0.0209915021993 -0.24761222272 0.207282091331 -0.462224088969 -0.0949499662307 0.21535396986 0.265044305251
h..foster@enron.com -0.0695987593097 -0.0114513912192 0.0546772664524 0.133619595495 -0.205775882365 0.0552373776322 -0.11336187864 -0.0175325461568 -0.0935995847921 -0.142028635478 0.234548303323 -0.0775808974784 -0.149720053216 -0.128868265127 0.122809502665 0.136389846434 0.0587685901746 0.0688743515843 0.214829168806 -0.00543854714906 0.188071055476 0.144020815271 -0.136362337891 -0.287833841781 0.143312952655 -0.101123551092 0.301400356323 0.168535064587 0.0453324181804 0.115284716389 0.00179485122389 0.00933714454321 -0.150465876948 -0.152280146258 -0.142149185903 -0.183033244685 -0.178215177483 0.0997852614425 -0.274683712196 -0.182205088657 -0.189921235001 0.155691538661 0.111474561152 0.0343941975683 0.0735771621427 0.0961256033126 0.249887890642 0.326249068438 0.107371968073 -0.23862877155 -0.15728529841 -0.195850432224 0.0447268277563 -0.106264051948 0.0591694750853 0.12250781741 0.202445251804 -0.140239776641 0.0348121168168 0.290106269619 0.177923390723 -0.0593168314995 0.0828725271554 -0.0311939797848 0.0305869690733 0.164600032612 0.0856417925264 -0.0680475929705 0.307417396858 -0.125619805849 -0.108343691782 -0.199601353148 0.0775697643709 0.193366599425 0.188270542648 0.10330763108 0.215578082174 0.0189037112535 0.0487670258689 0.147967353054 -0.0134706395808 -0.130642727924 -0.113753836847 -0.0299302166073 0.167260114381 0.198839161572 0.212279580205 0.00127947860984 0.270801237347 -0.272409033266 -0.00854225043281 0.179186801464 0.175069892204 0.000627760974376 -0.158986613143 0.186727074449 -0.29042074099 -0.0263936468341 0.131634436611 0.146611229876
robert.badeer@enron.com -0.243469503855 0.117958562689 0.0280388620345 0.187448834736 -0.170176310498 0.119335341803 -0.30747706775 -0.0597770451274 -0.154527370548 -0.215614959265 0.299172004412 -0.110954565623 -0.272814991751 -0.251476632769 0.234272545149 0.340046757171 0.0835247862714 0.220528389167 0.394701779134 -0.0909285551241 0.215744063838 0.294016838489 -0.0926881259061 -0.382014648668 0.101409779562 -0.269824750801 0.439319132029 0.333558611363 0.160415917423 0.201210832994 -0.0238633092013 -0.00866040643525 -0.228899201016 -0.290081136437 -0.342366733186 -0.369523455027 -0.358154453566 0.206028553277 -0.377668754865 -0.416817085986 -0.365141190466 0.324197323042 0.150297338644 0.0227307155195 0.194154044492 0.182855645371 0.452670461267 0.492565891296 0.183045774749 -0.465531115794 -0.312974879131 -0.37797320435 0.141260097659 -0.0856731241735 0.11291708239 0.193836892731 0.36960197625 -0.276217356772 0.201372176798 0.304001861254 0.289060994658 -0.0725692047777 0.18267843002 -0.084848687166 0.0518417192062 0.318141011764 0.194054556629 -0.0157907765124 0.508802123004 -0.280857589292 -0.24069080958 -0.306415536681 0.096648371707 0.385781196834 0.297088994543 0.183805821267 0.303504175126 0.068451413673 -0.065591282561 0.127481534366 -0.167695740815 -0.12692623967 -0.298576825367 -0.0149561861136 0.375437398765 0.339621748342 0.327875361674 0.0639178301137 0.375892750818 -0.420328316303 0.0237931024703 0.259879134274 0.313851540777 0.0347881622936 -0.283567733082 0.218009424618 -0.479380912793 -0.113650219471 0.237775537993 0.283553942171
kysa.alport@enron.com -0.237166112906 0.126318110187 0.0241140430887 0.23043455515 -0.232312608114 0.117483647055 -0.344073859104 -0.0391897598363 -0.206781085776 -0.23009520851 0.379346195483 -0.0882666125399 -0.314293861676 -0.336487559597 0.278563110621 0.409808064432 0.0819127275411 0.258877997334 0.444315294843 -0.090980386825 0.274033951054 0.32956670738 -0.0963489027957 -0.470411313611 0.15550949956 -0.291365028735 0.495057150809 0.368303107168 0.160396814008 0.266545413444 -3.02385215317e-05 -0.00220688929913 -0.310236499242 -0.298242751182 -0.376179554999 -0.420751444063 -0.422973299955 0.236748848437 -0.502319949598 -0.467647208764 -0.421530894642 0.343265979881 0.16946619855 0.0376530183413 0.238764398625 0.251649230917 0.520571081632 0.567642689875 0.237857517319 -0.529708853158 -0.347970548484 -0.438143430403 0.12494301299 -0.143413081776 0.131563065884 0.242343249501 0.448251113219 -0.33053535404 0.183281357965 0.430682313048 0.340471621263 -0.0977826595887 0.219940130668 -0.0762792998982 0.078516511845 0.359820557238 0.243409785899 0.00556259011289 0.576498901689 -0.294564354272 -0.230948186428 -0.398458391792 0.146949543832 0.413105968036 0.321891246514 0.224992065687 0.392337426976 0.0270040483543 -0.0299117675525 0.151298394224 -0.1876775456 -0.147887162729 -0.314915528023 0.0171651429649 0.463171170922 0.415142858782 0.35228421816 0.0566785532825 0.435520591049 -0.489149495001 -0.00174017869221 0.302841706365 0.380650788066 0.056551762807 -0.357131981928 0.276293825204 -0.54197004971 -0.111878383903 0.269686434259 0.287493758719
amy.fitzpatrick@enron.com -0.174220369855 0.0916891438221 0.0343683792998 0.227368582692 -0.207753840389 0.0735624984514 -0.273402059704 0.0196655184264 -0.199775978824 -0.214337151939 0.363193717833 -0.0606288512556 -0.262984645003 -0.321949581183 0.187731785917 0.335935580794 0.0665449951613 0.180141443428 0.327352478389 -0.0231938577416 0.281685147586 0.248075542466 -0.108021639026 -0.463380325421 0.189571985629 -0.188637928914 0.423532690085 0.31367951756 0.0938496777007 0.206493695009 0.020187939965 0.0101474792459 -0.287443454928 -0.214355732053 -0.28153695614 -0.313341087609 -0.368992025818 0.191510443928 -0.506647955874 -0.375942723791 -0.366921634666 0.206210114411 0.180564805874 0.0545815908029 0.190478449091 0.230073130623 0.431000783538 0.509154942642 0.222460512881 -0.453351617815 -0.283308989623 -0.374534447753 0.0697174430059 -0.151452526101 0.0890780868297 0.181926075816 0.39686865779 -0.286543270761 0.105977354223 0.466025525737 0.29352720778 -0.0854888808376 0.19677776922 -0.0819059266247 0.0877243266218 0.301321334082 0.184542350032 -0.0278906441094 0.483286478024 -0.177954098347 -0.210314055442 -0.353660761408 0.11948047799 0.298176657846 0.28502808748 0.164245032687 0.356314947701 -0.0436895898526 0.0222221823453 0.127473852693 -0.118611048176 -0.164416083348 -0.224794152319 0.0409376414944 0.376998992216 0.371537326313 0.293071782968 0.0391469735521 0.392326736566 -0.443613846162 -0.0326279742985 0.291331475013 0.31888156414 0.0332502046349 -0.316635884292 0.294745992881 -0.478055083772 -0.049467875418 0.211312791605 0.247158505145
sean.crandall@enron.com -0.192149451436 0.0960391941671 0.0347456562448 0.131940226485 -0.107609552694 0.0975059677011 -0.230353254216 -0.044591653571 -0.118893476115 -0.174113928446 0.227676455116 -0.0924324183676 -0.204685351394 -0.182631185034 0.153453736029 0.248176655321 0.0637330757947 0.149377690339 0.278365789947 -0.0453504620324 0.161698528155 0.217010918579 -0.0905335802108 -0.301320335449 0.0759068600949 -0.193238344809 0.334589759016 0.265044872906 0.117572925429 0.127226632066 -0.0222615885778 -0.0115400363291 -0.149326901168 -0.215269188172 -0.247322675126 -0.271558304987 -0.270161256435 0.162028652437 -0.292321658849 -0.314742828747 -0.278606470006 0.236673031537 0.126380803139 0.0262670124521 0.135894019991 0.137233956544 0.337210088978 0.383404544687 0.131222234875 -0.349033868375 -0.228099635794 -0.283167020698 0.115243120422 -0.0611082407039 0.0802791126404 0.131671145515 0.274204808663 -0.207257009672 0.162953886559 0.223211378142 0.20861995723 -0.0527529196335 0.134617571325 -0.0794760348653 0.0441162510978 0.249273428683 0.139825378349 -0.0281069451929 0.382546001203 -0.206750389716 -0.206308070366 -0.216908526888 0.0543425302861 0.289560597309 0.229500904172 0.134211302193 0.228170618033 0.0513471022646 -0.0583783216678 0.0953928651426 -0.120924244619 -0.10802002304 -0.219354753827 -0.0223051415271 0.27262517462 0.252971429018 0.256209092855 0.0479849369924 0.29014608274 -0.332845922259 0.0195757878729 0.204413187052 0.230280445998 0.0196894100732 -0.212556288222 0.169970899353 -0.378007647666 -0.0713700255246 0.18442272392 0.230340798779
phillip.platter@enron.com -0.232157057345 0.117943975962 0.0137342693067 0.185178829019 -0.163673542369 0.119952440113 -0.296638289913 -0.0620674151166 -0.16374940849 -0.207967266104 0.297800787123 -0.111346558477 -0.284919960791 -0.253047704107 0.226064486852 0.340878852603 0.0821223520315 0.200716107516 0.382641362252 -0.0777073671246 0.209037388129 0.287963528622 -0.0897391550262 -0.37127744217 0.107676773568 -0.244481062463 0.416240942574 0.316913690907 0.134751159557 0.204141604196 -0.0178741274389 -0.0100301326962 -0.225195556719 -0.276137404337 -0.331894733777 -0.370537806687 -0.346075174857 0.205806342271 -0.37827668058 -0.408476541796 -0.351720015454 0.308022808037 0.14664390856 0.02009015022 0.1873052069 0.18736919064 0.436432156067 0.473624537699 0.182386368779 -0.454921093167 -0.286081139751 -0.367360094536 0.117574453745 -0.0917920457639 0.102647219615 0.185979152327 0.360840843887 -0.265286696698 0.185501316271 0.309777232377 0.291423644102 -0.0612214395796 0.179242188898 -0.0935550451022 0.0635404897563 0.319204458934 0.189707104931 -0.0125212676317 0.479124503096 -0.265723870964 -0.22621324497 -0.3152695955 0.100541011962 0.362737709991 0.289415759317 0.17977954881 0.296273632027 0.0616847346458 -0.0665726519384 0.125796655587 -0.162300841351 -0.121141199805 -0.283735544946 -0.00812136401421 0.357883162772 0.328271831864 0.324327334567 0.06573382691 0.349742450775 -0.405792816386 0.00406897800042 0.247146582437 0.296717513935 0.0276643409264 -0.283018866035 0.213101571068 -0.461461428029 -0.10333906426 0.224142818657 0.25582329042
holden.salisbury@enron.com -0.229935489447 0.137745676938 0.0163069198168 0.149376693313 -0.0820712958096 0.132405932855 -0.295098406477 -0.0378537739879 -0.149502719378 -0.180844511035 0.239731888341 -0.0798220891067 -0.227931644365 -0.279850740275 0.201267742435 0.367320488776 0.046580081925 0.247529356373 0.341618162586 -0.0902188881128 0.166228068981 0.295269991407 -0.0160751625637 -0.323580712743 0.0630749694778 -0.252939855145 0.361439672213 0.288274129156 0.164618370818 0.20799076334 -0.0236104100596 0.00582366086268 -0.211355968809 -0.206736011347 -0.308659527249 -0.3440041733 -0.351787082094 0.208239353093 -0.333787848403 -0.403365990551 -0.351549871498 0.28657012476 0.109406365504 0.0238536324924 0.196512546992 0.192806850755 0.412956223845 0.406547986702 0.184407134824 -0.431636323303 -0.288680906274 -0.35461032843 0.151579883674 -0.0551875802254 0.0834135171953 0.17984289283 0.345198428646 -0.264622217657 0.229704656195 0.25653216894 0.256669073965 -0.0562284903499 0.169994140895 -0.0734690108411 0.0463198829366 0.297588529365 0.22387751058 0.00931789646688 0.448342388051 -0.24048514051 -0.197609201706 -0.259924829975 0.0884586005974 0.334912092209 0.224681625958 0.14335156802 0.282584495909 0.0230681391504 -0.106564549989 0.0694942334253 -0.19268043665 -0.062887553474 -0.270424624025 0.00427069241553 0.375585571165 0.309018981418 0.249397444418 0.0840235303078 0.288325686261 -0.36545850851 0.0267997008469 0.208304437474 0.279215868985 0.0485804856591 -0.27930072235 0.150357206958 -0.390331529644 -0.107760520753 0.222179140842 0.237333870368
m..driscoll@enron.com -0.222330213232 0.122430825776 0.0349229369797 0.2070970303 -0.173766684965 0.107097427052 -0.305894750099 -0.0199646511216 -0.16889308924 -0.210957188266 0.322612207281 -0.0802268282658 -0.275445953676 -0.271003578297 0.227374803779 0.359386041978 0.0814675150336 0.238141713497 0.365781493678 -0.0854583893402 0.211538952793 0.282161457871 -0.0861564889029 -0.403924064208 0.11031983516 -0.275624658898 0.437414433655 0.351068056073 0.169533601879 0.219145112554 -0.0237579659986 -0.00736207644803 -0.232930289714 -0.278193549129 -0.315581410854 -0.363331368553 -0.3522405084 0.19356056774 -0.402984330096 -0.398132879934 -0.384458455135 0.314587062265 0.167031005819 0.00783158634341 0.192926778242 0.182632766381 0.464156658169 0.497564264291 0.186480516158 -0.473648827449 -0.309355218568 -0.390660153488 0.138270751722 -0.0824806367802 0.0898051092756 0.184614530646 0.37772238188 -0.287797231679 0.206064671082 0.330167442459 0.288823214582 -0.0893897597946 0.18212848871 -0.0882813126076 0.0505844558773 0.322421637644 0.195569989347 -0.00359223814142 0.490960655222 -0.256109018263 -0.231523067052 -0.302062932126 0.0862309626819 0.358592100427 0.280640497098 0.18847674586 0.316197781105 0.0444952875161 -0.0664230085343 0.125809030553 -0.181826947665 -0.126583431517 -0.287445058849 -0.00222753167227 0.386451724979 0.339315674252 0.319025302056 0.0391105610725 0.374002032189 -0.399865816132 0.00880282735408 0.269941217268 0.309800239517 0.0634486951587 -0.299579570005 0.227280798191 -0.460258146415 -0.104006614827 0.224372142409 0.290101674101
shift.portland@enron.com -0.158254251959 0.0809673539181 0.0286839485523 0.139974539118 -0.128863364996 0.0895627143161 -0.208124575045 -0.0168864700967 -0.127354304987 -0.159919580183 0.234998978618 -0.0728616313945 -0.192411588953 -0.21698860918 0.155538668531 0.255111703906 0.0447837774269 0.153906117506 0.271904643813 -0.0378734157814 0.191819534401 0.21477330392 -0.0747715812618 -0.308564000702 0.102928700788 -0.179228291641 0.324711097259 0.239004158647 0.0959746047548 0.140615710136 -0.00733824636548 0.0105370227071 -0.182101373385 -0.178808718946 -0.226183849298 -0.257294574075 -0.277023284595 0.14418800279 -0.315218718596 -0.310581560079 -0.262432734309 0.202151591469 0.117401118446 0.0376539862118 0.144112214242 0.156091105705 0.309420634214 0.362572287441 0.161275104745 -0.33865563328 -0.218307395565 -0.276205061578 0.0916697430389 -0.0756840504215 0.0808008159384 0.138576219997 0.26902860134 -0.208111010921 0.112046733029 0.279765022402 0.220909443069 -0.0685266257681 0.139845885666 -0.0535021742653 0.0442468227854 0.234031686764 0.152875895575 -0.016604320026 0.367949348035 -0.175832494344 -0.17441069665 -0.236910725108 0.098060644781 0.253385303539 0.206493228862 0.131433501029 0.231939692359 0.0121538625832 -0.0128371880927 0.0897451679804 -0.108684293376 -0.107726143161 -0.19721980515 0.00535846136444 0.282846526806 0.257168576394 0.222410455039 0.0516101955311 0.275686968306 -0.329814700704 -0.0022250376757 0.19111574759 0.239787300575 0.022312431626 -0.22870725245 0.176668731519 -0.35478988724 -0.0645764402994 0.178542103631 0.194193733968
bill.iii@enron.com -0.216621076985 0.111113550208 -0.00585165845994 0.189430474925 -0.1752448574 0.0913286305329 -0.309161555679 -0.0489904023282 -0.19822542324 -0.210290324437 0.328986847288 -0.0774811360405 -0.28490356005 -0.300385294622 0.241784585229 0.369321752187 0.0771880497562 0.179602880492 0.378453123959 -0.0752776347887 0.242842159205 0.290781300562 -0.0566611733436 -0.427824741494 0.145744603957 -0.211256292787 0.383345895309 0.310037972191 0.108417375049 0.242420116981 0.0363987056509 -0.000913138312961 -0.283587760334 -0.227271096678 -0.344511054526 -0.351267076326 -0.373214000204 0.230433067525 -0.480068596154 -0.408061731982 -0.34814029804 0.257163419369 0.135463646791 0.0381118029765 0.204475132708 0.254488058304 0.456828134518 0.486283036962 0.197401409523 -0.434913651901 -0.304637612415 -0.36003537006 0.0760093999019 -0.153145153433 0.113365515536 0.205116728607 0.406475050246 -0.293694174919 0.154667796395 0.3776420899 0.315520347755 -0.0507854220541 0.217856465139 -0.0823600489001 0.105901788117 0.317286878733 0.217104765664 0.00909152275189 0.491863251832 -0.229728963895 -0.171686047701 -0.380258381298 0.108037657265 0.348400473096 0.279619420383 0.186942310475 0.35782744578 -0.000897320099397 -0.0332681439567 0.128625474745 -0.156367433978 -0.109957934016 -0.253568471336 0.0216773032855 0.413659519108 0.389738205961 0.28858573908 0.063221017094 0.354804820675 -0.419669972382 -0.00445540638873 0.269400350022 0.318613185909 0.022059628506 -0.318505795708 0.271371579533 -0.465927750645 -0.08206307332 0.21705878546 0.220502662211
III/PDX/ECT@ECT -0.225923744484 0.102205477789 -0.0166275543697 0.191372096128 -0.188458302137 0.0915284640417 -0.302284464011 -0.0618706745645 -0.201608588676 -0.210621574988 0.325950685639 -0.0793476932278 -0.278570923983 -0.304013219687 0.244682675982 0.357093733414 0.0759609676584 0.178146936515 0.396800063016 -0.0774195179699 0.245102401369 0.287602976113 -0.0609059158894 -0.412842460736 0.148027198069 -0.207035037368 0.370202115983 0.292170508009 0.100438733677 0.242736956561 0.0460302681122 -0.000198589347517 -0.293256655086 -0.231543073152 -0.358829365525 -0.358486065878 -0.368175498521 0.230423026028 -0.478503168941 -0.412314646961 -0.345502290673 0.257077605848 0.137345318775 0.0335294771587 0.207741069967 0.254891396608 0.460195876031 0.482561356257 0.187528570607 -0.432371837217 -0.299113484644 -0.347393220692 0.0652175803049 -0.16335165173 0.12118021329 0.221545648949 0.407702357938 -0.295095208609 0.136599316568 0.379350628369 0.320282481309 -0.0415827713792 0.219416350023 -0.0853951521827 0.117125579317 0.317473374544 0.218061038669 0.0219680069037 0.489159090814 -0.236210027669 -0.160035830682 -0.393307829416 0.122807736395 0.356450928222 0.284941549041 0.185711607945 0.358719275831 -0.00926272123776 -0.0279848596306 0.127278007373 -0.143322431252 -0.109276885652 -0.254796862073 0.0295326655292 0.408097862734 0.394705496465 0.294820238919 0.0568017444941 0.356467943082 -0.417722420968 -0.00807450879255 0.270428907823 0.321226103976 0.0156587862002 -0.323338027328 0.270592694955 -0.468898635428 -0.0819183250394 0.215366347273 0.206408483587
heather.dunton@enron.com -0.153158163334 0.0706606866504 0.017844159557 0.155547526568 -0.138863952674 0.0671665156867 -0.209822804305 -0.00553860525811 -0.140412185225 -0.160428664463 0.260798539029 -0.0591932969758 -0.191304861356 -0.231849612868 0.155129027791 0.254155434327 0.0540536042995 0.132233977553 0.252992691093 -0.0255596086202 0.20305129205 0.204079975951 -0.0793647620005 -0.332324966283 0.128651058063 -0.147725913517 0.318540313759 0.233060076393 0.0817137713443 0.155125821244 0.0116848841298 0.0136016223808 -0.207851589143 -0.15857943293 -0.229120394704 -0.236452220928 -0.272808524038 0.161397089272 -0.362156566266 -0.288181492674 -0.264719232724 0.169224943985 0.126840823937 0.0473988715876 0.138530561744 0.175240719756 0.323966563234 0.378973755875 0.158309679285 -0.338383032689 -0.215393223193 -0.270913034756 0.0642481937555 -0.0999365118429 0.0704453429706 0.139485439831 0.292037130939 -0.215535536281 0.100441179042 0.315237090027 0.219757928315 -0.0573540105836 0.156336080384 -0.060979323393 0.065207029341 0.232151638698 0.149726053238 -0.0173399537395 0.373811455767 -0.155802401092 -0.158171522511 -0.259200555941 0.0897538603862 0.241022873803 0.210625240814 0.126046881658 0.266006640729 -0.0189540353179 0.003241838661 0.100677388027 -0.0982730023728 -0.107830330272 -0.177787639415 0.017813601192 0.283582425333 0.279433845059 0.218583955439 0.0448772044282 0.286294176391 -0.336170396108 -0.0051495842191 0.211220651395 0.23856322627 0.0216661395114 -0.233147026554 0.214648908588 -0.363057051088 -0.0524507871796 0.160003848129 0.181266514237
center.dl-portland@enron.com -0.0403872641408 0.0196158317202 0.0369899977754 0.068626057684 -0.0975618918257 0.0232442083597 -0.0747141507326 0.00477550676069 -0.0439373339483 -0.0741949388626 0.12540148872 -0.0320412080919 -0.0790927969384 -0.0717614052611 0.0533576046013 0.0683905334244 0.0243164966949 0.0413729109431 0.102105201988 0.00771858591315 0.104683218339 0.0712115656677 -0.0847139929394 -0.147657169959 0.0692658231548 -0.06791800378 0.175073974587 0.11936282795 0.0273366416934 0.0235549139777 -0.0190409769545 -0.000387131550502 -0.0574772602776 -0.0861874910077 -0.0605228058514 -0.0868428878451 -0.101248668104 0.0302617814938 -0.145755587566 -0.107480280458 -0.0989546196566 0.0796315460038 0.0796793615923 0.0275598092935 0.0426813785228 0.046453036513 0.113971720921 0.170902209785 0.0696958413429 -0.13340905146 -0.082502286001 -0.121470894005 0.0398296188481 -0.0403524661549 0.0356530092537 0.0472245486935 0.0966319737839 -0.0735967832886 0.0200202087535 0.140912444787 0.0859223241727 -0.0595650184071 0.0397292979095 -0.0160990873139 0.00759955063141 0.0912936757798 0.0342265636526 -0.0418908725918 0.154063702541 -0.0668176275158 -0.0966609333512 -0.0910648281738 0.0401258547904 0.107059960874 0.101650970139 0.0621856591558 0.0916255496811 0.0290006506931 0.0325368057459 0.0648631594399 -0.0164180221093 -0.100070252698 -0.0757458136194 -0.0135586675665 0.0877142663371 0.0889751502493 0.120793158223 0.00716856368839 0.151633034673 -0.151823256525 -0.0220662467294 0.101297901034 0.109207879114 0.00141976107388 -0.0766181364714 0.0972071901812 -0.174668601309 -0.0107526325255 0.0709715296914 0.109376253221
greg.wolfe@enron.com -0.0672137275214 0.0337373715545 0.038242689873 0.071433157009 -0.0867951633724 0.0497051776429 -0.0754831613605 -0.000938640287163 -0.0526338839749 -0.0869152485887 0.127627347051 -0.0547000892952 -0.0930789939431 -0.0818042457327 0.0504855709895 0.0921010776567 0.0247783638869 0.0658160909091 0.123295761581 0.0115081460219 0.101779313517 0.098525461554 -0.0750528944987 -0.154014829452 0.0685222877587 -0.0762696073677 0.180939217438 0.116792243325 0.0366854936688 0.0456819508408 -0.0150485441007 0.00862398374437 -0.0672479819003 -0.0979026434033 -0.0859333893309 -0.115428409725 -0.118888937137 0.0510979983798 -0.134764069794 -0.129305865003 -0.133539619234 0.0987613986226 0.0795001652045 0.0206974643002 0.0516234800713 0.0359293245053 0.136219071164 0.187051442639 0.0716802879988 -0.173101029428 -0.0853034107732 -0.139455156245 0.0454496801407 -0.0192540560471 0.0275608019029 0.0542318486002 0.11689125218 -0.0817042133854 0.0478555229612 0.157950778967 0.110971445233 -0.0364474576348 0.047846239883 -0.0362274775861 0.0133898898695 0.115762484872 0.0456421550145 -0.0432665893562 0.170577473913 -0.0831913673811 -0.106658972214 -0.0906568188529 0.0385778963483 0.117800634281 0.110226898843 0.0520019152642 0.0912862411844 0.0181736609202 0.00268789370378 0.0576197923306 -0.0300863777385 -0.077628603045 -0.0843702816541 -0.00732141554454 0.0959977925832 0.102458810054 0.125847280277 0.012449496814 0.152116123967 -0.166057878241 -0.00386520664942 0.0956620683031 0.107934672542 0.00223879501909 -0.0980432970849 0.0801371183006 -0.18207408432 -0.0290448301438 0.0794495833974 0.122353277258
stanley.cocke@enron.com -0.133286594324 0.0527257617548 0.0289833316777 0.101631715716 -0.126748216735 0.0746241590977 -0.143488642925 -0.0475392316318 -0.090971547126 -0.142804367886 0.19229468981 -0.093988000835 -0.164595132888 -0.118308038619 0.124405501356 0.16996549016 0.0555991839447 0.0922283589731 0.227661336567 -0.021947736546 0.155088577988 0.165985650412 -0.0974204249261 -0.235050924289 0.0764197116953 -0.125029519519 0.27413673519 0.192968469563 0.0601410707767 0.0905301702218 -0.0150968134947 -0.00506146273354 -0.111522067066 -0.166832255604 -0.17579646535 -0.202660786903 -0.190842658074 0.105104054913 -0.228083958602 -0.23149779215 -0.193514482388 0.177680265763 0.0989366769972 0.0284575462404 0.0943831907837 0.0968599040364 0.235778401606 0.302405481114 0.102932121811 -0.258422905351 -0.156868721208 -0.201457303366 0.075308999473 -0.056891199912 0.0564022668656 0.103721753614 0.198193658705 -0.141924056189 0.0812160706427 0.197050562664 0.181970306585 -0.0457087006947 0.0972815411608 -0.0627781851598 0.0287918404476 0.191592959419 0.102857712859 -0.0404832419627 0.284788340538 -0.162798846826 -0.142952400087 -0.181411693745 0.0569788267661 0.224664366371 0.18483668398 0.108942407548 0.166225052599 0.0571177167855 -0.0103781159394 0.102853259707 -0.0614552898504 -0.115903850247 -0.159023266271 -0.0248055698165 0.180069555733 0.190745205694 0.206819788955 0.0349015156525 0.228924878556 -0.266126453254 0.000293619595686 0.159566712181 0.18213797713 -0.0041365343796 -0.153197173192 0.14487110259 -0.302513302619 -0.0534936293211 0.127528081896 0.167632756005
virginia.thompson@enron.com -0.0600700791914 -0.00515560328821 -0.00206428750492 0.106340925852 -0.148584723258 0.0367232216238 -0.103751939837 -0.00744968873943 -0.123772284319 -0.129471186574 0.208292969407 -0.0386950325881 -0.133278174311 -0.185072287756 0.0766136008534 0.111301234445 0.0194555492153 -0.00483681339816 0.174884122795 0.0369678674641 0.214158236686 0.122752109645 -0.0978950091826 -0.267628376712 0.162652712882 -0.0219014199977 0.199620841357 0.117959105982 -0.0398720047241 0.0916570685062 0.0636886031021 0.0322322386402 -0.165648485789 -0.0672567754952 -0.123372273089 -0.124550812173 -0.163949437788 0.089733588287 -0.325695456797 -0.16407929734 -0.139305811109 0.0248112779533 0.0816438784748 0.0696096348465 0.0710957837888 0.145745204588 0.173326636044 0.258603714024 0.140034435446 -0.199133630821 -0.109945742318 -0.161467552047 -0.0233617475665 -0.146913688384 0.0593252854735 0.093720208395 0.19729170842 -0.127742006523 -0.0413178474451 0.326264103904 0.175574343502 -0.0279219106962 0.10357215946 -0.021019900507 0.0842239530706 0.139841203695 0.0877236124661 -0.0495838704153 0.245128193925 -0.0541411321676 -0.0651879338461 -0.241117767217 0.0913247917271 0.124438460181 0.148590302856 0.0940811041457 0.198238656301 -0.0569464322596 0.100257376303 0.104124645756 0.0167598707254 -0.122070108456 -0.0694822889499 0.0260618265149 0.174346675252 0.223756636087 0.145989374777 0.0308463456526 0.211667220975 -0.263594573492 -0.0502646236151 0.148894320396 0.169415066409 -0.0397974169425 -0.161478452787 0.208480574237 -0.259065129462 0.0294846708277 0.0850583664662 0.0866943048572
fran.chang@enron.com -0.16271150272 0.0539163108442 0.0137295693008 0.173707778831 -0.193903559558 0.0871906059895 -0.232189004671 -0.036326181359 -0.154941676015 -0.17451608301 0.2908420317 -0.0688426085471 -0.219738653862 -0.240049363514 0.197661923139 0.275236474689 0.0696838314345 0.152133121724 0.325448289945 -0.0601141660243 0.223135363159 0.240079772621 -0.0807224829272 -0.361876823638 0.141697788981 -0.181516139516 0.364920760629 0.252686417409 0.0869226842042 0.191073365619 0.0114633875889 0.00464515850388 -0.230393449954 -0.203862828283 -0.260550815644 -0.29523677375 -0.290976681966 0.177170473245 -0.384288006573 -0.324743262774 -0.280523538546 0.231966442304 0.124580655168 0.0352602853439 0.15759709931 0.189998039242 0.367188201641 0.412397168328 0.171719943724 -0.361111417769 -0.247247961074 -0.292070823931 0.0706057593119 -0.136571821412 0.0939165673565 0.183318107811 0.327934748731 -0.228471152146 0.106043801311 0.340543109424 0.258091945236 -0.0635018249585 0.149989896614 -0.0560227310937 0.064722773563 0.258483492357 0.16884314617 -0.0168619591953 0.429298971422 -0.197623465107 -0.139815677003 -0.300581271249 0.11108143225 0.289307645381 0.235662529014 0.16266627902 0.294139732461 0.0138307677771 0.0103106481135 0.133229631851 -0.0981598797221 -0.120143076877 -0.202123990549 0.000173491256288 0.318059229902 0.306441981429 0.259771595839 0.0434970961439 0.31786215977 -0.359756834441 -0.00527506512276 0.223213652062 0.26974021116 0.0171836949608 -0.252712288964 0.217421511274 -0.396379240515 -0.0677195382772 0.193916489219 0.18512366673
lester.rawson@enron.com -0.096155677773 0.0468524016388 0.00857536456851 0.0575912988189 -0.0547397295739 0.0730951446518 -0.1186606243 -0.0171856250462 -0.0667675830289 -0.100650992565 0.124905245875 -0.0569076104352 -0.0941822150509 -0.13275055318 0.0883926196137 0.156050675816 0.0147724166026 0.0840515687573 0.155439341112 -0.0124340234244 0.109948082675 0.141836084791 -0.0274332653623 -0.173652288395 0.0590647780774 -0.0948509544323 0.184893759037 0.12357045975 0.0435819071476 0.0797259168087 0.00112793502914 0.0188267249064 -0.0926632481667 -0.0765240622438 -0.123982910105 -0.145142055441 -0.16390913126 0.0858586834752 -0.169007066159 -0.176993715642 -0.149665388847 0.112367883846 0.0463479547521 0.0309137681631 0.076862524816 0.0909235230338 0.171770260718 0.19580840884 0.0990565230571 -0.188794108359 -0.130683538133 -0.160346840992 0.0550839262689 -0.0391623439527 0.0391407088384 0.0730240841285 0.154831772725 -0.106900858989 0.0803955728198 0.151744323069 0.133274325969 -0.0266642980275 0.076077361538 -0.0244490352857 0.0152261944397 0.140732908014 0.110293131469 -0.0277514831649 0.216142122007 -0.0983686793198 -0.0982558614978 -0.12309258691 0.0504366610307 0.146838051213 0.101954683274 0.0620452166311 0.12931975398 0.0111970164263 -0.0106561275361 0.0535048258204 -0.0552786349832 -0.0527144106071 -0.10773877409 -0.00475999178537 0.152973864508 0.144385437283 0.125888555427 0.0459455368032 0.148589032698 -0.189514451012 0.00586195101143 0.0997070001853 0.131945554251 0.000830744728316 -0.122980367748 0.0871617089452 -0.191642234388 -0.0320788244558 0.0971648216293 0.107734849038
lisa.gang@enron.com -0.0967166288422 0.0478774050185 0.032731703534 0.127106418849 -0.145915982534 0.0492696731241 -0.159349583146 -0.00567663833294 -0.0913077136115 -0.119372756272 0.196310884799 -0.0383867187183 -0.153723950806 -0.153877864945 0.131948672358 0.176213842804 0.0510288095616 0.111518413872 0.202484056196 -0.0310201143581 0.150671574975 0.146058802338 -0.0739548108982 -0.250726707289 0.088263665133 -0.147752919249 0.274603953445 0.199907668597 0.065486342182 0.108759566661 -0.0021628618316 0.00615851180024 -0.136292944858 -0.150271637762 -0.155613921934 -0.191023987644 -0.194430601268 0.0924895269348 -0.262467516313 -0.20901596038 -0.194588435422 0.166200178439 0.0953844208608 0.024159990881 0.101881845336 0.107878839979 0.242410611332 0.289559980392 0.133917582133 -0.254751653838 -0.168468605997 -0.222690560701 0.0618616410975 -0.0814466859732 0.0538979134209 0.119145987762 0.218600075141 -0.152154775834 0.0763534774603 0.233125768214 0.173054303768 -0.0774409797268 0.0982286879917 -0.0263401643553 0.0234398609545 0.169897766765 0.104670938878 -0.0229026450013 0.294307437372 -0.142884212364 -0.125081680349 -0.183185624886 0.0743814980856 0.200889490194 0.160747358063 0.124758367982 0.183799357076 0.0302088626528 0.0237603060191 0.105808744501 -0.0738913016663 -0.104966505918 -0.153645288161 -0.0151451104077 0.213670660748 0.185367376798 0.190514093228 0.0129440526078 0.232723650042 -0.237004983648 -0.0233022427821 0.156623557446 0.193399897437 0.0307152885115 -0.153896603554 0.150402914246 -0.268962590749 -0.0345605378622 0.126484631858 0.160648182835
jeremy.morris@enron.com -0.158047870614 0.07949600663 -0.000391770125329 0.158070110038 -0.147504853224 0.0812526576788 -0.244471398435 -0.0357338175024 -0.148544114687 -0.151405806027 0.250661511899 -0.0524197621199 -0.21587749852 -0.24391054081 0.19365669627 0.295258350409 0.0546494613153 0.191439141766 0.314085637541 -0.0763804417454 0.176642007649 0.229439358173 -0.04151948291 -0.316836948165 0.110499557827 -0.202309051883 0.316727246973 0.243640665294 0.118439977906 0.19433044707 0.00598501095953 -0.00600538538693 -0.225435039871 -0.204008157851 -0.274411694978 -0.296811210675 -0.292483777663 0.166785202235 -0.342977757415 -0.327108483395 -0.28834233194 0.229484430812 0.103146467882 0.0192478531859 0.164864135385 0.182431763066 0.368090861809 0.384747051878 0.15587602838 -0.361178578153 -0.25014399131 -0.299937860633 0.0822152008394 -0.107875785625 0.0862742542359 0.174532599171 0.310544318628 -0.23513488266 0.139433496752 0.28738756683 0.24279985553 -0.058306265958 0.148247325979 -0.0445879372548 0.0626852175373 0.249053793088 0.169775881022 0.0133358035192 0.395324155657 -0.196363827374 -0.137060221906 -0.281621393964 0.102703314004 0.277149710613 0.216716471848 0.155076056582 0.273180593489 0.0122464394272 -0.0384638103679 0.0920455270848 -0.130535929185 -0.0811218240253 -0.213097027753 0.0154358715151 0.32987384501 0.29621487132 0.233897858679 0.0486061693333 0.288593682431 -0.320853450438 0.000931198350859 0.204507197185 0.256409177139 0.0492781245492 -0.254938393745 0.180916575318 -0.352589229335 -0.0786439091839 0.1906158091 0.17968684491
samantha.law@enron.com -0.150691570872 0.0767476160628 0.0201166030925 0.133134792365 -0.128942231641 0.081087923219 -0.201251524352 -0.031669567637 -0.120291112823 -0.146273144358 0.228437024375 -0.0620138987742 -0.187285811991 -0.196163291779 0.165304880948 0.256396943303 0.0511682637386 0.147857791656 0.271285072374 -0.0542354541146 0.16899158996 0.209242175941 -0.0546742712515 -0.294682756262 0.101435011079 -0.163745381396 0.307740959383 0.227216252922 0.0969063829383 0.1624365138 -0.00142640496878 0.00127583209913 -0.185534129999 -0.178141859451 -0.233755673851 -0.257676963331 -0.261673790925 0.159745181703 -0.301086741381 -0.286701133731 -0.254435996297 0.21213449232 0.103540193682 0.0323227817387 0.142764486973 0.150574525482 0.319014669532 0.350144457472 0.132075007095 -0.319045563568 -0.218999719615 -0.25994767076 0.0814992508128 -0.0888567392772 0.0745149536581 0.144365848835 0.277921544018 -0.203179655536 0.120626200663 0.256570671174 0.208211947725 -0.044198293054 0.13187576909 -0.0641774223805 0.0499571900686 0.222752561236 0.145023360455 -0.0141291978907 0.363687164858 -0.17445697621 -0.140144305064 -0.244886704482 0.0847522239015 0.258392048368 0.208033329647 0.119636680702 0.24651354755 0.016084188006 -0.0277121148711 0.0970326987997 -0.102289507229 -0.0904955291859 -0.180985903396 -0.000787672416093 0.273429871558 0.261377250932 0.217688132599 0.0472810121459 0.271319842597 -0.305360858254 0.00798419595916 0.188720988326 0.221928391041 0.0261415397782 -0.216095461816 0.168716622562 -0.338790476609 -0.0714097900961 0.1706968007 0.173438320265
john.postlethwaite@enron.com -0.143307892184 0.0701219755276 0.0114150132195 0.140527461323 -0.135702820918 0.0719019549593 -0.201287403017 -0.0185177761251 -0.131068949521 -0.145527314114 0.232369476775 -0.0582880990789 -0.19712025775 -0.215150967251 0.160727168357 0.252385006993 0.0510436293327 0.145664293539 0.274106959071 -0.0501666044427 0.177216463491 0.200385459365 -0.0595984958681 -0.30163928277 0.103382163991 -0.163331801599 0.295141710309 0.226186004206 0.0893369242933 0.162258669182 0.00793955844366 0.00648992380774 -0.199746348306 -0.176054187639 -0.237193080876 -0.250075327562 -0.258918258005 0.145715565492 -0.326036987229 -0.289804975436 -0.2521013772 0.197573226564 0.109388500551 0.0258745090798 0.140640597968 0.156968494036 0.315213161965 0.347154767511 0.151178728056 -0.320599606941 -0.211530507643 -0.260892488332 0.0712153580364 -0.0968080914269 0.0781813863506 0.14931822396 0.275499310088 -0.201359217889 0.0994223646501 0.2764050568 0.212349797813 -0.0494444212408 0.141875556715 -0.0553212937551 0.0543305811519 0.221023528413 0.151376550031 4.18893009627e-05 0.351325395936 -0.171056504982 -0.138669505341 -0.253425463739 0.0920839892606 0.24224937937 0.196901292941 0.131995505299 0.247817016828 0.00359500185384 -0.00946287698294 0.0928051850125 -0.0998846033339 -0.0935936577474 -0.184250189936 0.0162099306106 0.284005967926 0.25913578019 0.216412865115 0.0342591952848 0.269934040691 -0.307083186316 -0.00170745140015 0.18718012545 0.227576190277 0.0237521039605 -0.22436719008 0.173951922289 -0.336787598535 -0.0639887635895 0.162539482212 0.169327638398
c..hall@enron.com -0.0871305145637 0.0170235953649 0.0539798810219 0.106325484725 -0.150780493993 0.059331214214 -0.101282187132 -0.02628547695 -0.0681716006052 -0.132440382105 0.193429483047 -0.0841219875554 -0.131300630889 -0.10427247698 0.108511185207 0.156729954688 0.0640674144719 0.0964176474314 0.170494171118 -0.0224220930124 0.130485034573 0.136736913697 -0.0957686551223 -0.260548095144 0.100997960647 -0.107297030521 0.264168384815 0.162288419112 0.0751583991391 0.119617458085 -0.0157684473583 -0.00928950090703 -0.130327225458 -0.126158673885 -0.141128132217 -0.169593736912 -0.171981968205 0.120234715054 -0.216064545221 -0.1655695877 -0.189151151417 0.166792943484 0.104838458939 0.0120384972385 0.0639913498879 0.0716867651098 0.25080114669 0.288932296427 0.0692416803413 -0.213444623013 -0.153249218937 -0.159762301653 0.0628872660148 -0.0502921773834 0.0401566299936 0.0961278804265 0.189367045518 -0.1289689885 0.0907215361274 0.213829373385 0.146505138755 -0.0310123718452 0.0810338481355 -0.0661391849741 0.0273663835153 0.167950286075 0.0840324381114 -0.0520232443203 0.268911810899 -0.11298104413 -0.0954147144812 -0.147634793211 0.0337623918262 0.181461981201 0.176052665762 0.0621601678899 0.195440220713 0.0119558600448 -0.0152677782129 0.109837687986 -0.041182438938 -0.0782035498262 -0.102425866519 -0.0382190179056 0.146245204917 0.170762054924 0.19314326348 0.0050114366846 0.229680944451 -0.230111675641 0.0266583390045 0.168693855816 0.130898475456 0.0124542573447 -0.152508099237 0.139319621858 -0.248552653466 -0.0501658364309 0.122241693718 0.132641463984
anna.mehrer@enron.com -0.119430928675 0.0407115008631 0.02075647024 0.124922967874 -0.139642396369 0.0651432253925 -0.155817078285 -0.0229605373327 -0.110635301324 -0.1315265307 0.210804361578 -0.0647968820418 -0.171944877847 -0.164374652467 0.13371430354 0.20167354841 0.0502116891589 0.116961727152 0.231773459501 -0.0331478494176 0.161820259566 0.163642178485 -0.0724779624311 -0.261662498769 0.100651794855 -0.125242772056 0.262953618923 0.186082142681 0.0664422013713 0.140985207383 0.00569896071495 -0.005787521587 -0.168140864382 -0.152010464607 -0.189535785323 -0.215239816 -0.213521513794 0.128138916657 -0.27780149834 -0.226708451576 -0.211710207682 0.16707471235 0.100591482584 0.0245761838168 0.103242222897 0.123622503172 0.277532674892 0.309121817341 0.116160468615 -0.2690657647 -0.169068611102 -0.216637581696 0.0560443035753 -0.086791092057 0.0602610782486 0.116308007932 0.232470814865 -0.161608313052 0.0780450627 0.253072439204 0.188306634245 -0.0370839803643 0.1169585225 -0.0544112959821 0.0574002007727 0.190100299562 0.108588370002 -0.0224185230799 0.303057770565 -0.14131419419 -0.120443364228 -0.212204409081 0.0696483861183 0.205340719109 0.188788847015 0.0953910707674 0.215319238444 -0.00178275929164 -0.00873297447943 0.100678575087 -0.0719021754937 -0.0859017893932 -0.149075663396 0.00276406047102 0.217579250428 0.222809288772 0.201561794384 0.0255729510301 0.241600334501 -0.269772190242 -0.000659085870472 0.171129245343 0.183526382779 0.00917613085426 -0.189661825524 0.164089606036 -0.294297909902 -0.0476496643317 0.134131144123 0.149578006303
mktstathourahead@caiso.com -0.109794374563 0.0188412819516 0.0365800523454 0.0795221606281 -0.125412361344 0.0803768547758 -0.0996996882441 -0.0651374368613 -0.0632539740211 -0.142259726859 0.176048750109 -0.107960463902 -0.129886112167 -0.0970270732971 0.108359419198 0.143617274381 0.0567659283269 0.0595576059973 0.195470252122 -0.0143529199798 0.146633778646 0.15442085347 -0.094856360441 -0.230409130518 0.0832246571765 -0.0863246243857 0.24564715531 0.140148357925 0.0392207325437 0.103189879058 0.00017450376845 0.00201221080046 -0.110331277126 -0.123686028972 -0.15184345298 -0.174099643971 -0.168834767583 0.114319395957 -0.199444389623 -0.183577144935 -0.166249626853 0.150240584778 0.0828030831518 0.033657808195 0.0610502764566 0.0836191210551 0.214036418042 0.268440955321 0.0844840107841 -0.212677783897 -0.146742659709 -0.15631538513 0.0536421788817 -0.0639974319771 0.050678125771 0.101794522538 0.180568888517 -0.113392988403 0.0738109160542 0.190735476671 0.165459775037 -0.0173568523981 0.0826589407473 -0.0581784339115 0.035164957328 0.1806544474 0.0954208170307 -0.0667008604343 0.266986382356 -0.131577322966 -0.102136113363 -0.162763573987 0.0545396411249 0.19511447713 0.172629974758 0.0641035311639 0.170090110075 0.0374755633778 -0.000488369851546 0.114958730904 -0.0229230746415 -0.0795653697069 -0.116085687826 -0.0387343277317 0.144106330213 0.175574821892 0.186713441858 0.0346617095638 0.208225044316 -0.241616426171 0.01520497068 0.145318059699 0.142147008532 -0.0219278091191 -0.14282438372 0.137046087931 -0.26270293924 -0.0407094711739 0.118062330145 0.121690379037
IMCEAEX-_O=CAISO_OU=CORPORATE_CN=DISTRIBUTION+20LISTS_CN=MKTSTATHOURAHEAD@caiso.com -0.0879972247068 0.00549616921145 0.0314358691076 0.0901999896496 -0.148763845228 0.0666047952229 -0.100674622282 -0.0440126421552 -0.0684813013767 -0.126514367413 0.180424568229 -0.0810828541915 -0.124159225617 -0.0987738717463 0.11051369604 0.123756525041 0.0492639734424 0.0581068519715 0.19245923448 -0.0181601397131 0.146297506162 0.13638035015 -0.0924952830762 -0.226204229655 0.098146643467 -0.09081760151 0.244111401016 0.137369271334 0.0340395164745 0.0971248940085 -0.00291356931122 0.00336160594474 -0.116246832078 -0.129136869497 -0.146026515125 -0.167050347815 -0.157109959256 0.0982183430536 -0.203153353058 -0.165693035176 -0.155640289503 0.138540233496 0.076454216254 0.0297707622231 0.0612600862509 0.0749774378731 0.205091650657 0.25785639855 0.0827093017264 -0.193346784165 -0.134335828592 -0.148761979298 0.0375931634956 -0.0757316062134 0.0560706611068 0.0981552733717 0.168051737171 -0.116002965867 0.0466981351354 0.204926159528 0.155131981171 -0.03208915605 0.0805526462476 -0.0424644245566 0.035252148503 0.159546906436 0.0874631755914 -0.0483014247161 0.247568343526 -0.125225764162 -0.0892857357607 -0.167859206146 0.0557873706561 0.178384413002 0.161905501963 0.0807041016672 0.16765170829 0.0291413342384 0.0194721075964 0.12024781264 -0.0222138107866 -0.0972997827455 -0.107136028352 -0.0318819864392 0.146358608384 0.169753910467 0.182882052369 0.0233996011809 0.212539025577 -0.233703275571 0.00619848090871 0.13412383053 0.140115801156 -0.0209077509208 -0.129685870514 0.133084910036 -0.246722729025 -0.0375557482761 0.11305709295 0.118148986282
debra.davidson@enron.com -0.129599141078 0.0436879560881 0.0144849799893 0.0721354235269 -0.0719657831417 0.0741252926944 -0.13667752762 -0.0514505659509 -0.0834188988965 -0.119264822067 0.152731862646 -0.0774433944562 -0.124532813447 -0.128667439287 0.113296045954 0.176685082647 0.0460930356625 0.0818811850837 0.191734953811 -0.0350570557623 0.118358561584 0.161938943371 -0.0413049168119 -0.210304682538 0.0610658140637 -0.0965977717341 0.204645636015 0.144284468468 0.0592903886023 0.114157960302 0.0103154106169 0.00194100097168 -0.125486219409 -0.107151573767 -0.177978314003 -0.176021375098 -0.18520935891 0.126909118817 -0.204366838819 -0.210797986201 -0.178033033564 0.139537335803 0.0676459417073 0.0321376955961 0.0895685413854 0.111267521955 0.231398966983 0.244166458336 0.082413988401 -0.214136840367 -0.148441730935 -0.166540303421 0.0559867165584 -0.0558840816051 0.0483156539625 0.102178061294 0.189795744077 -0.134153883064 0.0927489024057 0.161971968605 0.155440923393 -0.00328224593317 0.105993646089 -0.0546787207244 0.0432307491995 0.174576603479 0.114348151442 -0.0247149561398 0.254734776191 -0.123198891335 -0.0919319434875 -0.16904445904 0.0414158529026 0.193807900404 0.157550278804 0.0686674050818 0.17557414417 0.00688307689258 -0.0356551010916 0.0757899844477 -0.056949340032 -0.0460679950278 -0.127520579999 -0.0137172287488 0.184977223762 0.194875818548 0.156101314458 0.0446370517577 0.184503109149 -0.229895496242 0.0257806916941 0.134767061467 0.145208876686 -0.00714471653044 -0.15534181456 0.120055673643 -0.241970059591 -0.0527600213701 0.119809196924 0.106348262575
bert.meyers@enron.com -0.0349559480929 0.0202854914009 0.011563348353 -0.0252625675538 0.0630913666906 0.0747015933282 -0.0273749285912 -0.0087858001939 -0.010638654491 -0.0477898504265 0.00954166378943 -0.0454098492298 0.0201823971957 -0.06460205884 0.00600714518078 0.100804691214 -0.0159167930965 0.047176947804 0.0287284958282 -0.000269154528904 0.0136271771894 0.0859430057412 0.0457853376856 -0.0675302780338 0.0155156304531 0.0011789029346 0.0279126034493 -0.00412392871733 0.0306467125552 0.0690415911186 0.0103811146451 0.032351922901 -0.0505791062764 0.0749766635079 -0.043335018979 -0.0297410431075 -0.0877730361642 0.0837233651473 -0.0303725545219 -0.0766311074415 -0.0541441137791 0.010257717821 -0.0170092566802 0.0312524162031 0.0279292600461 0.0507882119816 0.0584769944651 0.0369350260243 0.0194965907125 -0.0521960811716 -0.0535474507207 -0.0290145940969 0.0338460777654 0.00641760624336 -0.00665475446393 0.0187804002637 0.0607542089536 -0.0240747066866 0.0854188865145 0.0298827885688 0.0483007768729 0.0600594287756 0.0430312232256 -0.0238661694379 0.00887555871896 0.0721783870234 0.0839606264773 -0.0242584974306 0.0761189622448 -0.000899948663667 0.0148452994193 -0.0207312001054 -0.00340314808042 0.0281802233536 0.0130180978445 -0.0648658058464 0.0643916424082 -0.0517366646734 -0.0593107101091 -0.031060037874 -0.0206346086506 0.0650117410263 0.000926319212193 0.00567349909965 0.0493945564615 0.0651919963544 -0.0121793574031 0.0551304042885 0.0119957341023 -0.0582686214019 0.0486665039287 0.0031459878218 -0.0004992163274 -0.0168900813374 -0.0770017735774 0.000290167464117 -0.0200476995492 -0.0221881644212 0.0511627475635 -0.00233974173275
p..oneil@enron.com -0.0622252256685 0.0207011318956 0.0029379737697 0.0335018037025 -0.0483253812811 0.0407463861414 -0.0569853795287 -0.0301254023525 -0.0332897505269 -0.059816720606 0.0656415850795 -0.0481786786326 -0.0698609524736 -0.0349589795795 0.0435172213556 0.0642794959834 0.0250519241158 0.035209004402 0.0995290877919 -0.012753036854 0.0533793149048 0.0669063323449 -0.0431440707306 -0.0714997703392 0.0253454509998 -0.0476605953556 0.111124747484 0.0641815647957 0.0166103101145 0.0391140544191 -0.00175493395011 -0.00350414682306 -0.0283003827823 -0.0784861514013 -0.0678201747876 -0.092889812015 -0.0625785222004 0.0343354699443 -0.0712401216798 -0.0836410692829 -0.0686040910354 0.0767061241922 0.0416175711597 0.00776448449785 0.0326845368224 0.0219309277986 0.0969424002211 0.107298165468 0.0399061488686 -0.108085480627 -0.0586726123271 -0.081845440025 0.0247743341039 -0.0147524060369 0.0138259367393 0.0374599985669 0.075279055655 -0.0451953795848 0.0374919536378 0.0691191844797 0.0748805354403 -0.0111360439778 0.0314172189492 -0.0267899355678 0.0077748475683 0.0832365861448 0.0353640340569 -0.0144591542108 0.112422730496 -0.07549689125 -0.0614778326805 -0.0623098853344 0.016408884387 0.092594172745 0.0707497928957 0.0392642072994 0.0552020263881 0.0342359265014 -0.00546468702521 0.0505294872225 -0.031091500408 -0.0419346385269 -0.0683507161143 -0.0184969916946 0.0572791039449 0.0644034160217 0.0935004221669 0.0118588260508 0.0765507644419 -0.0950888640724 -0.00547908919099 0.052279889196 0.0646598843848 -0.0131573836227 -0.0493847877718 0.0437985188893 -0.110848365053 -0.0191341287224 0.0453355392203 0.06744075382
stewart.rosman@enron.com -0.118872240586 0.0573416179627 0.0249501334122 0.0821002266485 -0.0821503627444 0.0637687991475 -0.116381222663 -0.0444712513641 -0.0563699633113 -0.0965709972529 0.127608802806 -0.0742208348288 -0.13554624195 -0.0757805857399 0.101004485721 0.152775560936 0.0447492384261 0.110662021286 0.184635385573 -0.0471495435135 0.0818062548304 0.130641426451 -0.0506194419424 -0.152001829807 0.0265403982985 -0.132412936777 0.208508392228 0.151965649086 0.0795766088271 0.0899379949486 -0.0333423967391 -0.0118247534792 -0.0690716977365 -0.149853042707 -0.155585174492 -0.185109551015 -0.144779106249 0.0816764581313 -0.130191274865 -0.1829089287 -0.159853344178 0.182844206949 0.0722237627609 -0.00610679842624 0.0719018785683 0.0505885218623 0.209684404124 0.221528432193 0.0631866783048 -0.209858715486 -0.130824503258 -0.163209472217 0.0705173214178 -0.0157164488468 0.0361332193127 0.0838372234183 0.153335164299 -0.110754509421 0.103972328665 0.108780816751 0.131117542425 -0.0361106039638 0.0616251525394 -0.0497921423887 0.0144197164154 0.150237855696 0.0758170160811 -0.0147025411486 0.212397295564 -0.154260809644 -0.112215910735 -0.120851650405 0.0382693546332 0.187728446 0.136422777917 0.0774115233403 0.118620183065 0.0659798806662 -0.0501449543268 0.0737133536869 -0.077339708655 -0.0545216329689 -0.145450529556 -0.031024932876 0.140058919803 0.129514840042 0.161947731018 0.0246076779552 0.154540358243 -0.17693401418 0.0108337581952 0.116249606655 0.117996931278 0.0169170655432 -0.110260670784 0.0654368023127 -0.206315399576 -0.0703799621832 0.10457663239 0.140136159379
jill.chatterton@enron.com -0.0614833353262 0.00795977843538 0.00435255665333 0.0387480810475 -0.0499522278352 0.0520743860112 -0.0554172943689 -0.0383609596277 -0.0384338497757 -0.0716036798859 0.0877182794824 -0.0568759084311 -0.0840124555894 -0.0546767701972 0.0595595241512 0.0818288447287 0.0229142637547 0.0292372018425 0.117339688161 -0.0097640365679 0.0716425371603 0.0933796561464 -0.0397091499918 -0.100772947647 0.0403650095233 -0.03973225243 0.119205547126 0.0576188724955 0.0139691491597 0.0631685130255 0.0158745735673 0.0116178930464 -0.0579782045912 -0.0700157034206 -0.0910680773401 -0.0994937712418 -0.0782536342935 0.0577506761771 -0.110524777821 -0.103560099616 -0.0886020391416 0.0725729980791 0.0335851015405 0.0155892831531 0.0351815106486 0.0465178596562 0.121085485582 0.130909201704 0.0544038482527 -0.113282886275 -0.0702890778852 -0.0889625996972 0.0209780250939 -0.0365836092692 0.0202157269266 0.051535180844 0.0972600842842 -0.0587513592732 0.0323013053312 0.106387531226 0.104833358721 0.00307541717971 0.0456437138677 -0.0299696265917 0.0324553913248 0.101541013731 0.0607661539946 -0.0231160034255 0.134300378588 -0.0824308821971 -0.0444052575619 -0.0977136179336 0.0223849475409 0.0961958619657 0.0824852400332 0.0425061437532 0.0826040465647 0.0225908121278 -0.0107201739951 0.0541064204532 -0.0254020703676 -0.0298902543154 -0.0728275643774 -0.0175960821158 0.078593627751 0.089415550782 0.0984015132293 0.0262422269295 0.090389728322 -0.128095820972 -0.00444440626144 0.0567543267182 0.0649696452491 -0.0294910602971 -0.0627930444725 0.0599433782641 -0.12315179282 -0.0161273367891 0.0479817384422 0.0550287220643
Worldwide@ENRON -0.0570934560217 -0.00740401722447 0.00462526292939 0.0540353815196 -0.0909065478731 0.0555031830945 -0.061960857406 -0.0429938825612 -0.065614511415 -0.0908620195652 0.11724999194 -0.0596736669264 -0.0721944093719 -0.0964500465121 0.0758525430785 0.0982080752694 0.0203253062328 0.0329121355286 0.148140049453 -0.000885877689896 0.125069696934 0.104435129011 -0.0495838485097 -0.158836074453 0.085446902992 -0.0378758608464 0.146080044256 0.0739250116916 0.0164434447875 0.0871031446917 0.0235417133282 0.00911449891925 -0.111384925889 -0.0558261902416 -0.104972176078 -0.112352640422 -0.119485146767 0.0842849262939 -0.161353995613 -0.125108667844 -0.0997843071277 0.06908666856 0.0345676880807 0.0371102387637 0.0456846149233 0.0822186309235 0.135995574719 0.178226900405 0.0730271767893 -0.128487602532 -0.100564816909 -0.10063542446 0.0167291352156 -0.0766593119411 0.0444684560284 0.0791198755914 0.129529958246 -0.0866053528057 0.0219953786091 0.16469517531 0.121415473694 0.00283106347707 0.0546602267478 -0.0176316757496 0.0344382284697 0.10609171242 0.0769176745231 -0.038262942804 0.184949724331 -0.0699580012312 -0.0336978939769 -0.137251523264 0.0581796838903 0.12500052111 0.114792366286 0.0518221194519 0.146165950001 -0.00902909953317 0.0211965309598 0.0792541575478 0.00117905872268 -0.0551051230061 -0.0681862061949 -0.00833833987096 0.111821665491 0.135376598779 0.105437665723 0.0335181358238 0.138851006069 -0.178760964946 0.00294175513841 0.0944563743645 0.1075826676 -0.0214762402127 -0.112657643091 0.106785173831 -0.178188389835 -0.0148642712365 0.0909779826854 0.0505126578247
alan.comnes@enron.com -0.0624320883239 0.00876480138362 0.015966318347 0.069887165626 -0.112033504976 0.0508233771463 -0.0878297061896 -0.0490093152417 -0.0488796242849 -0.0858388717742 0.135562217507 -0.0533030816431 -0.100987748371 -0.0697044956274 0.102037083874 0.10751722859 0.0423020978995 0.0515369713192 0.151420959476 -0.0339056514902 0.0935195778138 0.107482477698 -0.0549656826706 -0.159600666153 0.0658875327411 -0.0904831610766 0.180397228658 0.107915948114 0.0290804926021 0.0861615814875 0.00726443896708 -0.00248744838143 -0.0966210585965 -0.100146735677 -0.114884461198 -0.125916845813 -0.120004387871 0.0809107146771 -0.16489261784 -0.135237602828 -0.106232992802 0.119028176036 0.0527959928052 0.0132476361536 0.0494257031682 0.0673241617168 0.160094696319 0.189420843146 0.0721378153962 -0.142980111993 -0.115873246585 -0.114260941707 0.0256025998866 -0.0669240141737 0.0453952630293 0.0946805213924 0.143919981766 -0.0883783792456 0.0401683582149 0.142281179481 0.129420451941 -0.0280308726112 0.05854966557 -0.0214817503919 0.0154259372367 0.113390688039 0.0767500567107 -0.0209047782978 0.199268052053 -0.103350275635 -0.0470966148076 -0.135384651146 0.0488596455317 0.143310552428 0.113543645215 0.0770506788731 0.126921569496 0.0348040623338 0.0197702321236 0.098559050193 -0.0307601769049 -0.0552359605382 -0.0837364344255 -0.0340011101192 0.123789679862 0.128894051251 0.133707156908 0.0129636246743 0.157210205105 -0.156570419921 0.00338222190111 0.100013614742 0.115041003311 -0.00961606260919 -0.101547561505 0.0982828213379 -0.181240401612 -0.02446347411 0.0862509610764 0.0815576119235
20participants@caiso.com -0.0831958532351 0.0265294858443 0.0145889696592 0.0780362052125 -0.0948406512304 0.0561826337539 -0.0933501345779 -0.0336605691234 -0.057012954435 -0.0995516884194 0.133799212745 -0.0676909869249 -0.112481599629 -0.0841152393327 0.0905935992097 0.112566592489 0.0406178016191 0.055948173059 0.159988695516 -0.0187794405175 0.0996510392301 0.114091626657 -0.0589322518814 -0.159245382014 0.061026568382 -0.0827385986659 0.185495498253 0.116467943928 0.0321145787056 0.0790540352503 0.00363708918893 0.00500232061764 -0.0795778644373 -0.110347993193 -0.121940807675 -0.141212932038 -0.124919648477 0.071858783126 -0.156151900099 -0.144308799889 -0.124131227794 0.123941226263 0.0587293278918 0.0150971944792 0.0576526374959 0.0606151194181 0.165768452532 0.191622060588 0.0797592950887 -0.163971262486 -0.103859000665 -0.138580473292 0.0275051692603 -0.0511023941508 0.0302824840633 0.0786127842315 0.138678715853 -0.0961286241624 0.0461563258637 0.147293175945 0.133639011373 -0.0297350983582 0.0644123414525 -0.0394285202162 0.0202132598655 0.129587352879 0.0691412851431 -0.0185218933244 0.189439213377 -0.109740888117 -0.0792411972157 -0.131468736503 0.0458214611904 0.144325373919 0.120360023972 0.0728722261023 0.112191943515 0.0399688141188 0.00439965101273 0.0867941359471 -0.0450021534317 -0.066582358993 -0.104844359167 -0.0253727123447 0.11767436649 0.129149856573 0.146453160851 0.0172050432671 0.143526552891 -0.166922122383 -0.00498678104157 0.0955926248093 0.116140001441 -0.00331366044785 -0.0947848245368 0.0909456489694 -0.192202159644 -0.0288021663752 0.082041199585 0.105335948436
IMCEAEX-_O=CAISO_OU=CORPORATE_CN=DISTRIBUTION+20LISTS_CN=ISO+20MARKET+20PARTICIPANTS@caiso.com -0.0582052013265 0.0145405269635 0.0109983053244 0.0581446153055 -0.0816254928676 0.0393106651782 -0.0672796523887 -0.0322237557895 -0.0392668069279 -0.0709270548849 0.0950162818736 -0.043049400183 -0.0884434436323 -0.0611309718733 0.0751397803381 0.094223483475 0.0271191546431 0.0598644380187 0.129494973327 -0.0253074696972 0.0757129136127 0.0850225113327 -0.040605789988 -0.109929845232 0.0436035498306 -0.0661607825289 0.135670753117 0.0826637155809 0.0266372297228 0.0666347882501 0.000508970206852 -0.000510018635137 -0.0678703688614 -0.0893879302486 -0.0964956262098 -0.113714198836 -0.0921923482035 0.0578235786331 -0.111078734942 -0.115480049625 -0.0951417029264 0.103190385029 0.047071005896 0.00275204155756 0.0434052808099 0.0467394387514 0.126838491062 0.144871797702 0.057914581165 -0.123165159093 -0.0827467697392 -0.103168630972 0.027899391677 -0.0371482693508 0.0315994015155 0.0676840398329 0.106420951404 -0.0741740990106 0.034878362209 0.104307832906 0.0969755305224 -0.0235075052775 0.04189696615 -0.0248095764184 0.0203095929412 0.0971764446397 0.0563087165033 -0.0116964515854 0.14665425556 -0.0855604772691 -0.048025653768 -0.100927913064 0.0418417791502 0.116162699096 0.0933540400571 0.0641102189934 0.0940756888552 0.0317741436226 -0.00310289998165 0.0634735691581 -0.0312339057233 -0.0502550993388 -0.0806717464696 -0.0117744339655 0.0924009948592 0.0969467367689 0.101808107844 0.0158487508442 0.108922474485 -0.124068906441 -0.0050326792818 0.0798025600777 0.0875210438515 0.00204178741187 -0.0738188134888 0.0653002461263 -0.138941903044 -0.0275094495556 0.0612319567299 0.0662984236844
christian.yoder@enron.com -0.0752790826359 0.0151535722931 0.0184819596504 0.0876791963071 -0.10737127246 0.0595248189739 -0.0892091011939 -0.035204963198 -0.0735912953829 -0.101800756977 0.148354467527 -0.0753039037767 -0.123908110036 -0.0945674447577 0.0909778447936 0.153884878574 0.0415345701137 0.0740570649494 0.154494078898 -0.0244672295694 0.100539774626 0.12011831659 -0.0452689559367 -0.183996005137 0.0794742200459 -0.0701933890185 0.183826061594 0.102251867728 0.0316349187244 0.125655663263 0.0223505046333 0.00822493996803 -0.113345171386 -0.0896903456262 -0.133625601487 -0.151771447528 -0.126879995879 0.103008358203 -0.185274101507 -0.143690853637 -0.144878760348 0.125497136704 0.0664593045508 0.000713028776075 0.0544903047334 0.0663332573389 0.215245385049 0.213141554128 0.0687268657277 -0.1765669895 -0.122523299578 -0.132867860343 0.011778404952 -0.0603319428606 0.0248645870263 0.07346314725 0.171710750182 -0.100238879532 0.056512567764 0.180280904989 0.159959744864 0.00117071659751 0.0830652627092 -0.0558925138293 0.0478590096654 0.155225212208 0.0878862458039 -0.0254531737069 0.205539932504 -0.0946965584753 -0.0468289854688 -0.154743519409 0.0359851386967 0.137190927527 0.126500067251 0.0478346196925 0.149119943382 -0.00943343468879 -0.0184722050431 0.0856508716917 -0.0366754436687 -0.0371238173016 -0.0839032245006 -0.0205242288492 0.127017105666 0.156250827002 0.144215939796 0.011209481135 0.150214505539 -0.169176112052 0.00579970344447 0.117394008472 0.0960534632464 -0.00968787523069 -0.122710435339 0.106455043909 -0.183044534922 -0.0378265163482 0.0768334373476 0.0813892216117
chris.stokley@enron.com -0.0948327279141 0.0624121172063 0.000633462718141 0.0618922700173 -0.0509364386242 0.0667817241798 -0.129528089143 -0.0279653934501 -0.0595085594867 -0.0768710396071 0.10104641057 -0.0370836486595 -0.105796127419 -0.104416282575 0.0977252937325 0.154916501877 0.0221466106522 0.113291262482 0.166362115877 -0.0447902599011 0.0784399191559 0.128169325183 -0.0104796094252 -0.124297133201 0.0260266986067 -0.125476725901 0.172638941407 0.131287029963 0.0724941676159 0.0810885393722 -0.0147450440718 0.0034528858468 -0.083158662543 -0.111882833223 -0.132654630854 -0.160038292938 -0.141837954893 0.0802564968646 -0.128990721071 -0.174077997606 -0.145563696735 0.149871148334 0.047706555495 0.00707848688825 0.0877556087577 0.0706456010176 0.172062286556 0.177983335392 0.0809031394223 -0.185824404999 -0.12158793105 -0.158716449075 0.0707233245146 -0.0226495627651 0.0399335374208 0.0886878080383 0.14511608963 -0.109617791397 0.0898832238753 0.102293828956 0.124905538941 -0.0339554974876 0.0644861813311 -0.0197623901182 0.0126231691976 0.130438907743 0.0936175123889 0.00192247826666 0.198415799649 -0.123923511988 -0.0912762589154 -0.114741055496 0.0479268398649 0.152935190142 0.105865145381 0.0788655163426 0.105347922167 0.0398875662548 -0.031897016818 0.045869433761 -0.0868159257066 -0.0376435943836 -0.134185651274 -0.00970102580542 0.158306842625 0.125877431543 0.12071428873 0.0277347476188 0.12926592747 -0.158774973453 -0.0003363854698 0.0898285478101 0.133660495756 0.0173724064102 -0.105295403674 0.0605116223274 -0.179840164941 -0.0497630072805 0.0947734155203 0.113771680978
40enron@enron.com -0.0512194227182 0.002967127032 0.017862198243 0.0594876705878 -0.0959199426966 0.0397219940435 -0.0669097646816 -0.029556003164 -0.0543904783006 -0.0805791020339 0.116370823367 -0.0420244844132 -0.0728099223712 -0.0855473629897 0.0692263054226 0.0876423753226 0.0308964413151 0.0407579297181 0.122797077612 -0.00722851528044 0.110987065096 0.0937086443277 -0.0575182517621 -0.159021619687 0.0702591197135 -0.0569248555093 0.156635540306 0.0939094539121 0.0308160275534 0.0744544958912 0.00339947912488 0.00091587872696 -0.0933297251933 -0.0643422932521 -0.0901462540491 -0.104829375177 -0.110270822655 0.0759330320968 -0.146960687962 -0.118537237739 -0.0953909415331 0.0763960737355 0.0495027566645 0.0316843849207 0.040928203748 0.0703651738061 0.139146362077 0.177287228478 0.0593612708126 -0.121280100743 -0.0962342208488 -0.100285460199 0.0350915879326 -0.059341268033 0.0392319933231 0.0788508538737 0.113344935951 -0.084609016008 0.0299993091877 0.145804065893 0.0988684119924 -0.0238418903613 0.0506608499763 -0.0223615145415 0.0226904714635 0.104056940705 0.0571814712298 -0.0388105930533 0.173204812674 -0.0703624930962 -0.0440907615982 -0.119061940329 0.0443556260826 0.112385496393 0.113405748729 0.0500565650436 0.129006638106 0.00778768651174 0.014905513746 0.0790430245535 -0.00485055184469 -0.0602471512531 -0.0631372289297 -0.00979586129305 0.105888447586 0.123890609257 0.111370650618 0.0209165096783 0.148812802963 -0.164955283275 0.0106481351715 0.0972452042296 0.0996932977861 -0.0044785041911 -0.105538790932 0.0983584204611 -0.172152484194 -0.0205140249146 0.0820875336834 0.0647377289319
jesse.bryson@enron.com -0.0895671308972 0.0305175873201 0.0125478684435 0.0940978150799 -0.116357484495 0.0561395968356 -0.123392318449 -0.0270496646164 -0.0809607994491 -0.0956788673641 0.155381434092 -0.0519920604657 -0.130211750458 -0.110079213694 0.118306645508 0.173284550282 0.0465294741472 0.100148437641 0.186580510535 -0.0482407324707 0.1062692848 0.136088693245 -0.0338612210323 -0.184310110479 0.0679349324469 -0.11431248827 0.199826157278 0.135125163835 0.0554066309066 0.122617560341 0.00604763079202 -0.00217324473536 -0.117858159796 -0.116955626462 -0.150592618726 -0.17558500908 -0.152699762602 0.101859565568 -0.197375849152 -0.179570305219 -0.15972753776 0.14892044482 0.0664833287618 0.00537820806791 0.08156470222 0.0878646925823 0.217158118356 0.229718509166 0.0881275935042 -0.199146959293 -0.142873140164 -0.166715607458 0.0378451458811 -0.0613553167597 0.0396530016345 0.098072078253 0.185129049641 -0.118736580547 0.0737836932899 0.166699922205 0.158770024232 -0.0278492596854 0.0832444262942 -0.0360986443056 0.032491651789 0.153940213099 0.0980131227799 -0.00571494178753 0.232594484955 -0.119230176014 -0.0697991428578 -0.160395613406 0.049142579577 0.166327488567 0.128295466705 0.0808177145247 0.160472497064 0.0235394721101 -0.00813943350095 0.0891718605884 -0.0681291947052 -0.044703027062 -0.1140576947 -0.013717515631 0.177218146332 0.156918937976 0.150621441603 0.0104699908451 0.162742920475 -0.180732516612 -0.00209982996167 0.117608183897 0.140679512535 0.0157876696642 -0.129075767433 0.106851896291 -0.204243426901 -0.0488335018443 0.0941516212943 0.1085036265
kathryn.sheppard@enron.com -0.117245969197 0.0558018125908 0.00869102932504 0.100807513298 -0.0893642321061 0.0743218435311 -0.148967760665 -0.0352075844665 -0.0849419045334 -0.120204007106 0.170890311319 -0.0710596444699 -0.142351125077 -0.147048938439 0.123033570888 0.205738516326 0.0389721777191 0.115095094443 0.211730759176 -0.0383807177574 0.12384287311 0.16654373311 -0.0420071691783 -0.21603855018 0.0701142516163 -0.122457025499 0.233630277636 0.157032746628 0.0676193617564 0.127886481695 0.00383794503626 0.00103127607238 -0.134966007672 -0.129713282352 -0.185087098537 -0.198184402339 -0.199017853391 0.125505309093 -0.222368246028 -0.223915187413 -0.197778379269 0.164232032379 0.0748603144452 0.0130128332689 0.0994031123916 0.10815835686 0.248339533244 0.264639653595 0.107561681646 -0.248408510384 -0.159707726556 -0.198158730205 0.0598255518765 -0.0632884175532 0.0539825973778 0.114631881382 0.206523358648 -0.14819106522 0.102954912412 0.188547730577 0.178065093531 -0.0234768057892 0.0998345242464 -0.0498872504131 0.0429090756814 0.180847911316 0.117486483956 -0.0140825694322 0.267633446965 -0.136032938177 -0.10276346539 -0.177434546369 0.0646197676786 0.199047105883 0.152918540456 0.0855951310056 0.182380904107 0.0106619846406 -0.0320709537627 0.0689300693249 -0.0857986394643 -0.0600766936389 -0.140342801257 -0.0035109166373 0.199191400173 0.192580715237 0.16487144283 0.0391380766748 0.190115558756 -0.233145796054 0.0151771807447 0.137795650898 0.158792157246 0.00640353776588 -0.162505050983 0.12228371941 -0.253847024425 -0.0627154381194 0.124255035809 0.132535608169
