1413 100
<unk> 0.995426276051 -1.37779077823 -0.150624169412 -0.505365205539 0.317955133663 0.0713538364889 0.146423932923 0.343640694544 0.77728256902 0.312894328068 -0.0550095181062 0.179900238848 -0.0901141136594 -1.13281967959 0.293376626541 -0.416074084539 0.28491948034 0.692790046096 0.428317554313 0.00903632518126 -0.0972345492163 0.0908801828555 1.58548094072 -1.18112906947 0.173114014581 -0.558606381797 0.17448620197 0.469941418726 -0.864240607531 0.529994538579 0.481743801521 0.583005810564 0.746569809868 -0.0173214158697 -0.88317336181 -0.118395655106 -0.43969921762 0.125276339587 0.238874750651 -0.628489088482 -1.34477693342 0.533765467349 -0.549259503747 -0.329451348762 0.203282906215 0.732608575515 1.53394549993 1.10221640648 -0.413192029408 1.16556103837 0.0962445560577 -0.0105855760136 0.9398794126 0.662582876262 0.145309906272 -0.216647550222 -0.0932162442037 -0.856760044484 0.262144757904 0.499575932934 0.882813004557 0.157476798557 0.295219935957 -0.705146781281 0.100429971804 -0.045509294282 -0.249664352251 0.365871961251 -0.104994990744 -0.0462143269348 0.23759573266 0.683253501476 -0.398342150296 -0.29188045388 -0.0602677569336 0.564328106954 0.19040230914 0.606767646247 -0.136510890603 0.0143728002589 0.136034620546 0.360135419984 0.684516715194 -0.0586990474399 0.402091429692 0.148648180367 -0.653796264447 -0.436851910221 0.975952340079 0.651580367572 0.0703870549298 -1.58222224504 -0.2977111117 0.508495760198 -0.127067025214 0.385759238275 1.18619393643 0.644272926185 -0.504539290724 0.090382945139
<bol> -0.182995126199 0.931701847567 -1.86748429823 -1.07499456703 -0.147747026551 0.158335615783 0.0697643992645 2.18772203974 0.55378568234 2.60615275064 0.0749355646497 -1.55796837656 -0.60734249252 -0.708757344754 -0.884501066812 -2.73039418128 2.7395874448 0.94190110558 1.19345922955 1.56925015363 -1.28892567006 -1.21264656441 0.874566709927 -2.6188601595 0.287175961049 0.162599948535 -1.54704710408 0.846003882399 -1.05353549936 1.75306209698 1.34739358515 0.998401886706 0.528291227112 0.58771008892 -1.31900630338 -1.57510102984 0.85604285182 0.731584741184 -0.654964281176 -1.16703898117 -1.81975542931 1.75333505545 1.31947739958 -1.02338527903 -0.847951393815 -1.55010267118 1.69962194863 -0.0474727493654 0.332922050566 2.64717450953 1.81731387939 -0.339921553543 1.07154261624 -1.69439624948 -0.177260907578 -1.81126555823 0.253069203928 0.151948593122 -1.79645868596 -0.24314762853 3.11030029138 0.661424514175 -0.0705391184311 -1.74863906598 -0.335189338443 -1.72083736873 0.566393378537 1.27583768528 0.350431935509 -0.0323316252447 0.718418767732 0.131834212486 -1.17325288158 -0.572031514694 -1.24255958454 0.34168711932 1.65984447689 0.12128267078 -0.363165773199 0.224753202684 0.783973773782 1.04790037858 1.28776663229 -1.28418147232 1.46239738656 -0.811419393769 -1.23306088202 -0.774867999615 1.81209837729 -0.0521932763142 1.03009362785 0.0187499347741 0.530695148231 0.345749062938 -0.591801526631 -0.100711472464 1.98324870133 0.642002433239 -1.91751601687 -0.808992085106
<eol> -1.3419570221 0.00646529457728 -0.28393116129 1.45978344408 1.50867737313 -0.850063954996 -1.1127708385 1.28734607738 -1.03666287105 -0.978334288965 -0.571808199225 0.30325937654 -0.114864719226 -1.01851416701 0.0253239098594 -0.701342599636 0.59005852975 0.259907167408 -1.41087676028 2.10355914578 0.911433027263 -0.906474060911 -0.66659319623 1.14411871358 -0.796000225882 -0.0950089211068 -0.0564963134389 0.755606990533 0.911130819093 1.93219413446 1.65234981533 -0.389693886656 0.272909948544 2.24371201713 -2.53098344317 0.00258239932858 1.52669008548 -0.119943521687 0.582240227092 1.6940846473 -0.400503542882 -0.303927514716 -1.3037038512 0.897544548925 -3.47544790747 0.111179991989 0.750917514793 -3.02343592849 0.370770322532 -0.0791267946726 -0.740371712015 -1.72182147136 0.775339614933 1.89752712358 -0.532290367437 -3.29237410198 2.54777662656 -1.03488605842 -1.83161304268 1.42366835727 0.983062463175 1.73375778224 1.38070076591 -0.387586828927 0.0848175602641 1.68618313014 0.766692616007 -0.00981782378451 2.19896883851 0.337488098105 0.18390350681 0.326872395186 1.10197285025 0.982008239582 0.61015905971 1.56207717947 -1.54359694054 -2.23210724837 1.47492342954 -2.1963878044 3.63301369667 -0.551295551223 1.48924270495 -0.692153461455 0.172712496477 -0.321436322727 -0.296523342415 -0.170335472647 3.88706561115 -0.604777734505 -0.132917770431 -0.351092540818 -1.07205621116 -0.755700052829 -0.60247353423 -0.795589820574 2.68289430117 1.02829856176 0.047780875487 0.533561261191
Pete -1.03020931786 -0.908152205935 1.71018650314 1.02255998441 -0.345883730294 -0.886027427138 3.06849904958 -2.62354791433 3.78871789076 -1.4725010362 0.778511654304 -0.278005827509 0.946606710148 -2.12995171417 -0.113920952756 -1.4048568096 -1.54278244116 1.16489708058 -0.584168148277 -2.68536759592 -0.757303376259 1.44273945845 -0.123642581983 0.583414373624 -2.80731501962 -1.17836236518 -0.476214826163 0.0134410586652 0.545499223053 0.882079239424 0.165383323717 -1.45060936162 0.586210849529 1.48431693124 -0.0312891166505 0.768149051206 0.657653622194 0.750873246359 1.51968516308 3.60378553199 1.68503183648 3.69618984982 -2.36899347137 1.0871067932 0.510298267211 0.398558454562 2.4121050082 -1.38580257911 2.28322006878 1.60549711001 1.88923359607 2.07067485203 0.84219177271 0.91099153869 0.147513065213 1.90346340718 1.80746420276 -1.97406488776 -0.830666350839 1.24085113454 1.7567896172 -0.163434933721 0.516291060414 0.589841080427 1.23700205404 0.429057448977 1.42845141056 -1.48284980902 -0.85585907452 0.230166974687 -0.462189475973 -1.38816218567 -0.397938226849 1.48691850838 0.406455671399 0.149804757897 1.39676283942 -0.673485157221 -2.29955602498 -2.258264627 0.92852226422 -3.32785557907 1.61448646805 1.31101111595 -0.295072469461 0.358682813174 0.410873312282 -1.52689560148 0.235431827623 -3.42191993469 -1.35469122097 1.49556595076 -0.123281902708 -1.42610867176 -0.41455755447 1.03509654002 1.08018826061 -1.837908053 -3.30431692305 -0.180189390113
Bill 3.05247512013 -3.57246594981 0.861652289197 -1.21325268901 0.0775268512484 -1.10684733448 0.829690105237 -1.19499023865 1.29019534553 -1.42565317014 0.355944415998 1.23965075888 1.06326012984 -1.51570228276 1.55484822903 -0.469562924901 -0.650721736698 1.92387138599 -0.226132478032 -1.08006234073 0.491439126677 1.27076324998 1.94949575912 -2.46568354773 0.344981867596 -0.167932385206 0.317167124945 0.0704077226665 -1.37873525764 0.368501210661 0.482187866064 1.11877862154 0.80545124286 0.910085044369 -1.94785348827 1.76102021297 -1.80642419805 1.11466797779 0.485558000552 -0.785043612444 -1.4613384892 1.73465391717 -1.73303690591 -1.43529879205 1.91987529152 1.53873420521 2.22861207781 2.550010045 -1.40893348517 0.0655044751436 0.297015518421 -0.113644095656 1.95281337182 1.32964704739 0.0863466719704 1.55546983188 0.166901777802 -1.17334883487 1.20378632214 0.754924842362 -0.0469312616976 2.27294040884 -0.256138091276 -1.12371448271 -0.546242155718 0.164341849318 -0.514016561382 0.344686196752 0.588793279392 1.52619445395 0.859501513321 0.371398200861 1.53985242354 -1.361681956 -0.130810332489 1.12266767591 0.892834472349 2.14562148239 -0.0292126521896 -0.523854912737 0.0413043882566 0.691351757061 1.37933409701 0.424583107104 -1.17591489151 1.53774869712 -1.09649185819 -0.411093658451 0.17916579431 0.205069106362 -0.0257974114861 -3.48731987309 -0.413853175357 0.780878840497 0.399999818352 1.60346133967 -0.155569628459 -0.0262996046322 -0.1113794864 2.42109887678
III, 2.60147461766 -3.16892152656 0.847762975828 -1.98097709624 -0.0785327169093 -0.675402223559 0.786270423956 -1.10346621112 2.39691238915 -0.43448267932 0.690117176351 0.518062504837 0.52184258884 -2.08325058138 0.96455021909 -0.313412771553 -0.97791454515 1.28353737243 1.00299275564 -1.03038833607 0.629844919628 0.976893739931 2.58621979357 -2.97734084893 0.585132285139 -0.941656090436 0.362462168905 0.403539220125 -2.05531275415 -0.00512680722557 0.447726869108 1.05057622243 0.636417628398 0.0925718210512 -0.151200384044 1.18248978631 -1.27083209101 0.724195175653 -0.667709499068 -0.840486450136 -1.5870738252 1.17153786718 -1.13378109096 -1.13647470602 2.34195488886 1.30302843989 2.02908476282 3.38247036142 -0.555872238756 1.67451420211 0.684533025522 1.25898028157 1.80178590521 1.17037796079 1.24112932443 2.46585966561 -2.188188977 -1.24662609934 1.69392940907 -0.00202764761855 0.674867024963 -0.090194679606 0.199300573353 -0.7282344616 0.181579326033 -0.132900063694 -0.0529973058426 0.288563245072 -0.986579245132 0.479749294564 0.163777771272 0.319083360805 -0.0427226507522 -0.220860274508 -0.438630196447 0.460868445466 1.04840699935 2.69660026128 -0.240842452337 1.24712558881 -1.07527169203 0.065238653931 0.506937098393 0.430248981208 0.0413556067844 1.06073309586 -0.484898544794 -1.25478130366 -0.445830114154 0.434780031301 0.522809619521 -2.6090089414 0.166035520342 0.682841961403 -0.0951223025116 1.21594211928 0.316121484735 0.0264898199104 -0.888029740295 0.62605064989
Williams 2.83981864741 -2.81930005521 0.329831377467 -1.9015902509 -0.0103924951997 -0.798784592534 0.994432636075 -0.213403471991 1.79132822142 0.156549776552 0.453446681235 0.323560392244 0.570020803009 -1.67284266088 0.754703245283 -1.47476096255 0.420738586322 1.98897370381 1.00177002506 -0.82469197882 -0.279303279915 0.575288155279 2.28090050507 -3.48841936596 0.597999650228 -0.3945547672 0.0965966485713 0.184169392647 -2.02062116109 0.623397627504 0.683521149578 1.6148465327 1.01100733935 0.245864303366 -1.37339656347 0.776394612639 -1.64795903388 0.911184915688 0.0605266224382 -1.76500470649 -2.14416588202 2.21225243324 -0.533726853461 -2.0373636115 2.04377278241 0.899070510885 2.65481789271 3.25057141609 -0.93445042426 1.77060457379 1.16344868485 0.201556959679 2.03843863408 0.450301805997 0.386528399498 1.44027799186 -0.715346623894 -1.05094699527 0.758108785591 0.17686918717 1.44249297391 1.04036875664 -0.258419005849 -1.50691523481 -0.377150128196 -0.934571881932 -0.218080344851 0.455043129312 -0.293659322098 0.881060346723 1.15238641218 0.423102240224 0.323626458279 -1.60149760821 -0.993898243503 0.616995760704 1.80862956818 2.69538574681 -0.679852700424 0.354222866962 -0.806093807392 0.731589619373 1.35499330645 -0.0402695720387 -0.176144883411 0.950656030832 -1.48166309783 -0.585237349156 0.422960832055 0.515769006292 0.405863880806 -2.87040324518 -0.175928084628 1.17187214893 0.24601226434 1.30127167967 0.658978849042 0.328757536778 -1.12015326362 1.31396163029
Mark -1.48500091727 1.84029575469 -1.48523738494 0.40105012006 -0.148151792504 2.30043702667 0.49792489971 -1.90691669903 1.00980693922 0.291038955271 0.0881528869979 0.371506137622 -1.28527613198 0.819227864312 1.35042673755 0.868451258835 -0.52086629819 -0.970024262812 0.201148399822 0.552994481431 -0.28102931665 0.967110479443 -0.642796060267 1.79501247229 -0.439895657801 -1.18526050735 -2.64154096765 0.170003274115 1.59177270475 -0.487516025325 -0.883740870246 -2.54511632278 -1.14713110291 -0.661216155933 1.32653684614 -0.460504823788 0.367709369386 0.885166299464 -1.80586793761 1.44389228687 1.59195958139 -0.780327080741 0.630084027471 2.07762552114 -0.725323575861 0.111675382035 -0.526885311401 -1.76357800728 -0.368663713779 -0.295581071314 0.209550307549 1.01432479101 -1.78165047151 -0.47241709472 0.042366688638 -1.26928798239 -1.81323237046 1.61345721938 1.71054757637 0.193001887134 -2.80012409357 -0.447499912504 0.157370790195 -0.517636012043 -0.177408598566 0.741215489417 0.337892141466 0.372038802674 1.20827125438 -1.62645551647 -1.44506985274 0.458264942349 -0.43124537047 2.43538219524 2.18505409797 0.608900569161 0.290002851706 -2.3350408486 -0.164351158079 1.26901030026 -0.921379942051 0.170947637618 -1.06577953634 -0.389244167194 -1.0060863177 -0.124307524177 1.84880042898 -0.523615151552 -0.962174182471 -0.952207587307 -0.696914049096 1.02992261147 1.8743346656 -1.55447574773 0.363258431769 -0.37571480986 -0.804714896063 -0.222200439537 0.0296174169407 -1.29177791953
John -0.296825189505 0.691661833239 -1.76819705273 -0.448434974575 -0.149586844629 2.48303468395 -0.832630636034 -0.98372924123 -0.644250468953 -0.0359604149909 -0.253175746549 0.716392447906 -0.800163209669 1.12166441036 1.7031711956 1.09446333537 -0.23733983521 -1.16292580193 0.555142790578 1.68599543037 0.60949965525 0.827585167796 -0.0195317638196 0.991348821083 1.14406039095 -0.203587176728 -2.43945529777 0.352668810942 0.711998951248 -0.422789992826 -0.271888167023 -1.80352919532 -0.85518892826 -0.365565989094 0.491526325636 -0.287194704351 0.504271445605 1.13059049753 -2.11832393335 0.108803702641 0.244290002005 -2.79823687518 0.679905902094 1.57626050282 -0.421707143011 0.322134490146 -1.27065457258 -0.805198531238 -1.49200750317 -1.30841401202 -0.53471132138 0.218624624799 -1.5305567212 -0.494918929639 -0.167134574471 -1.64797963977 -2.37592619613 1.67025517224 1.93102657932 -0.0416736506223 -3.00994842259 0.19095128471 -0.0602516495132 -0.468182755539 -0.724036596604 0.801678654622 -0.457175709208 1.37625244523 1.24110405281 -0.640103877245 -1.2638198682 1.17706930948 -0.112069962776 1.1280986094 2.01157232699 1.00914726725 -0.632376864112 -1.56435918373 0.709639993608 1.9569586534 -0.776337947409 1.96409179174 -1.34289848359 -0.65132283057 -0.603829448972 -0.456311961413 1.48557723701 -0.683989110895 -1.06755804422 0.527757821442 0.310606993515 -0.388148765336 1.48441549295 -0.815488509755 -0.100361673515 -0.404071041102 -1.05594227288 0.545567698028 0.916275896883 -0.83726441612
Michael -1.77265881921 1.35996023697 -1.25471443759 0.143093560409 -0.904721904223 2.00487726846 1.61959948387 -1.22162271776 2.00180879159 1.39137604658 0.0455220608416 -0.54383339641 -0.891615962465 -0.0888533118601 -0.109557687986 -0.629779074229 0.246601039998 -0.703661986994 1.33416868787 -0.312156752382 -0.803062279899 0.660954287354 0.361367610017 0.582171423916 -0.853849414734 -1.14653198365 -2.48893866525 0.660748723706 0.0906902947077 0.400818643251 -0.848056084762 -2.09831559826 -0.598303167851 -1.31105917709 1.98408559098 -1.34731218639 0.626511234651 0.789004090861 -1.12900867971 1.55371676764 0.898490805933 0.676789476524 1.00429073483 1.74803805567 -0.441232163074 0.193873405825 0.318202527099 -0.592054386933 0.477046491232 1.83752661012 1.63910624207 1.57397463499 -0.78500622176 -0.997954305489 0.561734766982 -0.29804613597 -1.58049172627 0.989806387682 0.357748401597 0.282336807579 -0.0720625454997 -2.22229127474 0.513293289005 -0.705772668466 0.781763723405 -0.897220584554 0.820755816818 0.255847373623 -0.0413460600378 -1.71454691984 -1.29087724941 -0.233208358736 -2.17552609545 2.00381506055 0.824108719921 0.0137556361524 0.915946400813 -1.11298752856 -1.65544180412 1.36571271297 -1.94035313914 -0.532511408545 -0.348343467909 -0.483598245207 0.246277048348 -0.460329846415 1.12178032793 -0.823514749758 -1.06797596587 -1.33056433156 -0.825366097535 1.92179522269 1.6491810797 -0.789313966058 0.325404653665 -0.186457702425 0.756275474389 -0.690003825647 -2.15503297994 -2.38150445031
bill.williams@enron.com, -0.732714012235 -1.13070751901 0.0324873903143 0.48153809236 -0.803280217411 0.520666709348 0.396457791673 0.775686591292 -0.419103604316 -0.0650748547135 -0.708370451627 -0.301637711837 0.861676362633 -0.906744253548 -1.27550879115 -1.07198611914 0.750329236208 -0.304233880838 0.695266005258 0.398906470266 -0.0386170101983 0.078270644554 1.0232895421 0.801122498236 -0.253035154175 0.518627462006 -0.230922209575 1.11536465772 -0.482916680054 1.69723896224 0.701439262878 -0.532768531245 1.06500654042 0.60455335776 -0.548674299675 -1.11709024777 1.66366713305 -0.12700718547 1.48658507843 1.04309033777 -0.548585295184 -0.970373621926 -0.523404049211 1.48762359511 -0.708750836149 0.440450712822 0.337130345357 -0.702071226739 1.15569124826 0.640270252069 0.552454444031 0.231304422577 0.131240037336 -0.158103763153 -0.244760121921 -1.04974574094 1.53369195813 -1.12514092905 -2.09883761783 0.63178693103 2.55908121569 -1.22661504744 0.591416637017 0.541261541593 0.405531403804 -0.295100812962 -0.102244754749 0.43200126213 -0.858897211538 0.0819111793925 -0.522594289095 0.425281522588 -1.63389070859 -0.193040414543 0.244161082485 0.412180541706 -0.755749092593 -0.797539963164 -1.35314057856 -0.585778406796 0.337354460337 -0.132657332504 0.804640816714 0.427971867824 1.31942114735 -1.45315243753 0.0968309752422 -0.757373403162 0.836786679781 -0.242788549772 0.309288180885 1.03310792338 -0.65129372205 0.254668721605 -1.09936250459 -0.0933409911279 1.81205430777 0.370374684263 -2.22609462843 -1.48204981646
</O=ENRON/OU=NA/CN=RECIPIENTS/CN=BWILLIA5>, 2.93665755205 -3.31885791421 0.791021176356 -1.50549789303 0.208637152566 -0.443821499744 0.218388741966 -0.842943562071 0.890948266282 -1.22129037831 0.222651385382 1.22682139775 0.758796330761 -1.19963743946 1.38396675111 0.0592227624152 -0.737716664155 1.15987495533 0.406253068954 -0.710507319506 0.855935575897 1.15409476953 1.96884353965 -2.00077285554 0.888329776986 -0.250157043315 0.46438311763 0.0808114727666 -1.51305272734 -0.0886507815338 0.379892414264 0.937242290309 0.640415044055 0.425543992123 -1.16143794451 1.5642491675 -1.50778376598 0.681705050779 -0.0841298664041 -1.17727477032 -1.64504510408 0.239687392996 -1.31215084044 -1.12989062269 2.03755285947 1.52242836832 1.41004073012 2.73376601117 -1.46268557056 -0.0350834930707 -0.25104104133 0.113774243459 1.44286470598 1.35113586026 0.508690349877 1.29395139044 -1.14640875443 -0.933328482989 1.83511895237 0.345179950928 -0.462398120074 1.28553699345 0.0466200015628 -0.767586439519 -0.551050897337 0.460418696946 -0.846363761414 0.510258539703 0.0899665202397 1.08187651083 0.546532177818 0.761672044073 0.944761728266 -1.11414583684 0.136180565102 0.938297919256 0.359115547884 2.1124889404 0.220497238566 0.497107719443 -0.583994179443 1.07855137987 0.57393842413 0.371263944332 -0.624770027532 1.06676974602 -0.55820322362 -0.649691293679 -0.219801479976 0.8976954928 0.429798477449 -3.39011697182 -0.437269372115 0.800815298033 0.0363741562113 1.22908725427 -0.415539845843 0.383820527016 0.222798767478 1.6592331306
Geir 1.07378875557 -0.97845326765 -0.559114288208 -0.713496980845 -0.123258856357 1.38842256792 -1.22135136119 -0.97250903965 -1.11534701737 -1.61161010636 -0.172427034883 1.18056408337 0.302488201657 0.608137914059 1.8087887731 1.59471744238 -1.11791498717 -0.495201915986 0.157185212517 1.05868089416 1.50971254087 1.0341732009 0.58191767424 0.140203861421 1.5572299939 0.293175802555 -1.1079913536 0.113130921637 -0.00753504723335 -0.525470894005 0.0409152602798 -0.988774412367 -0.741705853565 0.058888292178 -0.41450491534 0.914469280667 0.015049039314 1.04527660458 -1.47103706814 -0.216173509509 -0.194765599168 -2.84140501361 -0.557722752721 0.883592495245 0.399831071323 0.790232445352 -1.25637907499 0.310895226285 -1.80498452039 -2.31220816632 -1.35784391355 0.0298337774667 -0.540607546035 0.568528812428 0.0416931545258 -0.761120284913 -1.92982998013 0.626877188109 2.09321893205 0.166240511061 -3.23704584861 1.06979655453 -0.148452538807 -0.281642336587 -0.826857796155 1.29412305904 -1.09716534379 1.29929105604 0.855875118672 0.48782698856 -0.656825595546 1.11291056313 0.93777213316 0.524764006646 1.78001275085 1.13815982805 -1.47975629561 -0.400480006587 1.34834279339 1.39533534461 -0.143663730747 2.0876538228 -1.1219129469 0.0150250321711 -0.9231873429 0.453703917966 1.05673736671 -0.590922072202 -1.12919047227 0.873863477546 0.491853561058 -1.97291269393 0.505447515305 -0.443769869052 -0.207617246874 0.583769271224 -1.5770750908 0.505288051307 1.68481611304 0.765254976882
Guzman, -1.13927919101 1.59562258652 -1.52225613203 -0.00677068622709 -0.146292242885 2.51644970436 -0.140744153271 -1.44367454003 0.306296401486 0.309950677501 -0.189677854779 0.405138471519 -1.17397122968 1.00313429035 1.33505857669 1.04189504892 -0.455039801241 -1.09981496706 0.404894425923 0.966288144359 -0.0625225014119 0.788926089315 -0.295630938667 1.61695835724 0.234413148034 -0.721629428863 -2.45174216375 0.107296532855 1.16623106945 -0.699717047786 -0.754061772348 -2.18257206835 -1.10130141228 -0.818260525717 1.37009523355 -0.441070141007 0.416318178657 0.834648496307 -1.86516270536 0.845197574112 0.982921850352 -1.70823103881 0.868390463432 1.81434311259 -0.482187724565 0.0957165103555 -0.997969546836 -1.29688220974 -0.685871999964 -0.706148467517 -0.20510737598 0.674376643004 -1.87950631411 -0.715516793641 -0.0260376532702 -1.23557062761 -2.15656016841 1.71138412795 1.78677484915 0.0140679066823 -2.87591692819 -0.477215066082 -0.12082672936 -0.370689231795 -0.195952388477 0.546235618903 0.033823814606 0.871593806392 1.01602585556 -1.4020700433 -1.37508843938 0.702338955047 -0.477884402043 1.95844869906 1.96594622987 0.544972500973 -0.144139375776 -1.8710964772 0.152865813899 1.68539482223 -1.10540439158 0.948144531265 -1.48441827281 -0.488981381838 -0.759604329162 -0.430766836196 1.66929278749 -0.409500875306 -1.25339492508 -0.339725255482 -0.33419623063 0.593445499769 1.69883303341 -1.2134509967 0.159642740707 -0.516340893167 -0.950689810064 -0.00125815066557 0.587203608235 -1.25097102799
Ryan -1.16979677523 -0.569551890803 -0.0300790127905 0.745863747311 -0.935337294254 0.542538278224 0.667629605786 0.647551579173 0.0854382873247 -0.113744662558 -0.482203254303 -0.555758094348 0.966337433224 -1.0168078917 -1.47144497363 -1.03402271446 0.305314827998 -0.268754915497 0.963517801554 -0.0190418547226 0.106975248 0.116619166737 0.977013116517 0.565913016488 -0.526511505328 0.19538897334 -0.286346254997 1.10091147058 -0.806685155391 1.73307620803 0.414292260621 -1.01519719108 0.6840209247 -0.0235346374833 -0.0265282143063 -1.30969455551 1.6843650893 0.153494734493 1.1659609409 1.64742800486 -0.259183889707 -0.30451900518 -0.488235578722 1.57365735458 -0.959359881886 0.503579494579 0.320669724626 -0.631502158283 1.17179411773 1.09980196705 0.795252835265 0.619235799732 0.472205097435 -0.0403478931231 0.10653387699 -0.585693757505 1.14420322277 -1.19767028832 -1.95229676229 0.794090722022 2.31871331533 -1.92153453902 0.831028700057 0.333275298926 1.03062350835 -0.539003787996 0.311860133334 0.33361359872 -1.04522455499 -0.008556201376 -0.759471676978 -0.0370895330907 -1.84450452153 0.319477166188 0.0824626340385 0.315890754424 -0.898794730911 -0.750605377652 -1.44523346544 -0.466966910601 0.140334297659 -0.675244740908 0.701782734749 0.349807519906 1.46788566734 -1.0804059745 0.123516394887 -0.913984592277 0.53489858649 -0.828514175222 -0.205940664894 1.22245780377 -0.469363371415 -0.0732125864295 -0.70395651067 0.163819385764 2.22172304702 -0.200531109763 -2.59526475351 -1.64881168557
mark.guzman@enron.com, 0.422744681628 -1.02564969943 0.0892447305741 -0.454899941239 0.769797371146 -0.517692573007 0.275909814597 -0.326294023396 0.45415502353 0.0722422003753 -0.325415673407 0.890342114711 -0.561491917293 -0.338352706647 0.574366120264 -1.06632315096 1.20516510229 0.0196303244281 -0.681983235897 0.85391594431 -0.369953490156 -0.046618237443 -0.120519350321 1.28634018847 -0.468028934801 -0.355183714555 -0.574217562361 0.563920825885 0.861542739112 0.256310629658 0.93685721728 0.254921511103 1.40064563011 1.97011630336 -1.35859001131 0.0693919004416 -0.0126798028078 -0.0857385521242 0.213530802209 -0.0616243726411 -0.538682871064 0.111305306451 0.461956246892 0.231794247779 -0.609743858546 0.249949468079 1.15499689863 -0.954380192254 -0.00314909935109 -0.0701504673121 0.652113305281 -0.84455375246 -0.382716240444 0.119538438145 -0.562864500526 -1.26965286408 1.03048876581 -0.114483966464 -0.10002611234 0.400550702146 0.776008156908 1.57844077899 0.368489340913 -0.163725771294 -1.43058306079 1.20002011974 0.200781557102 -0.271074540669 1.99853816102 0.0327098935634 0.28782018773 0.989106021032 0.777341030991 -0.779863995065 0.856560690616 0.538545988074 1.13100006025 -0.65372394277 -0.0619456297062 -0.72765616176 0.848061005122 0.105137354879 1.57326861354 -0.344280159587 -0.625291066585 -0.74708140439 0.162401715316 0.11792190312 1.60127090194 0.0379394096216 0.356274750816 -0.300459783346 0.331060949166 0.113253249117 -0.457643644216 -0.965822751694 -0.342619581925 0.754807659479 -0.429166807028 0.0619063620531
geir.solberg@enron.com, 0.129619118446 -1.44103828125 -0.0198044969829 -0.227740345006 0.0990470879939 -0.210210285075 0.833900686315 -0.464207262402 0.324279806168 0.0694615359984 -0.526223612077 0.794091234845 -0.0432615604164 -0.483703200329 0.284664971298 -1.27927857858 0.915578205246 0.376622942448 -0.119835349152 0.531637102908 -0.605645473722 0.287720095233 -0.0662357829687 0.897602648197 -0.788622354786 -0.342167370532 -0.506302580365 0.538395804744 0.436559757679 0.768145044262 0.839550667825 -0.25151268815 1.4690688958 1.74559089737 -1.03858906204 -0.0880013132311 0.468254833265 0.47646727492 0.538244935925 0.373253785015 -0.155219754132 0.100759986138 0.275084736509 0.586950068419 -0.188087380023 0.32923959791 1.03557589344 -0.850284607537 0.359605231346 0.520574953761 1.04241140271 -0.151004427614 -0.317032323685 0.14797375669 -0.391317168153 -0.643381205134 0.929889739625 -0.302362593349 -0.48516032544 0.269377873102 1.42420666962 0.70558318498 0.479399476789 0.0916004328337 -0.79412009672 0.438260854973 0.40346387527 -0.433762349178 0.98903885826 -0.0613825442887 0.136749714389 0.731779977853 0.301055421185 -0.95654857459 0.463357371181 0.407772909706 1.07314224235 -0.531238275407 -1.04171552293 -0.579802410391 0.301180363462 -0.0623583503823 1.23604302549 -0.232292260267 -0.26891865413 -0.7196131326 0.116052096537 -0.452784018895 1.37360223476 -0.0582732272779 0.311858188944 0.21905979532 0.314038065386 0.0708138050517 -0.496466714567 -0.616318920387 0.461801965189 0.391869723582 -1.46033410756 -0.0908451315045
Solberg, 1.69809077923 -1.67121352281 -0.0715256847016 -1.19835532268 -0.118695251739 1.30126422699 -1.16928321936 -0.962790728642 -0.526822312878 -1.76112548534 -0.0549798018525 1.16998762258 0.74055369014 0.145640154595 1.65072661948 1.30684319785 -1.36384913432 -0.233884694563 0.560025329849 0.652104844437 1.58879567428 1.22473446474 1.14350967723 -0.653952251166 1.77422705668 0.263885807797 -0.662289640509 0.066822655809 -0.699801379552 -0.654207255868 0.0978867267123 -0.57943148167 -0.707357328255 -0.135932950484 -0.101356332975 1.21583297315 -0.293461083957 0.909784964521 -1.39795463596 -0.551239023042 -0.672347125275 -2.68575226162 -0.930623257136 0.412983399228 1.12463501148 1.02996952142 -0.998794228324 1.17919290266 -1.78744934271 -1.90504993118 -1.30569892958 0.438191618477 0.00353828379589 0.677435218581 0.513696210563 0.034136885471 -2.36167983397 0.246162133849 2.46519625146 -0.0974366171841 -2.83183234421 0.81886319699 -0.114726408153 -0.182816653917 -0.610431541856 1.0536068939 -1.31186228176 1.44872941118 0.209270073795 0.765270653245 -0.656932469566 1.10242787329 0.722357203868 0.25625986363 1.39007992263 1.12493528928 -1.39490531999 0.443088644877 1.25552381185 1.84553797541 -0.673738755928 2.12516027205 -1.18668400133 0.168583042529 -0.721290237489 0.474905341884 0.770459664573 -0.89808379891 -1.36700821247 1.00457952067 0.779822554026 -2.44733477162 0.205858665041 -0.20421153114 -0.340917488109 0.770486727227 -1.52881943641 0.402660462663 1.54093119851 0.796679954304
Slinger, -1.46963659922 -0.442189815398 -0.108694802202 0.768618542302 -0.93467564669 0.867229448591 0.875876404842 0.0232343580345 0.659347980223 -0.0412340582066 -0.649644903319 -0.67016242925 0.641688094466 -1.08563147224 -1.45031719036 -0.710245137187 0.0986608608422 -0.41054520998 1.00464289275 -0.343608871181 0.0111469459761 0.239967079376 1.01632881933 0.571834326262 -0.718319104627 -0.125268946862 -0.468813455388 1.02353187482 -0.675028792369 1.580755902 0.261231750852 -1.16622274281 0.182447999662 -0.382778881183 0.567696859289 -1.04772691947 1.8199272677 0.179742512104 0.938520720801 2.08254949761 0.172555153646 -0.238974907006 -0.744174406131 1.90684643266 -0.917743786235 0.560744482104 0.344937068075 -0.574160375152 1.48140564083 1.15060995084 0.973960686097 1.01112248378 0.468412414409 -0.141759812775 0.219937568884 -0.240442978699 0.967294557635 -1.11532883357 -1.7525652605 0.87900546719 2.06282508412 -2.24713071496 0.753924257243 0.215908872174 1.23648463194 -0.652500410705 0.253805703866 0.0887884174701 -1.22339674515 -0.508017300774 -0.853101318589 -0.196626420448 -2.12884836702 1.02927186239 0.0975505109842 0.121705262856 -1.02284873347 -0.600385086455 -1.51677364794 -0.468159275246 -0.274720811612 -0.915311691474 0.383167735175 0.33037666103 1.18082192976 -0.843767493857 0.0969790317422 -0.852877316739 0.392960248499 -0.850163117431 -0.437886325426 1.62469912268 -0.326401796219 -0.148696278607 -0.611967952181 0.414495794261 2.04358636716 -0.356462730671 -2.4280286333 -1.53927204956
Dean, 2.70132654803 -3.05203154133 0.454917063894 -1.41989869836 -0.0413108695914 0.0628946491358 -0.221763000756 -0.940442344223 0.594706087764 -1.41192425284 -0.0242200813845 1.33563972241 0.997273672237 -0.8434794609 1.63021164267 0.507676330235 -0.998262020485 0.88900686371 0.525952872867 -0.405844644914 1.14903497168 1.31986186131 2.02551248934 -1.90176361767 1.25916992724 -0.110103155589 0.0415641733312 0.182285502697 -1.39952794309 -0.272081713235 0.160983611663 0.47342514326 0.199684802003 0.0337751443389 -0.849240077603 1.54962527904 -1.36843999601 0.80172609409 -0.428436237439 -0.978190446293 -1.36469192352 -0.55215499869 -1.24679272395 -0.568392879886 1.79544469021 1.53896033285 0.761060118567 2.51396409913 -1.67995183402 -0.646844719761 -0.435653199456 0.288273577038 1.21339441262 1.14789641172 0.500362774782 0.951492485749 -1.39345948284 -0.608386174323 2.11974049149 0.263032762927 -1.38766349169 1.17201014844 -0.207986193402 -0.716144111471 -0.500975392359 0.447920405727 -1.02508169964 0.807453313866 0.0953635006236 1.00597809796 0.205033683267 0.904287431244 0.923278464453 -0.680002602747 0.524157676724 1.00973362696 -0.110106847355 1.81407560437 0.427822567004 1.02085341273 -0.793963027984 1.58088889338 -0.0104873478856 0.324788027142 -0.875490497363 0.988894599478 -0.344174732586 -0.719155554922 -0.75812018713 1.06330707823 0.430791534342 -3.24476395786 -0.0807998253383 0.579529065709 0.0497797063377 1.26390579837 -0.870987500298 0.27524032989 0.755653915702 1.51292146349
Davis, -1.44996399694 0.0729647527339 -0.333029120441 0.385566569853 -1.15948386474 1.49842798304 1.70205169078 -1.18937551755 2.2262813949 0.350244216264 -0.150477079607 -0.677870994084 0.00739378713496 -1.11195381703 -0.769677387108 -0.668041020703 -0.429009077968 -0.250924575244 1.3806398968 -1.10327422812 -0.387234954241 0.810913811225 1.20770415407 0.208343500853 -1.06131926346 -0.935175947839 -1.4080560321 0.783678321479 -0.774268348001 0.753145628087 -0.651794771342 -1.7708248266 -0.291465668471 -1.29638634197 1.93980109265 -0.974512345094 0.915671774502 0.563759005315 0.011320761634 2.20051111366 0.705456371682 0.911395324103 -0.291700448135 1.90021943089 0.0358841660335 0.631347779714 0.683357444201 0.140667839754 1.21049101365 1.95898596756 1.56016217917 2.00430051053 0.0345311218342 -0.419362378226 0.933181711953 0.628060100112 -0.826563499914 -0.249735740437 -0.319685404726 0.68552593824 0.820506060253 -2.84294838045 0.528134539947 -0.435707863134 1.45305320743 -1.0161566141 0.636225518316 0.136580687645 -1.17290123338 -1.43107440148 -1.25067775698 -0.465104480115 -2.50721269465 2.00577668012 0.311694222753 -0.0212233510761 0.0781894050471 -0.302733021108 -2.04143184018 0.737957317041 -1.83735799802 -1.09302490107 -0.139996402862 0.325325715382 0.489756845369 -0.26421150675 0.733089173312 -1.04596275518 -0.962584669848 -1.44252527049 -0.986941446008 1.6223845595 0.696371947435 -0.60851017846 -0.0575830683463 0.68889435906 1.38865906391 -0.889829165409 -2.58158714252 -2.03837493588
Craig 2.48323327591 -2.71289779181 0.277349447373 -1.40774723117 -0.236234202123 0.42556384262 -0.591820689649 -0.839547552869 0.0861109242202 -1.51874188186 0.0782873576884 1.04987494097 0.824188890859 -0.428033632952 1.55707051791 0.799108470787 -1.14974483978 0.374761942948 0.500293401471 -0.00598090206122 1.45752658681 1.20119119044 1.67160512957 -1.59890759316 1.56604639673 0.23408772691 -0.154783424942 0.157704119251 -1.38310258805 -0.42187320422 0.0707300410235 0.238643613036 -0.120435983858 0.0580647529205 -0.58554177886 1.35175723324 -1.0012429832 0.928787039998 -0.751649292085 -1.03225295028 -1.18879068805 -1.30959342123 -1.26069992409 -0.311086102954 1.68213692079 1.29285832644 -0.00338169572764 2.29023379069 -1.89511427188 -1.11044730494 -0.821643026031 0.311835512083 0.798172903936 0.907385109329 0.633303324293 0.851052520739 -1.89871320704 -0.218060890027 2.14730981883 0.110158918539 -1.84822625411 1.04766894748 -0.0962390952036 -0.506033147765 -0.525013787149 0.645819065727 -1.27180524146 1.15619769363 0.017283874224 0.960552215957 -0.156049859577 0.882770275186 0.721093091182 -0.472533575628 0.650393132174 1.05848590054 -0.758025879408 1.43858052962 0.760447576526 1.28498577263 -0.803027251112 1.79424378623 -0.355579258142 0.355270251639 -0.674762509147 0.93351919241 0.0958574346898 -0.901007974449 -1.08204531426 1.09348617956 0.651848905743 -3.0137420171 -0.0328301253643 0.407222319113 -0.192525274094 1.24783390926 -1.16065278611 0.258146830575 0.992565087389 1.3156295849
craig.dean@enron.com, -0.864485032715 -0.7099620915 -0.0742440895909 0.578233841201 -0.636824476661 0.668554210971 0.355851289148 0.570830155517 -0.53488794868 -0.308667765831 -0.841446127475 -0.233201669754 0.890270435279 -0.344017279928 -1.14699538736 -0.812565831079 0.621028764936 -0.602127628376 0.252102691706 0.483177439895 -0.0350506814511 0.175087107986 0.493290777679 1.30070271102 -0.294001754795 0.648003206569 -0.280083594702 1.06309878503 -0.0342901402559 1.44552610621 0.694762623277 -0.999771200389 1.10211191914 0.854760280096 -0.763895983967 -0.98497786385 1.9211058321 -0.00464160580686 1.37453858624 1.13853700839 -0.264359999242 -1.16396104409 -0.520514330426 1.7113483995 -0.916653687775 0.0150162556781 0.0627424017701 -1.56164622836 1.08427096659 -0.077385436468 0.346305926679 0.203412173944 -0.0367918630618 -0.416377323588 -0.655150761296 -1.31975413542 1.92683136665 -1.03386037271 -1.82169252521 0.596530944063 1.9667843458 -0.606211502029 0.441977764602 0.744370089295 0.138969771911 0.1330862066 -0.394598982269 0.422421613082 -0.448467963964 0.392913518605 -0.607820479029 0.582814511996 -1.23118659306 -0.33185304974 0.437568805099 0.610377361483 -0.677863902829 -1.36345765532 -1.05347655348 -0.837270671102 0.930464836578 0.023225152211 0.669097778191 0.407738149837 1.19832956203 -1.55818670496 0.212179317246 -0.915711142424 0.817067173125 -0.253321570938 0.212024464537 1.0153332189 -0.446932081308 0.0203050922011 -1.36614280917 -0.19749739659 1.2306637232 0.234514171031 -1.89074920913 -1.12238142637
Anderson, 0.0511584364927 0.411253903452 -1.23153007778 -0.442922090944 -0.185465241533 2.21927778721 -1.11508702238 -0.782659393439 -0.975111612811 -0.62512368637 -0.409484363238 0.806310901965 -0.294163255963 1.09878968053 1.45675500835 1.56962039285 -0.612529392014 -1.02592052687 0.6102319997 1.44724273317 0.823117062921 0.813870370355 0.294210195262 0.90084606109 1.35132651708 -0.0263244685267 -1.70794785209 0.218051926018 0.552030468251 -0.570865611425 -0.273564190344 -1.57946635034 -1.05039745047 -0.630499738171 0.441778381089 0.0781554307245 0.344259544884 0.77892042603 -1.7899705466 -0.0158240169904 0.195848966794 -3.10862799275 0.451452404496 1.41253567796 -0.214676577775 0.467820608692 -1.56344234947 -0.50640670428 -1.463811903 -1.91896135821 -1.04594441426 0.283910088293 -1.35804802915 -0.280834813284 -0.0888131480145 -1.38495510281 -2.26249337312 1.2259518501 1.93138885462 -0.032668378638 -3.22962386276 0.153905316433 -0.195599060537 -0.280337797777 -0.612726350331 0.906004336837 -0.799982055362 1.33554649281 0.777243825013 -0.386030116805 -1.02295839034 1.08912097552 0.161388427663 0.99601829106 2.07512084163 0.794620521219 -1.24004994346 -1.13174831193 0.985853623559 1.89275863182 -0.722089717571 2.03825455214 -1.57845576647 -0.415818780808 -0.645542440321 -0.163406004219 1.31678970726 -0.337412971008 -1.14060174383 0.669945915962 0.318088465172 -0.805486250088 1.07578259161 -0.717584431216 -0.130322396599 -0.0111836191999 -1.38585185814 0.481996753559 1.44988132433 -0.355853777949
</O=ENRON/OU=NA/CN=RECIPIENTS/CN=MGUZMAN3>, -1.69958531843 1.94721262465 -1.60292501986 0.320134597391 -0.195121535532 2.25985708156 0.903768961547 -1.36607356212 1.23607344879 1.10454781417 0.0387130086671 -0.116115290806 -1.45257508316 0.740867149272 0.842452065383 0.382085077431 -0.0818288329337 -0.924131216332 0.584079161536 0.385006887693 -0.55539164277 0.517861184238 -0.346180218972 1.27639596889 -0.599151359512 -1.1235448212 -2.51222176688 0.241434558207 0.800838911958 -0.456037259771 -1.01840260123 -2.20131462338 -1.01602219234 -1.23050723468 1.85436625319 -0.978501649424 0.362110451565 0.752161396171 -1.73883578092 1.21214632679 1.29439230189 -0.252283401042 1.28730552088 1.75291535681 -0.716135124731 -0.00571458667538 -0.390677065323 -1.17683249906 -0.289506605409 0.632858779289 0.663984086255 0.961366351234 -1.5176443525 -0.838920686283 0.426430446415 -0.814269399824 -1.98909929066 1.70593397818 1.31933440831 0.187246576796 -1.94124714328 -1.31764980492 0.297164723732 -0.670243401425 0.329181531231 -0.168631402689 0.471891758444 0.449899404481 0.748852071591 -1.91267638671 -1.36917259054 0.0226979532683 -1.30791341961 2.22116768192 1.34943142088 0.071889994001 0.515090621193 -1.72164025019 -0.655882408086 1.50725547866 -1.51612030832 0.0630977343161 -0.902606844467 -0.677273315205 -0.366411348818 -0.246867716894 1.51320531698 -0.473706176258 -1.02809174496 -0.798752051282 -0.921784955072 1.37213278442 1.82869909048 -1.05115039109 0.524735797207 -0.49664319194 -0.111067925029 -0.319383691434 -0.524506431192 -1.91448444062
pete.davis@enron.com, 0.396278292792 -0.708355535144 -0.529927317945 -0.886030786148 0.183252358656 0.12050592256 0.130849419277 0.562557525226 0.0144514040426 1.14093637626 -0.535679155128 0.301383665427 -0.477668767034 0.107112199866 -0.141777887579 -1.42094654631 2.02380939733 -0.195821661537 0.162177152287 1.05407221152 -0.76738610532 -0.30605726431 0.307105381205 0.672958355885 0.185246664406 0.167620893885 -0.80981248663 0.83632186252 0.202346385501 0.414732146345 0.895086363444 0.515332580877 1.52893837492 1.23361487346 -1.02059124917 -0.758504806115 0.25602985148 -0.0927311895952 0.124117643257 -0.928485167618 -1.07849441686 -0.319854176417 1.27831425892 0.0439187952989 -0.222107591724 -0.197405873096 0.74195511998 -0.341718747515 -0.0280802966027 0.3632604647 0.953499696267 -0.697613853048 -0.498021890096 -0.976941197941 -0.600970226654 -1.48187280052 0.740964166819 0.239224615184 -0.540253141143 -0.14937602885 1.57292084594 0.898185298792 0.0436980143388 -0.219808166329 -1.45808366653 0.189346874149 -0.255593529508 0.352943409013 1.29330827417 -0.00612954829942 0.27802709957 1.20935487375 -0.151390777739 -1.32449605613 0.328589156106 0.266536396156 1.32436656949 -0.370225621721 -0.479177131329 0.0604357117934 0.0922455581039 0.97919460033 1.23900942801 -0.488877905286 0.128193831886 -1.31529860628 -0.0436377829943 0.0390952156564 0.994447382232 0.581898926824 0.794603828309 0.0375429978295 0.440159553133 0.61402490664 -0.654593228434 -1.0156223104 -0.375184060177 0.966173256896 -0.82863756415 -0.61883892845
</O=ENRON/OU=NA/CN=RECIPIENTS/CN=BMEYERS>, 1.85693271923 -2.33129392371 0.509873246196 -1.2744716627 -0.0361429434832 -1.13514536079 1.37164597079 -0.814766989488 2.04553213705 0.144595986284 0.593337752514 0.196095624458 0.175609169775 -1.68053184283 0.574368200234 -1.17793574352 -0.024249121925 1.47416693826 0.374806677022 -0.950856387188 -0.286547953842 0.476177637639 1.52639431876 -2.23568703643 -0.250345586977 -0.708584375879 0.209406105259 0.198411656002 -1.2953178653 0.407404371886 0.526593662361 1.20981846342 1.02308051391 0.689122656705 -0.68427613173 0.65863660982 -1.02427647463 0.704238384585 0.156440264044 -0.571593426236 -1.08475857054 2.32878464098 -0.555727709256 -1.37235169256 1.61144983323 0.770008353294 2.35594807199 2.19481613338 -0.184845315551 1.66215512633 1.33679075388 0.574937760468 1.42450842953 0.524010315872 0.478079799917 1.83069644672 -0.5182019519 -0.887163824819 0.362541189872 0.225641762369 1.50723885123 0.604362961991 0.0926923346554 -0.783862542617 -0.0491528626298 -0.454336198209 0.466504677647 -0.165824770255 -0.263189102959 0.492853795279 0.623249368707 -0.156266039322 0.168607986224 -0.884300441898 -0.702168413198 0.161179840299 1.66739433702 1.97268933403 -0.746337581486 -0.0794737980597 -0.46996594244 -0.367077750602 1.34110370039 0.13877673322 -0.198488734158 0.923277589846 -0.76187018937 -0.485560216481 0.423740827623 -0.170738745265 0.0825510912682 -1.51259888921 0.0966918120937 0.587563550088 0.169101598514 0.79171744126 0.575835313258 -0.204147711564 -1.40056105202 0.789312570391
</O=ENRON/OU=NA/CN=RECIPIENTS/CN=CDEAN2>, 2.10299005554 -2.06467196583 -0.0633713314094 -1.36423214569 -0.14369514408 0.7424233732 -1.17431568379 -0.388807145219 -0.809866307253 -1.52880075866 -0.100738019357 1.16758378451 0.917380928058 0.0405316702108 1.60500765074 0.996999451382 -0.848439886398 0.206573396812 0.58763486928 0.545385454702 1.50867823767 1.03532341049 1.48286268979 -1.2788201428 1.8398643038 0.474204655288 -0.323612533451 0.161770689975 -1.18044471485 -0.455630854199 0.24121042882 0.0593792162592 -0.304655845103 0.013719991455 -0.841460841425 1.3040429531 -0.701886581831 0.829325098137 -0.92842046715 -1.13747849084 -1.27925760332 -2.08753300959 -0.810859327262 -0.159362966998 1.24583841962 1.059715688 -0.577185795966 1.76231190479 -2.00386618468 -1.75430781302 -1.28074731597 -0.0395072327157 0.45316478346 0.684791296135 0.282741302675 -0.0307266872182 -1.86356924677 0.0462714174422 2.06389101702 0.0920793149516 -2.26664503244 1.21420230356 -0.195574813073 -0.587242097591 -0.808101382007 0.790114985489 -1.43443123386 1.46111938717 0.32769387877 1.13223531834 0.0358964185185 1.07850107848 0.86220585893 -0.494719625722 0.979698693705 0.990694041448 -1.08683918834 1.06264545057 1.17232382822 1.34872298308 -0.439962718136 2.40002922161 -0.640874186821 0.085707491067 -0.544332850594 0.639015133781 0.236026879307 -0.608496195192 -1.04924686631 1.43273547311 0.710098902321 -2.95712974775 -0.167090668241 0.264704331478 -0.247734596991 0.985097012152 -1.37958180246 0.598705394125 1.3970270463 1.27289092762
</O=ENRON/OU=NA/CN=RECIPIENTS/CN=GSOLBER>, 0.585694511692 -0.372339405327 -0.894880621333 -0.652646928098 -0.00242579894522 1.82101056558 -1.30336358128 -0.742624835807 -1.23088820207 -1.19649061049 -0.213069920973 1.11139120191 0.146671121121 0.863782901216 1.74345701985 1.31744318087 -0.83073165839 -0.771127305681 0.360974948898 1.40253858833 1.25498994826 0.86761664261 0.302302144042 0.582452230339 1.43520929641 0.229095709631 -1.32642362781 0.0988180383376 0.0237635660691 -0.576084888195 0.0267385669093 -1.24645067508 -0.766386973515 -0.10593435748 -0.171880160866 0.627946571985 0.259880976868 0.952012121345 -1.65554246638 -0.127612087652 -0.223414534778 -3.19451723552 -0.0558459245283 1.1364121166 0.159242918256 0.690605155101 -1.5056189182 -0.196802026445 -1.79303130833 -2.2521446655 -1.38320781508 -0.0704003237283 -0.918103712356 0.165453277411 0.0394760706237 -1.14383161308 -2.1138456364 0.925736092368 2.14073647218 0.00664670251449 -3.20418888977 0.806641522979 -0.0430241639932 -0.18922977207 -0.850803215705 1.179499484 -1.10035023027 1.47508523473 0.813483918165 0.341368566801 -0.809621213503 1.10238670802 0.556090032638 0.461557558747 1.87948914158 0.945537843369 -1.46751011097 -0.732154324971 1.265946647 1.64718790966 -0.407137351643 2.17773123238 -1.31271202042 -0.301099799316 -0.597112156266 -0.0223671448826 1.27245322984 -0.640058788441 -1.04310229655 0.9871620914 0.505017296116 -1.55640424808 0.543220653047 -0.576531743846 -0.16773516421 0.176258509189 -1.4721591814 0.53987696517 1.55577278827 0.242813791711
ryan.slinger@enron.comDavis, 0.392036287965 -1.54272746256 0.215363214416 -0.651042451182 0.319586912978 -0.962175975007 1.36630629718 -0.705990611949 1.70614122532 0.469744718609 0.0308245706374 0.451174868421 -0.366192212364 -1.64007581044 0.154803987889 -1.65824430678 0.690002634901 0.88760045253 0.377571425667 -0.0523283329546 -0.512816885594 -0.0958564324477 0.755570097233 -0.551386078892 -1.00173016509 -1.2000141325 -0.220120374355 0.589201110171 -0.546461281425 0.901052723952 0.869961207474 0.47167931322 1.24215001805 0.910458749596 -0.407194681222 -0.0979655990581 -0.161913377749 0.462922900865 0.0107905852406 0.411784550591 -0.532122397649 1.77879847787 0.480252776576 -0.303225535248 -0.0556564057677 0.906363034297 2.10105971555 0.806532381602 0.508742777019 2.00721496401 1.83483714757 0.127706308129 0.602456852848 0.565091487777 0.430750814403 0.627927368141 -0.124026872888 -0.65120779192 -0.362563642197 0.513581536589 2.08024382493 -0.323051132493 0.709766924658 -0.712661986004 -0.139483111913 -0.236048863746 1.24531934223 -0.734654862825 0.600467256102 -0.569785046325 0.309542458059 0.0834916309506 -0.0460523345232 -0.407080993271 -0.358429731471 0.00664352966038 1.5094860845 0.866648611039 -1.0494530725 -0.26440332535 -0.516094209391 -1.0497149366 1.71509377975 -0.555110119134 -0.362101062657 0.191750726442 -0.381051739314 -0.0016970394099 1.60570317937 -0.414029682936 -0.271399977924 -0.043765710809 0.447072904078 0.283602079068 0.366839582058 -0.237902624119 1.45121712632 0.170480274125 -1.91535526309 -0.132921069944
</O=ENRON/OU=NA/CN=RECIPIENTS/CN=PDAVIS1>Meyers, 1.17963150271 -1.96213223126 0.265497529861 -0.921739069013 0.192279774693 -0.99888415497 1.4518722723 -0.289167672417 1.57256664513 0.644798543386 -0.0152537177894 0.367173176062 -0.248066280335 -1.61047641876 0.041356578265 -1.6798070236 0.89721731588 1.23811236563 0.600057599323 -0.509354865299 -0.61258394814 -0.0662111272481 1.2022272911 -1.3161651104 -0.705347943119 -0.910441264567 0.0413589782309 0.499522941672 -1.01323751715 0.877023538306 0.721373271149 0.997430030259 1.35662658146 0.630682727942 -0.697832901788 -0.0572459599838 -0.645990761853 0.457314917343 0.437955960024 -0.354581179547 -1.13304161882 2.04009979972 0.297489881353 -0.983781332312 0.577087103057 0.875844048327 2.44119579594 1.61063471559 0.223629495287 2.16794165849 1.67405428746 -0.0279825864085 1.06777919262 0.45164634571 0.323171641189 0.888091264185 0.0536814493433 -0.841719856818 -0.321267378476 0.48868031497 2.34100474827 -0.00789831293988 0.464047983322 -1.0104443518 -0.158892218879 -0.640200331172 0.830473548448 -0.456523293086 0.345963563399 -0.131593546528 0.742632841478 0.137448127878 -0.0687553971493 -1.12375641632 -0.810294794975 0.0184682439027 1.62978835125 1.53744281278 -1.06144822878 -0.310022143037 -0.616934574942 -0.585481192941 1.76054087651 -0.403521953973 -0.110884764735 0.367279454138 -0.860264086886 0.082240401805 1.36944198493 -0.025640249853 -0.118482623863 -0.852558970112 0.0882952150855 0.722214326144 0.333473067445 0.191358873731 1.41591360346 0.223181147744 -1.89821326264 0.171589317932
Albert 1.52853606695 -2.17257168509 0.493291162046 -1.00086664398 0.301615849959 -1.23277351673 1.23992502775 -0.676786062661 1.99042268914 0.174667141909 0.328477065187 0.541824433931 0.204224031873 -1.82560438854 0.548427696987 -1.62969915175 0.424907381911 1.45445276405 0.222386553798 -0.527993053844 -0.572349301528 0.441429752437 1.3506439093 -1.77990943953 -0.602451719583 -0.912049979276 0.0726886494499 0.315731355694 -0.87360386089 0.811085958789 0.845153258529 1.0341169309 1.29864296314 1.06206339743 -1.1482205522 0.581998638717 -0.91667433767 0.536203950048 0.196305864681 -0.346313656934 -1.04080865178 2.44764097055 -0.3022198073 -1.00986771327 0.950587789628 0.809363370793 2.54588570122 1.5868204151 0.0385134636029 1.81352910608 1.6321020519 0.173052283032 1.32743964319 0.629182804366 0.240392307669 1.05140417157 0.157945833996 -1.03693191862 0.162443895848 0.366930878269 1.87198078639 0.742890182641 0.0821062224336 -0.83172097603 -0.341436203896 -0.373537678898 0.671917468816 -0.479105703256 0.288771852571 0.139018568163 0.671514206175 0.174869402292 0.432360037613 -0.978724245412 -0.567518996436 0.36627606679 2.04254710799 1.5861811615 -0.986434829817 -0.399505784958 -0.251835482303 -0.522127859489 1.75031909925 -0.193911861449 -0.495481376854 0.451355606004 -1.02508415479 -0.476920383367 1.19205455488 -0.210354718288 0.0595868049444 -1.29821484374 0.237895820322 0.615530979245 0.259447949508 0.520306028214 0.946598747167 0.117706260222 -1.38238416488 0.765795884752
</O=ENRON/OU=NA/CN=RECIPIENTS/CN=PDAVIS1>, -1.67018354042 -0.430477909587 -0.0173502036614 1.08004030552 -0.647833140712 0.839302291452 1.2864229495 -0.588608311112 1.61430601594 -0.535557390289 -0.305819378704 -0.451609834193 0.517673763126 -1.45615037347 -0.915969669137 -0.568735795144 -0.692369381372 -0.128355873536 0.795128739674 -0.769032382768 0.434617511704 0.37628002117 0.992973555827 0.316379559158 -1.28354355229 -0.738385259611 -0.700035202475 0.900850869462 -0.886795496017 1.26245712295 -0.163139390318 -1.74632758426 -0.173414214388 -0.781155329844 1.03125698303 -0.811622357344 1.34234582754 0.381370437584 0.455066935612 2.73257879817 0.627495348009 0.710139022144 -1.0934656047 2.00911101167 -1.04733385464 1.01722350043 0.744936116041 -0.448221145395 1.20671986124 1.60609425052 0.933017898231 1.36925554816 0.649209903285 0.703305233291 0.944585085867 0.0324820006529 0.216757484835 -0.956618469121 -0.930944135235 1.23737398798 1.10934099542 -2.57674365119 1.13674724087 -0.278142123082 1.79344390298 -0.520169841559 0.73324101175 -0.0302694924684 -0.851017536382 -0.90177132879 -1.17247132959 -0.58554624561 -1.96998936273 1.98168914346 0.177701095937 0.328165001409 -1.07441373655 -0.746620416458 -1.36295472983 -0.235728205053 -0.516132235009 -1.45197768596 0.400206147474 0.217423032116 0.628742470499 0.0508222946959 0.492287553278 -1.02715788872 0.210202984309 -1.42317111705 -1.16952569069 1.25015066895 -0.13286791826 -0.627888329293 -0.088221942594 0.66410068205 2.49304559118 -0.649263559214 -2.46961428285 -1.55546538152
john.anderson@enron.com, 0.0781792970415 -1.04752595651 -0.0901281762662 -0.341665770363 -0.205121226111 -0.163836677511 0.978023826906 -0.271249485834 -0.0416076424089 0.233498087525 -0.348521253119 0.510042212987 -0.00563498535791 -0.399521218001 0.129965907048 -1.37884497911 1.04798969944 0.113892998543 -0.0125642116791 0.597030815749 -0.650112339912 0.109022974626 0.134317516896 0.757733039588 -0.560743840945 -0.0996849265787 -0.548359679354 0.638209967586 0.368904321156 0.798930624151 0.698492611642 -0.0775499831483 1.23992273891 1.47207328736 -0.797130817952 -0.384295329918 0.527455906914 0.254002704713 0.712463085664 0.00124535383736 -0.174334002006 -0.17584183111 0.638557371851 0.441534124066 -0.190057195752 0.231470977379 0.917707730052 -0.821071275712 0.342140026491 0.502435731469 1.02165507941 -0.150768054313 -0.433506086019 -0.21794234884 -0.301058680846 -0.746416703074 0.603538841171 -0.155690723125 -0.527794912276 0.15414760231 1.47061241555 0.522730143885 0.392035039313 0.223450495216 -0.680034558996 0.0381093790643 0.334820326995 -0.182186480946 0.473062979817 -0.052613957042 0.0813449179785 0.673867560875 -0.131840820893 -1.14696257079 0.349208635361 0.233725731452 1.15795847397 -0.47184757334 -1.13718853656 -0.377824225072 0.233981256907 -0.00344648044858 1.08948049125 -0.27817229816 0.0957768891096 -0.935581010096 0.0525059532892 -0.322289916966 1.32748957151 0.148659144778 0.223164016977 0.608073888376 0.521293621655 0.109783367219 -0.566351646921 -0.676844936721 0.672430938139 0.302309278583 -1.55727667371 -0.525899839817
michael.mier@enron.com, 0.532665724595 -1.11843380605 -0.0528324303297 -0.632386131231 0.457950047552 -0.150736630998 0.378714174791 -0.107506926708 0.279371876635 0.337020523905 -0.696908926358 0.695327902651 -0.0777082335645 -0.448899850603 0.534607157313 -0.978341020236 0.952091262174 -0.193968138095 0.0400348583287 0.844505576655 -0.173729538969 0.318922423504 0.212361859607 0.847594534532 -0.0482173580153 -0.214713447507 -0.637235866489 0.972351548398 0.317762483028 0.625068305644 0.668377218727 -0.151003517391 1.40787968974 1.56034504177 -1.25154330798 0.0957675861417 0.259539279656 0.0738230514014 0.329195370422 -0.291404729206 -0.830493538369 -0.215671308434 0.649207928734 0.337788166847 -0.300333732007 0.217306760348 0.740172950558 -0.494250414131 0.080758916794 -0.131805683242 0.610527993723 -0.539851506885 -0.231130402447 -0.221392481011 -0.464542445682 -1.12894581461 0.522393479295 -0.0682933506279 -0.168157868117 0.362996327076 1.08815065302 1.22705164723 0.260457961384 -0.141551929539 -1.46362462335 0.891838255256 -0.210794942803 0.279502824453 1.48787189441 -0.0746823944095 -0.0557269215872 1.0798398153 0.315251394381 -0.848582753535 0.569503734687 0.816219429238 1.29420467856 -0.645067933338 -0.421488670566 -0.337214018598 0.100291711774 0.831288568768 1.40587328358 -0.381070080929 -0.572429945424 -1.05144820452 0.210961894523 -0.112535565606 1.11939571547 0.191365654697 0.331016330865 -0.523877829934 0.424682140856 0.118089970174 -0.775972643712 -0.80786780415 -0.351789994056 0.733036160198 -0.668936946611 0.0191555943124
Mier, -1.73201177966 1.7809406726 -1.6783381934 0.165296180665 -0.653863143512 2.18494713281 0.986327799122 -1.29239580348 1.66243805155 1.38830282548 -0.159625227688 -0.361318404202 -1.32630140901 0.225738730719 0.339207600636 0.13917580562 0.122454204204 -0.734104304378 1.17140934814 0.113803432888 -0.811389755488 0.512318813439 0.214880656826 0.983815595729 -0.567368815513 -1.29443345991 -2.3522393812 0.54854797756 0.580851044814 -0.141991516072 -0.963402721879 -1.98990325799 -0.939751221983 -1.51161031516 2.03891808327 -1.17499737488 0.469195447379 0.740078466808 -1.39749308277 1.3068046138 1.07266210206 0.0523370785092 1.26526390889 1.80159306821 -0.488332648727 0.133321963353 0.0340048133068 -0.674301011978 0.243091217232 1.22415405492 1.19528764895 1.3959973041 -1.27978443849 -1.19003162145 0.504025623058 -0.490051778715 -1.96892487966 1.37572228236 0.931117540142 0.14437993592 -1.04783082224 -1.87684136447 0.143851772957 -0.803943507464 0.454464594194 -0.631148646041 0.715739497971 0.338010617359 0.182648718923 -2.17547386381 -1.34984126335 0.10394875149 -1.67096852059 2.09911792385 1.15370468765 -0.0583233958466 0.612484907651 -1.30531416479 -1.18048454527 1.38813065238 -1.95169409661 -0.0659144240712 -0.820891022265 -0.529641423412 -0.304435049886 -0.403205522017 1.12296896928 -0.397173244952 -0.918230107925 -0.924537426505 -0.809511874341 1.66793363352 1.95304853275 -1.0329159593 0.489045174711 -0.177953428619 0.176498175 -0.480400934953 -1.0698570761 -2.01033285244
</O=ENRON/OU=NA/CN=RECIPIENTS/CN=JANDERS3>, -0.897868827534 1.41459993606 -1.59652894484 -0.153674436407 -0.265082388264 2.43104111857 -0.464639587843 -0.974524641333 -0.454777017819 0.101953287366 -0.172761564809 0.479261392687 -0.797658454278 1.19104202787 1.35952654729 1.15480885179 -0.296749874182 -1.17851983157 0.534494813821 1.40156291925 0.203301552321 0.587775066804 -0.165916896369 1.39362650381 0.572955995362 -0.391916757126 -2.1922859091 0.285126314398 0.88508689257 -0.50381758734 -0.453880849903 -2.06800911086 -1.16961448359 -0.711444914658 0.779708291016 -0.44238321093 0.583732621667 0.763065845934 -1.82950261777 0.450465221155 0.714717117578 -2.36184074217 0.977919689279 1.81145393534 -0.616607500808 0.123099281028 -1.39194181543 -1.20119797989 -1.09718688147 -1.32323531851 -0.59175341565 0.464524444097 -1.68500372795 -0.728104782065 -0.0519250448006 -1.55532362674 -2.18855038203 1.61574027133 1.69482592132 0.0796992758065 -2.92047626229 -0.216084068114 0.101886883444 -0.359378388665 -0.514949076245 0.742410590244 -0.501020767594 1.17296583029 0.939761804401 -0.99817162616 -1.19600130458 0.776562835251 -0.377473898758 1.47349645248 2.1353749923 0.545353813616 -0.742789628886 -1.80540035468 0.496835504026 1.67256735891 -0.8073325865 1.41814703344 -1.31860638496 -0.641387919567 -0.584755772337 -0.369129911563 1.65732763734 -0.334644446048 -0.967091799943 0.154237387624 -0.114755204388 0.165594258416 1.5077616118 -1.04560677222 0.0888826839903 -0.316368320772 -1.09887691869 0.322086190394 0.797102440095 -1.0485038828
</O=ENRON/OU=NA/CN=RECIPIENTS/CN=MMIER>, -1.68028171115 0.715561206017 -0.639011437256 0.26652301863 -1.09770022483 1.73457807258 1.7937207743 -1.33161523734 2.35090135936 0.824519509071 0.0072584604793 -0.555116115924 -0.261925119053 -0.556695538448 -0.212448204978 -0.484229531411 -0.32007023391 -0.316708579208 1.27210999424 -1.00102588129 -0.716377102008 0.602955717642 0.592924297177 0.42946689699 -1.16025828361 -1.11967417267 -1.8420907619 0.58887321257 -0.35479478443 0.262005780185 -0.708486251216 -1.90082776513 -0.505752607954 -1.28662835656 1.84463903061 -1.21937004925 0.793547305108 0.705517726801 -0.438504806667 2.01149823427 1.1236140186 0.883188428996 0.334472413825 1.85457892301 -0.0980524438022 0.37224637416 0.512524761793 -0.232269519877 0.870978274594 1.68639068976 1.59717645028 1.93632290961 -0.390483406397 -0.804674497168 0.766092766119 0.648432161736 -1.14212670623 0.246312816132 0.133524043376 0.602360825875 0.305692655926 -2.5948738568 0.557437999132 -0.343013155301 1.21273330459 -0.925905970526 0.620151707915 0.142411299453 -0.856558907215 -1.67559440976 -1.31835259839 -0.421452763546 -2.20075163771 1.87401804289 0.620042417449 -0.324569267556 0.439127289226 -0.757615787748 -1.97077267241 0.696657709231 -1.74817408816 -0.98453249865 -0.0763776803469 -0.0522177818324 0.102510478714 -0.266934671233 0.897685951691 -0.910484623795 -1.07510107603 -1.40778520586 -1.01120121156 1.87037665839 1.27645528445 -0.870674584078 0.205326471938 0.346585380453 0.878162050484 -0.96435615338 -2.3910497451 -2.09559082115
</O=ENRON/OU=NA/CN=RECIPIENTS/CN=RSLINGER>WILLIAMS-W3pete.davis@enron.compete.davis@enron.comalbert.meyers@enron.com, -1.19067263634 -0.918302224032 -0.0748618904946 0.431170704786 -0.902111250298 0.89138244179 0.697358846347 0.470325216024 0.045455074508 -0.106224630346 -0.894680303177 -0.466712905262 0.913673219322 -0.879142833881 -1.41007003264 -1.15042201744 0.583821699359 -0.501923604447 0.784340081983 0.128839859135 -0.0456847027157 -0.0727908593432 0.947701983064 0.65033769588 -0.516464053096 0.3311475295 -0.405891401281 1.20823288423 -0.80087476491 1.76791939594 0.757449586787 -1.03793314306 0.906799859729 0.223674251625 -0.311656237342 -1.27162286414 2.12780330481 0.0426225462138 1.18822986598 1.55042947712 -0.290013114078 -0.782568415399 -0.558582511267 1.83565475127 -0.97299807122 0.362174538828 0.388025142065 -0.950827901777 1.28641905507 0.712396015854 0.839889236171 0.646982801395 0.409487769121 -0.292616978323 -0.225524163887 -0.851468518985 1.42620452651 -1.22904120642 -2.05028367713 0.898222268076 2.58139549923 -1.73835735265 0.771459566251 0.416540606282 0.815359991268 -0.449000601831 -0.130769965825 0.368970251245 -0.955445879088 -0.0564245439836 -0.658748385888 0.276977747806 -1.90349063482 0.0313983449718 0.027600786459 0.347207692354 -0.942542618665 -0.797380279686 -1.38613447811 -0.585696094782 0.286560817198 -0.379261503112 0.733421012683 0.0770998256218 1.23237156949 -1.22356418608 0.0260645753571 -0.877640431418 0.839207739885 -0.311644129491 -0.0773802322525 1.19613607394 -0.42290041383 0.0919438595786 -1.12376144356 0.0638103181228 2.07382305435 0.145555054762 -2.53657901011 -1.43009830594
Chris 0.165014432903 -0.617953821374 -0.397170747054 -0.32787644369 0.00938793999189 0.407625499113 0.181102093623 -0.237130006401 0.381815902317 -0.0325328476527 -0.145672653108 0.284232180855 -0.0461113816643 -0.419213845617 0.442946103133 -0.444556472556 0.251410538413 0.137966289798 0.270990295025 0.491715796556 0.0674351642235 0.277044408226 0.54039128089 -0.102208460343 0.0296222726785 -0.244187077875 -0.804440447213 0.481498836275 -0.153434904337 0.485593148554 0.399583694223 -0.357713837817 0.268776679689 0.471505256791 -0.469505057946 -0.0546792552815 0.256461811311 0.504806261173 -0.29080593336 0.221033197068 -0.402367160807 -0.165977624158 -0.0705465111599 0.429453798173 -0.185292481152 0.32515894649 0.558687513058 -0.127437002889 -0.231235024034 0.2736385695 0.357246887185 0.0815602352832 0.11021977195 0.101781259882 0.0264196981585 -0.615256141717 -0.253099826217 -0.0619373009311 0.193512247048 0.329673005836 0.131744073458 0.330415282541 0.266548661867 -0.447830951517 -0.242320984374 0.207232052344 0.0300354037834 0.430419444369 0.535364821714 -0.0576650736988 -0.184426427374 0.463859428053 -0.100307466791 0.12190781409 0.512020033421 0.594607850528 0.195290076121 -0.268247508557 -0.139367273565 0.206683524313 0.0590074201 0.429282966999 0.400000673503 -0.247289483513 -0.0761914406484 -0.178465324457 0.140159961437 -0.50593043937 0.473427748164 -0.0367446569873 0.132849988508 -0.457807014818 0.330938526126 -0.13821525584 -0.227048232387 0.0283701214521 0.379987239255 0.271796821085 -0.559732095576 -0.160461218242
(E-mail) 0.0947399699881 -0.450386606035 -0.340133044496 -0.237497473132 0.0484466856344 0.281079713135 0.107635996925 -0.0635609465106 0.231917035425 0.0542946365398 -0.141228664793 0.190455132694 -0.0740770095729 -0.355794509419 0.282502826423 -0.420647030569 0.307845126718 0.120636237687 0.207883767238 0.461838684178 0.00484137357887 0.147923073518 0.421766873882 -0.0998658660913 0.0126228620427 -0.196608111574 -0.595045099687 0.396937109258 -0.105037414885 0.440805114791 0.368660629565 -0.217984383584 0.264384320377 0.404879364661 -0.442885429553 -0.10959681463 0.225526628953 0.371237103326 -0.188667670793 0.118763434143 -0.374422277007 -0.109319583594 -0.0186095450516 0.31526440544 -0.247080734485 0.218579754903 0.474865695138 -0.14711295906 -0.144291409992 0.301427988197 0.281134598412 -0.00209741121233 0.0945502407846 0.0850070935012 -0.00679975187036 -0.590232870625 -0.118200748696 -0.0681887969465 0.0468401956004 0.250997370525 0.236706054762 0.276581924645 0.228290442564 -0.367733812817 -0.20632921843 0.135881852866 0.0453603945441 0.322570211527 0.438530466265 -0.0587967702989 -0.117502353195 0.395874637177 -0.0972637161483 0.0585132050735 0.349153076723 0.454706966742 0.155696596389 -0.244287026561 -0.101938477462 0.119425181355 0.130802042421 0.334613457403 0.37073850273 -0.229396498282 0.00957390630422 -0.181041050787 0.0565257588941 -0.376135380761 0.5085744104 0.0178403184543 0.129292919373 -0.330125501463 0.218430193617 -0.0743954726933 -0.195082393538 -0.0342396104161 0.408987508179 0.267436280405 -0.465382106883 -0.145128145681
e-mail 0.0922976350136 -0.427006283119 -0.159197032899 -0.160934526442 0.0593172102083 0.0866081723103 0.14258302371 -0.0630042936386 0.119666892092 0.0537965784375 -0.141710997911 0.209487067821 -0.0590116319131 -0.24922099069 0.178368148642 -0.366018457802 0.289110715973 0.076247397866 0.0861917985326 0.315623701067 -0.0452245257979 0.0790220290692 0.226857028835 0.0802136874804 -0.0664232304446 -0.143876411822 -0.327447732138 0.292107109896 -0.0106191120028 0.317870512919 0.292606413925 -0.0862983263041 0.335259941866 0.404668938907 -0.358460221655 -0.078638847409 0.145081207404 0.192865576268 -0.00360206147203 0.05537893042 -0.245571085521 -0.0772897083178 0.0651209881656 0.202964328808 -0.169857773756 0.182101699429 0.369707130934 -0.138336349072 -0.0488767343494 0.194048191642 0.246057069109 -0.0663236110539 0.0113127141544 0.074716411825 -0.0453931624067 -0.398725040078 0.0409780220883 -0.0675612937022 -0.0333265687099 0.173521189629 0.311497216646 0.216679625473 0.182950299506 -0.17046133136 -0.223008073909 0.132032644799 0.0568370164008 0.108236856003 0.35657641601 -0.0547963277111 -0.0364508974549 0.316689326835 -0.0113372293141 -0.12274928144 0.221661637964 0.278257296993 0.210864573396 -0.159952523735 -0.157655566304 -0.00717273444201 0.0843193753472 0.176821745847 0.36298379859 -0.158248080665 -0.0374110089536 -0.195761498529 0.0262747263529 -0.179429143762 0.466009696416 0.0495915727205 0.0886944281153 -0.161829876279 0.140814976609 -0.00247264884822 -0.145715194599 -0.127817954253 0.276049797206 0.222686282601 -0.381873436537 -0.0941643581562
Shift 0.167924429609 -0.428856119097 -0.24631234028 -0.211345516216 0.0506821293135 0.18440103682 0.0796054360141 -0.00146392985108 0.205068290857 0.0517798428508 -0.0935273913918 0.136905411312 -0.0325304967013 -0.324341490348 0.207844081416 -0.356410263837 0.25579818088 0.157100788972 0.182679795337 0.328979321329 0.00685640169085 0.114476559453 0.407752533452 -0.195986819941 0.0311755049654 -0.152721959092 -0.417279457354 0.309601361835 -0.150452098904 0.369055452676 0.315440799001 -0.0992475114778 0.241842131617 0.309970735524 -0.405114920052 -0.0810715133214 0.128880393215 0.287974931717 -0.110448904007 0.0203720633283 -0.368075482535 -0.0188048159759 -0.0615409684825 0.1645491261 -0.142545551343 0.188260047925 0.456686675092 -0.0219056477525 -0.135472059137 0.292059151415 0.218670511849 -0.0126899151214 0.167140585366 0.0949471467491 0.00214582902165 -0.439911078523 -0.0685436717462 -0.115610088759 0.0330928794392 0.209211188107 0.256468584939 0.243075722256 0.170792684956 -0.31858921463 -0.157196080356 0.0745981089614 0.00760601360806 0.268276499776 0.309319693501 -0.00336335330627 -0.0366629123754 0.31979207739 -0.0831520930489 -0.012360858149 0.215630911474 0.3812081975 0.139217048619 -0.111684548588 -0.0809790780845 0.0688385989347 0.115231981574 0.285825248369 0.324985143898 -0.172803396944 0.0423069886725 -0.118278598253 -0.0245480627588 -0.304757544034 0.428421364045 0.0424229370422 0.114004312733 -0.362425077281 0.126599446941 -0.00380745397344 -0.154318202887 0.0142762433266 0.368315800848 0.227892457321 -0.376970676372 -0.0697668642086
Jeff 0.0826469229706 -0.45954968464 -0.336685754609 -0.237757292815 0.0220398205181 0.296252253826 0.137757696401 -0.130366671495 0.268788653508 0.0108814298965 -0.137370240477 0.214483256401 -0.0557231576663 -0.331533133113 0.305709172403 -0.439855609356 0.288743167109 0.12040196951 0.202135173013 0.443952593204 0.0194271414363 0.179931330039 0.391779958709 -0.0487003278354 -0.0141552636852 -0.184400750508 -0.648059457079 0.40302672899 -0.0858952316628 0.444106117152 0.373858628548 -0.262966847171 0.238579884732 0.43833119569 -0.442900244112 -0.0798628993161 0.245595012512 0.405869225563 -0.201040336872 0.18014732069 -0.325710985038 -0.107931058164 -0.0249078490377 0.351905801542 -0.225030473178 0.208877345655 0.470106536417 -0.198520288352 -0.146415837107 0.256727079113 0.313040455111 0.026072079908 0.0834343564134 0.0571158144335 -0.00429551732944 -0.584836620863 -0.112830054171 -0.0547847929806 0.0650971899213 0.27429800865 0.195262888601 0.312423637254 0.221092958506 -0.368887568647 -0.222728224471 0.152807489515 0.0382212953607 0.329345826881 0.469265341288 -0.0459787666065 -0.126605774073 0.378219236113 -0.0737295642607 0.0660389311501 0.391995062193 0.477395476576 0.177925719833 -0.274882729703 -0.133311860057 0.0981697808621 0.119161411136 0.338057076031 0.375287759777 -0.22334465014 -0.0401730164158 -0.184243706629 0.0884211335487 -0.395602440272 0.483154125973 -0.0499781617883 0.12567669773 -0.307837113117 0.25042954524 -0.118842334045 -0.208720892965 -0.0206976056406 0.351435307472 0.23371656053 -0.490818233053 -0.135627009347
Tim 0.105676409748 -0.48285096558 -0.317070485362 -0.240991835371 0.0277653105935 0.280809442114 0.146700026486 -0.125327336658 0.232721497957 0.0161284082991 -0.148853495277 0.224213560772 -0.0545370329184 -0.319903561436 0.300276578313 -0.424843192205 0.288848008727 0.0926565051556 0.196304749692 0.446991567303 0.0171140084462 0.176992024183 0.388798295797 -0.0166430411535 0.000683082084522 -0.18518564143 -0.615126468226 0.397160321832 -0.0747356721406 0.427253220674 0.370034694452 -0.250671698981 0.281383706099 0.448838809376 -0.429650400492 -0.0899206607738 0.242149258836 0.366215545659 -0.171641023796 0.153442056188 -0.335226695591 -0.149270020828 -0.00408911382944 0.343202960937 -0.222511030836 0.222063147184 0.455890666101 -0.182018885399 -0.139262837577 0.230860693518 0.299423151343 0.00844090722354 0.0563499740413 0.070429927559 -0.00791804549431 -0.575099346069 -0.102878444873 -0.0564444499167 0.06585691883 0.259062482979 0.217789834447 0.297992850304 0.223915042174 -0.334785057249 -0.24296488695 0.167679368174 0.0339103362445 0.309083352671 0.458995246527 -0.0502884660956 -0.122745059642 0.399256217063 -0.0721501294842 0.0282216163593 0.388458607423 0.463768763988 0.180559700231 -0.259953816057 -0.135586768135 0.110878328493 0.100252700069 0.330936329816 0.385718674679 -0.2148957406 -0.0354789017517 -0.200350240764 0.0950263130157 -0.379583492032 0.481523184384 -0.0130673847394 0.128977911689 -0.299002634519 0.242827320775 -0.0863313907262 -0.211753991145 -0.052372446598 0.341224431661 0.250523926509 -0.479947592949 -0.148471795159
</O=ENRON/OU=NA/CN=RECIPIENTS/CN=Bwillia5>, 0.0898119838221 -0.178847371256 -0.0506411813611 -0.0877044027616 -0.0227459566798 0.109952658023 0.0454931233349 -0.0781701956623 0.123664092281 -0.0398661020772 -0.00905921830448 0.0424656358136 0.0321629769252 -0.105575159827 0.0892342499297 -0.0398388206346 -0.0264142283766 0.0331008834669 0.0981451857891 0.0179420985214 0.0501318836684 0.104987886034 0.194946525037 -0.105891421842 0.0420501206314 -0.0480405279179 -0.132634068085 0.0811404158223 -0.102575246146 0.0749620500931 0.0422527753498 -0.0704131611239 0.0249386152202 0.0135826306604 -0.0442985226501 0.0116860084342 0.017887378508 0.0985790762235 -0.0638811727236 0.0328987409513 -0.0999573430215 -0.0235149077333 -0.0812332360863 0.0695242239129 0.0516770281702 0.103303917549 0.115254773083 0.0900498295358 -0.0709381470483 0.0572580266634 0.0481430390484 0.0765127504801 0.0751053221455 0.0459314732736 0.0350834634504 -0.0284666711993 -0.116663453424 -0.0513359554446 0.100761618713 0.0673046157318 -0.0118662693099 0.00398701006855 0.0410682424601 -0.0928638353537 0.00406591453054 0.0175603635452 -0.0415330933502 0.113947518608 0.0101815909769 0.00962438119545 -0.0534046683431 0.0765964485812 -0.0612438250835 0.0440601320739 0.0903044080507 0.121897101302 0.00396434483684 0.0222350693423 -0.0320240728377 0.0849860160019 -0.0479609858785 0.0937228330115 0.0281335586936 0.000428837819365 0.00910705723019 0.00875789933753 0.0271638123372 -0.134671112599 -0.00823996970885 -0.00108511888729 0.0151570328904 -0.161338585952 0.0421730299344 -0.00184085902856 -0.0403532279425 0.0820297500362 0.0600710534465 0.0361787941499 -0.102763959836 -0.0238983483589
Mike 0.123072148955 -0.462756163581 -0.290655732018 -0.238841974856 0.00409353901443 0.281035446848 0.159253925146 -0.17149802699 0.288905676878 -0.00815422754939 -0.118203780085 0.206919819844 -0.0335879345928 -0.322497833498 0.295699772376 -0.349916528283 0.209219386328 0.102194182764 0.192920722489 0.358264690624 0.0266955431455 0.206660087526 0.404852937254 -0.0596121180281 0.00178809923964 -0.191131216646 -0.579739867915 0.36216328388 -0.102305136059 0.367864927516 0.306202171342 -0.255751310994 0.219169225681 0.360338435644 -0.360390588716 -0.0556048683872 0.193061389217 0.364620490696 -0.187737523471 0.165311412412 -0.294839486328 -0.0967108039021 -0.047575550254 0.311323521172 -0.134962548279 0.232249636529 0.435187627994 -0.102943798691 -0.145199013142 0.226027244374 0.287649459126 0.059927117438 0.0773724474934 0.0589294840486 0.0162640452612 -0.448539834489 -0.148134280606 -0.0548004722928 0.114872986629 0.247674385673 0.14709866304 0.235719010473 0.19875417883 -0.326018495995 -0.186064611522 0.140161374143 0.0261762411227 0.306907934532 0.386401866277 -0.0505508100902 -0.134304485621 0.349112117641 -0.0771913466623 0.0772486325247 0.368806834352 0.420322809037 0.156017030794 -0.202934759556 -0.142352492228 0.123399257923 0.0451791219538 0.302278628679 0.317827720294 -0.171062094001 -0.0494028539555 -0.144866132941 0.10272956039 -0.37358273425 0.365348081325 -0.0332661721774 0.0996464395264 -0.310300171498 0.241541092611 -0.0924566876166 -0.178917341109 0.0147217637821 0.28810598005 0.193546728238 -0.44025026548 -0.127754161448
Robert 0.0956040830056 -0.494224039763 -0.360694650918 -0.26187615776 0.0130453711958 0.33681914689 0.141097201586 -0.136443236179 0.244478208061 0.0097895726028 -0.163339381627 0.234863278738 -0.0561563611666 -0.334630965359 0.32553299575 -0.444207915056 0.301332512434 0.0910160860433 0.214660302737 0.485828278711 0.0199839246543 0.195957354605 0.415206953885 -0.0220409747401 0.0138425508281 -0.179571163637 -0.693505378282 0.431882875531 -0.0825730437325 0.458993037506 0.379170062669 -0.300712985926 0.26949420365 0.459150268353 -0.459555113649 -0.10526237442 0.269165908206 0.415147773951 -0.213788271267 0.168139711153 -0.346533718807 -0.182094779255 -0.00853181765613 0.386683054914 -0.237037494846 0.223551655637 0.45903622965 -0.208891881381 -0.158978183199 0.228838829532 0.306929702663 0.0226613927559 0.0563192811612 0.0424149898556 -0.0112987567306 -0.627279317094 -0.129923040352 -0.0480595679517 0.0757912051417 0.274261309085 0.196395819444 0.314680380808 0.233661704248 -0.368890201555 -0.258293780437 0.169128645997 0.0227036550292 0.366844258659 0.493436689611 -0.0423802529546 -0.151221525615 0.427419180713 -0.0774910648098 0.0548389180331 0.427989376568 0.505774516877 0.168405951287 -0.292643012371 -0.134020692896 0.139900903864 0.116501781362 0.384681144902 0.380318552836 -0.236729657603 -0.0385818268974 -0.22088083423 0.118246596036 -0.416704604937 0.48377272035 -0.0236562157287 0.141634698516 -0.325737106597 0.263423831433 -0.105970975568 -0.230711777217 -0.033855792007 0.351124070721 0.257827084057 -0.507162463496 -0.162286525038
Tom 0.0863060218557 -0.46704327286 -0.324646682747 -0.235935649057 0.048078086922 0.274339929372 0.133669221106 -0.112967527163 0.213474827223 0.0347140273342 -0.159722501585 0.232200615887 -0.0759276442823 -0.315316323643 0.30075124897 -0.428312645539 0.306119079713 0.0890969533997 0.188973133226 0.466735487933 0.00350797197016 0.151656420955 0.376634516809 -0.00286319243835 -0.00716961339979 -0.189545314079 -0.604097093362 0.404894556173 -0.0670246089933 0.426244860779 0.364734570701 -0.251570423762 0.283449039224 0.448709866428 -0.429829216624 -0.101353911051 0.242049128741 0.361880463234 -0.174599548946 0.149127572563 -0.328998691115 -0.160604460017 0.0231914870698 0.339468490682 -0.242179850577 0.221241029303 0.45556417736 -0.198637956233 -0.134832477664 0.247672803086 0.294276392311 -0.00779698754419 0.0403229900568 0.0604146665196 -0.0138337658606 -0.588685905218 -0.101267489532 -0.0467637171148 0.0560669031272 0.256457314673 0.219365787467 0.287061961286 0.234953859906 -0.327480815322 -0.243393408689 0.166728333887 0.0413654956061 0.30030495883 0.473488113889 -0.0649624034673 -0.124202452019 0.402395755656 -0.0659607604036 0.0221764568298 0.37588557429 0.456496484944 0.179275751298 -0.270332575443 -0.130882311891 0.107755988732 0.10594018484 0.331222985966 0.379968839693 -0.24133284283 -0.0308059615421 -0.211971612899 0.0939836591858 -0.362139130186 0.512435712062 0.00268703346352 0.121561390666 -0.294625512476 0.24137667585 -0.0881154888166 -0.204536441167 -0.0744410786875 0.358313383848 0.259453513221 -0.476640889292 -0.147324499364
M. 0.0450420189196 -0.3462053983 -0.297480631622 -0.196448100122 0.00102810169414 0.32647586375 0.167799221854 -0.206205911213 0.316290346512 0.00496828517214 -0.122669225259 0.18305259221 -0.061774264134 -0.263971808968 0.308710861442 -0.299241517913 0.177826919507 0.0839612634261 0.178283153641 0.320776488802 -0.0141817732288 0.205608951144 0.337397536862 0.0222257897048 -0.0372862026134 -0.206758219842 -0.586388200039 0.320943572162 -0.0405143392297 0.299949526932 0.249181823774 -0.303969828863 0.171713312998 0.310685830564 -0.273008866372 -0.0724334840244 0.194585144076 0.34689875674 -0.190250746099 0.204390674266 -0.192252955211 -0.0984676922877 -0.00806513321537 0.361226415915 -0.146024060618 0.196815885036 0.378574711977 -0.160348529272 -0.110830686135 0.189659315993 0.269460484594 0.0979395507753 0.00452781858725 0.0181772011244 0.0186915455688 -0.424054601193 -0.169901986193 -0.0169636869298 0.140603720938 0.237898162564 0.0607952818228 0.197441440042 0.172779565739 -0.29819001072 -0.168768225295 0.145065480125 0.027246130249 0.28298354371 0.376693518169 -0.122770329432 -0.158370912356 0.321150244866 -0.0907754498014 0.136832249342 0.387862578793 0.379621499313 0.164595895895 -0.259656666356 -0.157461965742 0.120910550535 0.0131571686549 0.267701805881 0.266105661056 -0.164039624574 -0.0931884570237 -0.149421610597 0.139100931074 -0.348164963797 0.315260931778 -0.0744949073362 0.051242928152 -0.23409149489 0.272704369838 -0.148056306181 -0.158629638095 0.00683144064276 0.221131766663 0.155619800797 -0.397365311627 -0.149677787952
David 0.1251323752 -0.529941268701 -0.294063323161 -0.265641506875 -0.043341788246 0.393741061806 0.1781011204 -0.267593189971 0.350083550288 -0.0761268047829 -0.113859517338 0.227819907124 0.00581477054857 -0.359532961401 0.352458588043 -0.331582989279 0.140527005452 0.0902261716492 0.264123616891 0.347504227335 0.0746573363615 0.290553112763 0.481756807792 -0.07542203454 0.0266069639119 -0.21214695897 -0.675311315384 0.395168971669 -0.148351861482 0.383676184307 0.297564268679 -0.351323865901 0.190842874009 0.335370339486 -0.325279984367 -0.0414916932732 0.22665560996 0.43922180369 -0.242713618559 0.23993077367 -0.29140406287 -0.166826051512 -0.1022414483 0.40999392253 -0.104754046416 0.298492953271 0.429309649896 -0.0806800334533 -0.168606254915 0.210040017112 0.285890487139 0.152800645564 0.0855198304441 0.0814389813055 0.0528137860458 -0.441827124229 -0.263101144189 -0.0781430920132 0.195443673398 0.281515142146 0.0644865325043 0.186516327924 0.217422379982 -0.343571912992 -0.169360169292 0.164001771619 -0.00220389130096 0.365946528279 0.356599430144 -0.0545891139218 -0.202396548136 0.374278811641 -0.135883292859 0.165317962798 0.452908678167 0.476181790224 0.113665308908 -0.216551206539 -0.153968984251 0.215418672613 -0.00708424861798 0.34095473158 0.27994235444 -0.153947740304 -0.0541806449216 -0.142046652771 0.169395199927 -0.457254773987 0.292070454859 -0.060999371105 0.087291004624 -0.351550028072 0.267670629282 -0.130515977098 -0.205365536001 0.0754128214003 0.288174215052 0.182060725875 -0.494358516519 -0.16589343103
Diana 0.0967347017664 -0.390566587266 -0.274096739961 -0.213071113626 0.0188022631574 0.23664170571 0.106383131752 -0.105655880461 0.203429362944 0.0222925043514 -0.119947973691 0.176801754374 -0.0455686222836 -0.269038196245 0.249809984103 -0.355035912177 0.250034523231 0.0928416012782 0.164840998168 0.383868001758 0.0174623032959 0.141031458438 0.331973820943 -0.0557582294354 0.00148066912019 -0.145874288221 -0.521582367238 0.33516707462 -0.0779277706098 0.366430713629 0.305947890896 -0.208785944992 0.217246033096 0.363773642778 -0.357564886924 -0.0632511279076 0.196078452665 0.3280612114 -0.165953119398 0.115623117516 -0.275933394301 -0.106660003413 -0.00732527022066 0.267827670106 -0.170233640772 0.176809504389 0.3765144042 -0.145253913469 -0.124253431083 0.215089394095 0.255201131516 0.0172272614946 0.0643904435025 0.0439023817108 -0.00502294141997 -0.473063286405 -0.104582444061 -0.0468398914889 0.0504398390397 0.210366785067 0.168316365362 0.256727294347 0.179813215385 -0.293069911808 -0.191585326537 0.131088475129 0.0339663028579 0.273165634797 0.387945802688 -0.0287437795152 -0.0951849145249 0.323329805656 -0.0579591190737 0.0302891253524 0.307665696481 0.385572377711 0.15265837556 -0.208900791452 -0.100468056305 0.109678715307 0.0916077173073 0.285165469994 0.298044430567 -0.18229593738 -0.0229781754615 -0.159534275627 0.074731957549 -0.322497914502 0.394285210797 -0.0168601995379 0.124717124953 -0.264658353791 0.214855529151 -0.0804090443921 -0.177666208647 -0.0322320417829 0.280070596482 0.202949254106 -0.398570997718 -0.115983478073
Paul 0.143818255086 -0.647593114368 -0.401065069352 -0.329545651097 -0.0711826673984 0.535738392543 0.215741870048 -0.356180178292 0.448098830391 -0.126363101734 -0.147892536495 0.284920932779 0.0119231714258 -0.439903731353 0.466503851438 -0.395170064892 0.139907236921 0.10187020586 0.345979404662 0.438757484531 0.126561408162 0.385703999131 0.616307037984 -0.102876726565 0.0515186394323 -0.258865133225 -0.890532692896 0.49301716674 -0.194886226018 0.478988170356 0.364249983608 -0.493338375921 0.199426705908 0.399079791592 -0.398162868122 -0.0443380596707 0.300491247753 0.581260960162 -0.33839739042 0.340168740547 -0.35341630366 -0.242825280517 -0.155043131626 0.556369467816 -0.134759375083 0.384156651387 0.511534362828 -0.110288854269 -0.234389201476 0.23180366845 0.350980388596 0.210703140375 0.10437715744 0.103175742942 0.0711159758132 -0.561476965887 -0.358794326806 -0.0812732142065 0.270115261593 0.36234710384 0.0185108369033 0.239873496169 0.265164275226 -0.439158537082 -0.198945609679 0.216853629601 -0.0138442454551 0.488665263981 0.456505819387 -0.052068266962 -0.282102687328 0.46637733807 -0.177119655008 0.241310683869 0.593319960964 0.624875081314 0.0953788751491 -0.298104613296 -0.184567392536 0.280653412696 -0.0151319214925 0.446113943776 0.321732181505 -0.188572001352 -0.0725587862364 -0.158550654161 0.229109224351 -0.600301588388 0.31762212184 -0.0977241477078 0.10856392183 -0.453225635293 0.352814869834 -0.192793433355 -0.255105222564 0.112868668935 0.346586814033 0.211091758819 -0.60454746913 -0.214717248988
Time 0.127197476729 -0.352582219234 -0.196241390919 -0.167005251398 0.0477594118296 0.131954311272 0.0673850756047 -0.00823904892616 0.15431633573 0.0422191695486 -0.094637407763 0.127970531699 -0.0303695978075 -0.248953653297 0.173307499352 -0.31051718592 0.228762002783 0.11582714986 0.126019029048 0.280257968145 -0.0105404128276 0.0840956607331 0.298902168509 -0.114923698331 0.0149706163745 -0.112139315357 -0.336308906097 0.25329135598 -0.0970532579334 0.300407838361 0.264440859441 -0.0787485102576 0.218587964897 0.291350553679 -0.345718903173 -0.065825930057 0.114189129624 0.224394439193 -0.0684218266093 0.0272550525719 -0.28757322238 -0.0281200252506 -0.0246960617601 0.136805821558 -0.131747474795 0.137394085966 0.362664298716 -0.0526403713194 -0.102546754509 0.214728321255 0.187248300838 -0.0346477602351 0.111619155347 0.070212884052 -0.0115677230066 -0.371479591419 -0.0183411051896 -0.0829066929029 0.00473311368156 0.162094112687 0.22452628896 0.215997366836 0.146569595169 -0.246867317826 -0.145675608265 0.0704130380897 0.016554546476 0.193908669655 0.279879298207 -0.0017782082518 -0.0302885573987 0.268339493599 -0.0476225326089 -0.0320877576795 0.183424339734 0.304664859094 0.125231459678 -0.110359854952 -0.0788015492281 0.0315769763349 0.101077565674 0.221889854376 0.288002634289 -0.148400492419 0.0222368667593 -0.118743185492 -0.0204081276905 -0.236696325654 0.369151466101 0.0355219129379 0.0971621625669 -0.271437974443 0.100350990669 -0.00822772571641 -0.133261796307 -0.0150064584749 0.287310907236 0.192470419323 -0.31108520862 -0.0608762468956
Real 0.116871358625 -0.340312833285 -0.178192126724 -0.147865098256 0.0471104512519 0.11545681847 0.077913532934 -0.0181034801648 0.144795186019 0.0302212040109 -0.0768638297236 0.122265373491 -0.0277975719957 -0.242744103452 0.16750921055 -0.291153251225 0.20502940167 0.11178829093 0.114542207819 0.26160252697 -0.00826744761268 0.0733172164232 0.275763238844 -0.0909078047376 -0.00482286322812 -0.119912630742 -0.308104193333 0.233746171748 -0.0895145699391 0.287786840331 0.245395820034 -0.0761992775649 0.208697773532 0.280272985736 -0.316383903658 -0.0500513103027 0.104924496914 0.209117021893 -0.0664836866598 0.0325769471255 -0.261757101386 -0.0170264935882 -0.0245579893612 0.132577670055 -0.134373008582 0.149729135513 0.348670003259 -0.0547434127733 -0.0910844700598 0.204006652376 0.17446795353 -0.0330458209909 0.104384655011 0.08694509244 -0.00204619253378 -0.342787489604 -0.0169298551265 -0.0836548714626 0.00833323249747 0.163414435116 0.209577313703 0.208374627916 0.139899356205 -0.231638385447 -0.129793507384 0.0775000091545 0.0297872345653 0.167075293013 0.268465513592 -0.00703392890273 -0.019168217508 0.249815691666 -0.0342107624208 -0.0309314464427 0.175385210091 0.275542903966 0.124081027184 -0.0997959172253 -0.0690556846169 0.024931904871 0.104490547222 0.195712240014 0.272246136963 -0.134493898254 0.00458959615047 -0.095497236206 -0.0132387289227 -0.211580649795 0.362032639326 0.0245769727635 0.0851910572999 -0.253583032978 0.0911121612803 -0.0150354243355 -0.115952857531 -0.0190608211848 0.271150960109 0.182457624129 -0.294494171006 -0.0461246899335
Mallory, 0.0658843199341 -0.223076702456 -0.174561320279 -0.1308217231 0.0135954530635 0.142372789467 0.0587776576415 -0.0470098141009 0.108661744489 0.037223853405 -0.0680148075571 0.102977181142 -0.0374172810183 -0.136719212219 0.160631912563 -0.209240190658 0.168688031485 0.0595545256391 0.0942335216003 0.225636106804 -0.00603422166904 0.0741241685173 0.193507908044 -0.0372305114197 0.0162782781328 -0.0795155648305 -0.313438883803 0.191987081949 -0.0509468043028 0.198589148192 0.174126109913 -0.100916336328 0.133719129412 0.209896443606 -0.2174425177 -0.0494493311134 0.097786497063 0.179775757375 -0.101136339445 0.0244144931979 -0.190717628054 -0.0591796254009 0.0296428906322 0.129008992529 -0.0973229866807 0.08942161462 0.232434708521 -0.0686931719526 -0.0968423356526 0.120549926715 0.147392277063 -0.0180611257498 0.0307554490945 0.00170671439527 -0.0189786881383 -0.28569466596 -0.0603569469744 -0.00979710347942 0.0374635592655 0.121624597636 0.0945877076984 0.16626524195 0.0981731871857 -0.183347853021 -0.127339556389 0.0668338076248 0.0135653944345 0.172974055989 0.234946541289 -0.0215961921659 -0.0367551188582 0.200239465766 -0.0258708643951 -0.00653203554992 0.181162007434 0.229779410459 0.114773906675 -0.108962701794 -0.0614450697203 0.0672257549695 0.0431847642121 0.192777743876 0.183690399211 -0.123726928136 -0.0152801531319 -0.0971281384289 0.0263137225732 -0.169888974177 0.225165233932 0.00793163187183 0.0685792906395 -0.175177281842 0.131873045216 -0.023906068735 -0.0950351867394 -0.0206251173108 0.161337662449 0.127134869249 -0.210419721623 -0.0590916041848
Matt 0.0848593339077 -0.449228794657 -0.316008318177 -0.228218752234 0.030407676763 0.258044692595 0.127189957152 -0.107912145008 0.216670708408 0.0307002606865 -0.155630973155 0.2199486799 -0.0646150090698 -0.294112305359 0.286244269316 -0.409600362241 0.304304792057 0.0884208010562 0.187101241517 0.446101520752 0.001260878826 0.148141429553 0.343396386192 -0.00624857736361 -0.0132137355448 -0.176934020875 -0.591755038288 0.387419552566 -0.0637349014978 0.405907678965 0.347793502091 -0.231112254549 0.264171989497 0.436166369911 -0.405901873858 -0.0968090523186 0.234055769815 0.351255090423 -0.176315208942 0.135004306748 -0.312275531977 -0.138178100254 0.025660264107 0.327915360867 -0.213591947582 0.200549799431 0.427000606539 -0.18436774104 -0.127742502294 0.226318721636 0.301073057224 0.00179790900934 0.0465422428805 0.0528146999919 -0.0101302855 -0.553334498407 -0.101537845414 -0.040308816505 0.0529215002449 0.230250482117 0.207132194609 0.284905705804 0.214353523165 -0.316406423005 -0.239633785368 0.157928723212 0.042288957868 0.292212967579 0.452050510986 -0.053296242716 -0.115537027709 0.383322522754 -0.0582464419501 0.0190104717668 0.358505523802 0.433184678902 0.187994841676 -0.252798037539 -0.136461708529 0.10250704833 0.094918958464 0.320463264852 0.358544255185 -0.214168291188 -0.036520863369 -0.204816273315 0.0944407967996 -0.35086564901 0.472116016266 -0.00606456141911 0.128161909428 -0.270709766865 0.247474708666 -0.0847878904798 -0.20128294869 -0.0597999364458 0.330594240747 0.243829045897 -0.461655752764 -0.14024249431
jeff.richter@enron.com, 0.0705199396719 -0.26104456373 -0.0847182717175 -0.127000233388 -0.000132648013797 0.0529684859217 0.102568630162 -0.026689056228 0.0371897560022 0.0727638670061 -0.103595473514 0.112790676243 -0.0267713046464 -0.0945282458272 0.0664193667266 -0.239740619573 0.218216503826 0.0173560635975 0.0654867420784 0.182594146168 -0.0753960524512 0.0468215719836 0.124208968907 0.0750462802294 -0.02054412773 -0.0401793217078 -0.18124126449 0.177374717416 0.00318838014884 0.160595044044 0.157857364686 -0.0335123308124 0.244324618186 0.253773070339 -0.199795515808 -0.0715646677108 0.094388785089 0.0912589605294 0.0324977351292 -0.0305765152512 -0.148772461393 -0.0828948972048 0.100213194327 0.109439488525 -0.0395352488168 0.0690270897675 0.181622815796 -0.0776346445739 -0.0100666081416 0.0916963203801 0.175377142377 -0.0347903663989 -0.0413151731749 -0.0404076441733 -0.0510564433523 -0.217986697551 0.0434099444031 -0.0176153720741 -0.0398702970807 0.0527686117644 0.236595803648 0.121814836877 0.0792097541334 -0.0513841993085 -0.17288509725 0.0462925415985 -0.000731989821585 0.0706154473387 0.174165569976 -0.0242827983686 -0.00805384535131 0.199601393947 -0.0307185275595 -0.158962894212 0.119254385561 0.124118825709 0.182656560164 -0.0805076360038 -0.152433439107 0.0100537928418 0.00153988031148 0.131892378407 0.211302379035 -0.0843153931313 0.000500974958185 -0.173614857093 0.024061890796 -0.0964638359777 0.230268468363 0.0559661218359 0.0894472846449 -0.0504719339888 0.0974172191457 0.0358337156317 -0.124966401838 -0.0985621984898 0.0902151863824 0.13109030546 -0.250936600724 -0.0854324864927
Steve 0.118006702954 -0.470049686263 -0.308235054082 -0.27079544425 -0.0622456624995 0.416893310628 0.167984340581 -0.256686619918 0.346131675226 -0.0564348547152 -0.102397775364 0.20640805731 -0.00637810374695 -0.311108789297 0.342778742238 -0.289473053027 0.119983868493 0.0671751908056 0.271527495991 0.315021539646 0.0713048702899 0.292241335659 0.466685465115 -0.087107627601 0.0510302834606 -0.190173228369 -0.671395613683 0.364726970887 -0.155068036571 0.345534060857 0.252879758215 -0.355730393642 0.151501314265 0.276215165839 -0.275352995222 -0.0502485248347 0.205435024051 0.42813461765 -0.260259726927 0.21313851139 -0.267748556495 -0.178684681072 -0.0876404823689 0.401946676292 -0.0770925124405 0.269163734311 0.380445678251 -0.0534757092003 -0.182774982422 0.189744076273 0.262280173936 0.176656026762 0.0625157890198 0.0437473309185 0.0510016615376 -0.412132568708 -0.292689975078 -0.0361715873423 0.215098733848 0.248280549025 0.00943648457419 0.163213503791 0.189317321653 -0.332480067174 -0.154388493223 0.136577605736 -0.0203925227521 0.373803410806 0.32741162043 -0.0486521285693 -0.207123797909 0.351503609723 -0.155011154159 0.171840757613 0.441749003454 0.458668788412 0.100073777605 -0.210553501179 -0.14809473473 0.237667294603 -0.0415438604721 0.347699139997 0.224343083005 -0.139831894943 -0.0416008603072 -0.133944330795 0.168752900453 -0.452986931747 0.21481478595 -0.060816559273 0.0920891591035 -0.334413894687 0.273319731708 -0.136328093267 -0.186897635988 0.0830705213053 0.229980231659 0.155178193605 -0.453413603248 -0.17487182694
chris.mallory@enron.com, 0.0626438016625 -0.237777593024 -0.0633168551522 -0.101760347807 0.0137261466261 0.0354582302695 0.0902298103358 -0.0411780781175 0.0358334857024 0.0410101589624 -0.0858110169573 0.114083564245 -0.0206986231286 -0.0828311943666 0.0757720513631 -0.195808754524 0.167941381857 0.0117353371034 0.0385773577092 0.151888291891 -0.0520173949037 0.0520324248717 0.0982239414949 0.0984534884237 -0.0337521486474 -0.0409554359066 -0.153053096746 0.149076081599 0.0226721277757 0.140852867021 0.144382069448 -0.0365755968848 0.218800423245 0.241986637967 -0.184644628056 -0.0337493035943 0.0845898859432 0.0755285361572 0.0338019776238 -0.00536208262714 -0.115756570983 -0.0774594468546 0.0673621392556 0.110057847846 -0.039234008792 0.0721534454766 0.163609297601 -0.0876384854006 -0.0125064809733 0.0553723722881 0.139521900536 -0.0305101207587 -0.0356937282325 -0.012563051041 -0.0550848611759 -0.191392359973 0.0563884854423 -0.0299411753531 -0.0235741604786 0.0629770328343 0.183782743023 0.131985347752 0.0717363547695 -0.0366798428215 -0.160092086665 0.0834594411521 0.0016140531021 0.0477633953521 0.17510099361 -0.0137675709686 -0.0100281804226 0.178546410847 -0.00313714424008 -0.133302290182 0.119483224026 0.128149883585 0.149417163112 -0.0919675359155 -0.110260168453 -0.00526308049997 0.027799019922 0.108632495816 0.18605288912 -0.061431716262 -0.0212865882241 -0.143354954067 0.0252581270133 -0.0893556049335 0.205860710109 0.0463009760095 0.0757747001143 -0.0508824469345 0.0859923381948 0.0233770245921 -0.108560678033 -0.093741967841 0.0731232584246 0.117719368575 -0.205392705043 -0.0564174041995
diana.scholtes@enron.com, 0.0593205329648 -0.245284413026 -0.0719692512585 -0.104003718224 0.00633195811707 0.0470051823628 0.104160624322 -0.042763123733 0.0454039742331 0.0493825149382 -0.0986404523383 0.117888168361 -0.018539708512 -0.0887901269326 0.074574853721 -0.222763192176 0.193806060727 0.02617590567 0.0424059168029 0.171233755493 -0.0618836763875 0.0454071516644 0.0916325084849 0.0942018237903 -0.0356081902113 -0.0416983008282 -0.173488799741 0.154544859924 0.0217100088411 0.156845279151 0.149503965317 -0.045343158399 0.221316801746 0.255446839819 -0.195665385649 -0.0466313535144 0.0888971815257 0.0905014550737 0.0306470353347 -0.00117761762791 -0.120419070253 -0.069272515682 0.0918451738471 0.114050519022 -0.0453782200039 0.0766178159412 0.183107816136 -0.0876488085257 -0.0054981812285 0.077460416099 0.159934695415 -0.0406595311459 -0.0399920989231 -0.0214077355994 -0.0508201849119 -0.204926202575 0.0515699428815 -0.0258205722415 -0.0384783902553 0.064298723353 0.20910702043 0.130620814922 0.0786272393195 -0.0533032065147 -0.171642978135 0.0578613702902 0.0171849980699 0.044053771616 0.186870194679 -0.0166523871646 -0.00532076873256 0.186102233651 -0.00639644537511 -0.147302561231 0.115930488853 0.124504363292 0.172599313207 -0.0887229750231 -0.137842741154 -0.0111288548745 0.0132757517732 0.107357525764 0.201662564954 -0.0738758121897 -0.0185401391401 -0.153791524066 0.0306639463045 -0.0896546426091 0.230203830548 0.0378078345215 0.0730278722254 -0.0369883775192 0.0971896848566 0.0198113158296 -0.10685044356 -0.0970584944762 0.0824150436538 0.109623148739 -0.236045655144 -0.0665753904475
Phillip 0.0865418663362 -0.413621228652 -0.301239042148 -0.214408941148 0.0267479252529 0.239428188526 0.105573607045 -0.0731689083723 0.189721686775 0.0368695081566 -0.140911054775 0.191056299394 -0.0505916884802 -0.276699655872 0.251505314063 -0.398086331198 0.288210222457 0.08715729547 0.174410376363 0.422182038361 0.0149898215558 0.130954156812 0.327010045508 -0.0372916101802 0.00667895197222 -0.142714674124 -0.55043046194 0.360979840175 -0.0817949737927 0.396552834044 0.339359532223 -0.209641480478 0.242068445583 0.405321833917 -0.402854695107 -0.0869382951972 0.225896900631 0.337573704186 -0.163193782498 0.117758208077 -0.30815954755 -0.127412518989 0.00709202023248 0.292466142584 -0.208118954064 0.182097444118 0.3969718445 -0.16460705122 -0.121439858756 0.213604752844 0.267294770194 -0.0126960271668 0.068276188302 0.0474495538072 -0.0183562393701 -0.52652100316 -0.0810379336814 -0.0443704036432 0.0288612304781 0.224867019315 0.208360710394 0.276681288529 0.196370003609 -0.309305725867 -0.213564447524 0.135194933028 0.0346803127396 0.287847457447 0.417632550428 -0.0359989609181 -0.0967027916305 0.355202953203 -0.0606395497123 0.0134684270982 0.32397645259 0.409557975328 0.164940309348 -0.233481467713 -0.111100317678 0.0880977378279 0.110619163701 0.312095881898 0.332013872441 -0.206642961071 -0.0122862847258 -0.181742391522 0.069416535714 -0.338409487178 0.443536945921 -0.00411575851826 0.129218895402 -0.271050264047 0.214410673683 -0.0758872489621 -0.196925427499 -0.0478115763811 0.32238937625 0.221252001967 -0.421292092788 -0.123001703104
Scholtes, 0.0723868253931 -0.362410386762 -0.277931295094 -0.206297347248 0.0251676459596 0.216196621947 0.096190437748 -0.0738966360312 0.176850368778 0.0391626807987 -0.123561276472 0.171574325124 -0.0541606047005 -0.254011644916 0.23447909284 -0.362414364415 0.26127028801 0.0840497421393 0.159121759975 0.384851415209 0.00166154341429 0.12678195991 0.29726187142 -0.0339207479561 0.00751370677311 -0.131595836481 -0.501933601057 0.320810876666 -0.0628672222561 0.35867945264 0.307946340944 -0.190466088561 0.217939189037 0.372704730582 -0.358253035819 -0.0740308877025 0.197794546336 0.298500984418 -0.147260591278 0.111367867994 -0.273347623411 -0.107976884794 0.0139311198394 0.255568273562 -0.188629029953 0.15069102161 0.364118034725 -0.161885003374 -0.112282004326 0.20565955351 0.255784871728 -0.00179267280373 0.0521633220327 0.0285199120259 -0.01471522229 -0.48235276667 -0.0772224594705 -0.0388664824649 0.031412032322 0.193124900176 0.186436133372 0.252949508488 0.1798059848 -0.281433221819 -0.202194355528 0.123089849604 0.0293854686856 0.25996643998 0.379705151145 -0.0360024639038 -0.0917118388728 0.31980743727 -0.050276734257 0.0119080527031 0.2935785568 0.367488120037 0.15220965344 -0.208698315735 -0.106678716975 0.0837028895751 0.1042220475 0.28398972773 0.301098522796 -0.190382114739 -0.0118160220492 -0.169004044499 0.0633150238499 -0.307142930351 0.399269571969 -0.00440145005055 0.126807963668 -0.233982075746 0.203791392871 -0.0727782673726 -0.177316912092 -0.0408547553589 0.278139633338 0.206016198777 -0.384285019929 -0.115229955556
Richter, 0.0830069490452 -0.359649369809 -0.25789809184 -0.191397923497 0.0282856674792 0.198190562144 0.0976769704723 -0.0548978645 0.16593204207 0.0376217573011 -0.120988795708 0.169038144029 -0.0530616902144 -0.243258723961 0.210914361996 -0.361055056433 0.280745487781 0.0969949211604 0.149290486077 0.366344386751 -0.00843436612374 0.106327303804 0.281210056315 -0.0322682156591 0.00256290077592 -0.117156247532 -0.477129922463 0.312913621827 -0.0665603699929 0.34563279572 0.301114278105 -0.159849837897 0.229293475261 0.366434829378 -0.370521395196 -0.0765773061231 0.178521048953 0.283639146519 -0.127014036045 0.0822611146362 -0.279449673603 -0.0895576070564 0.0243116837 0.229950080257 -0.179446098385 0.14391437299 0.362970941842 -0.141302562587 -0.103660397466 0.203070376723 0.246568763995 -0.0240105269647 0.0627594278173 0.0216555094224 -0.0173317752019 -0.464089389257 -0.0446716052975 -0.0444375261791 0.00828955802685 0.194429072285 0.207111222154 0.258920540779 0.165687189803 -0.27555087124 -0.201623504023 0.103904675772 0.0275315939717 0.248512956044 0.371362170684 -0.0214500673614 -0.0642643301098 0.31155036261 -0.0387543128141 -0.0231186861667 0.266250996462 0.354437168612 0.172350087731 -0.189718245419 -0.104532129159 0.0656642335182 0.0986111796968 0.276941520047 0.309934217166 -0.17913804465 -0.0164392043734 -0.169807874609 0.0412790968892 -0.281467204647 0.401582793992 0.0019208724071 0.123323709889 -0.230656648209 0.181887376745 -0.0517805991979 -0.170017944205 -0.0497737570575 0.274106949613 0.207013599702 -0.371328260763 -0.101395561996
