1593 100
pete.davis@enron.com -0.0721409807531 -2.41407791296 1.70815837182 0.509224330202 -0.061892067524 -2.30516671346 -0.158971163629 -0.851625774262 2.42369921696 -1.604337458 0.144293910853 0.300795463941 -0.850691288204 -0.48354111656 -0.88610221617 -1.07874806355 2.14017798207 1.25703016162 -2.02648356688 0.191641898772 -3.03979703967 -1.3858414714 -0.422151379802 1.9483644404 3.06728098112 2.36577118835 1.33682864618 0.727269434727 -2.01886305418 -0.510160864727 -0.13894696892 -0.0782368612645 0.783965529839 2.81303361124 -0.255085807722 -0.247800485406 0.175647071727 0.894605662663 -0.983796772367 1.92058252402 -2.64406825124 -0.130714552786 2.42761564027 -0.244596467771 1.45299131096 -0.468187628853 -0.889817658663 1.23008825819 1.41740484552 -1.57263299214 -1.27425702431 -0.432406742613 -1.32225732896 -0.469395313176 1.04618136948 0.171721381264 -2.13618660722 -0.229851422056 2.75903792917 -1.60475281453 -1.39023276105 0.00195175259821 -2.6537494398 0.869940082052 -1.99349886512 0.420613739508 -1.20753941658 0.356114314333 1.17896199588 -0.101574054193 -1.10766726437 -1.71231705594 -2.28801771561 -0.315319061678 -1.12011956496 1.13516888851 0.561038828482 1.8461154671 0.777957606806 -1.67250968451 0.20967178483 0.661825815543 2.05553593096 -1.39732153262 1.09771709509 1.01082914859 1.15540590061 -0.75468066499 2.2527323498 -0.475988940824 2.19926411808 -1.10005607429 0.165028000893 1.27855226556 -0.223481685205 -1.46137284042 1.37368852167 0.00269514400517 0.939846837335 1.53529641397
bill.williams@enron.com 0.518711996088 0.448909271019 0.0869814043018 0.431168151826 -0.914613066869 -0.761837528647 0.97127772999 -0.848759124206 1.26937732584 0.465369697473 1.50928868136 1.31251885432 -0.423279852552 -1.73169602873 -0.247898534013 -2.00207051278 1.3159250522 0.260636216722 -0.879053547609 0.525681772128 -0.783912882657 0.0642217023062 0.1098857179 2.17533195311 1.07093630973 1.63430379849 -0.630611461622 0.155591639664 -1.816932358 0.645532533869 0.181472937329 -1.41703684205 1.46279760229 0.922348544165 0.243045622085 1.31655040692 -0.674785073055 -0.446948601695 0.349312230423 -0.0617318866687 -2.6459555661 -1.1168846356 1.10353056938 -0.768736357766 -0.675488780095 -0.917192312801 -0.219500812006 0.44058310544 -0.735604656546 -1.07921901615 0.0753825291773 1.15346757824 -1.08906374296 -0.839634717444 -2.05843018079 1.87859682356 0.435553274979 2.19075152912 -0.632338303254 0.864405992725 1.7057002696 -2.13152508746 -1.2860547719 0.263722157024 -1.54091348509 -0.827542977879 -0.397538185027 -1.11913330685 -0.836542376779 -0.677914524356 0.528881926924 -0.550500661588 1.05686848931 0.302240303369 0.270279358005 0.622473056814 -0.19327236517 0.569006864932 2.46505044785 0.342300269938 -0.0803538396805 -1.35101810253 -0.907448020002 0.265892962492 0.213183619455 -0.138271707029 -0.20778278725 -1.47402828929 0.720268653307 0.812719275622 0.197560295352 -0.767481118912 0.322820762598 1.79038194537 -1.32982696554 0.0640376773986 0.873262168776 0.286720313988 0.732936613151 1.48233966714
mark.guzman@enron.com 0.51702942887 0.615111942915 0.998398340361 -0.191796040765 -0.116538342356 -1.95493524056 0.297539792334 1.54460903136 3.00148699135 0.234653898649 1.12000455369 0.684477486132 0.532024046342 0.479674548849 1.97582386302 -0.133392306897 2.23486672669 -0.405141649987 0.879056998637 0.497845559719 -0.656997272654 -0.0457568528157 1.46643949207 1.39200018251 1.66715165239 0.268715450286 1.3779342966 1.82095110956 -1.0471194729 0.416948725859 -0.290052735617 -0.685957622218 1.03666392073 1.26459443129 -0.380216162766 1.45801358171 0.793032487579 1.57255839417 -0.826002643343 0.463696675015 -1.37967601946 0.418432226895 2.1261151027 -0.303282155134 0.385733663087 -1.37743223397 -0.0995987100121 -1.60640226258 -1.07193557907 -1.00571706003 -0.331704915838 -0.80316983753 -0.988365058575 -0.776257215423 -0.760952459314 0.477986476648 -1.28607084935 -0.0516513254699 -0.424760627975 -2.07488503021 -1.62387957359 0.414594890173 -0.0676364420279 -0.217874683082 -0.599159832856 -1.07116709008 -1.39584413516 -0.479397093107 1.6775151263 -1.1689326567 -0.30229105549 -0.351278815607 -0.675311127627 1.21950302983 -0.239981571505 -1.02998613421 -0.378668306416 0.446242391439 0.60749908208 -0.350505550687 -0.312358936467 1.49974129387 -0.236619002765 0.276676080726 0.533396925849 0.720513403837 0.69637509612 1.08359855471 0.616672210141 -0.0725681788973 -0.191520555039 -0.202439477155 0.0508215749505 0.110809156105 0.996460293452 -2.23266475258 0.129438509922 -0.640881254548 -0.0958234563689 0.818474689905
geir.solberg@enron.com 0.826722181448 0.193793184341 0.821896414778 -0.340345642023 -0.85814248247 -0.290738223812 -0.617448381098 0.0904406495756 1.27123363321 -1.38816607258 1.30061741719 0.179530498752 -1.07910439632 -0.565835619489 -1.14219831946 -0.723537924097 1.26227037706 0.125868017317 -0.104628338424 0.242270759471 -1.01022689159 -1.78248595773 -0.415394846773 1.69482709308 0.110096763032 1.86939681525 -0.0230234388176 0.604936267049 -1.06198404586 0.0305261306541 -0.83058733602 -0.407141126942 -0.15122046187 0.37110659172 -1.16011772638 -0.514437054812 0.562169116834 0.210273671258 0.31391418885 -0.254412714458 -0.336992765032 -0.99413963088 0.113755771431 -0.64528624083 1.49157013008 -0.462265795384 -0.143915355576 -1.08091841605 0.404498941939 -1.11906391932 -0.831287863717 0.848358092927 -0.701077556309 -0.0121354026563 0.0399575441002 1.06608054028 -0.376005204479 0.375654875064 1.2628744641 -0.500151453354 0.419018548897 0.35641946405 -1.47887473874 0.739704543872 -0.111891600121 -0.128266211127 -0.523658230035 -0.703503452015 -0.450117638282 -1.05000825416 0.218195267468 0.468515315591 -1.0452085146 0.697830395924 -0.900166183708 -0.934616284373 0.0927561653462 0.609205160131 0.853578476342 -1.25951610478 -0.224610867577 -0.0411365292152 -0.730797124053 0.74590558843 -1.10244386316 -0.168560724219 -0.221737418859 -0.731319079795 0.0832222646941 0.689280390365 0.717710974673 0.605062726088 1.13212990824 0.720659395049 -0.410227537789 -0.233035849628 -0.861235123706 0.589844904342 1.10641988346 1.12985969578
ryan.slinger@enron.com -0.36228083128 0.614951599447 -1.54160961885 -0.336980979609 -0.597858022997 -1.13488169989 -1.43406040594 -1.38165941223 1.95843206282 0.670093542521 -0.54920869025 -1.07222751995 -1.00539812003 -0.559542867898 0.261648125994 0.0418623808837 0.33025600711 1.07440922036 1.12608194185 1.50058133253 0.632095525798 0.503927657492 1.20423925288 -0.774412418456 -0.53198182144 1.8870870967 -0.0804410626659 1.03724590184 0.18386869619 -2.18861158155 -1.22443961089 -1.81858150155 1.57945540766 -0.555594959671 -0.718773660164 0.141594387279 -1.60325040784 -0.812974654671 1.54163096601 0.659094256213 -0.419163525405 0.448804092888 0.765620388498 0.228601054134 0.526324667814 0.692094985604 0.28141730476 -0.732092894058 -1.06919720613 -0.347981551162 -1.5559749943 1.04975400943 0.619489062961 -1.30539286563 -0.955252069025 1.75866736626 0.637095695667 0.885515975437 1.38645273844 0.990030920748 0.439070335392 1.01425730478 -0.28991031009 0.936063588405 0.685934562767 -1.802168807 -0.530044814294 -0.333556228481 1.33166209732 -1.81120723978 -1.62905198298 -0.217707212078 0.296841985622 -0.19971533776 1.01378870557 0.274905339294 1.7489181683 1.20152641971 -1.04711119468 1.13520878563 -0.765131036508 -1.08179196642 -0.414180964268 -0.219160229369 0.281439591476 -0.849415266003 -0.617705211836 -0.161011271938 0.700451561389 0.663892299236 0.542435261714 0.664583404305 0.766133786679 -0.95706037374 1.3311515457 -2.00178009081 0.054298073647 0.771130925883 1.18693508425 0.926968455777
craig.dean@enron.com -0.872541653434 -0.481894546172 0.446296868714 -0.728976420855 0.843506317404 -1.07480352402 -0.886943563124 -0.585436317644 0.820721275165 -0.013927900832 -0.478047086473 0.375977822778 0.0214259875484 0.177025348859 0.590393183447 -0.222153759861 0.92247941368 0.644076535501 0.398104556472 0.155175337923 -0.750278308651 0.220860116939 1.1719589015 -0.135323213925 -0.438547815055 1.29282655516 0.0160230223065 0.0529543561465 0.688719556659 -1.12855732891 -0.361266218625 0.25085022488 0.478284559189 0.650723066511 -0.906867430637 -0.0903203131023 -1.42882547442 -0.772036962026 0.663046287364 0.216029995648 -0.647043599285 -0.709300271652 1.64720059529 0.851286480985 -0.472175880833 -0.390285972492 0.830058607521 -0.215786602379 0.936616299857 -0.517143337871 -0.749688748471 -0.626540606672 0.0403806026131 -0.352282130477 0.191778423341 1.99674377814 -0.299325613379 0.539493777665 1.92813304595 -0.526105623758 0.0531934728885 0.555851472556 -1.26075401742 -0.362815031553 0.372677436027 0.308216075162 -1.15601133509 -0.131164899453 1.91861376538 0.534370885201 -0.281997468183 0.228806977497 0.739471137969 0.283975553515 -1.14257328598 0.840994726256 0.388150190916 0.884289093678 0.640471738643 -0.579234817419 0.629920607865 0.281581793855 -0.585881955177 0.141427969135 0.713588823931 -0.791462288308 -0.379852071454 0.39784780703 1.46755956214 0.601297756321 -0.0658074445228 0.763233839245 0.955603050285 0.149408339872 0.371830452361 -1.73037098418 -0.684857902933 -0.00108739924938 -0.522803006452 1.87858694104
john.anderson@enron.com -1.47851387735 -0.739144489969 1.60005501954 0.470286593093 1.72237937078 -1.67230890446 0.665070100884 -0.684515127169 0.950019459427 -0.262403114098 -0.737703622289 0.0927220872355 -0.308089661479 0.258402195075 -0.437795412147 -0.953592031052 0.357104182314 1.11191521108 -1.33187358838 -0.984799238486 -2.74951905661 -0.427780149543 1.03232475512 1.37184330972 0.574179714991 1.55801966589 0.833949467635 -0.92140310674 0.195009646122 0.655830443722 0.043326457563 7.65699732145e-05 -0.920588597495 1.41964878311 0.378563351763 0.067856067087 -1.03532837339 0.300883421835 0.00895085016695 0.0561944886895 -1.7410739875 0.36001230468 0.654119663546 -0.0869700852768 -0.355308247381 0.204285869734 -0.988566000779 1.6080796088 1.07858651171 0.308608951964 -0.448716229841 -0.249497550318 -0.373913541431 0.000901873252177 1.10458671919 1.83104301987 -0.916952789318 0.00567068468516 1.96519602115 -1.48262899841 0.100020846495 0.0833164824328 -1.17956688354 0.881996125338 -1.16535153938 0.376519266138 0.0770274999448 -0.650268636226 0.817940200986 1.11215712217 -0.346384460565 -0.671051423847 -0.364441722431 -0.696466176143 -0.990485694054 0.292680828004 0.802173775789 0.634891099698 1.01729097889 -0.431396915539 0.601061729924 -0.087034460972 0.486266416667 -0.70732734458 1.45511506544 -0.317591810275 -0.53628952834 -0.606801385091 2.26641350375 0.416513668731 1.14525406753 -0.873969928053 0.715269377074 0.716274438481 -0.524120768062 -0.0910291497468 0.433602723782 0.118110476667 0.491731592011 0.695485323309
albert.meyers@enron.com -0.688038144985 1.15155824211 0.857474232978 1.0564215989 1.01673207372 -1.42575482691 -0.399472212756 0.840310372965 2.2565290852 -0.00665345766431 0.978678275982 -0.914856251794 0.299753367361 -0.445402804157 1.46154732194 -0.756224602169 1.4938753803 -0.793831969645 1.8032369823 -1.1150447353 -1.38330807132 -0.595211118862 1.87234141817 0.243216288914 -0.429383885131 1.62832078482 1.17697070917 0.809431858129 1.18524434326 0.232005478401 -0.183548505046 -1.60019342805 0.0325264945159 -0.185925787365 0.67729163573 1.5531548732 -0.680702762038 0.802671047129 0.601026570579 0.960293477484 -0.262763803097 0.759275652619 -0.781917779979 -0.623718314463 -0.0305760343847 -0.786991955434 -1.40084141443 -1.91028538293 -0.930309320604 -0.0849011651593 -0.429917012725 -0.179639502118 -1.13574511575 0.49865831288 -0.555201279033 1.60708423312 -0.824335376235 -0.656681009224 -0.698717135106 -1.86110787257 0.18756939395 0.534485490687 0.453601325179 -0.261528034344 0.303269532595 -1.15479396047 1.12125253887 -0.343847225061 1.233544457 -1.34267593137 -0.483572600925 -0.631286185276 0.785693571992 0.735076490999 0.994239137098 -1.76009617349 0.227217410954 -0.120778971892 -0.197680886837 1.17811917086 0.365618106579 0.0597067230426 -1.12752969579 -0.0074073569778 -0.205506950219 -0.521324440861 -0.0147946700154 1.89038796942 1.81418033622 0.874026431742 -0.0430170740484 0.753679069703 -0.458780198741 -0.933687826591 0.725870150844 -1.25918424984 -1.19108038349 0.02732638463 0.34450615414 -0.263352453573
michael.mier@enron.com -0.229602444147 0.627131772968 -0.536727904242 0.916548277985 -0.285540707467 -0.702821766735 -0.00112253327033 -1.09491286291 1.03029156292 0.0359192797244 0.976103185118 -0.378419930211 -0.264390957811 -2.08178356358 -0.459054428896 -2.03317498489 0.964107155876 -0.0238610596957 0.172450133493 -0.370491696429 -0.62920702524 0.24532223336 0.568553545656 0.662737695151 -0.408693506372 2.20927343756 -0.413252729895 0.199975865785 0.0559404991795 -0.182180868825 0.716862629699 -1.24575044779 1.03457723571 -0.431444268428 0.26682921593 0.727545500437 -1.58952440286 -0.475607975698 1.08453523191 0.748370001817 -1.11979627202 -0.228135683108 -1.04297811793 -1.05523621318 -0.852719634497 -0.582682332856 -0.43391912763 -0.580315255224 -0.106240129091 -0.931308536395 0.148718295997 0.609308013402 -1.39489730979 0.102967744283 -1.90194171316 1.72759443493 0.673787832363 1.53597884474 -0.699383297453 0.599538697913 2.26966680733 -1.39353411369 -0.606266937412 -0.106201782279 -0.488433806641 -0.990966677989 0.987438665136 -0.118437805716 -0.187430467932 -1.17144591287 0.140217424271 -1.21669027594 1.75275282191 0.0867512874708 1.00059960259 0.335900390181 0.162960802501 -0.612241661296 0.937656162257 1.02617714439 0.70617505533 -1.87481605975 -1.23033232158 -0.757079506639 -0.472144030919 -0.393995295385 -0.214226231908 0.398455126404 1.69430936829 1.24893538505 -0.408496121572 0.494049940244 -0.319857106814 0.252838383827 -1.09107543595 -0.0963062830188 -0.212140914567 0.763230603017 0.377191651478 0.624934581426
kate.symes@enron.com -0.0959737995175 0.135141000673 0.341203497938 -0.0411251789584 0.0586773695935 -0.577779152617 -0.169784925866 -0.177009937151 0.840328188449 -0.170981565763 0.378385983016 0.156612898268 -0.247827576551 -0.333596161535 -0.0182921495783 -0.555126375193 0.713304232651 0.173195602527 0.0872137548169 0.0211516722309 -0.64289862236 -0.301371521032 0.438452666084 0.632976531967 0.00123327475275 1.04378631907 0.048114733135 0.183187708118 -0.146672454437 -0.0962502172751 -0.214749174569 -0.382837274437 0.227921524612 0.295056356646 -0.306740386649 0.19587388631 -0.419348616796 -0.0861798876767 0.328080853023 0.0484405552721 -0.614819266405 -0.333578561349 0.397646418799 -0.130514056333 0.0588300069755 -0.316441711096 -0.0456387337177 -0.318823480565 0.105233526641 -0.43781548614 -0.345190691615 0.170340627724 -0.370252511114 -0.153881368405 -0.266501015637 1.10159230714 -0.133097010412 0.444854699292 0.543066799121 -0.30032089524 0.371587525065 -0.0359569698487 -0.660819462421 0.148252888759 -0.148082013693 -0.221001535454 -0.253861823102 -0.374948548581 0.34953007489 -0.291279832219 -0.0195100607472 -0.0283331106188 0.179195839562 0.252490150655 -0.273889542948 -0.0888085315384 0.164760326828 0.333994691179 0.601899782609 -0.167566695404 0.125654055017 -0.175785196705 -0.485708279861 0.149347321764 0.00414875482581 -0.282470642607 -0.21223773741 -0.0806710968732 0.673459629851 0.483269718371 0.157097986868 0.210280538776 0.452054741421 0.298370458323 -0.120932398645 -0.510603658404 -0.277030544426 0.179549559848 0.259049739628 0.763789253685
tim.belden@enron.com -0.0173626005135 0.15020061618 0.10787247721 -0.0369115960685 -0.0734090899672 -0.512315348 -0.0690316187528 -0.175564873257 0.752485931204 -0.0411623697051 0.288089192418 0.114324905454 -0.177802484038 -0.312438822408 0.0126428004183 -0.460838002519 0.565485805175 0.163135166609 0.0497895306944 0.134980744816 -0.361844863782 -0.0789195324429 0.361006431162 0.503205405225 0.108204925635 0.761525029257 0.0418570014583 0.252564729685 -0.226395402542 -0.105740467003 -0.0985046514779 -0.334466888742 0.334132505325 0.217151672367 -0.249947851051 0.198922045409 -0.330944857408 -0.0102712375018 0.224603014222 0.0763875711492 -0.564865897615 -0.166164858283 0.355467094161 -0.171371147532 -0.000763476196134 -0.25567505666 0.0121008331464 -0.256613757064 -0.0250785664316 -0.405614460662 -0.224438735304 0.135941383105 -0.319696129334 -0.231429863197 -0.377955508243 0.774584668213 -0.040078064886 0.45821413899 0.297513275321 -0.152634877201 0.293756506449 -0.100273504867 -0.453264187859 0.134207471493 -0.188334709992 -0.307553363353 -0.246348371232 -0.25507034043 0.286984633089 -0.34490633853 -0.0557641657596 -0.130831429473 0.155359200934 0.172471557072 -0.113648308215 0.0055110329214 0.132718652534 0.183520773152 0.446778526432 -0.0668805574925 0.0581308671559 -0.196713801193 -0.339913725605 0.0141271909213 0.0429494224371 -0.118016045679 -0.117319063623 -0.040142500561 0.50075410757 0.34902149102 0.0513929377822 0.107711759488 0.293269271631 0.209985608123 -0.0926576990661 -0.450229170438 -0.0781252150694 0.148628952656 0.191316425378 0.580446661858
diana.scholtes@enron.com -0.0105997403317 0.102573964154 0.075735954505 -0.0117916661773 -0.067633412467 -0.425645743613 -0.022963218248 -0.170116134626 0.590242896219 -0.0095901594909 0.231988797055 0.127029119439 -0.146352721767 -0.272170759502 -0.00317741708217 -0.408054855785 0.449632499687 0.152192087699 -0.0122350192741 0.116348237219 -0.298900359259 -0.045503572517 0.274459156212 0.427845828952 0.116979967829 0.60885766015 0.0129409010477 0.17928231483 -0.211304898569 -0.0721559932255 -0.0558343065272 -0.275649063189 0.294680870876 0.19761137551 -0.178531835405 0.176923050963 -0.283367819857 -0.0290122138009 0.174008763654 0.0661196365346 -0.508710825964 -0.149813723892 0.312957960084 -0.132785778584 -0.029671011814 -0.213672198592 0.0155554142287 -0.144265212503 -0.0152125696066 -0.331890371996 -0.164207974006 0.112889176297 -0.264898404887 -0.20110690295 -0.33428693508 0.629768484595 -0.0242968583134 0.410934938249 0.223327575293 -0.0887600982248 0.255885320447 -0.145857863232 -0.385073470879 0.105134939165 -0.194097231224 -0.242594535794 -0.202370500721 -0.214593092505 0.206261455954 -0.252269424937 -0.0254587040801 -0.129952013787 0.146650921239 0.124715993803 -0.0881488474629 0.0487023430867 0.104947547653 0.153132352488 0.403009257552 -0.0464659426607 0.0594747201647 -0.186100577335 -0.260865758404 -0.0115479359281 0.0629705956556 -0.0828387538103 -0.0910683863482 -0.0772883596689 0.412720016708 0.273331237802 0.0494638510803 0.040183850474 0.226174314837 0.21737381944 -0.106544441962 -0.346326274839 -0.0160320020987 0.116627226355 0.149635965391 0.488173659678
chris.mallory@enron.com -0.0438462336955 0.0931771735925 0.107774993702 -0.0331944835519 -0.0190310243015 -0.427985153628 -0.0951505847576 -0.146337584142 0.595671814795 -0.0593550421736 0.20269941395 0.0705721248918 -0.152635382351 -0.238470980761 0.00132723900225 -0.360652783259 0.454708184283 0.141166444136 0.0525498419346 0.0924722467752 -0.324118506306 -0.0871973487328 0.296855498733 0.381824115265 0.0552345515512 0.641152296031 0.0393141360203 0.185029231693 -0.131515043565 -0.122202489832 -0.096452277786 -0.260599653628 0.238303922139 0.177205023941 -0.210076777276 0.128895818393 -0.290796503456 -0.0302240151482 0.194914780602 0.0758060560582 -0.429810762713 -0.144164891104 0.279492748785 -0.114845933071 0.00980543276146 -0.192485238496 0.00863274431959 -0.214140587931 0.0210879520543 -0.320600551938 -0.203403002599 0.0913515646502 -0.246025576242 -0.159602005213 -0.26107040903 0.651082402059 -0.0498977362748 0.335189061081 0.302397975845 -0.146910154296 0.223758272364 -0.0355609297295 -0.388863048512 0.101481551223 -0.116669592497 -0.217817126645 -0.192979086279 -0.193290679711 0.265571331042 -0.259714295762 -0.0573562632173 -0.0988262196697 0.115571336738 0.136840558761 -0.114438555252 0.00176701149527 0.129579739888 0.16957311908 0.328991732274 -0.0693136813038 0.071014874562 -0.143697350435 -0.26884499868 0.00155820700458 0.0319720027299 -0.119742697539 -0.101441232239 -0.0108133833889 0.436320914023 0.281453274523 0.0579063157588 0.10640984058 0.254140392726 0.150860866593 -0.0499669580766 -0.387496763142 -0.0953137954482 0.116929203624 0.150921648498 0.479831088591
grace.rodriguez@enron.com -0.0131252755263 0.0812860901769 0.0990736644558 0.0148983062601 -0.0196837365482 -0.307117720403 0.000424996388587 -0.0851866441096 0.432798414119 -0.00814040476324 0.203462438013 0.0940036789192 -0.0802223147212 -0.199662657522 0.0338965092919 -0.296199495528 0.34857485918 0.0760827474861 0.00934931813919 0.0502874309433 -0.254844409359 -0.0558352304414 0.204871401741 0.325742135312 0.0907712920036 0.43800515303 0.0250608426663 0.127589950645 -0.14201071926 -0.0154355628674 -0.0370578564884 -0.217281941003 0.195433450297 0.156240425881 -0.0904370919722 0.168625754622 -0.182446784447 -0.00613856878173 0.109447368734 0.0518635590895 -0.375134665309 -0.113011835346 0.2133069408 -0.100414828152 -0.027238013163 -0.170874333158 -0.0325355019808 -0.123126877766 -0.0387813780284 -0.220386706351 -0.112842791875 0.0812368487153 -0.211951900433 -0.123441582223 -0.235254788875 0.459494998212 -0.0444457861456 0.268666056664 0.119599098651 -0.102055080283 0.174629515258 -0.112533247988 -0.251627248256 0.0589530143032 -0.143323860663 -0.164371521543 -0.121296720356 -0.167771563314 0.1419868247 -0.176379070951 -0.0147645599461 -0.0915207796758 0.116930417911 0.104597456152 -0.0436259613252 -0.00476573126504 0.0551041688671 0.118975263636 0.304936558304 -0.0142009956745 0.038469797518 -0.113930846337 -0.199374752631 0.0161454966931 0.0428808745532 -0.0653668602059 -0.0548849680525 -0.0360664815372 0.299137087671 0.199755499202 0.0329694719237 0.021676206136 0.141603381187 0.161710943129 -0.0726959425825 -0.236675682559 -0.024827920557 0.0673239170192 0.116604118713 0.324770301744
jeff.richter@enron.com 0.0138774489881 0.123317164544 0.061448657163 0.00821955127056 -0.0785707695908 -0.362420599069 -0.0178879522361 -0.117424347538 0.540614158133 -0.020749608847 0.235784344921 0.0839165334876 -0.116946893786 -0.25669668227 0.0123857521373 -0.36076261076 0.41372694182 0.0924538188576 0.0271302178928 0.0921858825035 -0.255089792718 -0.0495740709978 0.242627628767 0.388256439238 0.0972431039422 0.535777801641 0.0220456084436 0.184573238461 -0.190216404489 -0.0414696036178 -0.0303263243631 -0.262231514233 0.258262401436 0.146986167002 -0.146381925185 0.176640063744 -0.223938833863 0.00702293670142 0.147178912378 0.0701633936575 -0.429267996363 -0.102846189522 0.223649243844 -0.152936057834 -0.0193461615083 -0.204629495135 -0.0167078577488 -0.185856722351 -0.0492834627422 -0.293840611868 -0.133702323382 0.100272451189 -0.263974734198 -0.162170528171 -0.318137271006 0.525184194892 -0.0161761135972 0.347704708633 0.141306248649 -0.0908106849198 0.229755820315 -0.121987997133 -0.298265247288 0.0821689087882 -0.166012061306 -0.244520676636 -0.14269837709 -0.186468412841 0.159662932392 -0.266865314037 -0.0156621219369 -0.128921741703 0.128094729725 0.126840169775 -0.0348616256213 0.00267324013572 0.0761391403222 0.0963256264886 0.335178406656 -0.0100076324067 0.0462906978588 -0.158864778312 -0.246758001515 -0.015330535562 0.0219219466782 -0.0598495348295 -0.0654889536238 -0.0271816628992 0.348331983543 0.248886583295 0.0277126145717 0.0492470731785 0.171500808357 0.163501191756 -0.0894084795267 -0.296247135612 -0.0272656875458 0.10075181242 0.136223478932 0.390278904007
shift.dl-portland@enron.com 0.0179596567645 0.124399799579 0.0716893156323 -0.0154952058281 -0.100909276909 -0.460695415734 -0.0182218704661 -0.17920290606 0.673439659725 0.00877957253292 0.296443512155 0.158003905886 -0.149367112348 -0.319163003471 0.0278523304952 -0.457384025485 0.525113020488 0.148334870688 0.00177998654557 0.152780557281 -0.306971663966 -0.0330956690429 0.302768006613 0.485565535655 0.158766300507 0.671317201155 0.00880633357042 0.223683298641 -0.275950995264 -0.0842396840799 -0.0648492056316 -0.332613749189 0.370586807708 0.230464757027 -0.19043062457 0.227233951357 -0.302616983996 -0.030837472656 0.189299628969 0.0815246730907 -0.589696852264 -0.176797835458 0.372144041932 -0.1555659212 -0.0454872290845 -0.255554906632 0.0163086726858 -0.186944072627 -0.0553004654189 -0.37992138785 -0.181967700248 0.137710609932 -0.308354163109 -0.234551860394 -0.411271007467 0.692140222355 -0.0218825407846 0.471889280987 0.207393248702 -0.0736201164074 0.289415872173 -0.185799694892 -0.41272026634 0.103471983827 -0.223380549095 -0.293910616333 -0.238242482615 -0.23832852833 0.220955407571 -0.30664511832 -0.0352639724263 -0.15128364903 0.171952152261 0.158840667004 -0.0746954807559 0.05722021015 0.0997734511288 0.178949309282 0.45590541579 -0.0316706471309 0.0460998604502 -0.201554229912 -0.298527989623 0.00637230351234 0.0594701309896 -0.085367339731 -0.0889038574095 -0.0852251093431 0.439815746168 0.303183725164 0.0425295380664 0.0457403356316 0.239684092206 0.246818135019 -0.115369672389 -0.394362303275 0.00297921473915 0.123097113113 0.174657505615 0.545332951819
tom.alonso@enron.com 0.0056368286571 0.114730564832 0.0532825386047 -0.00772170395282 -0.0785266336246 -0.389332331118 -0.0173944223383 -0.131761031532 0.560000840068 -0.00617767477085 0.226280241483 0.0936328207203 -0.120000191568 -0.250661645233 0.0097387087706 -0.358601383456 0.424444193988 0.115262682735 0.0153127175629 0.120333561338 -0.251515424197 -0.0344447518612 0.251321155826 0.387269358911 0.116519209302 0.543078907476 0.0285191792519 0.198443133221 -0.201256307392 -0.0628197306635 -0.0502858858073 -0.256756428917 0.282520983244 0.163128160948 -0.167080335498 0.16717120209 -0.230725262618 -0.0042801929133 0.148822247498 0.0683489995807 -0.444617580971 -0.113358351558 0.26508680538 -0.136055131469 -0.0168599345035 -0.20084441681 0.00528486298685 -0.174074036547 -0.0394814817327 -0.30915699228 -0.143663691382 0.103539401935 -0.24988026538 -0.18049999593 -0.326670021163 0.544220107936 -0.0157060902681 0.370850348145 0.171863344235 -0.0872041874471 0.222749569075 -0.112444778857 -0.314977994546 0.0964997454577 -0.166587044045 -0.249519951025 -0.185287067356 -0.181274593724 0.190345633228 -0.267351427944 -0.0378084350387 -0.12800993119 0.113977607749 0.127268277764 -0.0566326950201 0.0212223980164 0.0861292774547 0.126317913655 0.341399695329 -0.0230022424268 0.0399687358262 -0.160491801847 -0.237653292715 -0.0164908429364 0.0384774814145 -0.0583823351741 -0.066351063373 -0.0362981808923 0.361248653773 0.24272578988 0.0251872444493 0.0532492454872 0.187388591977 0.171229646256 -0.0821892676484 -0.329396686978 -0.0171324184631 0.100604924628 0.147070811873 0.415073697215
cara.semperger@enron.com -0.0522227388949 0.0753724052363 0.142438504482 -0.00783118810568 -0.00822513622243 -0.40048820769 -0.0382033207645 -0.158233605641 0.537013259634 -0.0698783713977 0.219623328369 0.108895376065 -0.144532216683 -0.247952024442 -0.035816426484 -0.389806851533 0.434339085383 0.146254640986 -0.0222366909919 0.0469437443655 -0.364593483408 -0.104867822172 0.26002569246 0.43271488037 0.0657107629355 0.628002033272 0.0193415166433 0.125942688716 -0.156080478204 -0.0476406091329 -0.0596599267182 -0.227369280547 0.202527140217 0.202341217073 -0.173549884843 0.126902838459 -0.281206471846 -0.0277481243915 0.174122055997 0.047705682395 -0.463364073404 -0.159043038705 0.256370975286 -0.127113239452 -0.0203353722535 -0.199350182744 -0.0128655532784 -0.131852650596 0.0542986015674 -0.302414450218 -0.168408661858 0.101732778411 -0.264301017497 -0.143316123619 -0.248896293736 0.647594345178 -0.0422680944587 0.356881463274 0.282344662872 -0.134523341985 0.261463112718 -0.102243954733 -0.403668770683 0.10685067321 -0.168252052291 -0.175219458888 -0.163952436753 -0.210512856442 0.19448429078 -0.200560588008 -0.0136341155611 -0.105499244886 0.118783382812 0.121682737781 -0.134541030275 0.0243452153225 0.104933194037 0.14905203984 0.396071232816 -0.0873297902649 0.0894151387183 -0.158978596875 -0.259274806296 0.00206370959916 0.0412602948145 -0.113553960916 -0.113766300398 -0.0654507940827 0.434500731009 0.291208425422 0.0700292752284 0.0736089348206 0.245327667949 0.214382741073 -0.129327183828 -0.296512601737 -0.067760729393 0.124408212076 0.149518446026 0.47500274183
mark.fischer@enron.com 0.0110635984125 0.0813610476039 0.0367760760655 -0.00409146578987 -0.0895412301835 -0.331598417856 -0.0167568269566 -0.140086110425 0.477092810321 -0.012179177517 0.189946085985 0.0790315414462 -0.12393392931 -0.231155979126 -0.0215405872642 -0.327604002194 0.354285258319 0.127284008579 -0.0177019157679 0.116194569911 -0.218170575762 -0.0192181847949 0.200065349055 0.351059273365 0.113204704141 0.482988215815 0.00879446170148 0.166713937669 -0.194405440812 -0.0609354529366 -0.0272679061263 -0.220653805194 0.242914648241 0.149877679723 -0.150590658788 0.125564079483 -0.211560861992 -0.00237856640566 0.133390034396 0.0564513091163 -0.410071222661 -0.101575093373 0.231152057655 -0.140270306416 -0.0139366985186 -0.163766868912 0.0162016998603 -0.123190496638 -0.0212867259367 -0.284889442621 -0.117505364697 0.0989792375387 -0.224147039574 -0.160661954885 -0.292007772232 0.469527137342 -0.000273208345928 0.337895417087 0.167848739017 -0.0517540897401 0.211041672999 -0.119721200955 -0.297613948295 0.10161946433 -0.164886396024 -0.215209234694 -0.164096031992 -0.158999058741 0.144044709515 -0.230111455604 -0.026500937793 -0.125574832553 0.0949534524326 0.0939918732081 -0.0507003823705 0.0410222914037 0.0803630208925 0.0924495366319 0.302268633614 -0.0373293660638 0.039050306489 -0.156460118739 -0.19151965829 -0.032808469608 0.0301558188598 -0.0447571880441 -0.065628441514 -0.0528171202802 0.317733107539 0.209664036009 0.0292272623342 0.0288108833795 0.171949836191 0.158968238908 -0.0960222197052 -0.267858390615 0.00765597851245 0.0983120768173 0.128700040917 0.36859078227
matt.motley@enron.com 0.024127618996 0.0865412895955 0.0383508204215 -0.00203807035666 -0.0832346526772 -0.313827974003 0.00542854570215 -0.107436738745 0.451881434849 -0.0132491968063 0.197957479065 0.083470329741 -0.0999646708878 -0.217347358593 -0.00169448057548 -0.310034216871 0.345177681522 0.0978493772955 -0.0094463369415 0.0980513266105 -0.199248621821 -0.0243323115399 0.190258786737 0.332897297918 0.114049267098 0.433215725459 0.0173592172884 0.158838623011 -0.198817501771 -0.0421682371217 -0.0183714603313 -0.21021343921 0.237808836411 0.13682703352 -0.133538049672 0.136770369789 -0.174879056247 0.0114227655014 0.110681534324 0.0550472972777 -0.387043275329 -0.0946427680478 0.219107553015 -0.137670757534 -0.0173219831195 -0.163718210436 0.00779879320282 -0.126757539704 -0.0350356491316 -0.266002754831 -0.106096189726 0.0838546256561 -0.217141667329 -0.151791328632 -0.284434622845 0.418949180394 -0.0129849272737 0.31414452826 0.125024743715 -0.0568347915019 0.186875493801 -0.127652114894 -0.266441910497 0.0846267149381 -0.165663174164 -0.200866377802 -0.14720671075 -0.151307975381 0.13393393388 -0.21887139775 -0.0240056357058 -0.118210162743 0.0882709894323 0.100239236351 -0.0385855449131 0.0304301353997 0.0578353428732 0.0872728133525 0.292099676189 -0.0227965722325 0.0360973695806 -0.139554985715 -0.182338218115 -0.0278520532617 0.0326751381606 -0.0285735471338 -0.0424668517646 -0.0425164119614 0.29017864857 0.197778778209 0.0227628608326 0.0154392888896 0.145142914338 0.151175564461 -0.0834133685859 -0.252886986362 0.0090723033114 0.0896652918685 0.112724711061 0.339521025657
mike.swerzbin@enron.com -0.000423771529871 0.101228076293 0.0419082265023 -0.0102540424399 -0.066610803594 -0.348224852764 -0.0270586663375 -0.124686998679 0.502406866246 -0.0079324597161 0.183954191411 0.0769044582678 -0.115614223074 -0.2092889116 0.0171799209828 -0.313439148087 0.367591807493 0.121013756661 0.0205426677209 0.108081434653 -0.221342424199 -0.0253692275924 0.235841953487 0.335262146595 0.0974243865482 0.487516195631 0.025595761991 0.184059097854 -0.169733167059 -0.0759820593543 -0.0540931481524 -0.238551866341 0.254862172947 0.142348091684 -0.149867913393 0.142127233456 -0.211294646461 -0.00523341979 0.141594204413 0.0647385858719 -0.395149648832 -0.0944781997213 0.247693020132 -0.114262120759 -0.0146591754476 -0.169573088788 0.0107616946978 -0.159295023257 -0.035568346075 -0.275878099913 -0.143094597906 0.0853869953055 -0.217076760147 -0.171721620967 -0.283497827028 0.489460088633 -0.0156459853305 0.324098887019 0.172509618163 -0.0803944970728 0.179868376061 -0.0909668180112 -0.283920730813 0.084673607882 -0.140419187638 -0.224996112859 -0.168597877578 -0.16885123382 0.190253580788 -0.237662939865 -0.0407230878867 -0.112971932904 0.102915104504 0.109067423476 -0.0462076975184 0.0269136109281 0.0894383474134 0.114671454445 0.285011350397 -0.0222752766476 0.0333437747616 -0.137689139299 -0.203258898565 -0.0128570851342 0.0377669445739 -0.0527150653867 -0.0645127327911 -0.03155138599 0.325774449175 0.22194528541 0.0335799309501 0.0484936506485 0.176356641926 0.13913997969 -0.0579629020192 -0.311197482593 -0.0146023802553 0.0963269789888 0.129912130719 0.384157831415
h..foster@enron.com -0.0300425322388 0.100319086293 0.132301262125 -0.00887032056397 -0.0319416377817 -0.378903677702 -0.0663893111338 -0.151818336368 0.537594117733 -0.075797852346 0.238165961699 0.0853128539704 -0.166119623401 -0.256727730029 -0.0468897471679 -0.382006437317 0.430922078949 0.129361342847 0.01643699295 0.0529319742328 -0.350516617138 -0.128039021683 0.256103564126 0.416717046633 0.0502481734739 0.644857648454 0.017413031946 0.145286934358 -0.150437152904 -0.0696523530704 -0.0907330086477 -0.254433639345 0.20286516223 0.171633484732 -0.181364687784 0.127394402525 -0.270635582286 -0.0389726034162 0.19710782947 0.0471038516306 -0.429172674134 -0.173142105313 0.228748958047 -0.130995498445 0.00611427185324 -0.196951862052 -0.0215318460113 -0.182889771165 0.0297427390739 -0.305024528475 -0.18255270476 0.127627083907 -0.261630879111 -0.139171942795 -0.25224050748 0.651259066355 -0.0409342629921 0.345162893469 0.273139189548 -0.123699376196 0.270044690664 -0.0866215128585 -0.392403768658 0.111300810748 -0.137917614466 -0.194583098327 -0.160444099072 -0.213005178433 0.186214811988 -0.229112969914 -0.0161035832708 -0.0810713837552 0.122844906523 0.12853277968 -0.11459608276 -0.00871537791575 0.101303900588 0.157591039787 0.376148522152 -0.0682728221728 0.0685828018059 -0.172309454217 -0.288193586234 0.0285180317778 0.00690413894749 -0.125564636979 -0.113335485299 -0.0713837444216 0.410516253983 0.298679280748 0.0779896952334 0.0945945009164 0.246998409767 0.197587051197 -0.1105149044 -0.302401116022 -0.101337865735 0.132129478661 0.168878225911 0.465264101943
robert.badeer@enron.com 0.0210651575165 0.101856624681 0.0458031176816 -0.0201413443266 -0.0823246739118 -0.327570912103 -0.0018250893532 -0.107231092277 0.474262481546 -0.00900292768609 0.202694317473 0.0989751394087 -0.105229187732 -0.210750591215 0.00590142046776 -0.305020027898 0.357169009943 0.10158569259 0.00501422196222 0.114702461688 -0.202753814949 -0.0238093008291 0.207710715976 0.348794236163 0.111311864296 0.453595060955 0.0111926437355 0.16561530225 -0.192704442868 -0.0472549620491 -0.0411254884882 -0.210512901025 0.239630744841 0.149125184931 -0.149818204157 0.137249529293 -0.187147205536 0.00329628328899 0.118212066557 0.0332354333368 -0.391415326408 -0.10641024475 0.247355481015 -0.124409969615 -0.00691451638123 -0.169500900575 0.0198452664605 -0.148278064618 -0.0384882484519 -0.267798892162 -0.118269492998 0.0903646104123 -0.210371736601 -0.164507690592 -0.285250250419 0.461766818036 -0.00619698311176 0.329353295135 0.151385378238 -0.0617715851536 0.187123523181 -0.110089313242 -0.280432449791 0.0855993432849 -0.15239071746 -0.208616327675 -0.177693588455 -0.169885066838 0.143087867958 -0.223651744006 -0.0173227370747 -0.0950496482007 0.0878317173838 0.114281101767 -0.061449012466 0.0146243993806 0.0630054439634 0.104019909799 0.307860368522 -0.0383072283477 0.0301761198691 -0.127893902535 -0.207736555186 -0.000132731736329 0.0265582733791 -0.0465199670946 -0.0653637401891 -0.0567799752628 0.281761487784 0.203575660351 0.016781023633 0.0370509964375 0.178545138982 0.159913519562 -0.0754927814308 -0.266872299833 -0.00428605931517 0.0884347260188 0.12846612096 0.362811875044
kysa.alport@enron.com -0.00299166298388 0.0610052986277 0.0627672122335 -0.00729302461261 -0.0456752897619 -0.294125153662 -0.00355099395263 -0.101472591636 0.413156893607 -0.00549083840238 0.159693188449 0.0923419531897 -0.0812808595608 -0.179567251895 0.0262760721362 -0.268373051367 0.320341995201 0.0938323909079 -0.00260525705983 0.0839693200132 -0.200108083921 -0.0232502253693 0.194380349795 0.299677110529 0.0997676201495 0.404576558488 0.0238589747429 0.134126436562 -0.149824214294 -0.0434784576529 -0.0308502833186 -0.180335561132 0.209427115271 0.149415858149 -0.12248350957 0.127098847769 -0.179264232047 -0.0042653977237 0.0998311022076 0.0567454154812 -0.363664010043 -0.0974487533028 0.241813296919 -0.0921978832455 -0.0262430329258 -0.16075940326 0.00647313532457 -0.107214038589 -0.0188390691369 -0.237188746536 -0.104666497277 0.0595350618588 -0.191135229719 -0.140376489259 -0.227655776379 0.418772155824 -0.0225857179605 0.275169968028 0.14292229508 -0.0745625792195 0.148474110836 -0.0978707096221 -0.259235110536 0.0636433238877 -0.143865935168 -0.160786269472 -0.155709320889 -0.144739045387 0.154668346785 -0.165133625225 -0.0219258612137 -0.0959531261525 0.0887242538549 0.0883323217473 -0.0595946836583 0.0366206315508 0.0546113319211 0.103635091413 0.277664425832 -0.0334022118859 0.0404244329047 -0.106327833437 -0.167910351074 -0.00475481295452 0.0490430651128 -0.0492376740096 -0.0442027738453 -0.0402490834148 0.280665584659 0.182505088063 0.0289400430291 0.0234376170188 0.148331933506 0.14513919322 -0.0675392887705 -0.250026548074 -0.00164029304001 0.0641458381922 0.0954854058413 0.338697973046
amy.fitzpatrick@enron.com -0.0266958513478 0.0323424688311 0.0969715348791 -0.00655400854522 0.0126165416711 -0.177328191385 -0.0473945005882 -0.0535543157578 0.244187674615 -0.0565937136167 0.100925727753 0.0419200081823 -0.0640031433077 -0.0970917148478 -0.00397768800959 -0.161739783533 0.199716414134 0.0591851200068 0.0130075730826 0.00531592092742 -0.186594810881 -0.0827530233716 0.125222329007 0.186706268153 0.0170864183389 0.299274277099 0.0246861267759 0.0527447465417 -0.0497246357586 -0.0285507178462 -0.0459138197821 -0.110775282009 0.0680041249841 0.0957924047089 -0.0796218332293 0.0571721439157 -0.120094521906 -0.0096830799249 0.0876164139091 0.0216343509553 -0.18044897362 -0.083649953558 0.108161222923 -0.0393115044962 0.0206299026786 -0.0909553455527 -0.0245068231411 -0.0822444439742 0.0304330461462 -0.128833839624 -0.0977557431071 0.0390080366531 -0.111660743603 -0.049297924958 -0.0774714628991 0.296914926812 -0.0495618125622 0.120447612714 0.156576084709 -0.0962093584678 0.0957738665778 -0.0105139555904 -0.185078523157 0.0400873553912 -0.0552367899208 -0.0638262504918 -0.0640142443967 -0.0960619868159 0.106325098659 -0.0867741632125 -0.0096671324645 -0.0262809377071 0.0403638970159 0.06467909551 -0.0708393870703 -0.0149012695396 0.04178604987 0.0918070634407 0.167106714851 -0.0470743280144 0.0333533132172 -0.0524542684053 -0.126389621262 0.0208257984814 0.00487519804516 -0.0713190790761 -0.0545335581229 -0.0186262040391 0.200289269109 0.130841906604 0.0451769075224 0.0494005175322 0.113889886615 0.0847279831635 -0.0390834867857 -0.147537280082 -0.062349054184 0.0480530833469 0.077586854072 0.208413062671
sean.crandall@enron.com 0.000382241005722 0.0782017733098 0.0730996080943 -0.00230893821899 -0.0543062419788 -0.285280517126 -0.013228733119 -0.0930822625513 0.420382257856 -0.0208017442711 0.189405012145 0.088406146937 -0.097564168345 -0.189623619489 -0.00331474866265 -0.280956501649 0.32632614393 0.0814516743249 0.00168213405045 0.074219106338 -0.221856785202 -0.0490996251771 0.181481373113 0.320341723709 0.089088573239 0.417204595595 0.0181030832206 0.129420439371 -0.152506442299 -0.028911450774 -0.0331167154715 -0.191993895713 0.184714847808 0.139673379168 -0.124118704612 0.127099766508 -0.169185208028 0.000257357509882 0.103192096535 0.0431616977049 -0.353032028784 -0.106817456346 0.207373284958 -0.115073305423 -0.00952748940169 -0.160147368581 -0.00970128674971 -0.122027596314 -0.015023154951 -0.235248316951 -0.106296331222 0.0766708710149 -0.197219745668 -0.121385683291 -0.231409644874 0.429582013278 -0.0279976182058 0.274513715602 0.143594960728 -0.0790354391651 0.176730943377 -0.0983305873316 -0.254242048655 0.0724521211186 -0.133312269841 -0.171500464327 -0.134447943399 -0.152690990242 0.133183026363 -0.190199302489 -0.00802418073284 -0.0875995664659 0.0857098664716 0.0980376594683 -0.058838370103 0.010604632117 0.0601399951359 0.0966248405998 0.275216929642 -0.0341460937972 0.041358402864 -0.111196866733 -0.180316681876 -0.00296119378929 0.026890766399 -0.0444627287546 -0.0613054529138 -0.0413814930978 0.277759574027 0.193215741073 0.0345879462225 0.0304753964492 0.150689003709 0.151744502164 -0.0813252538899 -0.229795507559 -0.0155237950106 0.0730843656969 0.113043883622 0.323400645682
phillip.platter@enron.com -0.0132477695558 0.0824030518403 0.0757824006093 0.00654203101535 -0.0483399371782 -0.370814034824 -0.0289809665852 -0.128462328312 0.519167422823 -0.0255242595684 0.198287531628 0.0737179644491 -0.125861549892 -0.230602921916 -0.00273249909812 -0.340998634294 0.389640355422 0.120994616902 0.00874660350594 0.0837661271662 -0.278185355086 -0.0582267282968 0.230316072821 0.367622308398 0.099297175061 0.526492116297 0.0343495971764 0.161234645055 -0.167384798092 -0.0572928161324 -0.0425791046286 -0.245043114418 0.226476287449 0.161950554278 -0.136259051409 0.143971476054 -0.223741699216 0.00786109054816 0.143456626481 0.0744614702755 -0.418522561109 -0.103752470951 0.232766684567 -0.138231997782 -0.00340917479584 -0.172194102548 -0.017229374947 -0.147481270981 -0.0170575229413 -0.279571705534 -0.14879313663 0.0897018133532 -0.235301224186 -0.152493227898 -0.265327167926 0.511496989803 -0.0420893785696 0.309166784645 0.189305924317 -0.102891843568 0.197892670331 -0.100037978757 -0.304307257437 0.0936044718773 -0.158413022506 -0.209521074309 -0.148026556509 -0.17533554234 0.179176436212 -0.230408465267 -0.0397222934352 -0.122112040722 0.0949733831841 0.107712595918 -0.0558510842547 0.0104068917053 0.090869088758 0.117814898549 0.301842040988 -0.0258296018749 0.0420469569984 -0.148370554526 -0.205989098242 -0.0229744524934 0.041727326153 -0.0666141417688 -0.064840108629 -0.0417664073203 0.366538073743 0.230840929463 0.0523565839149 0.038041208122 0.176378008152 0.160243329796 -0.0750229414914 -0.290105651241 -0.020387488984 0.101012456235 0.139037954959 0.379827250994
holden.salisbury@enron.com -0.00673815595448 0.0375974050292 0.0482156019556 0.0106751388892 -0.0215977994771 -0.217208488106 -0.00666990117346 -0.0755454874467 0.29290639803 -0.0110905854135 0.123642882464 0.0631652979287 -0.0493828851393 -0.146445036595 0.0170800390169 -0.216061093328 0.244276408516 0.0553291556701 -0.00805871951978 0.0419160890887 -0.161958717276 -0.0104188557553 0.134118192748 0.215200428914 0.0681962059876 0.29664252771 0.0190280856038 0.0961236578636 -0.100707835387 -0.0263700551659 0.00850539271558 -0.119875160393 0.143900761685 0.104715576886 -0.0808445153371 0.100332092818 -0.134935284152 0.00150754370931 0.0701852129732 0.0507266831449 -0.251755410612 -0.0666550029639 0.151621249911 -0.0748808347444 -0.0388513390766 -0.130347091891 0.00116050725899 -0.0801120928401 0.0051350606448 -0.173993908898 -0.0574878366178 0.0195820751966 -0.15888189914 -0.0824816403314 -0.170434739342 0.295572150403 -0.0240945211605 0.198858053143 0.0895833247728 -0.0656175062303 0.118977397033 -0.0904894995323 -0.184882162866 0.0286698543483 -0.102016417633 -0.105905936712 -0.0934014662793 -0.0807774459156 0.121320878688 -0.113891392152 -0.00550768648528 -0.0903899030631 0.0861940654029 0.06877663571 -0.0382960876767 0.0344688406814 0.0256505287118 0.0487295501807 0.198599972336 -0.0220940046859 0.0481209843983 -0.0802396203093 -0.125583994397 -0.0308988633324 0.0362034562355 -0.0226301660568 -0.0270643181221 -0.00583653380372 0.225679218835 0.135606461211 0.00931267560257 0.0234343439518 0.0833875979102 0.100293352594 -0.0599455095031 -0.179749293782 -0.00425455790899 0.0409662893939 0.0443359130254 0.2354325954
m..driscoll@enron.com 0.000709553706161 0.0653698825957 0.0389500402437 -0.0304510490705 -0.0653535277886 -0.308410616994 -0.0122571115042 -0.12821588197 0.438827303052 0.00553703494218 0.166957595133 0.0996369351374 -0.102042379453 -0.199623777932 0.00718956196875 -0.287299605501 0.339926010633 0.113936324608 -0.00430206203973 0.115125034766 -0.193961552522 -0.00596270730766 0.203833329832 0.305969777585 0.0980581001029 0.426454943418 -0.0022087442787 0.147451267481 -0.180178827717 -0.0754999337327 -0.039474696475 -0.190207240367 0.244621647682 0.152202763576 -0.14096523513 0.127493701089 -0.205402752305 -0.0299949347226 0.118030143109 0.0430029736266 -0.386320637678 -0.119951543453 0.266995101305 -0.092640610965 -0.0370065791891 -0.162296669089 0.0387389422552 -0.114317688469 -0.0237172312864 -0.251998215583 -0.1141802145 0.0823364237259 -0.184802916359 -0.169438034618 -0.264519137004 0.451371184142 -0.0102207709187 0.320993751059 0.163962477518 -0.0424610644767 0.174234347089 -0.106525503175 -0.28264986596 0.0728013915044 -0.138675085312 -0.186640729567 -0.183578344559 -0.149431900199 0.16667147257 -0.188718814424 -0.0221359523773 -0.0979852029587 0.109424194958 0.0897456733638 -0.062402134204 0.0594550975082 0.0655904483013 0.11959215815 0.289964575732 -0.0366191858442 0.0341802315198 -0.130856791496 -0.185377718024 -0.0100856075379 0.051997510333 -0.0478252062365 -0.0615758135996 -0.0594797295747 0.291199406733 0.189092901652 0.0136786707368 0.0340030339166 0.169190511125 0.16396657535 -0.0743611309143 -0.273776007327 0.00623321763067 0.0823388323971 0.0952909270564 0.374656020049
shift.portland@enron.com -0.0228074780106 0.0683382156942 0.0942045265401 0.0115645090702 -0.00073676333755 -0.239236677744 -0.0135547283848 -0.0796547201506 0.334646538315 -0.0244516411692 0.158074806558 0.0745979514371 -0.0792562618139 -0.156454394233 0.000240804582959 -0.248636863945 0.271894360733 0.0623083782935 0.00926233264842 0.0177841901019 -0.225110742788 -0.0590430921876 0.167739043914 0.265841314185 0.0527370894778 0.373542981487 0.021199753761 0.0885966391524 -0.10220271179 -0.0132889815099 -0.0400297196404 -0.163825799969 0.134374940122 0.115514406306 -0.0834730849328 0.1193424707 -0.154921019358 -0.014815164344 0.100360325964 0.0366337713351 -0.282977325477 -0.0963428108791 0.148990387589 -0.0851329848032 -0.0181824882518 -0.1375763571 -0.0253600755633 -0.0993912904911 0.00512520610608 -0.17504543546 -0.0955000922893 0.0694329173635 -0.164437909537 -0.0848254518 -0.16602771195 0.395500406682 -0.0358001651885 0.209554922449 0.130195087743 -0.0861215149138 0.15698806504 -0.0773532165682 -0.228638031794 0.0550363315376 -0.0999385513482 -0.124241985019 -0.0854272880038 -0.138345898759 0.11285298457 -0.129193563197 0.000906853853938 -0.066500466876 0.0903977021723 0.079744608247 -0.058733470201 -0.0109617105764 0.0478696264471 0.0952192324805 0.244199561514 -0.0247336445665 0.0497772880233 -0.100375365521 -0.167152534941 0.0166543541913 0.0174270149135 -0.0660319397396 -0.0553205712684 -0.031234961499 0.258743552937 0.1714620636 0.0407234289392 0.0321864423479 0.134970538665 0.124794946386 -0.0767790643807 -0.180297110888 -0.040836768272 0.0624837033927 0.0895928876168 0.273882202807
bill.iii@enron.com -0.0100455237512 0.123162726847 0.0838761913533 -0.0333341295983 0.00457787719512 -0.263317605789 -0.00144607587435 -0.00712838952874 0.374563700837 -0.00356869855732 0.15012454651 0.0640438563882 -0.0451602919108 -0.0933966272351 0.0592786036042 -0.20949942471 0.279674020725 0.0515204923932 0.0550350930143 0.0330381563471 -0.173258746833 -0.0205595624059 0.230115805881 0.259976075688 0.0372196097169 0.308511738171 0.0481975701789 0.134324869706 -0.0834933887113 0.00847915930717 -0.0331602354853 -0.131410696905 0.12136226467 0.091900399789 -0.122994200543 0.112715376811 -0.127816395071 0.0484471799264 0.0776625095073 -0.00925553729862 -0.252067650525 -0.0489231900303 0.161416460541 -0.0908947118886 -0.0267824144935 -0.148308717885 0.0178633285497 -0.171839808976 -0.0226926036845 -0.176978036863 -0.0713520930438 0.0174129005414 -0.161679422715 -0.0940361167688 -0.178313085239 0.374374390819 -0.0343661416375 0.209865700232 0.100891201337 -0.146443318561 0.107202359549 -0.0291022761114 -0.162686780289 0.0444579872176 -0.0760050985866 -0.157197739993 -0.129721462504 -0.140905909894 0.162847313897 -0.15289785625 0.00996111125501 -0.0458672483975 0.0818562511839 0.115363644695 -0.0756824712568 -0.0626508101361 0.0367969628759 0.0327165759852 0.227142552618 -0.0438207031055 0.0400203397421 -0.0457790052211 -0.195581367251 0.0191898737091 0.0269064850552 -0.0429998309641 -0.0621968684817 0.0366374346745 0.233607593366 0.172352588931 -0.0288532616329 0.05643778286 0.146563478463 0.0848843353419 -0.0348938276975 -0.230609594887 -0.0693617718486 0.0516317697903 0.0506069905026 0.264948729707
heather.dunton@enron.com -0.00374048114817 0.0451535528097 0.0520869039616 -0.00189565806006 -0.0198264805586 -0.158539914399 -0.0410193352882 -0.0517587710399 0.236191023328 -0.0318291735699 0.111798838412 0.0372433547832 -0.0704746480275 -0.109256996561 -0.0054567511796 -0.147563591746 0.188396031977 0.0413423483462 0.0207785632994 0.0274756896368 -0.132982127686 -0.0542756690731 0.106436989178 0.17210541646 0.0216945141638 0.260453268187 0.0109679250726 0.0804101769504 -0.0655694940296 -0.0345701951672 -0.0411639644054 -0.118023020461 0.093315215321 0.0666395694165 -0.0841794504527 0.0570544832102 -0.105139088499 -0.00763595225029 0.0750705303108 0.0317207201469 -0.174539827202 -0.0685262586127 0.106506596946 -0.0559920192377 0.0115553161566 -0.0895873008736 -0.0129122859369 -0.0951756850579 0.00521593805935 -0.131495357084 -0.0859217394957 0.0465780687866 -0.107133391237 -0.0644964991519 -0.110557742791 0.257904819872 -0.0244074686549 0.135730252887 0.106008626354 -0.0557728750703 0.094405273819 -0.0270022480026 -0.162548875587 0.0408317574071 -0.0505543017785 -0.0822680334022 -0.0703869441139 -0.0875232884951 0.085254832476 -0.115360515334 -0.0124782016127 -0.0306128017399 0.0440004313173 0.0690974417419 -0.0429193669356 -0.0126600011776 0.0351924778177 0.0746325828523 0.148753795122 -0.0309972603362 0.0265543384736 -0.0577060033456 -0.119745920942 0.0178860532853 -0.00729861190385 -0.045914315229 -0.0433252499355 -0.015487602996 0.162612014225 0.122261179666 0.0269760748304 0.0478646514166 0.102623106492 0.0797034118114 -0.0369142005266 -0.142860969218 -0.0424387528591 0.0528062536062 0.0754568379744 0.194344557352
center.dl-portland@enron.com -0.00975510731876 0.0534165221531 0.0792410331696 -0.00938356982582 -0.0280600503631 -0.247932937335 -0.029216473882 -0.0989109870748 0.352435504748 -0.0278964930022 0.141258571323 0.0764894912255 -0.0981220750369 -0.152597061185 -0.00622064733132 -0.236428043126 0.279116881413 0.0954874355833 -0.00559146185581 0.0595208561263 -0.215737108222 -0.0543630051456 0.164803960451 0.266189523747 0.0701503321638 0.384415570957 0.0124309292777 0.101603295186 -0.124313055466 -0.0424828111505 -0.0639387181435 -0.170094934837 0.151173886578 0.13442571495 -0.109448480126 0.0998309370935 -0.1639879442 -0.024452091572 0.111362487499 0.0387825690067 -0.304228814286 -0.108984234092 0.199215011565 -0.0750218999402 -0.00144801227797 -0.120314815522 -0.00359779050001 -0.0869117583546 -0.00300591594142 -0.1911339872 -0.116780434923 0.0836449813401 -0.152189114257 -0.110219050966 -0.169591048373 0.401814056004 -0.0340074372084 0.220860299839 0.171134624187 -0.0714506449569 0.150113459687 -0.0643904194932 -0.250108026116 0.070259141201 -0.104238416176 -0.133121437345 -0.119340357166 -0.138965908901 0.125999664819 -0.14247897836 -0.020409285433 -0.059664879904 0.0733379907353 0.0761250869306 -0.0665252471727 0.010503566894 0.0677327389234 0.124991019699 0.239613754086 -0.0380975809128 0.0282227989681 -0.102047108929 -0.162855284092 0.0226450219649 0.0389484870163 -0.0703966982084 -0.0634243481385 -0.0591691262505 0.246643835316 0.165121079292 0.0540419426801 0.0297025977107 0.150265545318 0.135954041471 -0.057817235675 -0.201924909843 -0.0266512466974 0.0695956608939 0.111109652069 0.294454443504
greg.wolfe@enron.com 0.00726227163218 0.0691038906329 0.077207781197 -0.0132647066969 -0.0310028788807 -0.236008180155 -0.0107329262113 -0.0724136228772 0.341245730793 -0.022207980709 0.173845416594 0.0981497044755 -0.0783848864832 -0.153560443327 0.0118982491883 -0.233172851872 0.283012246222 0.0591004524496 0.0122290773942 0.046768270898 -0.192904024379 -0.0488457471606 0.159024867912 0.264111328541 0.0590449161899 0.358524519257 0.0028967769067 0.100512284165 -0.123928190975 -0.0174438670516 -0.0453987407895 -0.164895523779 0.155778753762 0.126234474181 -0.098559538342 0.119722766734 -0.147528887817 -0.0139467291911 0.0949136096608 0.0217098642569 -0.293618933288 -0.11419872063 0.188975527314 -0.0805590042545 -0.010751040935 -0.142526812505 0.00263702005293 -0.108655972624 -0.0158911179589 -0.194842867255 -0.0922303436891 0.0649094403743 -0.161578545628 -0.0949492128076 -0.184669573534 0.379141456658 -0.0264966441052 0.221558287332 0.12355251814 -0.0690385219739 0.146516078541 -0.0816535340336 -0.229213424988 0.0464382382602 -0.0992079942158 -0.126088688602 -0.118938069058 -0.14285189346 0.113851024667 -0.137911996762 0.00773200527343 -0.0471292025622 0.0863879504383 0.100215640452 -0.0658030150573 0.00447391155563 0.0314096035416 0.0981241235674 0.256729343065 -0.033408965337 0.0294065917051 -0.0903440020887 -0.180931959243 0.037130083841 0.0189839157662 -0.0660879544493 -0.0505784654162 -0.0374332936699 0.224686014296 0.168184909123 0.0231761900598 0.0341468748862 0.136736829417 0.142533520479 -0.0656779996351 -0.194468745635 -0.0410447539023 0.0600513078 0.0917194855178 0.290791467605
stanley.cocke@enron.com -0.00220913428609 0.120432851978 0.0808582153449 0.00677556299698 -0.0564155382872 -0.372937372523 0.00495951188912 -0.107994395882 0.528696031919 0.0163660295954 0.248438971318 0.12892426496 -0.093123047759 -0.244351833381 0.0527115468018 -0.367268904059 0.4229134122 0.0902598591234 0.0233627882903 0.0901869176563 -0.254125140087 -0.0165168106411 0.265035404948 0.39437753836 0.109594446777 0.5106798302 0.0228173077947 0.175882192483 -0.188968512036 -0.0300499670487 -0.0300118798049 -0.258048528992 0.273373885784 0.177010244719 -0.127885811102 0.210177050819 -0.234173304145 0.00111050270914 0.13880385676 0.0566510779067 -0.455527510976 -0.124769353112 0.272891942402 -0.133300932882 -0.0602572838349 -0.217632670611 0.000978211802298 -0.172517369915 -0.0523465296136 -0.288187497733 -0.118393341027 0.0917752332093 -0.263117893074 -0.172325562877 -0.334227149214 0.552555236503 -0.0190251573644 0.359291657933 0.123281284299 -0.0985263946705 0.225142546759 -0.151038556024 -0.29777758403 0.0637110197575 -0.177198652024 -0.234952282044 -0.165209529491 -0.197218404531 0.184628424675 -0.24124237896 -0.00601530476209 -0.120520096858 0.160475596554 0.14258040749 -0.0455035033686 0.0119106185284 0.051513175987 0.110189039507 0.372344069081 -0.0093541235942 0.052714661659 -0.14445097071 -0.261148123127 0.00639534577242 0.0512645725423 -0.0694724131187 -0.068304311363 -0.0273765147566 0.354188464406 0.245269033731 0.00981739311725 0.0351016775983 0.170165792199 0.182670336102 -0.0902807063766 -0.30660764019 -0.0178556720398 0.0814232596263 0.112737202102 0.406621820801
virginia.thompson@enron.com -0.0663670721816 0.0436993940437 0.184686823055 -0.0119837256256 0.0796694665965 -0.19954497511 -0.0786468278137 -0.0530255676144 0.280200645053 -0.0832168798608 0.139924686756 0.0640743679058 -0.0912787847405 -0.101461633839 -0.00252606802193 -0.206077402186 0.262635162337 0.054996547181 0.0522565724493 -0.0448780292895 -0.287579086896 -0.152551277647 0.170856802284 0.233289447795 -0.0412887161744 0.414294793307 0.0164880549503 0.0291885714313 -0.00336310220856 -0.0250938201613 -0.0987167363014 -0.139114763331 0.0332905514529 0.121741969386 -0.0979353393365 0.0786852271107 -0.166300270119 -0.0573238853368 0.139558726738 0.0132627552985 -0.208449071998 -0.152147151989 0.131313378474 -0.0286258725961 0.0173680602418 -0.122409690375 -0.0443667053103 -0.116165154524 0.0679629788791 -0.13640417754 -0.14086511342 0.0650858585838 -0.133799832354 -0.0187178126183 -0.0445533923213 0.453429663523 -0.0707223083205 0.13187549828 0.234012655617 -0.143931545129 0.146699039103 0.00914926312641 -0.258664817309 0.0387639810205 -0.0305791882384 -0.0431044939521 -0.072070893395 -0.151690285234 0.132575362971 -0.061862939137 0.00937348827211 0.0249909963402 0.0830217688549 0.100568277945 -0.128987365742 -0.0545207122726 0.0548452393196 0.150687271809 0.238291757868 -0.0734088477971 0.0708129853221 -0.048323269972 -0.204645534241 0.0894125983943 -0.00171521735487 -0.144456180358 -0.0940647758125 -0.0237564221088 0.276922074691 0.190690178084 0.0803281976682 0.100988345719 0.185177366179 0.109205891977 -0.0428386516214 -0.173911653018 -0.153232095821 0.0568435482725 0.0919736869349 0.295135601697
fran.chang@enron.com -0.0253190450791 0.0430890273998 0.086363684225 -0.0182415091154 0.00250612267523 -0.20930255829 -0.0288743150197 -0.0654887988455 0.294799274734 -0.0258252476993 0.118393691747 0.0740232685099 -0.0724854125298 -0.109335435202 0.0139245121007 -0.183576217731 0.243414638866 0.0754020072657 0.00944564240146 0.0381764384507 -0.191280795498 -0.0617099815729 0.146077909199 0.222936437377 0.0359487298773 0.322236653958 0.0175824590221 0.0832593918672 -0.0791651920998 -0.0316305615304 -0.0529239708357 -0.120026622149 0.114488245786 0.11871574435 -0.0954485907921 0.0743240375314 -0.138590050865 -0.0182653220164 0.0863927934778 0.0247267392723 -0.243635293003 -0.0917841492153 0.17470283442 -0.0463177018913 -4.37044158931e-05 -0.11587026106 -0.00202837677765 -0.0855017575557 0.0219061525391 -0.152481346459 -0.098975651326 0.039201522823 -0.124550564263 -0.0844974391956 -0.120300707901 0.346675939506 -0.0395713909652 0.174102082234 0.153737763975 -0.0884026464846 0.1044475815 -0.0321375612892 -0.211397183546 0.0520812378968 -0.0761911219839 -0.0893613193105 -0.109729680118 -0.120053339815 0.12559109115 -0.0982047742631 -0.012653213758 -0.0301403899965 0.0606176572354 0.0776122450982 -0.0853800831652 -0.00171816573416 0.0524270209654 0.104799593537 0.209455022497 -0.0467171922105 0.0337371801795 -0.0584345575429 -0.1461688326 0.0266781861875 0.0291032124921 -0.0645554543503 -0.0596721147617 -0.029578425422 0.220309352858 0.14782088659 0.0333273375567 0.0399303037618 0.139191452639 0.10558198011 -0.0373769874564 -0.188288029474 -0.0507670307397 0.0475379774527 0.0671626350917 0.265634321518
lester.rawson@enron.com -0.0091457294284 0.073770761742 0.0733197996665 0.0166373161486 -0.0128855281801 -0.220460253734 -0.00698874709781 -0.0489682463146 0.315773363898 -0.0210403361006 0.159628301821 0.0650756211709 -0.050743181414 -0.152342000557 0.0235024499773 -0.220818119241 0.263034438709 0.037087553103 0.0188450155677 0.0178714434908 -0.183997797287 -0.0459533810927 0.151121529224 0.226556624739 0.0604989937136 0.32029897404 0.0224794829842 0.0989223288448 -0.0962876501541 -0.00240176893793 -0.0193023210891 -0.153535064674 0.137728024609 0.0969956100946 -0.0699798100826 0.116572104542 -0.129242560345 0.00371985091223 0.0861977850655 0.0423753858283 -0.255664824244 -0.0755152354409 0.135242145487 -0.0866883611699 -0.0238987860885 -0.138453103952 -0.0218345869855 -0.116677955855 -0.0213387347411 -0.168205101245 -0.06717541923 0.0516509583882 -0.168381263487 -0.0711281009748 -0.177409293278 0.323353481392 -0.0338271047134 0.185765379297 0.0678455322265 -0.0853817981015 0.131127427785 -0.0844393892521 -0.177400341628 0.0250126157758 -0.0963730966598 -0.125034365616 -0.0775023345514 -0.110144834727 0.100929043282 -0.134870594635 0.00177396723911 -0.0691060983024 0.0885139489959 0.0832580177754 -0.0253522641968 -0.013197051122 0.024335806595 0.0604774693986 0.218112163861 -0.00423604536818 0.0440283140837 -0.0834991905899 -0.157622134491 0.00721865338653 0.0155090857368 -0.0464693207402 -0.031313208269 -0.0026899378197 0.222975933362 0.149278287785 0.010649225419 0.038097861607 0.0939543294241 0.108525366508 -0.0569617026114 -0.173205254726 -0.0393497431954 0.0546789362295 0.0739162199822 0.229291076713
lisa.gang@enron.com -0.0208007877264 0.0506389059393 0.0789478612328 -0.00715485063434 -0.0146448946069 -0.246835898695 -0.0281196814914 -0.103901969644 0.349583478502 -0.0288974207447 0.142827397568 0.0693092188854 -0.0987552286888 -0.162842672054 -0.0111246549008 -0.24721908284 0.285961062638 0.0851217723256 -0.00133649795684 0.0394327017925 -0.224007560657 -0.0622337959524 0.171275209221 0.266753882302 0.042674117698 0.40575225154 0.0112467341141 0.0905622106091 -0.10162072259 -0.0456648261742 -0.0506621519383 -0.166468537739 0.147245154023 0.124040109769 -0.10619090691 0.0990592807169 -0.185646279436 -0.0366073153508 0.128175802681 0.0320401383221 -0.297951304725 -0.113605365502 0.175949453115 -0.0700991669835 -0.0134808397057 -0.124139509503 -0.00409631955567 -0.0946175018618 0.0134967097819 -0.189900168589 -0.118836860727 0.0817859584575 -0.163907452579 -0.0973088280573 -0.173671013115 0.428298280353 -0.0255326791486 0.23330939517 0.175968169845 -0.0724147997349 0.173841622429 -0.0730962268433 -0.260950976163 0.061126459912 -0.0995384074737 -0.128611726226 -0.107948592507 -0.148122160625 0.130917265437 -0.137160312307 -0.0172990551362 -0.0557074506653 0.0968089078291 0.0787420845378 -0.0712814620717 0.0196319318546 0.0686379302574 0.112272868908 0.254422701547 -0.0385656851519 0.0463962155827 -0.110598078045 -0.178184981591 0.0226063022254 0.0304601863463 -0.0802233336287 -0.0746631106969 -0.0499594947278 0.273027693025 0.189187652905 0.0490610221471 0.0425348666478 0.152401836251 0.139586897339 -0.0709916521027 -0.20060093204 -0.046273619621 0.0707672890881 0.0997925968889 0.305726804088
jeremy.morris@enron.com -0.00634380983718 0.0314943304256 0.0214658994306 -0.00857522663704 -0.0206664967098 -0.150502709305 -0.0147390800602 -0.0514309842761 0.202107388431 -0.00704652084562 0.0733449530488 0.0343500512232 -0.046351692562 -0.0750036444315 0.00719829635706 -0.11723022584 0.15383621909 0.0553970816391 -0.0010226191841 0.0482673584112 -0.096468528254 -0.00706427724126 0.0911990112289 0.140734440575 0.0433254397528 0.193233494685 0.013402715954 0.0712786833504 -0.0702115269879 -0.0300466710055 -0.0193209126057 -0.0812333345574 0.0906407009235 0.0673764183785 -0.0720516190457 0.0486421826894 -0.0814844655758 0.00422505372557 0.0490473512951 0.0206060768103 -0.160509516644 -0.0422267736869 0.112225619564 -0.0470957451533 0.000267890223334 -0.0683581967582 0.0128910757476 -0.0628061535898 -0.00385264972552 -0.113459176541 -0.0571157269425 0.0311953924315 -0.0844565837078 -0.0741398213477 -0.104520333394 0.199322697036 -0.0137536073407 0.125235163925 0.0813289153776 -0.0401496683308 0.0671525786794 -0.0268037311089 -0.121040716299 0.034884856133 -0.0621943609962 -0.0860583755905 -0.0825246393732 -0.0684783464989 0.0791452961363 -0.0823356039215 -0.0162073252154 -0.0374088273632 0.0365759865644 0.04356385107 -0.0311808168951 0.0139036774151 0.0393788667768 0.0453884516863 0.116822262951 -0.0244202061268 0.0216939971293 -0.0452682584585 -0.0834842880507 -0.0106996733082 0.0221023491893 -0.0168993171358 -0.0296995052472 -0.00885510305245 0.130417477231 0.0797448127928 0.0107865802109 0.0212439003868 0.0813099460804 0.0660743378886 -0.0209976837041 -0.128648217496 -0.0102143145334 0.0369158252798 0.0498496626848 0.155716609545
samantha.law@enron.com -0.00397657110167 0.0409260288623 0.0408753397912 -0.00133188452248 -0.0184731080281 -0.158352539769 -0.0186216308171 -0.0501331813901 0.22127752307 -0.0104108394211 0.0960387889305 0.039647732671 -0.0458012471307 -0.103259649787 0.0141858648834 -0.14744181976 0.181224866199 0.0492011629275 0.0118488512606 0.0298408237629 -0.119946022094 -0.026864609023 0.113586303392 0.154882336246 0.0375951744085 0.232324917854 0.0156109280466 0.0762015991409 -0.0640772955937 -0.0351224911373 -0.0248494922327 -0.105250349192 0.105384755142 0.067725997791 -0.0603780384292 0.0645587342966 -0.102578618593 -0.00784403084758 0.0632146556924 0.0389759409648 -0.179238354816 -0.0569407824901 0.105358022052 -0.0510865445461 -0.0116667073742 -0.0901799660129 0.000837059653326 -0.0796248610429 0.000507869661271 -0.126613805113 -0.0605325091963 0.0292611155308 -0.105025318449 -0.0630793336555 -0.114669481349 0.241176297626 -0.0229343910195 0.140926820816 0.0822495570317 -0.0501416014013 0.0926784574709 -0.0369866345474 -0.139428379325 0.0332831161308 -0.0591933962444 -0.0865265428804 -0.0637112212642 -0.0730900480416 0.0853254710842 -0.0968397263757 -0.0107391298284 -0.0496760266315 0.0591780695607 0.0568412918118 -0.0287987090575 0.00718067595595 0.0347787526896 0.0629151504244 0.138097544365 -0.0114709207182 0.0264687077718 -0.0578382087107 -0.108325669562 0.0015625341327 0.0101663664797 -0.0386318815765 -0.027701057923 -0.00480924487685 0.1602435969 0.110696587981 0.0105190999668 0.0345289347 0.0829745831168 0.0736331037263 -0.0315814192065 -0.135304928663 -0.0289005429035 0.0442232206853 0.0487265659454 0.175783900912
john.postlethwaite@enron.com -0.0123751993574 0.0292630746418 0.0455427984725 -0.00222625960862 -0.00248488909391 -0.123471344305 -0.0124839132742 -0.0349732760093 0.168050235677 -0.0156607142852 0.0716734026928 0.0247089788122 -0.042007692703 -0.0627845843449 0.00575629557643 -0.0997272151238 0.133212450448 0.0359942961863 0.00678577304408 0.0226213151423 -0.101300365113 -0.0350162021971 0.0824078020424 0.123040389812 0.0315988133202 0.18258064268 0.0140389032889 0.0522224417187 -0.0480315460794 -0.0191923944778 -0.0253091145255 -0.0700385876386 0.0673963074781 0.0596272830476 -0.0565247094949 0.0464118033165 -0.0706367513889 0.00167463329135 0.0509774211346 0.0241302253962 -0.134322811074 -0.0426648001997 0.0853993389863 -0.0357304934298 0.000300347859827 -0.0576648821058 -0.00698272511154 -0.0551316771837 0.00543106021517 -0.0884568665 -0.0602726610932 0.0277548856036 -0.0697795738546 -0.0427258837504 -0.0763659135049 0.184391992506 -0.0256469474063 0.0929277613403 0.0778344480343 -0.0474035853719 0.0586894815338 -0.0184690128975 -0.108655960164 0.0296971011635 -0.0458050731232 -0.0621244620228 -0.0575822622664 -0.0629216337372 0.0750481217377 -0.0711866746988 -0.0149596523604 -0.0266483914855 0.0231682955821 0.0416933512158 -0.0348352444939 -0.00809792221951 0.0313327547461 0.0493997082522 0.101450961989 -0.0250983304621 0.0227142937713 -0.034216022388 -0.0790067888705 0.0116544447519 0.0132651261722 -0.0250727805972 -0.025598627415 -0.0120681516518 0.121390135719 0.0828886303571 0.0159236003351 0.0237891449278 0.069068325649 0.056261339175 -0.0164243545742 -0.100533376802 -0.0212102376798 0.0258825645264 0.0480437800573 0.131520426479
c..hall@enron.com -0.0336798535763 0.0427180146442 0.0400434539094 -0.0229464840973 -0.0274095807444 -0.249089700796 -0.0600636637577 -0.161390068869 0.334294763213 -0.0303585757034 0.116936571006 0.0491822600501 -0.12158400488 -0.180931265007 -0.0582602718265 -0.259628212332 0.253983900388 0.123581566068 -0.0137546790563 0.0736282130956 -0.207134031599 -0.0423790399287 0.160465693281 0.243765644062 0.020096223905 0.438611282037 -0.0203817189721 0.0833051550555 -0.0977666356913 -0.0901981527943 -0.0486838226553 -0.16117941503 0.164921680686 0.112049074003 -0.143679365862 0.0541505348713 -0.219454418094 -0.0635016158047 0.147951362362 0.0318041752917 -0.293752962314 -0.114949872491 0.17756562486 -0.0690619686712 -0.0117596666002 -0.101682068266 0.0271734355704 -0.0782117964461 0.04141260966 -0.204087484668 -0.126122389425 0.0868867630354 -0.146239588838 -0.117803339775 -0.174024358467 0.435584800129 0.00450514022514 0.269140464782 0.226853832557 -0.0272485562129 0.205086894286 -0.0615077877955 -0.280577821377 0.0831317042085 -0.0947347249882 -0.124434461039 -0.123567427739 -0.128378685339 0.127812162904 -0.140922040053 -0.0322655191479 -0.0674822585685 0.0962821709304 0.0575631629608 -0.0799563715588 0.0627883082959 0.0927251517468 0.110594481865 0.243753436948 -0.0444221314252 0.0502250241466 -0.151419125401 -0.173716287408 -0.013594159109 0.0271712020158 -0.0875399504229 -0.0872673483566 -0.0757536263122 0.28046223587 0.196147913428 0.0457597120337 0.0593873296508 0.173954396903 0.1262870224 -0.0761445001296 -0.205003972639 -0.0390998800131 0.0998041388302 0.107985024612 0.329836390428
anna.mehrer@enron.com -0.00320921838327 0.0400847374195 0.0415080740429 -0.00576427384457 -0.024531112443 -0.165073997847 -0.0235599798953 -0.0627504757821 0.235269011754 -0.0182879716193 0.0981696453992 0.0462122853435 -0.0597454508988 -0.110090807531 -0.0096097030148 -0.165088760922 0.189798580886 0.0523898395163 0.00356781763555 0.0416009524769 -0.135821106756 -0.0348339607465 0.104760344285 0.171051221584 0.0360471022262 0.261799844424 0.00320932951034 0.0675939678484 -0.0744692341422 -0.0272265985449 -0.0293720603814 -0.109419203877 0.105675157979 0.0803431637129 -0.0764075132928 0.0609837600691 -0.111372859981 -0.0118110652025 0.0748864638126 0.0278237061544 -0.191528136343 -0.0752772700342 0.113994517159 -0.0562689337874 -0.00656161011463 -0.0887174877647 0.00457348645325 -0.0747676227307 0.00706576809314 -0.138561489107 -0.0725111737248 0.0443253371896 -0.111036102548 -0.0717005615795 -0.125967381863 0.257230740817 -0.00811734891284 0.158993597017 0.101754549846 -0.0382841188744 0.110511029729 -0.0507692756476 -0.165689328281 0.0435395251223 -0.0668795257559 -0.0828363607269 -0.0734503382488 -0.0880762190225 0.0848315079847 -0.100885984825 -0.00884959145428 -0.0423949033266 0.0567866551466 0.0510354176637 -0.044152551358 0.0144173640803 0.0403118703941 0.0659621120479 0.15824545128 -0.0278488198845 0.0283069926774 -0.0755378560073 -0.111079808581 0.000324840700567 0.00602305608923 -0.038227799953 -0.0339469010368 -0.0250564418911 0.169841422867 0.114238092605 0.0219987224624 0.0362237711442 0.0941414032996 0.0850936025242 -0.0471626901637 -0.135926513623 -0.0229252297045 0.0461086179495 0.0653119425694 0.201762719305
mktstathourahead@caiso.com -0.0169741436827 0.0629393712625 0.0667347155519 -0.00870598261955 -0.019265618533 -0.247653438307 -0.0228369363644 -0.0781948448977 0.353724868302 -0.00999317161062 0.145394995349 0.079520979977 -0.0640597113109 -0.151534505125 0.0286994606843 -0.229449003541 0.289732652128 0.0696689942943 0.0186772905566 0.0531734169124 -0.188919800158 -0.0269604914623 0.175711381309 0.246804326319 0.062430710467 0.360612500464 0.0232148487424 0.106938166853 -0.101516715618 -0.0407794889716 -0.0285217897361 -0.148367093222 0.160107018398 0.115530288559 -0.104492143852 0.114774877207 -0.166520299907 -0.0109158813068 0.10288073376 0.0443503576815 -0.283398396677 -0.092694434718 0.188664081152 -0.0776180688153 -0.0322234277321 -0.141637775911 0.00799030879684 -0.117392736612 -0.000611285458923 -0.194062296824 -0.0953420599215 0.0431425423608 -0.172075638618 -0.104557566703 -0.188301870178 0.376433656075 -0.0243810934139 0.221576593386 0.125154364239 -0.0823881972046 0.145348710478 -0.0703363911324 -0.222462138144 0.032249896781 -0.0946198520643 -0.127019938141 -0.117857880507 -0.12177922037 0.148259363926 -0.139816448219 -0.00656147341309 -0.0674303282978 0.0988125933463 0.0980755312406 -0.0578843399762 0.00856979107619 0.0422313333834 0.0868259246165 0.236755710769 -0.0279003950271 0.0454262501113 -0.0788709561209 -0.176769309452 0.0027845809395 0.0258575593546 -0.0597232284246 -0.0464238711405 -0.0129609784366 0.259005659076 0.171803165464 0.0148914348493 0.0436279943706 0.130657370011 0.120286124085 -0.0520274847675 -0.215635449659 -0.0380830663124 0.0535663028795 0.0732825100262 0.292076896138
imceaex-_o=caiso_ou=corporate_cn=distribution+20lists_cn=mktstathourahead@caiso.com -0.021332464687 0.0522138594668 0.0867595437566 -0.0349716002034 -0.00589124510566 -0.242621537642 -0.0405908418241 -0.0781171124293 0.332915907194 -0.0344910915439 0.120439222096 0.0701556443719 -0.0890219631574 -0.121557625666 0.000681091890095 -0.202219105529 0.266710561714 0.086838831441 0.0112165192333 0.0516597657205 -0.193831592091 -0.0636734950095 0.173534468998 0.246402560382 0.035873344409 0.365145612667 0.0113406191972 0.0919627862474 -0.0931990150112 -0.0455623604407 -0.0668255561689 -0.131675987222 0.125928259348 0.122524212014 -0.12981240149 0.0700173133976 -0.159685662177 -0.0165822557181 0.105483202475 0.0127125148553 -0.256222623384 -0.102949121202 0.18886970568 -0.0599606310486 0.00171913967731 -0.113741646337 0.0177180204289 -0.108212499577 0.0238652235268 -0.177581919262 -0.122830808937 0.052505889473 -0.1360401384 -0.0976647244321 -0.140936495468 0.391813392989 -0.0311098587565 0.207171377853 0.190558627447 -0.0829929841122 0.126605936478 -0.0221694539902 -0.235722864135 0.064542013607 -0.0720908749881 -0.114753592737 -0.138433048111 -0.129842213024 0.146486245945 -0.128511330777 -0.0168069157711 -0.0358406499299 0.0613276487219 0.0878649448205 -0.0932969979909 -0.00361733989674 0.0599971936769 0.108902149285 0.225286767542 -0.0594011372568 0.031707990428 -0.0689015323186 -0.164437404754 0.0246194963355 0.0268875942894 -0.0767945415723 -0.0681083385026 -0.0415667318521 0.236609837525 0.163336194023 0.0385803711875 0.0579790653592 0.171100729999 0.117340978844 -0.0394307065315 -0.208249554786 -0.0550650393282 0.0680926621374 0.0869146795749 0.298800834412
debra.davidson@enron.com 0.00492584909512 0.0608780136006 0.047011194125 0.00914633813361 -0.0384338398277 -0.177897848185 -0.00747823533773 -0.0492217013163 0.27391574662 -0.0221636997099 0.121884568391 0.0301444809851 -0.0602504179641 -0.130106678969 -0.00565483245563 -0.17579976877 0.200253691839 0.0464662877646 0.0176848210845 0.0340616113443 -0.140257087562 -0.0424594335363 0.117572327339 0.203378737803 0.0464077975885 0.272779978239 0.0162680376157 0.0935165167909 -0.0882949759359 -0.0112377190455 -0.0255930645328 -0.133334767403 0.11360932034 0.0674292369157 -0.0767243458013 0.0830999002951 -0.096761729588 0.0161611236018 0.0760403958224 0.0342309084832 -0.201842817681 -0.051858064114 0.0937426503442 -0.088178991683 0.00451999991403 -0.0951040556243 -0.0189464863472 -0.100516617891 -0.0162361156248 -0.142262202188 -0.069086141708 0.0612175429192 -0.133281058707 -0.0635092585779 -0.144200476703 0.263256958471 -0.0205848538974 0.163488358562 0.077335576748 -0.0601070541953 0.115455817358 -0.0514754980667 -0.149218595029 0.052349930123 -0.0800384688328 -0.116958778158 -0.0670080446861 -0.0908002164997 0.0748233639367 -0.141433945441 -0.00949234205284 -0.053902711955 0.0482080955633 0.0672087220276 -0.0221733489925 -0.0253119497526 0.0339760579426 0.0494707370161 0.155559384886 -0.0181643951981 0.0188680679622 -0.0780438434956 -0.122451093245 0.000404535650182 -0.00363829894375 -0.031497307663 -0.0385739403111 -0.0154484629067 0.176105295925 0.128308358695 0.0149846466529 0.0286469245794 0.0917815024452 0.078308176643 -0.0506772601412 -0.136358593818 -0.0222053574662 0.0551492129466 0.0843112596888 0.185417709881
bert.meyers@enron.com -0.0404461772334 -0.0101844601385 0.086771894096 0.0519545968162 0.0458523770968 -0.132750384094 0.0403369307817 -0.0126284912108 0.140085963629 -0.0059310647239 0.0508288435371 0.0432815499983 0.0167211932147 -0.0553046691845 0.0427578493345 -0.117891056619 0.129633482809 0.0153762958691 -0.0225399596306 -0.0424344085155 -0.147397886756 -0.000701861312283 0.0829824847315 0.114600758594 0.0785900088507 0.130755742351 0.0500827128014 0.0235432650047 -0.0347641093942 0.0356948854488 0.0309829416901 -0.0486174733803 0.0531163895454 0.0979816117945 0.0199688559225 0.0820055755849 -0.0638144145667 0.0329069495529 -0.00400240209456 0.0631104901681 -0.159072787874 -0.0101546908299 0.0826195172344 -0.0409739608237 -0.0481517254569 -0.0741354701114 -0.0472128884052 -0.00498387679225 0.0164442264971 -0.0642223353855 -0.00531314660215 -0.0280248244003 -0.101193055119 -0.0143273850664 -0.0513217916559 0.132820688148 -0.0612794277044 0.0517590721362 0.0148990584937 -0.0885138040224 0.0330511615532 -0.0636596130035 -0.0821497837428 -0.010331657047 -0.090446142925 -0.0226820589045 -0.0120683084322 -0.0288990441417 0.0775589889419 -0.00898347709815 0.000291201742283 -0.0861998160988 0.0428125052668 0.0197819853053 -0.0136485803157 0.0237553613482 -0.00705116835252 0.0244804060137 0.110335578119 -0.0012377248746 0.0539827624037 -0.0124561785275 -0.0266277973793 -0.0462997045143 0.0561319750107 -8.7952735958e-05 0.0159012075842 0.0316924491971 0.165500418995 0.0443572045373 0.0166437656053 -0.0218129803897 -0.00562701089969 0.0614421727362 -0.0423288571795 -0.0788915842626 0.0205217036152 -0.0019217820028 0.00229774224035 0.0891997955886
p..oneil@enron.com 0.00585365418766 0.0525771624191 0.0480900009502 -0.000924876139863 -0.0315816877658 -0.15357014354 -0.0204844558943 -0.0504951357025 0.236136030649 -0.016488338903 0.123362638507 0.0530622212333 -0.0561722917014 -0.120387255045 0.00748856749347 -0.163912400427 0.196795690932 0.0348979126599 0.0163515563472 0.0276575241741 -0.129174762718 -0.0444966648403 0.107476925804 0.183692704121 0.0320711566633 0.26319896979 0.00161328131654 0.0778582331416 -0.0815821883418 -0.0201925560344 -0.0303166733705 -0.124733691375 0.112533091709 0.0716601572804 -0.0749679611251 0.0825407078389 -0.101769733348 -0.00921746274305 0.0804021932185 0.0243591193558 -0.192555554887 -0.0821337801038 0.105803093583 -0.0660074844048 -0.00301270682288 -0.103116800974 -0.00299240941636 -0.089777984734 -0.00901206638321 -0.143090608757 -0.0658858903809 0.0570446182796 -0.118211078871 -0.0656583468882 -0.14128465079 0.261758110072 -0.0147005889512 0.152697889862 0.0747140443105 -0.0410010290341 0.117380028319 -0.0537028553567 -0.157399048115 0.0313371616453 -0.0665401539118 -0.0892599910303 -0.0686722302756 -0.097198872205 0.0725755539969 -0.10903018403 -0.00274949987543 -0.0413020973083 0.0633159729467 0.0692440675246 -0.0297447024332 -0.00609220979419 0.0268384918943 0.0591870525941 0.172207278103 -0.0162723188871 0.0259298568899 -0.072425585596 -0.131681881739 0.0167256073426 -0.00635654135002 -0.0467569583923 -0.0314090715999 -0.0195532918162 0.163416558165 0.126069046942 0.0188008644851 0.0415113936587 0.0853260795978 0.0869075865643 -0.0477714348431 -0.137175242564 -0.0387257299654 0.0522655312029 0.062220448972 0.195087646402
stewart.rosman@enron.com 0.00819386218891 0.0723043147095 0.0416107840997 0.00172250062981 -0.0515082410219 -0.255891709693 0.00532124537352 -0.0957475913421 0.36924454465 -0.00189759225334 0.164649632533 0.0818746558357 -0.0796013861224 -0.176860393052 0.0115779112878 -0.26017790433 0.288943359908 0.078606270454 -0.0113685952035 0.0732448401562 -0.182554305288 -0.0221237159331 0.166305337129 0.281310757954 0.091365520144 0.373539791253 0.00774608703643 0.119036420244 -0.14762012024 -0.0249451417261 -0.0287099274849 -0.178562366545 0.195820564636 0.120314251393 -0.103267203037 0.128785563755 -0.165275160069 -0.00703176730062 0.103346361474 0.0431742798308 -0.331096029047 -0.0874451797989 0.194662561811 -0.102224364347 -0.0298054262968 -0.141834294623 0.00299762473203 -0.0923341156079 -0.0274799276219 -0.206676090583 -0.0922829974648 0.0766952958225 -0.174822518071 -0.124344076145 -0.227438748649 0.380897548673 -0.0131443256077 0.257996603526 0.103984351836 -0.0508951883831 0.168930477991 -0.103845616472 -0.221169340812 0.0575327660376 -0.130850017573 -0.165878013238 -0.123085773439 -0.133875224386 0.109078589187 -0.167085891463 -0.0113791176657 -0.0884824295711 0.092341033033 0.0823157703206 -0.0336633857039 0.030665983768 0.0534892781934 0.0865018926187 0.255817912789 -0.0138567587652 0.0283436852061 -0.117572682099 -0.165825790347 -0.00642120593978 0.0315207882439 -0.045702988572 -0.0460113587445 -0.0507021909242 0.25191646252 0.167270315782 0.0231341386807 0.0184622275199 0.129301387348 0.135301260846 -0.0729644679907 -0.206277963121 0.00508241139363 0.067866574566 0.0984059937808 0.296996933274
jill.chatterton@enron.com -0.00334182137697 0.0511847411341 0.0499103937334 -0.0103278901753 -0.0282067292891 -0.190180906267 -0.025882719359 -0.0607255131012 0.268946384795 -0.0132719657847 0.110010986066 0.0517233858789 -0.0607437173655 -0.111652856517 0.0111769065477 -0.169058140854 0.206958605115 0.0600319996962 0.0197909546289 0.0511849101061 -0.136046422684 -0.0361603821432 0.134540430899 0.184709331375 0.0391858666375 0.277465669248 0.0085717153776 0.0912637280103 -0.0823004636072 -0.0363255563489 -0.0387259714076 -0.123001031814 0.120750083081 0.0803290972262 -0.0838689976974 0.0748034567151 -0.119284791916 -0.00956992902368 0.0818792470224 0.0278619725155 -0.207552978374 -0.0705316936482 0.134193942556 -0.0582425401103 -0.00125496589658 -0.101030739947 0.00105743539015 -0.0935280234277 -0.0125174027642 -0.140757987262 -0.0770004290222 0.0485145234485 -0.119749019048 -0.0834005347024 -0.136568965143 0.288129583723 -0.0108645274677 0.169537872753 0.105406790694 -0.0543372437823 0.104123384617 -0.0444458429604 -0.170329806742 0.0488761188437 -0.0654032164513 -0.110681017394 -0.085977748549 -0.103413850567 0.100338079118 -0.12440049955 -0.0156215325776 -0.041305585519 0.0580435472913 0.0679894805946 -0.0463380992949 -0.00200538984604 0.0485893634679 0.0671241567934 0.172674375821 -0.0258961106879 0.0187852987905 -0.0649565665517 -0.133455171606 0.0117195162074 0.0129697659891 -0.0490946266945 -0.0420607736579 -0.0174092322281 0.180272972982 0.132696997508 0.0183737995884 0.0321800847243 0.103228908358 0.0882181025843 -0.036991682891 -0.165200886118 -0.0279320463338 0.0492414773183 0.0724470188445 0.218719154085
alan.comnes@enron.com -0.0193088273951 0.0777844608605 0.0551989389639 -0.0258680066536 -0.0340826426015 -0.27726703812 -0.0406523028717 -0.102339987488 0.399177548337 -0.014566465877 0.149756708983 0.0708514909476 -0.0833868493061 -0.166321241333 0.0163360428182 -0.259529596455 0.312114049351 0.0941935803917 0.0196914539224 0.0675938185468 -0.199934308579 -0.0332333193005 0.196499940314 0.27123320423 0.0523766055243 0.409667054789 0.00914359361334 0.127431942726 -0.118038749459 -0.0616775569443 -0.0427376668389 -0.176465271163 0.189629149928 0.127202629455 -0.131123361288 0.112341513044 -0.189049321441 -0.017583075696 0.128125621695 0.0460444045432 -0.315823157741 -0.103943333428 0.201926264454 -0.0843657773906 -0.0200357507194 -0.148921059517 0.0210803216915 -0.129473067656 -0.00454066195999 -0.215818452611 -0.11467976164 0.0677792653369 -0.176443904456 -0.118982694755 -0.213014987056 0.434209427697 -0.0162940265667 0.259461344658 0.160361772186 -0.0753858228776 0.163557126621 -0.0709121025977 -0.246671128424 0.058741123878 -0.105594195074 -0.160269720773 -0.137811023577 -0.140301645766 0.160619484845 -0.173652770791 -0.0203906318081 -0.0693032565568 0.101243872567 0.0911520759474 -0.0631051513577 0.0237757079357 0.0637737776796 0.0978051595531 0.25319433121 -0.037286129827 0.048230278201 -0.112731969646 -0.192896782835 0.00858687552252 0.033513824337 -0.0701747711558 -0.069668095787 -0.0188985716285 0.279963336848 0.196137615939 0.022671000856 0.0546118077464 0.16017544386 0.119859520338 -0.0512821953836 -0.244705262767 -0.0413120969426 0.0790403136488 0.0893699805658 0.327152954155
20participants@caiso.com 0.0037758795856 0.0841444830263 0.0594481071341 0.00423304268696 -0.0574496063767 -0.264179448032 -0.0359941486561 -0.108883187425 0.396437639914 -0.0349452833942 0.188550639368 0.0609962597147 -0.106329890268 -0.20460150489 -0.0219491118749 -0.273480402301 0.315155470025 0.0812416901741 0.00996489683372 0.0695412841763 -0.204657283011 -0.0689576046512 0.167049127551 0.295632429033 0.0650555671712 0.434175146799 0.0112700098455 0.136212527026 -0.136829834732 -0.0521708099359 -0.0522482805532 -0.204254891496 0.181070669708 0.109579647458 -0.115474155986 0.106354938626 -0.172754649713 -0.0172537098847 0.123153301951 0.0552780523454 -0.314450564201 -0.109862159121 0.166242474676 -0.112728990893 0.00760973947892 -0.141624592754 -0.0117090181376 -0.141420023907 -0.0122301601649 -0.23250527228 -0.122395694156 0.0994394374823 -0.188058517715 -0.110617190291 -0.222070076131 0.411265057533 -0.0110571484572 0.253736029291 0.142606965849 -0.0625064527148 0.18755127355 -0.0886546700522 -0.258841299927 0.0729918629964 -0.113062578513 -0.165996778358 -0.106241901793 -0.141505143524 0.117452658222 -0.203972017105 -0.0228940177948 -0.0805978049828 0.0873223533455 0.0972423062295 -0.0458972568073 -0.00647680821813 0.0678455302211 0.103499417926 0.256193655595 -0.0214393496341 0.0288892919035 -0.132744515459 -0.192326868062 0.00113711133569 -0.00140801882914 -0.0641676693277 -0.0545770412613 -0.0387540325251 0.264340736919 0.196516916049 0.0439767984834 0.0564163878289 0.14511218766 0.131094291894 -0.0742569261843 -0.215073815453 -0.0404199054888 0.0895269604568 0.124232007532 0.311945516656
imceaex-_o=caiso_ou=corporate_cn=distribution+20lists_cn=iso+20market+20participants@caiso.com 0.00425195460869 0.0914993981638 0.0629993204982 -0.0124853301374 -0.0523191106679 -0.281520842529 -0.0331167472743 -0.100967560336 0.412034433931 -0.023854442278 0.178453286691 0.0752106224108 -0.103362458303 -0.178220479216 0.0107211588547 -0.263844530949 0.320885051783 0.0866278920369 0.0264920933367 0.0807110782623 -0.206090295418 -0.0494666226277 0.190130704036 0.296046836163 0.0618895542939 0.431020841931 0.0176772340794 0.140031533222 -0.139495348821 -0.0497706116344 -0.0580450057579 -0.195973307995 0.193506272758 0.125339700776 -0.131659779909 0.118892868339 -0.179700036114 -0.0195537567716 0.130096204248 0.0359505683553 -0.318401286496 -0.111671575045 0.200415294255 -0.0917475637999 0.000188365682255 -0.141415659681 -0.00200387613672 -0.138023492889 -0.0253139501612 -0.220307850262 -0.121596434417 0.0847403496519 -0.175813591826 -0.125526241142 -0.223967453662 0.441191233657 -0.0158816911152 0.268720463198 0.155275126886 -0.0699275782653 0.175934631502 -0.0739844248174 -0.25688219082 0.0773811290548 -0.109152161735 -0.176053171458 -0.136082221331 -0.160271574185 0.134623761996 -0.190168470953 -0.0202415890887 -0.0622627935138 0.0854892257754 0.0998676109863 -0.0536753211636 -0.00436943390473 0.0753142750727 0.115207157247 0.263179311268 -0.0252291891017 0.0290022267609 -0.118818284932 -0.203637492314 0.0232818210226 0.0163015185002 -0.0759894250256 -0.0690029314747 -0.0445658045024 0.268559354552 0.197086007465 0.0297280216269 0.0493572813851 0.16530805343 0.130196088122 -0.0535537703169 -0.244870729601 -0.0353346841908 0.0810213110273 0.118153334535 0.323965521729
christian.yoder@enron.com -0.00996724559464 0.0507056161943 0.0564039650789 -0.00595435994558 -0.0225816436113 -0.212676390572 -0.0335341141206 -0.0716765423943 0.307613366981 -0.0383095729233 0.127783388901 0.0478051012298 -0.0824242390979 -0.131211561324 -0.0123266539327 -0.195541498337 0.241972091419 0.0743161534549 0.0131797777559 0.0391980551701 -0.171436128947 -0.0508573005056 0.135307752794 0.213149094781 0.0451939803698 0.331211484006 0.0149005007888 0.0907425145271 -0.0954750416769 -0.0394746057578 -0.0442967319469 -0.13631740419 0.125527202184 0.0986269664882 -0.0987629760619 0.0715281306518 -0.140078324504 -0.0111828419468 0.0944523922467 0.0312303173442 -0.228001676989 -0.0827488503344 0.134903746033 -0.0752553669935 0.0100045782701 -0.107131782415 -0.00527082109777 -0.100067931849 0.00755296648084 -0.170972532681 -0.097176904767 0.0589241196386 -0.139432013406 -0.0802003677182 -0.145903755048 0.331354705561 -0.0213591528208 0.187823753844 0.138983652174 -0.0695747220864 0.125198673152 -0.0371026318887 -0.203520699451 0.0582530991247 -0.0800631477216 -0.111275672589 -0.0934093844726 -0.112464272786 0.110178113084 -0.135576244012 -0.0194953922552 -0.0567073512689 0.0590097372074 0.0742809042952 -0.0527644676083 0.000366718370897 0.0596467215745 0.0845122863571 0.185737597664 -0.0367452142397 0.030075243895 -0.0791876919968 -0.143533862298 0.00787634577781 0.00819605332505 -0.05893261159 -0.0452978444516 -0.0295072241667 0.213201282001 0.144418315876 0.0357443103258 0.0433416754892 0.120299904488 0.0980127873921 -0.0432834895294 -0.175801252024 -0.0363837359561 0.0689655779645 0.0894643933039 0.238747620836
chris.stokley@enron.com 0.00207413369704 0.0355766977248 0.0243598017949 -0.00931725949457 -0.0165653523672 -0.133553205994 -0.00775619018321 -0.0405341239083 0.184632839067 0.00732701858782 0.0768735752437 0.0513879345761 -0.025599196522 -0.0846332682981 0.0214116066776 -0.126843822907 0.154804158629 0.0318378360627 0.0119515932615 0.0343052421034 -0.0812129192353 0.00341560669894 0.0955968795867 0.129792285214 0.0383515643534 0.173735727108 0.00501416040526 0.0682141061468 -0.065594790251 -0.0269955374192 -0.00628604204889 -0.0804225404329 0.104630816902 0.0657815571038 -0.0525743432603 0.064924671004 -0.0919777719463 -0.00313727039889 0.0541096148916 0.024716884448 -0.155025952788 -0.0515630174848 0.103789037457 -0.0344067836809 -0.0316435686244 -0.0754076463941 0.0126415728011 -0.0642442065028 -0.0108192048049 -0.104905507728 -0.0443049208262 0.0223970084 -0.0911311652569 -0.0623739266242 -0.119315756093 0.191805176962 -0.00202101569881 0.130881453389 0.0556292263323 -0.0265453187811 0.0781150053263 -0.0526863173624 -0.107797271365 0.0180181970905 -0.0565319683101 -0.0751285209309 -0.0680989535336 -0.0661100936409 0.0782076346847 -0.0787110033187 -0.00251453311319 -0.041798095746 0.0590143541001 0.0520449125566 -0.0238389975869 0.0238896851943 0.021236897607 0.0407881950074 0.126069965639 -0.00525257460499 0.0217157977101 -0.0515661842417 -0.0952773481331 -0.00500817765691 0.0164477765943 -0.0288821527735 -0.0252757471861 0.000306816953352 0.130484649001 0.0897237241566 -0.00901650610045 0.0220174725426 0.0600833948589 0.0579497564455 -0.0264514265658 -0.117748274454 -0.00402112484314 0.0247323724295 0.0296381628545 0.155336517384
40enron@enron.com -0.0319715038349 0.0334694440728 0.0722067183964 -0.00648992779665 0.0137129970112 -0.150012083587 -0.0375070864177 -0.0525229551615 0.219060170508 -0.025020747773 0.0865986609282 0.0345446557004 -0.0603742399993 -0.0839766020149 0.00192087369737 -0.130992720388 0.169442862246 0.0505372278734 0.0187226654154 0.0137960396488 -0.148270939131 -0.0580138201555 0.116056412641 0.143381577608 0.00629439824781 0.258457970173 0.0188095886152 0.0479037047369 -0.0443671035841 -0.0307009201664 -0.0571076486345 -0.106116438307 0.0738552603516 0.0797427446723 -0.066102607434 0.0586433960239 -0.111769486829 -0.0255938343096 0.0864195457547 0.018173287652 -0.163340263312 -0.0708687313427 0.105723716778 -0.0330746808855 0.0102267378731 -0.0703794925029 -0.0195341200061 -0.0663377812181 0.0104307324994 -0.100199243788 -0.0877909336387 0.050015253716 -0.0861735457622 -0.0493329563838 -0.0749723526933 0.272401000323 -0.0290421719407 0.116369063107 0.130924384493 -0.0604186339883 0.088410479382 -0.00469509763423 -0.158816198033 0.0453027638506 -0.0428854211217 -0.0696191505351 -0.0640834360815 -0.0901713555223 0.092752204708 -0.0752003289722 -0.0216450883418 -0.0220084056879 0.040462053797 0.0498142159539 -0.045361142091 -0.00888955054227 0.057716287293 0.0901529260393 0.138391538091 -0.023484491559 0.0218241729313 -0.0519762468777 -0.108584876501 0.0276120041972 0.0163607381515 -0.0664090709644 -0.0560761474772 -0.0321278706042 0.170950599229 0.111068783392 0.0477179372013 0.0395015906128 0.106267340605 0.0669959751688 -0.0172346004181 -0.136448407756 -0.0518880356695 0.0424529058236 0.0730679851476 0.181905090213
jesse.bryson@enron.com -0.00682018063187 0.0660553555317 0.0364691924178 -0.0232302569907 -0.0385383165176 -0.237965804067 -0.0149288272236 -0.0708210784295 0.33076143401 0.00546471317325 0.119655190007 0.0713801623887 -0.0647728706157 -0.131147921545 0.027806288283 -0.199810408923 0.255901401933 0.0703855196271 0.0251667237468 0.0725598934591 -0.141499762856 -0.00323984109739 0.166661667917 0.2211615329 0.0568466948581 0.312464218032 0.0206432641231 0.115180323488 -0.110347551982 -0.05112082333 -0.0356536893497 -0.146025770315 0.170136814888 0.105696533748 -0.101573455861 0.103386940646 -0.148973106832 -0.00457465024266 0.0874505201461 0.0297579020451 -0.267401004743 -0.066039000628 0.185121112409 -0.07085513539 -0.0293633802226 -0.126702651862 0.0230103021313 -0.103967701801 -0.0208849495841 -0.176132071495 -0.0897533181337 0.0497876513806 -0.141217808724 -0.118935477735 -0.190522653785 0.337286936579 -0.00988251163274 0.224005452268 0.108999321123 -0.0528300275211 0.11852555567 -0.0634103161027 -0.187668158328 0.0424774208302 -0.0912745979922 -0.146591906561 -0.129824803075 -0.115135938107 0.136491988549 -0.150199454619 -0.0183984821668 -0.0641507927224 0.0817820684223 0.0818699745857 -0.0415334280965 0.0223222527635 0.0506051384246 0.0747898872238 0.20218021333 -0.0154410985091 0.0306311262986 -0.0837624507645 -0.152407220539 0.00349994002171 0.036931716573 -0.041223662671 -0.0432934821156 -0.0130120209164 0.212915021053 0.152498863804 0.00372269874796 0.0323616121577 0.125405816443 0.101585297751 -0.0361790580814 -0.218679093119 -0.0145339950143 0.0532200691054 0.0740699714957 0.263899135812
kathryn.sheppard@enron.com 0.00063318481595 0.0349791368443 0.0268058691575 -0.00800471109666 -0.0133384481243 -0.127146952083 -0.00148972919701 -0.0376373819922 0.174276545153 -0.00800093497985 0.075917707792 0.0392252664191 -0.0394030300703 -0.0835405561652 0.00800431928358 -0.124715311152 0.147371896247 0.0423918608792 0.00336984278502 0.0263558586623 -0.0955665014054 -0.0150684028524 0.0890979865299 0.1368892154 0.0403329675149 0.182349591971 0.00385478555639 0.0544779967376 -0.065345440378 -0.0138993509329 -0.00845385796906 -0.0819181378242 0.0878329371677 0.0618306823985 -0.0533207255308 0.0594381133409 -0.0734205339963 -0.00510301976174 0.0436409875827 0.0191012618425 -0.150777240522 -0.0480467110891 0.0935158662797 -0.0464485527273 -0.00731715261959 -0.0733696786113 0.00310036145711 -0.0555855305737 -0.00115874472225 -0.0981010278745 -0.0434627963441 0.0271117808871 -0.0903157558208 -0.0513518618281 -0.104356209011 0.190440908671 -0.0113130771573 0.122500320278 0.0593207269653 -0.0348673640824 0.0687161239087 -0.0408648578849 -0.105908372531 0.0219072242455 -0.0566729992832 -0.0703415648094 -0.0582734758607 -0.0630206934433 0.0651635634718 -0.0800750519688 -0.0024718100306 -0.0353288511152 0.0449135044055 0.0438963664 -0.0323845317197 0.0119571452944 0.0181744579489 0.0413326639554 0.119761503598 -0.019500125866 0.0187959372985 -0.0437929775505 -0.0857024158434 0.00228228966197 0.0141388634024 -0.0274654773377 -0.0215345711592 -0.0103650582229 0.127896213147 0.0847835804819 0.0079864687309 0.0193493972896 0.0642526555624 0.0623477375799 -0.0297986984081 -0.104259193022 -0.0100572927456 0.0362047781092 0.0376693682315 0.148476714876
kathy.axford@enron.com -0.0155884350815 0.0275362736205 0.0433216556284 -0.00146808608523 0.0061346548282 -0.134539544385 -0.0183550451877 -0.039151220815 0.173726695853 -0.0239227242881 0.0595285589108 0.0209700697762 -0.0417389016553 -0.0738210541659 -0.00296448854248 -0.111645651605 0.140337580069 0.0416213490996 0.0066294635291 0.0125389223353 -0.11672869509 -0.0260967257533 0.095297996115 0.122588054892 0.0276731119696 0.192422190177 0.0181915236347 0.0533653071611 -0.0403926129868 -0.0252560651506 -0.0142436990275 -0.072193417497 0.0695347280351 0.0564877711194 -0.0586173860844 0.0376716110447 -0.0848035203401 -0.00201542933784 0.0506396833418 0.0229821240121 -0.141160901285 -0.0410000334279 0.0784717333533 -0.0361784489181 -0.00104957319713 -0.0665158438801 -0.00281032633279 -0.0564877598761 0.021030863752 -0.0974924807165 -0.0542087944533 0.0205339293595 -0.0805733815203 -0.0390128960179 -0.0732234806209 0.199271269699 -0.0215090409149 0.104293175129 0.0921775547997 -0.0516347115333 0.0692659416159 -0.0145097244281 -0.114808770752 0.0250893081481 -0.05095632409 -0.0594819122862 -0.050253068503 -0.0540513208592 0.0817783689396 -0.0690944105475 -0.0137172657141 -0.0362625780349 0.0309633398462 0.037967728239 -0.0361833962312 0.00721083575928 0.0374567006032 0.0425619763822 0.1086314919 -0.0227276198741 0.033435144804 -0.0426367703876 -0.0749704306829 -0.0088695130198 0.0152290258699 -0.0304439697646 -0.0251403053455 -0.00736553481126 0.143128101355 0.0888764021781 0.0128799188054 0.0298525217558 0.0756979610981 0.0481881297574 -0.0238819032441 -0.112621985354 -0.0296597653724 0.038456348593 0.0418393051411 0.13899217483
leaf.harasin@enron.com -0.0401026930847 -0.00479318577308 0.0310564921861 0.0345880179684 0.0358928104095 -0.0831213116756 0.0594520503281 -0.028063960444 0.0599282751746 0.0244227500636 0.0159434549673 0.0341648157994 0.0235016157196 -0.0486201995058 0.0246489248088 -0.0915454545436 0.0610380337073 0.0142271694132 -0.0319327032301 -0.0376896046681 -0.0814093805504 0.0413967808826 0.0603432031183 0.0634715057252 0.044070163722 0.0587587687863 0.0203728268783 -0.00806768771711 -0.0151071797292 0.0427192676969 0.0609757954609 -0.0113003199731 0.0275726737477 0.0489510806694 0.0289637735747 0.0592755329316 -0.0604408798762 0.0131892263873 -0.00108907262207 0.0211201153907 -0.108726295448 0.00715680825324 0.0250086950585 -0.0300038010628 -0.0788052283248 -0.0468864329291 -0.0162803133277 0.0247819169875 0.0204869521251 -0.0339495879762 0.0264789195807 -0.0300802569777 -0.0736327565066 -0.00681208193072 -0.0607576447154 0.0711343763323 -0.0108458336056 0.0582893621707 -0.0215333013497 -0.0318758644234 0.0524359861344 -0.0785509066319 -0.0370560108697 -0.0147412395233 -0.0687483088008 -0.0121292382121 0.0119762502703 -0.00915898031827 0.0338725398893 0.0133226277776 0.0148401315671 -0.0748989321644 0.071925094691 -0.0033170309281 -0.00434540098343 0.0427113429227 -0.0101837602876 -0.0259949053101 0.0823934656644 0.0222533605307 0.0472117781712 -0.0343676188724 -0.0215246765758 -0.0486976822898 0.0441334419874 0.00842710243491 0.00164258268188 0.0193175892354 0.108688853564 0.0342661851767 -0.0190997096386 -0.0304249391057 -0.0128837940515 0.0408563435169 -0.0599169617581 -0.0152280339171 0.0288878127981 -0.00146313303105 -0.0192741018606 0.0468946439883
