436 100
pete.davis@enron.com 1.11088294445 1.08415598639 -0.516248812569 -1.07970285616 0.8901443472 -0.353935268224 1.65752229475 -0.71274123848 1.5417512276 -0.479457919614 -0.650917190224 -1.76548370824 0.665686501806 1.22089706862 -0.126110885672 0.992033559414 -0.268029596404 -0.30356532296 -0.379854569635 -0.770563316831 1.53512094329 0.762574796229 1.78271494342 -0.0182324835776 0.949754666837 0.448695689617 -0.0475252562152 -0.802316026485 0.133862689865 0.5607381069 -1.3375256719 -2.80854953003 0.53097441262 -0.868404479114 -1.71355673827 -1.23194467786 -0.850030918637 0.914754967274 -0.325309619652 -0.32560357299 1.68216453897 0.503487242771 -1.2380192769 -0.0982319308277 -0.00312410603477 -0.966602281929 -0.0323097786362 1.79061437735 -2.53392038591 0.147910687789 -0.78010206018 -0.925949664031 2.01318231018 -0.383471358668 -0.83587752758 1.66555567089 0.419232953396 -0.256128128915 -1.94072452857 1.9787290422 1.17824933713 -0.290003628356 1.0957525498 -7.46703182485e-05 1.79736653993 -0.624909720945 0.210204128376 -0.647527151015 0.149730559176 -0.480691531076 -0.0288743937195 -0.576509088513 -0.735038630403 1.53099680602 -1.15892454373 0.338692433724 0.842050951453 0.509697213403 -0.0960338225299 -0.808989257918 -0.684270974381 0.675761524922 0.770259831352 0.451849676121 0.379512207998 -1.38717702194 -1.13038157341 1.17357209294 -0.595307634851 0.668771871399 -1.06671798045 -1.78690342581 -1.42108776177 0.541462506881 -0.382798511405 -0.0355472787607 -1.74661567873 0.32596247077 -1.17234507332 1.41067119819
bill.williams@enron.com -0.754412729035 1.45142339047 0.349983793205 -0.457933387855 0.643531054411 -1.50849665911 -0.324406809249 0.80356237113 -0.741115293488 -0.464985567625 -1.06486241615 -1.02585361528 0.168857265638 -2.03462436401 -0.39060024001 -1.37062467799 0.450914374842 0.229114096436 2.49878983478 2.1576581238 -0.11544211595 1.08103753277 0.442652107375 0.464936054332 -1.38002174853 -0.303698003424 -1.4710249894 -1.63694910318 -1.04658547907 -1.01191279031 -0.983774393113 0.573582707314 -1.81043467651 0.328644311757 1.61764636602 -1.88516746425 -0.20196010558 -0.483772538149 -0.0935356945136 0.603388156225 0.559871486413 -1.07686778911 0.526564357652 -0.000186830790427 -1.95611605952 0.502408405021 0.9265504955 0.48939223871 -0.380800850989 -0.600003015226 0.0859423654113 0.490206375019 -0.00287406726312 -0.523523456899 -1.31912294796 -1.086133785 1.26750565895 -1.87497387918 -0.116354669454 0.418881389682 0.00430943073048 1.72682242247 -1.17377814783 -1.49088477668 0.602453250544 -0.408125031581 -0.0923062732229 -1.10595923303 -1.32163061067 0.44615070137 0.99126203692 -0.949950337983 -1.07849273717 1.34466807399 -0.179005416295 1.55278185754 0.292583326281 -1.02442592028 0.0307329418346 0.853610432115 -0.558296368343 0.0123194583527 0.535783283916 0.711857021368 1.95874135774 1.61525775868 -1.31479199603 -1.7447963828 -1.05629802189 -0.158897650166 1.31869046743 -0.583944215039 -1.9602977009 -0.447960126953 -0.667957982436 -0.113167682312 -0.318420783461 -1.13798351084 1.81217667461 -0.282985572348
<unk> -0.603864195697 0.320004899471 -0.111439923843 -0.659161952229 -0.748886320263 0.223318439086 0.637354968282 0.365887141604 -0.401731110621 -0.319609552117 -0.284393578846 -0.34889454831 0.857122390411 -0.21627312012 0.411241318711 -0.0725643528726 0.860779050892 0.487262693801 0.529543421947 0.235158778429 -0.732682450643 0.508832826775 0.525364012336 -0.761091804637 0.728773779838 -0.627448976419 -0.920966898556 0.180074512863 0.312719959782 0.575470104205 -0.563776473162 -0.531029780436 -0.194783487497 0.379393823418 0.410484041046 -0.38097483705 0.411052468044 0.708034098225 0.285801292928 0.340758528685 0.613229447539 0.120939494179 -0.352468862429 0.395438276446 -0.682490747322 -0.385964937486 -0.0657439532119 0.562424716294 -0.424668409779 0.621148922951 -0.0330492047543 0.245611505981 0.442271129738 -0.684768273479 0.0788881482441 -0.34704832513 -0.826533978047 -0.632859215401 -0.505771540663 0.577525719143 -0.248674068173 0.113944241226 -0.78805759249 -0.316477662566 0.207257043294 -0.402226086041 0.60987663961 0.165749458392 -0.651643374151 -0.866765829659 0.252831848025 -0.174423556101 -0.500575507947 -0.237675257043 -0.0547211408568 0.615420403491 -0.137060598608 -0.231302519049 0.484344667504 0.419011635399 0.107160227473 0.511417287261 -0.162634469846 -0.986092496308 0.389795653362 0.537339481688 -0.498857535503 0.836695315334 0.419810632503 0.163735414178 -0.54047306584 -0.0566170457868 -0.493943806144 -0.35853017555 0.234117509942 0.150458369464 -0.0953089939927 -0.354228192755 -0.409150027082 -0.673448933027
mark.guzman@enron.com -0.0175671523064 -0.947661982196 0.635354008101 -0.231297284301 -0.171185399727 0.498873496172 -0.706665475501 -1.21444492651 0.962831608637 0.455697562957 -0.599712775828 -0.68549378095 0.0760084785729 -0.269975977517 1.13671943559 -0.686778173175 -1.03476822566 -0.980479029387 0.734754007559 -0.107806322138 0.12939292399 -0.851332423713 0.807564230688 -0.00510167956873 0.607339528594 -0.0388237220791 -0.0328947527294 1.22302035756 0.201874432243 0.248497270038 -1.21336813713 -0.866534735404 -0.432081432553 0.510234232738 -0.904507427944 -0.770959412415 -0.170903968596 0.774089842368 0.957516006735 -0.46144176767 0.633180030699 1.01014549167 -1.27932583098 1.92748351526 -1.78175525697 0.0308947467083 0.544056785439 0.804037023286 -0.222587959336 1.18740677501 0.0818704981066 -0.194450707619 -1.69558328708 -1.58400164895 -1.68906853596 -0.377640659924 -1.02975158759 -0.30920766282 -0.601070771076 0.105228223555 -0.680838593308 -0.216869782108 -0.517135320087 0.016674008819 2.34609823631 -0.114992538407 1.1695818272 0.570165457576 0.0161273966159 0.852266267398 -0.611355049974 0.107897048288 -0.801772976296 0.263334150039 0.137372052534 -0.246460619817 0.0199740635402 1.08336383148 1.21268131941 0.926024561135 -0.700424102511 0.58937638907 1.35927043132 -0.320984193042 -0.766811632177 0.350965482391 -1.48033280323 -0.0957202599305 0.135387909876 0.572768131417 -1.0426435469 -0.624776462182 -2.07423911232 0.491758359052 0.391014780836 0.125381241416 -0.312462028277 -0.838944575351 -0.573316806895 -2.06978532716
geir.solberg@enron.com -0.423022013169 -0.743056243344 -0.714435235222 0.411267930836 0.0901479975262 -0.457245955597 0.848348709769 0.624725839029 0.971480273673 0.652682055243 -0.307792799927 -1.94828147078 0.323750353696 0.0526864350448 -0.379889594174 -0.329443903493 0.887394396466 -0.506568886654 -0.22579502369 -0.140623143137 0.5343522203 1.37813841753 1.26555620551 0.95741193287 1.2973899679 -0.986458470233 -0.125960242285 -0.768087250277 0.617848383338 -0.346837444158 0.241600318175 -0.625847379671 -1.48830847376 -0.733598563511 -0.944162060671 -1.6188195532 -0.0836027213096 -0.101132557488 0.642629585844 1.1445545782 -0.0666480982388 1.42257675364 -0.945377576804 1.7498151709 -1.1915193686 0.515794828094 0.853105342238 0.198765057786 0.0686491607367 1.48031813795 -0.179536561181 -0.84040992066 0.741183299712 -1.1046128198 0.132527093946 -0.506750176397 -1.47807409634 0.528776969883 -1.80944860759 1.3813733776 -0.702161785355 0.924400998666 0.0982338426648 -0.849406400091 0.436156929332 0.509186016562 0.453780324607 0.279165554967 -0.71287800917 -0.201820805338 0.648128910528 0.226379679111 -0.857902694618 -0.655407924312 -0.745058874569 1.28504878136 0.210414052548 -0.60187257654 -0.214205010032 0.856609853025 -0.898612465722 0.191695691551 -0.679627779548 0.383062305286 1.01450609259 0.678524627112 0.213740203086 0.535411653126 0.38805841124 0.930478663301 -0.854837972866 0.588042551774 -0.0318101815086 -0.593739270432 0.534898603164 -0.649755929312 -0.597691820646 0.300981600499 -0.425626886404 0.738425026001
ryan.slinger@enron.com 0.612736327176 -0.947367395806 -0.626148356303 -0.232186591933 -0.345901415248 0.268858044825 -0.413503551055 0.257684768838 -0.674384166747 0.276505929402 1.04542040422 0.237292720498 0.146288456774 -1.22151892437 0.980010296652 -0.396673866273 0.355512966251 -1.44877190892 -0.991734943629 -1.10735707566 -1.04602628003 1.99498428032 -0.522733875632 0.557047979426 1.65386151916 -1.1297177636 -0.726638319118 -0.5633326553 1.39765452251 1.26666652782 0.27715474631 -0.161459825756 -1.82274168808 0.521667536557 0.753793228013 -0.825398199738 -1.44921354528 -0.590871433712 0.941118345049 0.0258032912502 -0.680360494348 -0.928847554428 0.0444595345845 0.395627543313 -0.426241299387 0.762726793475 0.932048979958 0.158008845302 0.639185406938 0.157191821698 -0.207230085516 1.42916776997 -0.555785475253 0.256146997821 -0.263800762259 -0.774080999304 -1.97679696195 -0.0948852888203 -1.4890164506 0.495351243333 -1.27446133604 0.985227208126 -0.178428326548 0.42982804755 1.2789653594 -0.973589657345 0.51682298361 -0.247718360781 0.214277541855 -0.950862211345 -1.03017234311 -1.16315277043 -1.37145348439 -0.178627797567 1.16083266368 -1.27082152569 -0.987495038062 -0.20847788139 1.48394556823 1.3893315371 0.0604586023379 -0.57796339792 1.49862379595 0.694475949467 -0.463291763003 1.17069587434 0.114828109259 0.238048688252 0.219206994815 -0.976793778948 -0.534389785142 1.44379378721 0.0500258365614 -1.28199949718 0.415210061126 0.574692188895 -0.316160342777 -1.77780529156 0.9938923788 -0.754420888163
craig.dean@enron.com 0.573791450699 -0.377955911411 -1.01426772427 -0.859422154421 -1.16752389121 -0.217713921203 0.404196435042 0.0190503256437 -0.855263794449 -0.793145600712 -0.460321961145 0.550661450884 0.971149343242 0.263061639162 0.471758800066 0.546455978184 2.11026617182 0.856352751164 0.0867992770291 -0.345561407855 -0.794227183662 -0.407425432268 1.34912829416 -1.78190878613 1.42907372036 -1.34543200197 -0.47787716368 0.723026153254 1.37799150573 1.36611346825 -0.341196666597 -1.19965781341 0.101305550121 0.693940352235 0.224605973482 0.0458259202227 -0.144673472203 1.06992084008 -0.197969661671 0.238030761175 1.98528302551 0.376723093602 0.168653715809 -0.525736254583 0.494072540054 0.930898165725 -0.0759982631502 -0.0935556936644 -1.10468765166 1.4961466289 0.453572121838 -0.355464030377 0.960076727183 0.658622565223 -0.419781613741 -0.362797424268 -1.31145670073 0.0346261366306 -0.389908817667 0.210926517148 -0.238350776377 -0.671192150362 0.144465813722 0.240717214518 0.0176746895784 0.798222330643 1.53949126921 0.885329959503 0.684782405885 -1.03788342865 -0.396277750432 -0.221471722578 -0.515389006973 -0.623172842548 0.628040231916 0.274858567512 -0.393039875966 -0.974500064982 1.07727247155 0.785258871472 0.277055721198 0.0591301525447 0.649805754298 -1.19857855434 0.260852413829 -0.254951490234 0.537356543872 0.7042557984 0.436251550099 -0.915201722868 0.433347223735 0.706104846163 -0.231016362348 -1.22558134819 0.988865409507 -0.344388805185 -0.273311523584 -0.0731496699425 -0.844145518031 -0.888252059415
john.anderson@enron.com -0.176673730304 1.633221508 -0.0273862504331 -1.09939563983 0.0980530198848 0.419449905915 2.13305395016 0.554413542039 -0.683416523621 -0.290345490654 -0.188325794049 -0.00554800880217 0.460019795452 -0.0571706148921 -0.225281192642 1.09612282575 0.0760349965646 1.18778846824 -0.153869092422 0.412778177342 -0.365540994222 0.399087512632 0.543392391637 -1.2098340129 1.13014321157 -0.159589935477 -0.816473255078 -0.0578986636841 0.252165174125 1.13606098855 -0.601652041278 -2.02684157244 1.44652295679 -0.362374637242 0.331574111968 0.209062408602 1.58394391107 0.718956975895 0.279221230053 0.26144900895 0.986513616694 -0.127149764651 0.411631444597 -0.348442278427 0.836525505534 -1.32627319208 -1.07992005354 1.93592181931 -1.12106905413 -0.123434714529 0.23554639016 -0.47558663499 1.72735037966 -0.130985531249 0.47163377426 1.20003982724 0.318801940483 -0.642027672272 -0.967289233727 0.989485329073 -0.0560079252708 0.763667431294 0.0241845670634 -0.202072806176 -0.319337866049 -1.30529460552 -0.523317874121 0.145757937062 -0.481599324313 -1.77813145401 0.652341579458 -0.0433589400536 -0.46735784224 0.136150617221 -0.994288519471 0.647767242561 0.77189600933 0.831778295267 -0.499698549262 -1.06959576255 -0.0260229904955 0.916519574734 -0.683753145827 -1.0239679826 -0.426523787045 -1.08110786525 -1.35202065286 1.28799674523 0.844132212609 0.641198522919 -1.00723179044 -1.25720716122 -0.483031552828 0.306421279409 -0.543209456127 0.488295219051 0.198443365768 0.636666577651 -0.775385082434 0.44586235583
albert.meyers@enron.com -1.14377244981 -0.999408813709 1.38702792721 -0.527698055867 -1.14070835157 1.12598691538 -0.594523577806 -0.419733162544 0.28625528507 0.571016561498 0.924099848706 0.0763194147814 0.608568320992 0.608974908332 1.16179996485 -0.480903815599 -0.958336462399 0.510386009125 -0.439415193731 -0.411117340086 -2.03019377765 0.0244748824666 -0.873413587076 0.329996644824 -0.0234660225008 -0.388098750379 0.302442267901 0.876177474379 -0.489409111781 -0.119332123709 0.299539278784 0.786550501775 -0.582208541144 1.61238875275 -0.00645719640663 0.423523834386 0.831434509132 0.639780548963 1.53375448052 -0.838001716794 -1.58315547308 -0.119870881333 -1.0431930132 1.49872014189 -1.36290949211 -0.648718289325 0.122873272117 -0.315815008095 1.26477209155 0.495570715599 0.029781324744 1.96663312822 -1.49371253552 -1.48542270159 0.55593765836 -0.656912851194 -1.80389288094 -0.187991734956 -0.683866975595 -0.297412687305 -0.483499733882 -0.674737170758 -2.09870025335 0.286285831499 0.81938230088 -0.942633318909 -0.596559037612 0.691943252375 -0.399326231106 -0.755995192071 -0.533381781138 1.06779883646 0.871394443989 -0.716283964665 1.18005825024 -0.918545296627 -0.937202048188 1.16777541618 1.26621916608 0.318728708413 0.779912726426 0.672046783007 -0.151482932516 -1.32235281331 -1.00387886706 2.55552314801 -0.583490579598 1.15095049563 1.05718365663 0.874579238516 -1.3498081971 0.47463879958 -0.307581584497 0.31940869892 -0.210696087026 1.48128103719 0.774989367371 -1.03018646061 -0.426298600119 -2.23239144164
michael.mier@enron.com -1.46201561734 1.26114461877 0.0756879525441 -0.648149929176 -0.556909545846 -0.517168736762 -0.777370553483 0.707296291659 -1.69982255143 -0.679814072257 0.189166077849 -0.391488215702 0.696873571291 -0.151440654529 0.671228143409 -1.6524460302 0.557811255318 1.25373461747 1.0369944624 -0.0870664403689 -2.32825107422 1.1884072596 -0.427238321641 -0.568073013907 -1.50132170238 -0.171046922457 -0.199315423636 -1.06636376006 -1.18872108387 -0.104844521254 0.55802897423 1.27233065672 -1.40820242913 1.27784026487 1.58212670154 -0.388796686328 -0.622838597915 0.659167079828 0.580606619505 0.590519819309 -0.574054718041 -1.81852676995 0.395040067035 -0.505833696746 -1.20269912947 -0.921232499746 0.462636378164 -0.508129527645 0.413494748167 0.0901785426595 0.129883187798 2.46985747102 0.2073076867 -0.654114046795 0.607890910673 -0.891360058602 0.122485433117 -1.51812453968 0.286698824206 -0.021564228611 0.0969902149034 0.291324232125 -1.60489367909 -0.870576289281 -0.0417885529114 -0.946217680447 -0.72506788221 -0.803428264468 -1.75195470865 -0.893381367824 0.15093028974 0.437565933741 0.352953517298 -0.824597632185 1.0600530123 0.431169654625 -1.41975248418 -1.17955287089 0.183217672601 -0.254187029534 1.01605618427 0.716790185739 -0.771342585938 -0.0989064246416 1.1887130149 2.52045003253 0.0505171863475 0.693402646025 -0.375325838442 0.219546897538 0.702046695687 -0.0977834292452 0.0395898611162 -0.462697845168 -0.626503557678 0.993190421236 -0.261025033683 -1.52714307937 1.12690457982 -0.598583674523
kate.symes@enron.com -0.243104166135 0.10127664634 -0.090548607239 -0.319587091329 -0.191564260775 -0.100993772368 0.280420450926 0.122508089669 -0.0958392537045 -0.0864628817322 -0.12203372716 -0.409762703832 0.373961743422 -0.00172168159432 0.160597947648 -0.128517998076 0.346012832177 0.244712714167 0.197886373872 0.0437425953972 -0.353049887487 0.393215230375 0.395100111934 -0.163415951976 0.30747708414 -0.364978578583 -0.245417578028 -0.181261035889 0.0791314243773 0.166906256808 -0.138015434134 -0.304970353629 -0.350958432458 0.193532595337 0.0667761545871 -0.374960114161 0.0846499984438 0.3199918833 0.287493623106 0.199409764912 0.23197469969 0.0550940182257 -0.215308415523 0.299832759893 -0.423152078544 -0.0785020387665 0.155651217663 0.221138409528 -0.218121332644 0.425860585798 0.0100033233311 0.163875209778 0.302691897057 -0.368645833468 -0.0376024358099 -0.176125228921 -0.425149563305 -0.270162768313 -0.527023688275 0.410894442982 -0.123360367355 0.148552917634 -0.325358937899 -0.2306483665 0.263717259191 -0.155027361717 0.10699721169 0.0601003567118 -0.302713615296 -0.430793726498 0.105533810434 0.0431521883662 -0.251361719626 -0.118797622662 0.0140257225464 0.328489021262 -0.12233730341 -0.166606852492 0.236125887818 0.175074169331 0.0126493629234 0.255607468242 -0.0787773440719 -0.253205069328 0.28495834046 0.469205208298 -0.206332133608 0.361068627796 0.133641650005 0.194937313143 -0.208945657595 -0.0327194705015 -0.327209296915 -0.212921128909 0.0399718234686 0.136788649778 -0.151034744852 -0.191261222397 -0.127338501319 -0.206252352071
tim.belden@enron.com -0.250814565337 0.248208286883 -0.140751791057 -0.3817067833 -0.193080324703 -0.120240092509 0.220887877004 0.112064018562 -0.30240992611 -0.17927996446 -0.199423693849 -0.345767874945 0.374195326301 -0.170227710911 0.252370157883 -0.230333483013 0.369154320219 0.218232713236 0.388258528327 0.109407144905 -0.410256894632 0.369856353702 0.40633283804 -0.341020053232 0.289457732353 -0.339701646646 -0.359314202089 -0.161080553216 0.0958726502767 0.305777091336 -0.253262093796 -0.343372697587 -0.325388142921 0.241580462274 0.230212769672 -0.385234006705 0.0335561443993 0.386668262992 0.274178602364 0.244554343208 0.395519896007 -0.0533868759574 -0.119875513386 0.225376788659 -0.449760516224 -0.137734977182 0.157563298651 0.318427619667 -0.302488814818 0.408817605449 0.0349589442012 0.183275963644 0.267137357503 -0.371867623879 -0.158594533408 -0.216566614546 -0.327116034615 -0.443830068554 -0.404776089173 0.380043790558 -0.161166045921 0.205424253418 -0.330193948414 -0.246808313021 0.32978612377 -0.227702902353 0.210868695058 0.00383814740205 -0.359328870928 -0.408554600667 0.0862224750604 -0.0587185321636 -0.395232527932 -0.100599849095 0.0205460657268 0.350515079521 -0.161871949008 -0.213115083556 0.280428857986 0.183929778566 0.0409465941847 0.289033627271 -0.000120176163379 -0.254622452469 0.308141860822 0.394782593358 -0.3127742432 0.307435698264 0.060254267438 0.0995884498754 -0.133242770569 -0.14309046943 -0.459443533429 -0.2341262939 0.0379265883622 0.139276598558 -0.181134871646 -0.308528706153 -0.0446892889555 -0.319063784813
diana.scholtes@enron.com -0.211510742695 0.230460841981 -0.0854789108314 -0.323597760525 -0.142775354595 -0.114501064286 0.128342780898 0.064969492083 -0.258760846182 -0.17256825616 -0.184055791406 -0.276351629675 0.299371585887 -0.184115629131 0.222251255213 -0.228618738801 0.273045710853 0.172666526614 0.386418600245 0.12283679316 -0.336709631288 0.276618941444 0.325930350003 -0.280993037708 0.176254531283 -0.259400372478 -0.307686049811 -0.13500354762 0.0341671353926 0.23047178012 -0.254023895175 -0.258576462572 -0.280544677815 0.219923248047 0.224496366051 -0.328851988217 0.00172019231806 0.320805388117 0.217205638157 0.177716416427 0.338503149915 -0.0789602955798 -0.0923118659833 0.16963100622 -0.400761082398 -0.111638485626 0.137461388858 0.266674701749 -0.24936468049 0.304817018268 0.0321653547726 0.173786777879 0.171477138678 -0.310012069344 -0.193703082615 -0.19892935371 -0.214539145574 -0.411227778263 -0.294319397442 0.283224024723 -0.123605181963 0.179033521442 -0.294204370063 -0.214547912234 0.301438141566 -0.198395681927 0.178775229555 -0.0229373892182 -0.29720763388 -0.286868120845 0.0631347951889 -0.0698403962938 -0.332370625353 -0.0341616961141 0.0344788947414 0.290360277871 -0.137051704304 -0.174968716228 0.251147246063 0.161764596026 0.0219553027556 0.234581785014 0.0464131362924 -0.185025638003 0.257689093605 0.340475877116 -0.296142716847 0.198253888989 0.00360819829019 0.0673561551212 -0.0682431912258 -0.149049673375 -0.433659844413 -0.174879083676 0.015404506141 0.13082387395 -0.153884301849 -0.290848865076 -0.00300827303559 -0.307701517215
chris.mallory@enron.com -0.20439608625 0.206007483454 -0.128631721846 -0.336173689 -0.178886208984 -0.100965867476 0.186999939575 0.077011975971 -0.271475176343 -0.178531832624 -0.186579035936 -0.277459994831 0.340202539473 -0.147674281022 0.239700792579 -0.197165786777 0.332586220843 0.196020948222 0.36261481102 0.0932922570905 -0.354482274748 0.287713813312 0.368303678827 -0.339599890981 0.263944948863 -0.306651252245 -0.326558496427 -0.106267410793 0.100755543157 0.282545467184 -0.241031415338 -0.30738960086 -0.25149991593 0.222476756068 0.203373158703 -0.324940730257 0.0235290254632 0.357567019668 0.223714142249 0.212376449339 0.384757531582 -0.0446651608643 -0.10305306422 0.184887315678 -0.372689278668 -0.111365339815 0.125326548447 0.28389583282 -0.279112195112 0.374567890975 0.0381043528622 0.147617121298 0.221619141877 -0.310176536902 -0.155813909393 -0.194717171437 -0.287281162569 -0.39123970399 -0.33360262221 0.310074603956 -0.139241783211 0.150591665999 -0.28004064645 -0.202746329793 0.289778439369 -0.189070845953 0.214405836427 0.0140329236149 -0.29749794527 -0.351484285654 0.0563534875026 -0.0548628573884 -0.35370144123 -0.0829842336692 0.0288786261829 0.300046259047 -0.143280014873 -0.196936256591 0.263588111211 0.163979576623 0.0341287746203 0.259618834851 0.0217655718568 -0.2411649486 0.255297553888 0.315315141642 -0.270056624403 0.267142945376 0.0477526847422 0.0655748469175 -0.100577460269 -0.124437900272 -0.416313045676 -0.207496341605 0.0489592847561 0.117883916806 -0.158368631032 -0.261871931592 -0.0649597169652 -0.308836511362
grace.rodriguez@enron.com -0.251458770527 0.264042771165 -0.132519831185 -0.393784355205 -0.18682226316 -0.128486659015 0.242391159754 0.123939179125 -0.283829258967 -0.192576596631 -0.220134669952 -0.364800629736 0.397623522929 -0.184445984079 0.238883059075 -0.231186429826 0.384343495868 0.22884926739 0.409741287831 0.13907196516 -0.386697502149 0.383416652359 0.42812839964 -0.330103989539 0.283156257126 -0.354658365607 -0.389732911973 -0.180740577788 0.0793970651187 0.278027244951 -0.280994865699 -0.353927043286 -0.341654410826 0.229719507124 0.23615700751 -0.419937129139 0.0289096321512 0.387200244099 0.256620829415 0.246809840305 0.414962331417 -0.047692237784 -0.134131692528 0.231035989191 -0.469131008483 -0.122453320863 0.163136680795 0.33409499044 -0.323883658601 0.400333361206 0.0265057317417 0.183212025439 0.279521994451 -0.374536236459 -0.170685477671 -0.220247760963 -0.320845813312 -0.455745728397 -0.418946742591 0.398984099741 -0.145048663977 0.216147975004 -0.35045719297 -0.26536650703 0.339831803465 -0.231439099987 0.223379238714 -0.0112775430693 -0.362061955745 -0.409532717994 0.108912077371 -0.0858154986435 -0.404342425159 -0.0544863282615 0.0119065496014 0.375190944387 -0.14325744093 -0.224115885227 0.28269548338 0.197954951318 0.0145986687281 0.292250187532 0.0180133614377 -0.251629942999 0.336004911977 0.41149553277 -0.336190756145 0.296631618949 0.0482195317803 0.0986882672518 -0.129517999958 -0.143503426879 -0.483738135922 -0.239711757085 0.0309194032091 0.131108955617 -0.18721515625 -0.304308822448 -0.0373746670217 -0.306385613308
jeff.richter@enron.com -0.216619570961 0.238891306129 -0.0886788884413 -0.342019229951 -0.152856767893 -0.118370988654 0.139314432184 0.0710906777416 -0.284450403369 -0.181330520051 -0.201502893583 -0.283408682016 0.317625911806 -0.202106510868 0.241720744157 -0.241089306471 0.290645781879 0.17747230165 0.424857343353 0.14516370734 -0.353985756582 0.285854331585 0.338592559942 -0.30981498048 0.19197849537 -0.272111611708 -0.339159755001 -0.124593793478 0.0424777064982 0.244060797451 -0.273377818135 -0.272354294136 -0.282692332866 0.234118719211 0.233127978339 -0.34106528894 0.0118765443889 0.337215657855 0.224557972636 0.187709575323 0.372989637974 -0.0853365538705 -0.0877983933756 0.184394427758 -0.423670096479 -0.116894500661 0.145903132328 0.292920288873 -0.26370344558 0.331384009361 0.0376616977151 0.177397978972 0.169616192042 -0.335993889364 -0.209630090137 -0.206053964611 -0.234652110867 -0.433821924498 -0.30446128025 0.292949869143 -0.135601011766 0.188181113671 -0.31276356135 -0.218057972715 0.317173302797 -0.214183081526 0.194968879973 -0.0225053011861 -0.314085456229 -0.308532963559 0.0611150428596 -0.0730756504924 -0.359655034673 -0.0331400003035 0.0288902777824 0.307350768613 -0.133579157991 -0.181460183098 0.264932468393 0.178128889532 0.0251334314117 0.256574710988 0.0529919563344 -0.209609761294 0.269061894474 0.348858839206 -0.325204442369 0.206856438195 0.0161448449723 0.0702856227463 -0.0776984301737 -0.162314209262 -0.468690895341 -0.186767064513 0.0231920514983 0.135175394435 -0.152254574494 -0.306420237207 -0.00696433828975 -0.332325708085
shift.dl-portland@enron.com -0.248209565695 0.255341055294 -0.0788138681406 -0.366988863161 -0.157714652158 -0.0938859632899 0.168007386461 0.0811580742113 -0.261151961082 -0.168979755269 -0.175056946581 -0.331408986394 0.352307073266 -0.17155805747 0.269160864146 -0.249135233819 0.26312057312 0.183058363312 0.380342872479 0.0870149049762 -0.400710702208 0.365316925533 0.336451053517 -0.280456612834 0.206525240756 -0.278197881479 -0.340411540607 -0.163176678186 0.0270922615965 0.25787886764 -0.258710692932 -0.296066582177 -0.331125732904 0.246986287663 0.224114826206 -0.374287903006 -0.00208522764137 0.365575682312 0.276717161962 0.193113342377 0.326135242783 -0.113323590911 -0.132127258521 0.219146181101 -0.471009944106 -0.174546652166 0.162045476285 0.329381105288 -0.274655502349 0.332500715652 0.0133598247644 0.25080161633 0.195808709407 -0.383851764469 -0.165927408694 -0.188877296369 -0.281371234303 -0.452976141505 -0.386933139258 0.346396024349 -0.13360689629 0.191823119774 -0.351400250472 -0.231970488161 0.377998748889 -0.285765207747 0.160924409036 -0.0415078183507 -0.358566587911 -0.369461055997 0.0544974163375 -0.0653725081313 -0.359306503691 -0.043280423285 0.0395690060719 0.283068561271 -0.166702708092 -0.157146322366 0.281333800406 0.158491222384 0.0341477617438 0.288694767534 0.0455492780286 -0.206682798248 0.268126193219 0.425243574944 -0.348386725078 0.280609865682 0.026595304854 0.114289964624 -0.144347488803 -0.168317955756 -0.47116198252 -0.179106146267 -0.00593149048355 0.18303520047 -0.18514336398 -0.352157880338 -0.00658375001205 -0.324165332082
tom.alonso@enron.com -0.235072707893 0.270669860356 -0.101920491644 -0.38051720729 -0.178127287342 -0.111714579077 0.160775694135 0.0699839798312 -0.308877180602 -0.198777034405 -0.217235513664 -0.300935610447 0.35903181059 -0.202215077708 0.278274178363 -0.254123982932 0.316821846426 0.202442703319 0.452975155359 0.135739303858 -0.397651817768 0.308031330373 0.378116902322 -0.354768954313 0.21523313074 -0.28734748184 -0.363603165542 -0.132456914116 0.0549848128601 0.286480100675 -0.295980700945 -0.308697175399 -0.297563683837 0.262936171765 0.249892555589 -0.363391371651 0.0118548690453 0.381641257613 0.246512798491 0.202449501957 0.416920807614 -0.0921892322446 -0.101374371997 0.194655592171 -0.45185095081 -0.147310254719 0.143185751114 0.332079595819 -0.305274757995 0.363838318828 0.0438867335495 0.200901161245 0.19368918513 -0.362842725689 -0.216005150714 -0.21121809391 -0.262253395743 -0.479726545749 -0.333414859829 0.32781503032 -0.144514741954 0.182448563132 -0.334094190512 -0.229572605795 0.354143710538 -0.235199704976 0.215887865989 -0.0180809645086 -0.346049083123 -0.354175093865 0.0600219097089 -0.0809106282986 -0.390456948634 -0.0413903173505 0.0359752737529 0.318532308627 -0.161593258531 -0.195381785355 0.289833254406 0.175080251579 0.0382776990391 0.282360663472 0.0561547137743 -0.236738489862 0.283260996335 0.369917527278 -0.349953770307 0.250166193859 0.0155907165419 0.0795908987524 -0.0924631236531 -0.178808737697 -0.508677863126 -0.200392360732 0.0198020640227 0.143717220842 -0.174569315765 -0.338710036614 -0.0219547611109 -0.371548929896
cara.semperger@enron.com -0.215994813172 0.209272918495 -0.104144322254 -0.337526816019 -0.162750485935 -0.109255312777 0.192355994528 0.0885028751691 -0.235064182226 -0.158680074196 -0.172625301013 -0.317352384455 0.343200662656 -0.143065910511 0.217261920252 -0.208901584564 0.314346042199 0.187433612485 0.336559075873 0.0893153056083 -0.344071672266 0.33899045638 0.360075018371 -0.273973409493 0.238444659299 -0.295214806354 -0.317426438746 -0.150015759811 0.0636869184355 0.246490341429 -0.233737567022 -0.297476321133 -0.30735789859 0.210527245182 0.182242043239 -0.357750570574 0.0183764259263 0.33208394389 0.232912563669 0.204688856168 0.334065816973 -0.0498349771659 -0.125164321096 0.205830090538 -0.410634483622 -0.12336433024 0.148515238991 0.275136280973 -0.262167966318 0.352827957954 0.0243190541653 0.176326513964 0.222289212109 -0.329897609856 -0.145975473267 -0.189991875391 -0.291280738819 -0.38301643513 -0.376823286586 0.334888663357 -0.127861677195 0.175156776194 -0.300172160911 -0.22237492223 0.305999112012 -0.201084766662 0.177305138406 -0.00641117036411 -0.312921407913 -0.357534366107 0.0741140219231 -0.0585822764014 -0.339384926892 -0.0682251048741 0.0162797589119 0.308008008399 -0.140695150618 -0.184327396161 0.252097053581 0.165236991455 0.0243582951806 0.257067812518 0.0147751766102 -0.214747099328 0.27827270264 0.369748391321 -0.283007515898 0.265117431465 0.0400945430081 0.093771577193 -0.121683131009 -0.120282992644 -0.408071685633 -0.202146528178 0.0228398628368 0.127922648314 -0.165475542736 -0.276319342433 -0.0459048120675 -0.27385276647
mark.fischer@enron.com -0.235157091874 0.28934909791 -0.118306212766 -0.367378728464 -0.162489849474 -0.127980132142 0.161496305578 0.0883717278389 -0.336502081746 -0.200651445645 -0.213192472655 -0.293196716354 0.337649219915 -0.198633968661 0.256104788835 -0.265105181963 0.323295240366 0.205047595445 0.437235622836 0.124471788172 -0.395304340068 0.320660859468 0.358255168365 -0.357297380732 0.196491491412 -0.285867747829 -0.357760899683 -0.158848768812 0.0501353575989 0.286681327918 -0.271999878663 -0.289093202272 -0.286181906546 0.245791008136 0.270247314354 -0.358643036555 -0.00293624590811 0.370856998777 0.235323061723 0.223779810288 0.396855296716 -0.115375095787 -0.0814783301373 0.157351560398 -0.427976296774 -0.158537035203 0.141991304976 0.308016732863 -0.295012019748 0.341796603812 0.044625336845 0.207325698191 0.219919359721 -0.341215691434 -0.182573052704 -0.20212210274 -0.231397055522 -0.474532901737 -0.311001679774 0.319744383178 -0.131155360879 0.199137431037 -0.31374935998 -0.241080600894 0.31610924081 -0.232403999765 0.197304070536 -0.0389005591356 -0.351291034697 -0.349778649455 0.068701892685 -0.0798539409036 -0.380541652717 -0.0596459409275 0.0250048489876 0.329871064125 -0.16291187947 -0.218228351288 0.257060635343 0.156732986825 0.0477597997388 0.282988435576 0.024094554991 -0.211886497042 0.292958697073 0.349207972478 -0.319584973585 0.242248967076 0.0116119175324 0.0683046356482 -0.0764085290076 -0.183764976065 -0.464429888735 -0.203490360583 0.0105050122296 0.138035678598 -0.172866161719 -0.32532841314 -0.000388121312966 -0.320339086312
matt.motley@enron.com -0.195529477886 0.244988214151 -0.0772911263626 -0.319170522017 -0.146007389766 -0.0880625039191 0.12615480185 0.0550777389616 -0.27825184485 -0.185086003582 -0.181770309049 -0.215927370026 0.286594745469 -0.1704733707 0.237076895836 -0.205790969893 0.252584606 0.177679090154 0.380377501785 0.105838031035 -0.335284396693 0.232870595762 0.293466535564 -0.320361013356 0.163578379376 -0.223842598688 -0.301293113605 -0.0890189751106 0.0452028512062 0.257881898933 -0.254444899401 -0.257373007286 -0.204198653641 0.223372105241 0.223278095622 -0.275134027996 0.00977485868691 0.322373483764 0.195081016904 0.162635427532 0.357541553078 -0.0907925979026 -0.0662256121907 0.127941681613 -0.346596426429 -0.138631996518 0.0998662237564 0.273114161357 -0.255976477186 0.287416846978 0.0419319202783 0.172645421276 0.159306249046 -0.283384918871 -0.178286434053 -0.17045721828 -0.190238459063 -0.404817783104 -0.233488231914 0.248450365759 -0.112416639204 0.144863921377 -0.265785113253 -0.184081092527 0.279632387727 -0.202061027588 0.177821113818 -0.0169415004514 -0.281351700996 -0.282227746787 0.049094453673 -0.0736022526932 -0.311003509475 -0.0363125023524 0.0360492262781 0.259869898338 -0.134989533286 -0.154283766816 0.234982934725 0.127677261799 0.0411046849073 0.241830513359 0.0429543635999 -0.208690685877 0.219243561732 0.283992971316 -0.28902337941 0.207235346867 0.00707847503861 0.0532181937049 -0.0675597795195 -0.171346500741 -0.416336568611 -0.149237840695 0.0151727999257 0.130598087193 -0.136256462377 -0.272851192376 -0.0129406077365 -0.311158326597
mike.swerzbin@enron.com -0.185321755991 0.209873133581 -0.0862100217685 -0.312509936356 -0.144315416049 -0.0892496782183 0.142824583434 0.0549123130362 -0.236443230065 -0.154341235108 -0.175268744924 -0.259387720222 0.300768983819 -0.152836957492 0.226334109201 -0.196378890114 0.26035001537 0.159465752523 0.336850308934 0.0838419768103 -0.317549755553 0.272725938263 0.318087462148 -0.281428828237 0.210572398852 -0.256384235823 -0.29255111007 -0.110345253683 0.0594386247645 0.248817898918 -0.242128135925 -0.272305764138 -0.25411919764 0.207288400667 0.185492097475 -0.307911235622 0.00358521379379 0.319581557116 0.212438159666 0.164299238157 0.338268259738 -0.0589628267506 -0.0977725103418 0.175688470549 -0.369203518023 -0.110122727652 0.124518990871 0.267945330673 -0.252393029525 0.317275201866 0.0336093711707 0.164449112338 0.174673544903 -0.294947114729 -0.177676525364 -0.16916067703 -0.235965812102 -0.379868492204 -0.302891783211 0.281407056287 -0.122906219606 0.156320434324 -0.262659383551 -0.185989760493 0.299607620909 -0.197918694362 0.18929581933 -0.00798537634084 -0.278740953154 -0.304794996702 0.04751898956 -0.0619426497784 -0.326646962304 -0.0441999880943 0.0275939074288 0.260936053975 -0.127177946467 -0.155909346426 0.241396869371 0.152147398028 0.0249950893837 0.235980822932 0.0511192121437 -0.196883841914 0.225911197922 0.310491348778 -0.277793917145 0.227472074577 0.0296060491397 0.0640376868216 -0.0933068804591 -0.143376128626 -0.409341273827 -0.171818600155 0.0276101908433 0.128949243263 -0.154512542329 -0.273587706274 -0.030593283193 -0.293965135697
h..foster@enron.com -0.108823721948 0.110617746575 -0.0787078638057 -0.196615039964 -0.0885068209285 -0.0691238240542 0.0872929255662 0.0356540311078 -0.154403280961 -0.0922500970289 -0.0819872083361 -0.178757568527 0.189232467502 -0.0640129881827 0.145243711055 -0.128406711294 0.169448461801 0.106312787117 0.172332092795 0.00860559045735 -0.22934803249 0.197088325203 0.203138216984 -0.167137262547 0.144737529318 -0.174377372637 -0.153666547508 -0.0834518002666 0.0464149415326 0.161782613822 -0.114170055126 -0.182549540791 -0.182123762546 0.142096405551 0.101630893232 -0.204063156568 -0.0337474116593 0.207015505139 0.152312747141 0.106506372315 0.193821692711 -0.0502353962009 -0.0610058663482 0.105049766162 -0.227593756429 -0.0627483116425 0.0938767226121 0.153408272547 -0.154205718222 0.221937317128 0.0163922581079 0.131421900734 0.127629451383 -0.175716123631 -0.0922807491939 -0.0991338001987 -0.180911992589 -0.215642221297 -0.222665752425 0.194326299268 -0.0806863763137 0.0899906496311 -0.15592871614 -0.118639002551 0.20284425406 -0.129040011034 0.102988917872 -0.00217629797754 -0.173998597259 -0.217423386733 0.0131738737336 -0.0263018909413 -0.191310846243 -0.0528152028803 0.0436965701675 0.137983677644 -0.103368654711 -0.104977481412 0.163154042968 0.0874905811747 0.0240683936809 0.147277285654 0.0365104980935 -0.105516416769 0.135707028286 0.221824352299 -0.150913595726 0.173705902844 0.0210379120946 0.045572943887 -0.0665649812673 -0.0706606940015 -0.235859853855 -0.127718956152 0.0164426098679 0.0905665136476 -0.109918170775 -0.183127031404 -0.0119672163697 -0.165148644975
robert.badeer@enron.com -0.211788692188 0.250335279972 -0.0997851459071 -0.346852874433 -0.154205322319 -0.104886872852 0.132240227395 0.0579518678933 -0.292798094834 -0.187020912553 -0.193488542409 -0.275002057138 0.313485291025 -0.190037749287 0.270994415178 -0.248304151611 0.268040085463 0.174568980459 0.403248147726 0.105084289621 -0.3664274341 0.297362543721 0.33988307157 -0.331350675953 0.199422136136 -0.261063426153 -0.331918665805 -0.127305080454 0.0454860745599 0.275908018334 -0.268291368256 -0.280577448866 -0.274822438364 0.234828221615 0.242282351602 -0.331538415314 -0.0147656224585 0.357580465514 0.235746388422 0.194580501621 0.374015219912 -0.10646268066 -0.0947842372096 0.170246912228 -0.412108299002 -0.153494984043 0.141871992993 0.308687924634 -0.278130995264 0.326860481523 0.0359438463685 0.208454888576 0.168849262028 -0.33376624085 -0.195427724755 -0.192424711661 -0.231259914131 -0.441921053448 -0.303046069496 0.296103837619 -0.132252150265 0.17333535395 -0.296036728202 -0.209851562932 0.340684996376 -0.236249313464 0.198986251594 -0.0371099219564 -0.326003532534 -0.324223762203 0.0408154425774 -0.0758584909301 -0.36725785703 -0.047902546429 0.0441769817804 0.272629266202 -0.155732617128 -0.173687731095 0.269654703974 0.153819337367 0.036463932137 0.268951736533 0.0576702485644 -0.19754153968 0.249785957385 0.334652168159 -0.321545941739 0.233719274222 0.0121245172627 0.0690398979794 -0.0924014267097 -0.175979796562 -0.464825999157 -0.177779740336 0.018253209421 0.144993959677 -0.16935712 -0.323066528357 -0.00643381829367 -0.332458559441
kysa.alport@enron.com -0.285453090271 0.297659216541 -0.160012755779 -0.448506032635 -0.241972065436 -0.0979924804068 0.248073275621 0.107615400322 -0.352276454722 -0.22782490003 -0.227819801656 -0.380152731101 0.452334839365 -0.18254912628 0.33409173254 -0.265865057937 0.41814715481 0.250172398244 0.442566414042 0.0876295830913 -0.491350648451 0.411492645296 0.469735312368 -0.436091189227 0.341898509172 -0.370870333131 -0.422362753697 -0.154403218128 0.115767339282 0.391429538702 -0.321767371079 -0.414266710495 -0.339194393246 0.279717910623 0.259723650616 -0.427175361817 0.0134555878281 0.474211643558 0.310335635401 0.266961199971 0.480101650387 -0.0748255424114 -0.147465296143 0.247778139261 -0.507900220898 -0.194464825415 0.15394570935 0.399107657976 -0.367724304089 0.472115448431 0.0416613409441 0.23515716385 0.28967776844 -0.426872977819 -0.182349867225 -0.227237236959 -0.386303531187 -0.519242478211 -0.45233336151 0.431694102703 -0.174438191212 0.205911404827 -0.380537343548 -0.263112240046 0.40446300153 -0.294825953584 0.268755005479 -0.00327315139363 -0.409323220906 -0.48294818572 0.0659816171709 -0.0778353121097 -0.453660301763 -0.11456577053 0.0324737161057 0.382177261667 -0.19238964654 -0.226931341393 0.339900219837 0.207958262713 0.0501149103832 0.34881568678 0.0248708452895 -0.309004678576 0.316687090006 0.425106966891 -0.379642138474 0.391793892169 0.0694918020394 0.112552817014 -0.179366864881 -0.180556148451 -0.528163481916 -0.253471484298 0.0502341243318 0.183952240262 -0.226822141634 -0.378293220276 -0.0743397928573 -0.386669875518
amy.fitzpatrick@enron.com -0.276569523704 0.25772871274 -0.158146510781 -0.422397350349 -0.22702587196 -0.121049025393 0.295706272905 0.13920888116 -0.279307849736 -0.200856892909 -0.238344953664 -0.40733890893 0.450107627599 -0.151855517799 0.249003205875 -0.207354904758 0.451719064866 0.265612305291 0.405629448644 0.125239436173 -0.41421984266 0.403852725822 0.487647891991 -0.369266795812 0.347066531422 -0.398184832173 -0.398619924546 -0.171278000185 0.111246949244 0.319084248588 -0.290204565832 -0.405830865117 -0.336867660809 0.239560352401 0.203422340526 -0.433551476425 0.0683700515697 0.440182713695 0.283422301721 0.278078091926 0.453643394069 0.003291711196 -0.167868986696 0.271325366226 -0.48652499352 -0.142903058792 0.159721581086 0.361044840245 -0.347501292999 0.476771771619 0.0299655267536 0.155693790155 0.342032319061 -0.410346586391 -0.150311167639 -0.223696235296 -0.392156901857 -0.44889365756 -0.481500288418 0.446863375169 -0.160688643477 0.205423049008 -0.362752679993 -0.272987743862 0.333423311661 -0.225405248862 0.244720645148 0.0297371822177 -0.387517795214 -0.472260852476 0.119442378583 -0.0518296244587 -0.416962312207 -0.101074862906 -0.00569515215469 0.424151748732 -0.144272232817 -0.237202941889 0.298422412223 0.212829155942 0.0231449209682 0.324658554665 -0.0255883298882 -0.313244434506 0.351220098887 0.418229935249 -0.333552735542 0.368240403887 0.0924337812305 0.128914571582 -0.169459675731 -0.134577135954 -0.487256477727 -0.26376166042 0.058602621948 0.134122890028 -0.199869069563 -0.286466472624 -0.104612312054 -0.321132457112
sean.crandall@enron.com -0.175549912462 0.209919314675 -0.0715949393562 -0.274167919035 -0.1129976709 -0.104582211074 0.0904972970731 0.0451718528563 -0.255779282497 -0.148227531834 -0.177566566399 -0.227672038145 0.251549193262 -0.188797872765 0.22021229789 -0.22691051992 0.215460546731 0.133671805575 0.370824097905 0.11453241369 -0.298773878582 0.233194387915 0.273416705938 -0.272197744649 0.142113679449 -0.207727903279 -0.281673145392 -0.107735007939 0.0268026363507 0.213535843698 -0.230646027658 -0.217225637269 -0.241865485573 0.201842602304 0.209283817046 -0.283455229263 -0.00979395605888 0.286949119172 0.195177214236 0.158220621842 0.313522990657 -0.0892145686523 -0.0655530556494 0.146152416049 -0.35947043239 -0.111446880226 0.131907598965 0.245085086435 -0.221048634471 0.264022323551 0.032475752354 0.158479319548 0.113519419756 -0.283236047649 -0.185440252161 -0.17255853798 -0.168395649711 -0.379284424997 -0.22756138867 0.227800162802 -0.114113043626 0.161464256074 -0.254658757301 -0.185740744236 0.287320101995 -0.185237746336 0.170100139785 -0.0306002699655 -0.271963826916 -0.240404345384 0.0357405890476 -0.0688183985575 -0.313297581576 -0.022283984945 0.0348351276855 0.238892054695 -0.123046093401 -0.147191061793 0.221234300538 0.140590753976 0.0273472471233 0.210311377406 0.0601493743916 -0.156478584095 0.211541429719 0.281849083054 -0.276653590701 0.150788321568 -0.00922642500842 0.0474344470423 -0.0494456565765 -0.150351529432 -0.405657175126 -0.14385697466 0.00782484709661 0.117107942394 -0.136332044218 -0.277952169359 0.0210784229929 -0.293678722887
phillip.platter@enron.com -0.23216488027 0.269327115391 -0.0919812890332 -0.36867126605 -0.180566669203 -0.0958449482144 0.144144835861 0.0563239814372 -0.31258055927 -0.195625552028 -0.213743801612 -0.290482783873 0.347612024451 -0.190297224558 0.287103473388 -0.254101065265 0.293908844731 0.189791780648 0.431831441288 0.109593982259 -0.392078408972 0.290010711569 0.363546877805 -0.362260028735 0.21794145792 -0.273545384716 -0.349063355143 -0.110146873666 0.0497644446074 0.299060254182 -0.293296401642 -0.309404514273 -0.265777370078 0.255617090965 0.24575017065 -0.346983353271 0.00435599719272 0.396305091998 0.251615981616 0.199705676455 0.410109660241 -0.0900479883351 -0.107733457413 0.192222033099 -0.444607242532 -0.164165550414 0.131372027428 0.331829412953 -0.302505360472 0.359544805768 0.0461965209579 0.201312423056 0.171543661453 -0.364837074792 -0.215373868543 -0.199192039371 -0.251968191255 -0.472468243051 -0.3148849488 0.305799829852 -0.140240244684 0.166075783659 -0.318691619586 -0.219219902515 0.359924327436 -0.247530204748 0.217416797252 -0.0202954403434 -0.339465752984 -0.338188851325 0.0451864136476 -0.0742822941619 -0.381416984488 -0.052929824173 0.0347377385839 0.30255911343 -0.1645172983 -0.17756275667 0.286698862168 0.163658814789 0.0458952481115 0.297037160032 0.0536961655726 -0.238148337991 0.25070974756 0.342580913228 -0.354540007597 0.255432461438 0.0174943526196 0.0821322994626 -0.107684386511 -0.199300646846 -0.49481634798 -0.176441083641 0.0264348935714 0.150508855557 -0.1731135199 -0.338510985014 -0.0303746442714 -0.371068329635
holden.salisbury@enron.com -0.18743740231 0.249166270998 -0.079449953633 -0.323182066785 -0.147471589818 -0.0770086756971 0.144291486292 0.0474744037567 -0.26804185015 -0.184688622629 -0.171103703024 -0.2107488845 0.286768703416 -0.138197465808 0.233833735722 -0.181707148128 0.255262588291 0.189770282214 0.337414746111 0.086234088524 -0.330239216317 0.225151884627 0.298065057916 -0.328955567302 0.172742333526 -0.212101184189 -0.280262343451 -0.0864611810609 0.0394143138498 0.26454362971 -0.233644275326 -0.273519924212 -0.186600353092 0.210370297529 0.210374379043 -0.252943952497 0.0140463016354 0.334760962051 0.185583595476 0.150562684436 0.34653551471 -0.0924167567448 -0.0668433590402 0.115918767386 -0.320210980503 -0.151628252206 0.0861401728523 0.271424345693 -0.262054830942 0.285540898008 0.042452293862 0.168468144051 0.1822878903 -0.271860558582 -0.157645567027 -0.141069681457 -0.192072847153 -0.390634297884 -0.245248540006 0.251720201028 -0.099716298047 0.116597708835 -0.252330356627 -0.172920478345 0.268779185808 -0.206687884924 0.166282663402 -0.0177596240291 -0.27401001235 -0.309324328697 0.0425643476169 -0.0520734071818 -0.286794727822 -0.0542045097016 0.0270544642345 0.239382481225 -0.127606663291 -0.147265043627 0.228221659827 0.104205791039 0.0520685212739 0.249000593234 0.0366600688744 -0.211001539842 0.196151318191 0.263905168398 -0.284185742379 0.236790750734 0.0256576379832 0.0611914266636 -0.0794356822536 -0.176780708192 -0.388608605221 -0.143051036877 0.00765631930002 0.132412309496 -0.144647358826 -0.254288338288 -0.0355401279407 -0.290991780562
m..driscoll@enron.com -0.233622587252 0.279660869364 -0.127849094109 -0.394440267114 -0.18324871925 -0.10887082882 0.174889133724 0.0885683645151 -0.335873048978 -0.204588658522 -0.197602108367 -0.307249918553 0.372841219918 -0.186349921067 0.292635764324 -0.254613469669 0.333033286529 0.205870670027 0.417913461844 0.0838955652293 -0.415163345803 0.354113460502 0.377055628606 -0.376002536211 0.25494053068 -0.301172475124 -0.371111339944 -0.140427038097 0.0819462669736 0.332084728355 -0.277570794012 -0.331897570194 -0.300886131349 0.259362642962 0.253284329944 -0.370296147454 -0.0205980321012 0.400833712503 0.263449491163 0.221372529397 0.412661806786 -0.114413842236 -0.102293745787 0.1792965743 -0.44131786901 -0.175278442136 0.147050356395 0.333639603676 -0.315011500415 0.381855518373 0.0307046681535 0.22911872815 0.227896788723 -0.361168805132 -0.188276117921 -0.199896909982 -0.284929388697 -0.476440265778 -0.356215816746 0.352873312328 -0.14608564364 0.183183640765 -0.319124458703 -0.227853406138 0.359595717425 -0.262624180946 0.218680890072 -0.027929712998 -0.360878415633 -0.392128815903 0.0505825649203 -0.08923485742 -0.402913614885 -0.0718743582507 0.0427432092525 0.311430381331 -0.179593744732 -0.21165973509 0.293901074968 0.167353475597 0.054585431198 0.298629173996 0.0498571468505 -0.235796164369 0.279771175704 0.371873744429 -0.338415069949 0.297689212278 0.0283739440341 0.0768534795615 -0.113017769735 -0.178277146681 -0.472364978449 -0.218533337596 0.0269234743445 0.157047397262 -0.197108022176 -0.346410222929 -0.0296805989021 -0.346021255046
shift.portland@enron.com -0.182471268779 0.203346897011 -0.0944309981843 -0.29649054483 -0.137545763403 -0.0901076829692 0.153113315343 0.0639805991226 -0.225857497519 -0.154469204274 -0.151480192388 -0.263758752769 0.290434976059 -0.12508493424 0.214528471131 -0.187487145364 0.266856605495 0.161080075148 0.305358868895 0.0670428221253 -0.310486814833 0.289408396583 0.311513016772 -0.264554097782 0.192381709185 -0.244700722473 -0.276337073564 -0.127408361061 0.0543391136754 0.226843007287 -0.214472575089 -0.25842047567 -0.255832030713 0.191075001639 0.166877661977 -0.304114214323 -0.00704383977528 0.302659369762 0.205394125936 0.167707392339 0.306493614484 -0.0691607003297 -0.100712148982 0.158430568395 -0.356949036739 -0.120872106662 0.127111695795 0.250179515736 -0.240351543089 0.294385459594 0.0215277794721 0.173556557381 0.188745503879 -0.282120312683 -0.140505876331 -0.159113557097 -0.238058964287 -0.35597933419 -0.303114524695 0.284193544537 -0.106596606571 0.148068403819 -0.255970859801 -0.187866155604 0.279525173646 -0.192892782338 0.161898077041 -0.0254609074044 -0.277230938636 -0.307165472884 0.049582629041 -0.0530183603149 -0.293570551958 -0.0485628724949 0.0322828980691 0.252084004177 -0.134991009344 -0.15911720848 0.225703713538 0.132953105896 0.0256600329785 0.229222322495 0.0329100763835 -0.179074261404 0.229038641324 0.313489485981 -0.250593541979 0.241269390468 0.0205110321573 0.0774104844915 -0.0992122971469 -0.127891292431 -0.368577532596 -0.161954012445 0.0159136695609 0.119325414204 -0.154280291664 -0.256203934109 -0.0290470054197 -0.250788290508
bill.iii@enron.com -0.27458823299 0.284795597723 -0.166390869055 -0.460934578064 -0.26508437553 -0.0790873902838 0.285250031389 0.106747250734 -0.343449716077 -0.236330383914 -0.230663637149 -0.36507847062 0.472147407728 -0.172755518021 0.331056419377 -0.235112752939 0.438604784189 0.260343992626 0.427305257391 0.0882241136601 -0.475969989277 0.383291872622 0.479528171075 -0.466872646587 0.385765042127 -0.393925942708 -0.432871101227 -0.115483340768 0.135925673982 0.416381720866 -0.330762266257 -0.44974622189 -0.301594820351 0.283575601332 0.248998557372 -0.396978180953 0.0576848272858 0.504490215308 0.308536959021 0.269348142169 0.506524839603 -0.0348044828535 -0.157480739008 0.259598144903 -0.48365613639 -0.201346577281 0.134731112287 0.40441210025 -0.381003311063 0.49081305461 0.0432640064665 0.204281655098 0.309100828673 -0.426126786817 -0.173279807368 -0.219929473023 -0.413001557142 -0.499758118549 -0.454547341858 0.430596053905 -0.179682327971 0.184825692775 -0.375104935196 -0.249849207987 0.376117515742 -0.279732988596 0.294434218763 0.0256362381048 -0.396228256067 -0.508191235321 0.0806855012841 -0.076928956487 -0.457162694817 -0.129031263063 0.0193122307085 0.384786573107 -0.182997396823 -0.223938817402 0.343173605673 0.205146065712 0.0537198243137 0.356548630565 0.0123550881972 -0.355257836486 0.300006654675 0.392922916796 -0.367620486378 0.421268883909 0.0998921564338 0.112937414685 -0.196913295063 -0.182491871123 -0.522904373168 -0.256813595743 0.0691294881929 0.168498051403 -0.207843580528 -0.338550383965 -0.12311729912 -0.400920358652
heather.dunton@enron.com -0.1774860004 0.186032334914 -0.0807408875807 -0.258228724258 -0.129876651648 -0.0729536433343 0.165405279892 0.0762323567528 -0.1927953586 -0.127700195652 -0.146013571012 -0.235386801406 0.261636576068 -0.117253221261 0.16877179052 -0.149216956948 0.247680917778 0.161314326397 0.273038677142 0.0885951850679 -0.269981016781 0.242378579491 0.276330846906 -0.239528561237 0.187964841496 -0.222262424303 -0.252120173725 -0.103028806475 0.0534706099866 0.199094042839 -0.193296018114 -0.242584343787 -0.197059670844 0.151135086156 0.156315851435 -0.261281168957 0.0468083432382 0.260779802853 0.175231349745 0.160752809116 0.276952749373 -0.033369916648 -0.0785800279875 0.150794286535 -0.303042460412 -0.104663260798 0.0952700730422 0.240249468357 -0.219038261589 0.264061017606 0.0230724828454 0.116874840407 0.182163102395 -0.251751058113 -0.107163350723 -0.138496687881 -0.204194005804 -0.311478340864 -0.277252627767 0.255666992414 -0.0992456407196 0.140492659451 -0.231965596614 -0.176325318352 0.219161468501 -0.168787380434 0.134425896448 -0.00143402142936 -0.244811322754 -0.286010639256 0.064552210658 -0.0390831404525 -0.265557643781 -0.0527539808968 -0.00472445280685 0.244736222714 -0.0889494061331 -0.129896760913 0.174511588372 0.119453486724 0.0225154588375 0.202251246578 0.000200608160771 -0.17621589457 0.207898123769 0.253399763574 -0.229038173529 0.206049195519 0.0411175183823 0.0758039821357 -0.100513826599 -0.118313320717 -0.322920713482 -0.147001938517 0.0199702666952 0.0943049246625 -0.124070551268 -0.196179418726 -0.0383443508232 -0.214364807781
center.dl-portland@enron.com -0.0738399095595 0.0640158956026 -0.0148715360757 -0.108728199344 -0.0448533858057 -0.0485874190157 0.0436551115955 0.0339067813803 -0.0602419817495 -0.0456528177072 -0.0499172753398 -0.118079131426 0.107525044557 -0.0320821990377 0.0577566757628 -0.0790232501215 0.0833062337674 0.0651540373823 0.102326039956 0.0300600242782 -0.120660673633 0.116369977881 0.112093010879 -0.053789394735 0.0535436034059 -0.0920289640662 -0.0867894808055 -0.0667640302707 0.00125739780075 0.0455318868958 -0.0645799617035 -0.0722261511863 -0.122584566172 0.07390669703 0.0480264924223 -0.124670035775 -0.00671524257529 0.100650936501 0.083061149967 0.0547666266982 0.0778263881751 -0.028248834925 -0.0490497127185 0.0728797091495 -0.150991587426 -0.0347669732117 0.0627330852909 0.075901938535 -0.0675265547321 0.106632133809 0.00117654050058 0.0795525538671 0.0654307142251 -0.115623379684 -0.0473703670574 -0.0677479898847 -0.0946913881977 -0.123908210097 -0.131189585487 0.108673448394 -0.0369347344007 0.0583101852583 -0.106001961476 -0.0801164608226 0.101858629732 -0.0652643846294 0.0339656536303 -0.00984505099422 -0.103785135683 -0.106104513462 0.0238152399017 -0.00314322991371 -0.0862599753069 -0.0142259739714 0.018906222258 0.0938300135646 -0.0521094334664 -0.0581147017726 0.077379310054 0.0546149340239 0.00752219080204 0.0822056219576 0.0101941264228 -0.0520480537606 0.0936030824302 0.157092683164 -0.0886347097519 0.0748459465113 0.00378136585808 0.0462914812837 -0.0354008539029 -0.0385274930244 -0.13477336932 -0.0631269962139 -0.0096947639554 0.0544040506494 -0.0551285549337 -0.0967128869666 0.00102435911088 -0.0796145387329
greg.wolfe@enron.com -0.0719698031992 0.0813836120113 -0.030014755864 -0.142931216598 -0.05463777333 -0.0575384160166 0.0623670091382 0.0313905895267 -0.0820419516207 -0.0589815347352 -0.0683974679952 -0.13053871351 0.129607943411 -0.0774214904839 0.0851040330845 -0.0898560758302 0.111414104126 0.0550340897201 0.148251176898 0.0504672541257 -0.136963008571 0.143402738069 0.140828417568 -0.0868217227872 0.0836361029429 -0.128487494967 -0.13580671631 -0.0707408611115 0.0193966569954 0.083028816155 -0.108537014718 -0.112244217613 -0.148826859046 0.0949247305634 0.0851317784723 -0.159946594824 -0.0141411402281 0.12239035295 0.100343782153 0.0601363526306 0.136349055265 -0.0375879468405 -0.0509469401677 0.0802049804904 -0.185245689865 -0.0213103701927 0.0716321595675 0.111137449942 -0.103123987264 0.123793860531 0.0101125751582 0.086516937798 0.0729456797137 -0.125856083856 -0.0917541688963 -0.0896106631458 -0.110654029001 -0.166853790084 -0.16028216362 0.131457805898 -0.0491479780953 0.0862782985608 -0.135005871532 -0.0874158851451 0.151835406378 -0.0879943788067 0.0770505037008 -0.014519693841 -0.11778462783 -0.134313659341 0.0211544441375 -0.0392470728364 -0.142355381413 0.00702616757529 0.0240177731602 0.107565298485 -0.0511100100585 -0.0678835379869 0.118435774402 0.0889765787251 0.0019037688598 0.0888095314189 0.0506538826525 -0.0676983311851 0.113931514792 0.167223025885 -0.1329221963 0.0770264049428 0.00181305806847 0.0231787164384 -0.0317802662755 -0.0442907050256 -0.198619814191 -0.082996833352 0.0075218831682 0.0597793439877 -0.0714546360785 -0.131607607277 0.00755239413451 -0.130700443777
stanley.cocke@enron.com -0.114080190074 0.115777982592 -0.0387187908292 -0.201802115248 -0.0818382748853 -0.0523882161014 0.0711380707605 0.0275082619809 -0.130848941527 -0.0833273363944 -0.0753044441155 -0.17584496342 0.177552878533 -0.0899610036529 0.161185144441 -0.145752148239 0.130277761999 0.0745575874586 0.175063721212 0.0274317314565 -0.225275839998 0.216775227326 0.16770816502 -0.128127760774 0.121295581715 -0.156738643846 -0.17011750065 -0.0944102304876 0.0291013014852 0.141238207177 -0.136023806027 -0.153318112895 -0.208127790021 0.144544624917 0.11396588071 -0.215939212364 -0.0336328392507 0.180107120678 0.16381560353 0.0842788434833 0.156108773692 -0.0728618087264 -0.081184017963 0.117620696895 -0.26252175734 -0.0756379763728 0.102517808596 0.160200839364 -0.12782016078 0.181030904358 0.0065885141799 0.160885915198 0.0863151894602 -0.200635001056 -0.110182293307 -0.110830648968 -0.167121408496 -0.235824186682 -0.224092042295 0.180079066721 -0.0833092942108 0.1027022715 -0.19362639805 -0.112558614439 0.235936931762 -0.152140931168 0.0848682539325 -0.0298716850221 -0.182408666942 -0.200301145524 0.00427106950148 -0.0444565729189 -0.191933147037 -0.015767369656 0.0495991575248 0.122118358164 -0.102381738597 -0.0839854722252 0.174830760711 0.103359655349 0.0213495551444 0.14311816934 0.0616601496429 -0.0953463763146 0.126742882861 0.248553572859 -0.185282615563 0.145266448886 0.00934556718063 0.0470232731852 -0.0755968897165 -0.0731342539578 -0.256882711008 -0.110515388148 -0.00615923066782 0.113668066442 -0.106821034829 -0.218193925255 0.0109175840739 -0.186386097845
virginia.thompson@enron.com -0.104013640382 0.0601159956224 -0.0722376008473 -0.187674894638 -0.114183766313 -0.0403109501796 0.181465792583 0.0747200053393 -0.0610585708579 -0.0612283487568 -0.0662475583323 -0.204266060712 0.20848888636 -0.0129335048178 0.085608203497 -0.0410544962033 0.214263638326 0.122778803555 0.0995094356098 0.0202841380653 -0.174974928443 0.219630423428 0.217076708429 -0.116333597496 0.203926705577 -0.208100528781 -0.16315597062 -0.0844686977007 0.0777189780203 0.12448995181 -0.0949599501035 -0.196572456291 -0.163629442909 0.092207936301 0.0448989091443 -0.19641835389 0.0519430673968 0.180949099875 0.135038120957 0.109205705957 0.163193046488 0.0300147905083 -0.108893323314 0.146935702566 -0.196116711714 -0.0406337236767 0.0731858440639 0.143132916386 -0.143295915286 0.226374435511 -0.0014981215123 0.0658500153472 0.188886548179 -0.172518255927 -0.0259773267502 -0.0884264134831 -0.23785161225 -0.144206641729 -0.285073355327 0.232033946276 -0.0705299838679 0.080885185767 -0.155895578466 -0.109579822838 0.139858484177 -0.0926568662964 0.0837906503527 0.0378933164157 -0.143132922468 -0.252932969733 0.0575902954039 -0.00402240376218 -0.158782459504 -0.0545309640872 -0.00270816660295 0.171538577832 -0.0485889677583 -0.0876852316757 0.138517687194 0.101569071967 0.00952022628623 0.134295575424 -0.0241639941756 -0.144857833374 0.142459909402 0.205568671309 -0.118554501238 0.205734768783 0.0767604405909 0.0748912000671 -0.124415715604 -0.0119512270642 -0.177175423451 -0.132279118306 0.0377914041971 0.0615391694286 -0.079198089578 -0.0973329940056 -0.0885247705903 -0.111191786436
fran.chang@enron.com -0.194182414058 0.193412643551 -0.0966921500305 -0.303983071118 -0.164545730726 -0.0731849407568 0.15919317683 0.0711076903726 -0.22219209507 -0.152465331576 -0.151415483483 -0.268414195378 0.300858904365 -0.110978167351 0.215602322034 -0.178904229962 0.276394090902 0.171253428088 0.296308505701 0.0519004649182 -0.328648019111 0.281548166047 0.322426645632 -0.281795796857 0.226412843442 -0.260663975498 -0.276099868987 -0.102361187664 0.0666248520901 0.247179519498 -0.215607415099 -0.28490017697 -0.239038658192 0.200454451952 0.167079032564 -0.291934408504 0.0116820893315 0.325770363431 0.21545172619 0.178558571728 0.315460855509 -0.0485442302864 -0.106063070969 0.178601177303 -0.351342196451 -0.129972439151 0.111533549615 0.265956326054 -0.244105233376 0.323722257132 0.0322607847648 0.164341520238 0.197090191735 -0.298345954415 -0.130497639567 -0.161931392219 -0.263419626353 -0.351096230003 -0.318492967372 0.296518538431 -0.114882814044 0.139683025524 -0.265614076038 -0.180777941066 0.278949596294 -0.188335747806 0.177410239224 -0.00256658430759 -0.274415735792 -0.325745324447 0.0445646804873 -0.0429409543823 -0.301116164079 -0.0721952688629 0.0284950656445 0.262287265165 -0.137046999017 -0.156695700466 0.234598409439 0.139903069075 0.0345336303865 0.238900612814 0.0211409432769 -0.204887873199 0.226369250665 0.310552343557 -0.258322092995 0.260180034928 0.0442145283631 0.0821217527064 -0.115616417119 -0.126087350102 -0.372698393026 -0.172594528866 0.0269806199758 0.12429746803 -0.158368388202 -0.258341233222 -0.0466768628877 -0.264853187579
lester.rawson@enron.com -0.0927132373559 0.112762230455 -0.0197580785526 -0.178470552467 -0.0739384747974 -0.0425114878873 0.0745070074626 0.00972584103218 -0.109861559679 -0.0872420383476 -0.0936875020422 -0.131425761746 0.163522026756 -0.0588519216725 0.117470142317 -0.097445167432 0.107967347497 0.105096111113 0.179737206532 0.0501409424596 -0.178603547951 0.118735765044 0.163540842181 -0.152304192877 0.0800437802311 -0.11644214116 -0.146403584624 -0.0495259084912 0.0103637761399 0.112223015087 -0.140534357639 -0.155215831233 -0.113652884344 0.127062286428 0.0899436236484 -0.154899106602 0.0132296561193 0.182702520325 0.114085378472 0.059756071934 0.17240250784 -0.036937806757 -0.061806158506 0.0855089382784 -0.197000710942 -0.0750889251063 0.0554408873171 0.15030524266 -0.142689262582 0.15256165042 0.0124234383556 0.102332322256 0.0845856451645 -0.162574747622 -0.0946864255602 -0.0763083104245 -0.112378017927 -0.198878157636 -0.160517544548 0.138823317514 -0.0392807983433 0.0603293394158 -0.161024217487 -0.0911865376573 0.178368187571 -0.111090413056 0.0772948775226 -0.00048900637847 -0.142022374149 -0.156881863676 0.0199108384567 -0.0202687701826 -0.139220810736 -0.00548133866532 0.0219729002503 0.118433430226 -0.0570066874292 -0.049586402435 0.137528823704 0.0667655569302 0.0156640900483 0.130309077907 0.0401125456463 -0.121991201487 0.100264193816 0.170853487645 -0.175713646168 0.120651040756 0.019180677241 0.0470865988732 -0.0573796798058 -0.0968390259468 -0.24074702995 -0.069400901051 -0.00882836650919 0.0811651837029 -0.0757219534887 -0.14457985596 -0.0290545953783 -0.171523626802
lisa.gang@enron.com -0.123429852885 0.142485364711 -0.0678033176817 -0.201007643267 -0.090319810825 -0.069190729408 0.107637302379 0.0655801411046 -0.160262509572 -0.0997787385469 -0.0928222924518 -0.185681297781 0.191637470249 -0.103818476806 0.126366598562 -0.128348299285 0.188443905891 0.107415668841 0.194634144478 0.0480988051066 -0.221497113144 0.232414051562 0.20089649435 -0.154054716546 0.136052241087 -0.171240441851 -0.190913195779 -0.111816659813 0.0395556328049 0.148610083204 -0.128515879944 -0.169064169997 -0.188931902584 0.118599447457 0.128337896624 -0.220175934132 -0.00848179270309 0.187882177481 0.142423143258 0.12609361059 0.18696295935 -0.0573111039256 -0.0517257841644 0.102553878392 -0.233310360402 -0.0728780570244 0.0939438864933 0.170807281272 -0.149544895973 0.193398100022 0.010693100654 0.122285615085 0.140979190445 -0.179476417714 -0.082854685286 -0.110754514373 -0.163643503491 -0.233972283639 -0.22460194038 0.204292931574 -0.0795550668646 0.123701327515 -0.166957115499 -0.134187087977 0.183392857394 -0.14179213846 0.0890836998861 -0.0244231031037 -0.190230985679 -0.222324346698 0.0382146919072 -0.044962612693 -0.209183783699 -0.0342858731848 0.01571739078 0.175424608905 -0.0910649329579 -0.118100423128 0.145399706313 0.0930474923217 0.0173205763944 0.141424035213 0.013650375896 -0.101200706889 0.166368899351 0.21661860262 -0.169472053827 0.159165470178 0.0215575886775 0.0487063368419 -0.0671573705195 -0.071382708928 -0.237152716546 -0.123328066872 0.00195865970475 0.0849872329367 -0.103968681375 -0.1798116407 0.00589695091553 -0.144968725261
jeremy.morris@enron.com -0.192663810645 0.211817060971 -0.107552599134 -0.326821907654 -0.168549794338 -0.0677798371815 0.179316944785 0.0762094914883 -0.254871397423 -0.166964850352 -0.170472818031 -0.245204631708 0.31499164387 -0.140979298445 0.225220230406 -0.16949548124 0.290290617319 0.178844466389 0.319500816778 0.0717391202216 -0.331574293204 0.266758527824 0.326742714677 -0.320851538116 0.249465685814 -0.265959953604 -0.303558616134 -0.0933645457698 0.0877038874019 0.275329016917 -0.240631010322 -0.305448266935 -0.208676763817 0.204281793817 0.193478851607 -0.28534880853 0.0273697828456 0.338078003537 0.20549145677 0.179833679275 0.351640985125 -0.0538356866236 -0.101406839601 0.165621241598 -0.33793833837 -0.142197036038 0.0969514649525 0.288786573306 -0.260686525425 0.32942629985 0.0267067638994 0.158012795377 0.200052037463 -0.29519694459 -0.137492476796 -0.158280628491 -0.257236758326 -0.369507620464 -0.302962281887 0.298175065146 -0.124262062876 0.144795157653 -0.259844859274 -0.183468419616 0.27008412079 -0.201468640154 0.189748659902 0.00403740988913 -0.28664666041 -0.337451775944 0.0499538632312 -0.0585730373748 -0.320621057573 -0.0720690885102 0.0196432594959 0.268157972492 -0.126904894558 -0.148337470788 0.236015867745 0.141818291602 0.042517090223 0.24515281693 0.0141928593668 -0.23401382052 0.215462855259 0.279753281596 -0.272153510674 0.269482213951 0.0580593699982 0.0682765829493 -0.121302848084 -0.137426620807 -0.382829151337 -0.171796864836 0.0348436048548 0.117873662468 -0.142350210446 -0.25666749883 -0.0588159611103 -0.279144678106
samantha.law@enron.com -0.167850027782 0.181407292672 -0.0889107329232 -0.272191353473 -0.138194700172 -0.0523377163125 0.156840848137 0.0633793235569 -0.209936424838 -0.134493693553 -0.137285624681 -0.218970226351 0.272390336883 -0.111198990962 0.202563356007 -0.154926929335 0.245546920315 0.15109538269 0.263922726359 0.0519767857334 -0.289805402651 0.24148193131 0.283800061009 -0.263239577051 0.206282178012 -0.226941465465 -0.257778174588 -0.089374969679 0.0655647414748 0.234298154823 -0.200926880868 -0.259113235315 -0.191388245153 0.172663338618 0.154999933368 -0.247535713774 0.0202038477629 0.291527593674 0.186199941629 0.157913317877 0.294125865043 -0.0474931073883 -0.0892336855717 0.147446933529 -0.296416435937 -0.120726958208 0.0950250725997 0.245243436178 -0.22515252664 0.279294408756 0.0264769224504 0.134804106391 0.17990765519 -0.251800180757 -0.119763839716 -0.136150402617 -0.227539520366 -0.316013741618 -0.271329397302 0.260691397164 -0.101879148748 0.124312768404 -0.22974656816 -0.157527582186 0.244862456177 -0.176813380183 0.164091652333 -0.00239271409111 -0.23701823382 -0.299019291282 0.0385697841459 -0.0537206701055 -0.268615553763 -0.0627427476511 0.0205939472985 0.217083660985 -0.111230363056 -0.127067481068 0.200765469262 0.112873056724 0.0345065692531 0.216015584927 0.026038278209 -0.189200728715 0.180909479631 0.253342749514 -0.238638956816 0.231478948916 0.0416324282956 0.0687954555142 -0.111362422303 -0.121970013231 -0.323526994263 -0.150926559289 0.0271726081762 0.108212596281 -0.129800335896 -0.224984915742 -0.0480979294804 -0.234829774262
john.postlethwaite@enron.com -0.153749695294 0.167059846973 -0.0977881938165 -0.260893630592 -0.150894823029 -0.049332377756 0.160515950216 0.0605493228287 -0.192583057754 -0.128866432406 -0.137647457967 -0.215665218318 0.264188913741 -0.10078819204 0.190936340939 -0.140511712813 0.24803600565 0.149190280536 0.248007734594 0.0448730742044 -0.273791949132 0.230236959654 0.280926542923 -0.259234495984 0.216926014505 -0.221982617153 -0.24201699698 -0.0723861701635 0.0731962774696 0.226774909077 -0.190660569882 -0.25357385014 -0.186533726344 0.161769206755 0.139385460802 -0.237185845885 0.0192364916668 0.283565616839 0.181967514247 0.152597341634 0.285988083873 -0.0317307455591 -0.0904200533271 0.148550345146 -0.288197663791 -0.103007406874 0.0824953157088 0.237390902032 -0.219352390557 0.277090706334 0.0269768261932 0.119005113361 0.171383176221 -0.249442916906 -0.11274487796 -0.131841305742 -0.240778475284 -0.289250459323 -0.272524743711 0.256513122087 -0.101316901462 0.112929335336 -0.219777756431 -0.147649217876 0.227605251402 -0.157091606985 0.162710610217 0.00673590069366 -0.226578623055 -0.291533196327 0.0374296870735 -0.0452355765206 -0.26151805024 -0.0634447864648 0.0133580774235 0.218831815825 -0.111273599592 -0.128474167641 0.201685518421 0.125009569458 0.0273107684235 0.20077890043 0.0217074313497 -0.186471652641 0.182541902096 0.241539703316 -0.218729810879 0.235886870894 0.0495130296462 0.066702668906 -0.113389358656 -0.10137131158 -0.31043209164 -0.153618511605 0.0340267233699 0.102391647903 -0.130385423291 -0.209745283429 -0.0587285867336 -0.229014286791
c..hall@enron.com -0.117613081551 0.134531679793 -0.0757416279285 -0.21100769182 -0.0987429617172 -0.048606440131 0.0882189914464 0.0430181911437 -0.15772825336 -0.108162334039 -0.0803791054431 -0.177981784387 0.196008953066 -0.0625228734248 0.15894908969 -0.131142094183 0.169376933261 0.109824197042 0.177292414284 -3.88947647178e-05 -0.232870137002 0.201135880354 0.199350039808 -0.183377955714 0.139953060046 -0.159790781215 -0.165853391212 -0.0842520404033 0.0400041225796 0.173030372718 -0.123096819387 -0.182749579554 -0.179639888718 0.139383149836 0.110674670238 -0.201991821654 -0.0371938446658 0.216137184311 0.147281859227 0.109292094518 0.19986562008 -0.0612637357019 -0.0663590959679 0.0952747419704 -0.231790202259 -0.0893265835853 0.0843415314327 0.162360624962 -0.156542953714 0.209769025204 0.0180272311302 0.141683879546 0.139315257225 -0.187437825758 -0.082003008545 -0.0974059390152 -0.176097156497 -0.230875495154 -0.220317654089 0.195671387334 -0.0738724105939 0.0865207805875 -0.165473566781 -0.113063128574 0.199530097069 -0.147556571997 0.104864618463 -0.0189650299962 -0.18384621734 -0.222325670256 0.0152597248768 -0.030722486412 -0.19716109182 -0.0504938956808 0.0394521273388 0.146281242645 -0.112269107576 -0.107243335918 0.154907965961 0.07545394465 0.0310374439322 0.162645660257 0.0303235952356 -0.113468783474 0.143998244406 0.217918808111 -0.15810003352 0.185721950903 0.0221522205746 0.0528957682227 -0.0696122722669 -0.0768525286523 -0.225432921999 -0.115984505996 0.00975759178931 0.099987649349 -0.121444400161 -0.188392485946 -0.0188618873257 -0.16862510622
anna.mehrer@enron.com -0.133950428693 0.147015690859 -0.0844790512772 -0.227553920567 -0.121497220992 -0.0557333337845 0.122394970294 0.0553520115716 -0.171465082398 -0.108988104075 -0.109810106981 -0.184818048238 0.223744427262 -0.0894811898538 0.151588509695 -0.127448342986 0.212038545152 0.122960843768 0.205084190296 0.0368960663661 -0.233747256439 0.210326454209 0.2246764532 -0.2099912965 0.166738420037 -0.191946216317 -0.20580707102 -0.0862997120296 0.0558270687926 0.189079943906 -0.148140012867 -0.210629176642 -0.174187177106 0.142891064389 0.122932845265 -0.217002130453 -0.00338733040088 0.226030781512 0.153711040492 0.126023198597 0.231823596899 -0.037057038133 -0.0714525634314 0.112254631633 -0.246747123196 -0.0946283323883 0.0797735963755 0.191125142432 -0.174191113178 0.230671760725 0.0163792081495 0.124581601778 0.156033991586 -0.200769056697 -0.0910847610534 -0.112104356858 -0.197262259555 -0.252818553989 -0.236658087135 0.210782238093 -0.0877231226112 0.105418617537 -0.181206065783 -0.132137821114 0.199018540436 -0.140998638633 0.132265380832 -0.00573292325184 -0.195984872994 -0.243837234408 0.0321805891191 -0.0434109208589 -0.223931201146 -0.0467179168117 0.0229223340081 0.182375973571 -0.100782117451 -0.119701061332 0.170703042372 0.10053958086 0.0275539689951 0.16394766479 0.0149359825644 -0.151266565512 0.1627002943 0.210193111468 -0.181775589336 0.192000451862 0.0326854172753 0.047800719954 -0.0845233509714 -0.0829858802755 -0.250726374539 -0.135644995717 0.0285119745513 0.0828433679458 -0.116634522811 -0.188528533542 -0.0302878518213 -0.187784121121
mktstathourahead@caiso.com -0.0939571449539 0.0919805741146 -0.0611171225882 -0.193808906239 -0.0999443011247 -0.0249445932713 0.0735757974237 0.021120119215 -0.131563592286 -0.084564637977 -0.0625058125959 -0.150271838292 0.180884436981 -0.0509633245285 0.165995249208 -0.110066940636 0.132430571708 0.0799188354678 0.135976005817 -0.0245716300987 -0.22066788367 0.173723546462 0.177471814928 -0.162532612081 0.142412787836 -0.150377981581 -0.144888672347 -0.0537204975546 0.0425849383615 0.168629621019 -0.116199851031 -0.178487152965 -0.153963710552 0.137314725714 0.0787322827759 -0.17070572376 -0.039546718609 0.207762769577 0.1459684759 0.0836995186775 0.172080154233 -0.0458701336561 -0.0853019442324 0.105221604497 -0.213242507778 -0.0937203969106 0.0802884606433 0.152656323996 -0.136055243817 0.198344795412 0.0120945591372 0.139222531471 0.0994518100846 -0.185745580762 -0.0829998605896 -0.0798764983841 -0.184437388857 -0.201200566069 -0.207856399637 0.177399912025 -0.0711381566822 0.0573534509013 -0.154107642801 -0.0855169483193 0.214932627688 -0.137582758908 0.102480551383 -0.00290024857528 -0.160618775282 -0.198671741422 -0.0103346913133 -0.0247775540731 -0.171268703945 -0.0561377070085 0.0517557218296 0.103267687685 -0.103694842186 -0.069591360852 0.168031789517 0.0752666508777 0.0323759553908 0.144907831269 0.0463654650186 -0.117603939051 0.101275190092 0.201624194984 -0.148855316645 0.188275386274 0.0267660347584 0.0518636686938 -0.0998207427893 -0.0646501040454 -0.21453979232 -0.0982025998071 0.0192723151779 0.0957173043827 -0.107239745185 -0.18186040324 -0.0347869938189 -0.180462945859
IMCEAEX-_O=CAISO_OU=CORPORATE_CN=DISTRIBUTION+20LISTS_CN=MKTSTATHOURAHEAD@caiso.com -0.0780340603116 0.0755378747061 -0.0662034026223 -0.165191293353 -0.0946789769114 -0.0196813723692 0.0674916334819 0.0169339068075 -0.120660196287 -0.0739206289989 -0.0589306696644 -0.135870679948 0.167724360929 -0.0388961308603 0.151556022238 -0.0996545004144 0.136689288529 0.069672193969 0.119236905261 -0.0308653828833 -0.194166342206 0.156518583309 0.170054829498 -0.159347769528 0.150658631293 -0.144627981106 -0.130826097632 -0.0409212666464 0.0592527742436 0.170593067842 -0.101465398337 -0.171363588374 -0.139033289987 0.116242166853 0.0695178884515 -0.15979755734 -0.0339868679646 0.194065822787 0.133614450003 0.0898166383452 0.166805683961 -0.0306414696556 -0.0715286017041 0.104730584956 -0.190247840406 -0.0744639954872 0.0639675354122 0.139032675409 -0.125818031147 0.19621807734 0.0104927361115 0.111800631851 0.0901676324504 -0.16432484096 -0.0703585080281 -0.0730001628647 -0.18500661791 -0.168353534513 -0.187205214759 0.163122012857 -0.0729426693757 0.0493074650946 -0.126548318174 -0.0800716210695 0.183970164085 -0.117838617438 0.10622101285 0.00247682718858 -0.140459356919 -0.186202037873 -0.0123292545453 -0.0231432091246 -0.165906122895 -0.0688266976351 0.0423861908164 0.0913294188817 -0.104516426043 -0.0685878377516 0.149628019784 0.0732401864849 0.0191428200909 0.131135888448 0.0330919021084 -0.101497631376 0.081933791483 0.162307743397 -0.12400591845 0.176488827828 0.037165549455 0.0446460959181 -0.0947998129143 -0.0580443671144 -0.179111766648 -0.0981706486245 0.0270109647166 0.0809341310676 -0.0986912321031 -0.162482932986 -0.0416862362612 -0.159175221349
debra.davidson@enron.com -0.116490910451 0.127765627025 -0.0430224636122 -0.177835115336 -0.0885802580716 -0.0290868891979 0.0929685085581 0.0316986739961 -0.135098627929 -0.0821492779037 -0.0869727167299 -0.145539117135 0.171827077684 -0.0715273602356 0.139335924589 -0.114237593975 0.132589571895 0.0931719839145 0.176009969877 0.0299041510575 -0.193847654646 0.15658079132 0.169571309332 -0.167683527314 0.12309324575 -0.135140603052 -0.162125644133 -0.0507936545884 0.0353284081066 0.148211337329 -0.126695874439 -0.158848209509 -0.122825460484 0.116750874886 0.107310574013 -0.166724653818 0.0092211621706 0.192937465018 0.134907918867 0.103622519269 0.178913952628 -0.0343764690731 -0.0645044571012 0.102863038473 -0.20896779962 -0.0985540773872 0.0630130054163 0.16713402774 -0.133870459322 0.181223781454 0.013423527281 0.109021558335 0.102804783392 -0.187773770713 -0.0783158162104 -0.0811518143623 -0.147611971095 -0.211770972712 -0.170045257809 0.163191926072 -0.0710093798561 0.0817949360847 -0.15290250695 -0.102404709706 0.17392108428 -0.126967463806 0.0935500224137 -0.00771979936022 -0.175510539887 -0.188590163156 0.0250693851491 -0.0307626420702 -0.177612020011 -0.0430277840427 0.0127022021209 0.144168788094 -0.0782148077336 -0.0745860081496 0.12940155863 0.0651565662111 0.0252049904265 0.151295680799 0.0150932644483 -0.124795375843 0.111264099256 0.169275212109 -0.162950889052 0.158981703931 0.0238199551047 0.0497849718872 -0.0790572758374 -0.0893668821944 -0.223534178638 -0.0867445470258 0.00774949507866 0.0824804670032 -0.0857049557691 -0.154519870465 -0.0251729810272 -0.164868419697
bert.meyers@enron.com -0.0582430314483 0.0911813146696 0.0421442565842 -0.0964619039675 -0.0276303962378 0.0162310604939 0.0359433082723 -0.0202420647839 -0.0211578780209 -0.0347636157803 -0.0269581833748 -0.0470819402202 0.0625692772236 0.0350377477689 0.058171705847 -0.0275308491596 -0.0324986473315 0.0719643019775 0.0651808880794 0.00552971725563 -0.0759203097322 0.00872535139377 0.0377077857075 -0.072118276914 -0.0150932549362 0.00905673327218 -0.022641920109 0.000248324620024 -0.0577018337555 0.0309028220869 -0.059605017246 -0.0642191623288 0.0220863366393 0.0614757220504 0.016055657604 -0.0207461695403 0.039842429075 0.102467717957 0.0500842693949 -0.012656262004 0.0481876753585 -0.0334306332441 -0.0444105479772 0.0256787100421 -0.0737037905696 -0.106667882684 -0.0189642190674 0.0770936620873 -0.0622301874259 0.0254931074442 0.00289949147205 0.0663902586216 0.0279486056062 -0.0921259941876 -0.0200662931222 0.0167116080574 0.00489724236585 -0.0959742803586 -0.040440971217 0.0429835208421 0.0223715108447 -0.0162944318325 -0.0789178973378 -0.0217863507502 0.0712096139989 -0.0860365203666 -0.023596866057 -0.0114578525563 -0.0700185817481 -0.0641265006293 0.00286025621543 0.0249554661057 0.00276418848761 0.0158616314081 0.0024867875152 0.0231697613069 -0.0220257305763 0.0345567361613 0.0323445991914 -0.0498023099337 0.0298281875083 0.0943271701217 -0.00714752107637 -0.0664989676121 0.00681376000756 0.0562882347498 -0.108643526871 0.0848686197125 0.0105535034074 0.0576239965716 -0.0492173396649 -0.102428496932 -0.0978687273256 0.0402363218845 -0.0455691180464 0.0745359686966 -0.0240644669922 -0.0511744809899 -0.0324140307451 -0.0690597094419
p..oneil@enron.com -0.0392335219475 0.0353077705202 -0.00730646929419 -0.0694309765197 -0.0297616150818 -0.0303717477316 0.0175997510807 0.00498228380856 -0.0363856895355 -0.0292766556247 -0.0347076573433 -0.0707711632581 0.0699849246302 -0.0248338356669 0.0515743384707 -0.0607017223725 0.03948017391 0.0384056927962 0.0785588251788 0.0216062613285 -0.0806361391077 0.066134330696 0.0660112134919 -0.0327784363985 0.0239190943193 -0.0551235257576 -0.0486717796431 -0.0370822041627 -0.00212415482495 0.0332440781284 -0.0438799004925 -0.0460449626169 -0.083981826293 0.0611469326443 0.0399119020173 -0.0804328549778 -0.0110718237172 0.0612818893121 0.0585681936019 0.0239391838772 0.0579204024337 -0.0249543044263 -0.0313680049833 0.0521561078843 -0.10086018067 -0.0224029248495 0.041470663597 0.0494392011129 -0.043527609839 0.0629678412148 0.00506968139861 0.0606791435142 0.0241086546983 -0.0728114460054 -0.0492667259042 -0.044243647007 -0.0525848796909 -0.0868573227823 -0.0803222625811 0.0646999481355 -0.0216800467155 0.0346185628092 -0.0708050534654 -0.0455506031399 0.0884685113578 -0.046088239151 0.0265315088941 -0.010952547035 -0.0601080547758 -0.0594948661598 0.00462808222706 -0.00549329274047 -0.0600653436348 -0.00127952839801 0.0195668166137 0.0512093643007 -0.0331543083231 -0.0354540564377 0.0660340885114 0.039241464092 0.00201651295003 0.0542737192062 0.0171339022864 -0.0324532945078 0.05504664076 0.106149205937 -0.067734626858 0.0380506771402 -0.00142669972226 0.0218934034739 -0.0223746606514 -0.0246331236482 -0.102540019419 -0.0378816375616 -0.00714335621323 0.0371540022689 -0.0394843067766 -0.080331151646 0.00820851269787 -0.0770979269658
stewart.rosman@enron.com -0.109291971922 0.135503791121 -0.0283804807296 -0.184887039961 -0.0755629493835 -0.0543146628131 0.0270089074294 0.00302176698666 -0.154089222496 -0.0997842786702 -0.0938946001309 -0.144876587958 0.152844055328 -0.11155467903 0.16388285684 -0.157043034125 0.100922815498 0.0668912865242 0.221719279199 0.0393464682521 -0.207486373382 0.147785227446 0.166888536835 -0.161641478155 0.0766360441572 -0.112055220328 -0.165053433114 -0.0593306736431 0.00886736389156 0.145283621608 -0.15767307021 -0.143957241856 -0.164773147965 0.139668829096 0.130988006141 -0.186816381837 -0.0479360830701 0.191346375829 0.131319779874 0.0824032762984 0.187332010044 -0.0792346891768 -0.056073922136 0.0877062890151 -0.249354285628 -0.0865794051605 0.0823958704779 0.162612663275 -0.142370374958 0.155251413738 0.0163170799769 0.146219789901 0.0421171128059 -0.181750852146 -0.139741803716 -0.102332662307 -0.11524305856 -0.250110932483 -0.151098211563 0.143150860179 -0.0662259032597 0.0867784988248 -0.17326335677 -0.109738017223 0.229934754899 -0.145206666172 0.109539395544 -0.0354630746825 -0.1735055196 -0.14573860523 -0.00532694203108 -0.0444669466042 -0.19209676928 -0.00480302085146 0.0487378941728 0.119536191985 -0.100291757676 -0.0752642691557 0.16462676621 0.0814899088279 0.0186868757729 0.146009020946 0.0778694636311 -0.0853837356486 0.11488988991 0.194591314707 -0.199001143874 0.105480564834 -0.00950750366167 0.0355060370672 -0.0456440839351 -0.105902687026 -0.27797767855 -0.082894160744 -0.00133620971932 0.0983663547829 -0.103177874735 -0.208803379218 0.0202873063098 -0.207387217723
jill.chatterton@enron.com -0.040526945446 0.0457473209561 -0.0257425410147 -0.0774065824085 -0.0345780883895 -0.0240693285597 0.02813208748 0.0021460262968 -0.0535721836854 -0.0352032935258 -0.0318460102868 -0.0843994344316 0.0785623179803 -0.0276422612025 0.0667052989955 -0.0673248761575 0.0571724352667 0.0329601246626 0.0719358626936 -0.00159978993267 -0.0873062364769 0.086497056583 0.0913958133484 -0.0613559577434 0.0578771487483 -0.0637495781109 -0.0624166096373 -0.0328486597207 0.0125097799134 0.0687382308305 -0.0536181231818 -0.071466968958 -0.0822468934449 0.0626359489574 0.0365052127899 -0.0937030815817 -0.0173225670763 0.0840907550412 0.074259002925 0.0396799836561 0.0787432211415 -0.0161885061121 -0.0383117347745 0.0556716006929 -0.104709810366 -0.0352240627077 0.0455870337206 0.0639256781632 -0.0660113313546 0.0936138152636 0.002473145779 0.059059137303 0.0456259136639 -0.0931051008669 -0.0429364676398 -0.0455684477287 -0.0787872656169 -0.0922452482475 -0.0967957813317 0.0804957615532 -0.0295390409478 0.0349544368637 -0.0732757507648 -0.0443233383383 0.0996921248913 -0.0621273877364 0.0453789762809 -0.00519068779107 -0.0766092822214 -0.0845860542921 0.000117743824775 -0.0126919215139 -0.0779842346654 -0.0187199402294 0.0224651133649 0.0545469472614 -0.0508350729316 -0.0334729277201 0.0754225001901 0.0364744951657 0.0092613591456 0.0718116774324 0.0188675377429 -0.0344403794494 0.0532229936628 0.100315544069 -0.0757255455416 0.0721901878565 0.00153540371438 0.0246916242043 -0.0353414947227 -0.0339254930046 -0.112957548884 -0.0478384496335 0.00752538901873 0.040028879605 -0.0579868936273 -0.0873398208729 -0.00895505205651 -0.0769471423081
alan.comnes@enron.com -0.0641974309718 0.0650981820149 -0.0415530820115 -0.149448267262 -0.0807277886809 -0.0121755643798 0.0728982976955 0.00853135938539 -0.0900952990197 -0.0566531307874 -0.0532797418694 -0.103901993407 0.136222741484 -0.0403838772438 0.115359466616 -0.0632297389177 0.103120912668 0.065150450018 0.100635196169 -0.00725991971775 -0.147520074763 0.121710816376 0.136940650291 -0.124127307258 0.137056108227 -0.116009509017 -0.120369778075 -0.0218359307425 0.0524282624096 0.138912807578 -0.0989218358638 -0.148955802069 -0.0945967277791 0.0996007647811 0.0583903466504 -0.119283265551 -0.00401733237816 0.14807499083 0.107378969529 0.0539920337615 0.145848863997 -0.021141638425 -0.0666795665976 0.0915743425736 -0.146196494795 -0.058421641901 0.0506241676583 0.125712552838 -0.114823483737 0.153180437774 0.0076409102927 0.0821974114226 0.0724698762352 -0.134409598221 -0.0655020527359 -0.0534625831487 -0.152270161404 -0.138165862331 -0.168484799601 0.133709349997 -0.0648065885457 0.0478132388951 -0.110984035498 -0.0556126454908 0.154260171585 -0.101694865826 0.0886662065757 0.00806912920005 -0.102400527317 -0.162968549161 -0.00433766039437 -0.0284685445515 -0.14225073135 -0.0300340327559 0.0204767886585 0.0809722106305 -0.0634362156075 -0.0342962594255 0.123624934485 0.0609387669724 0.0158055495765 0.106667771162 0.0375166795042 -0.0987714919917 0.0605482958707 0.123431042233 -0.123169386213 0.141169548059 0.0363373092095 0.0342698463063 -0.0795515478619 -0.0528327500809 -0.167689465836 -0.0775346481277 0.0169604150865 0.0704822750544 -0.0700664109442 -0.126477964416 -0.0419033301142 -0.137974329808
20participants@caiso.com -0.0790596688977 0.097070290778 -0.0359247358192 -0.151239997457 -0.0703876030773 -0.0173237554804 0.0480714842168 0.0175224549567 -0.110528839348 -0.0751490194576 -0.0490560473545 -0.0942104447438 0.129471347447 -0.0555736614151 0.118015678534 -0.0894294991001 0.0907898035163 0.0618541363533 0.121923582396 0.00249687107944 -0.165694036783 0.126853739241 0.109507022174 -0.124536928754 0.0819509667331 -0.0955103020879 -0.124211524504 -0.0435034490272 0.0157094738916 0.127319324264 -0.0933682078408 -0.119915025343 -0.100150740054 0.100778766109 0.0849583189586 -0.123126555679 -0.0222856276368 0.146999829534 0.100469633728 0.0567347665145 0.118446984268 -0.0677071135392 -0.0410744274508 0.0572714961085 -0.153268039453 -0.0823609424475 0.0422458718783 0.121652443352 -0.106975993753 0.113918676751 0.00480980122406 0.12212806359 0.0717456763131 -0.12802457753 -0.0559387327873 -0.0543950322264 -0.100759138288 -0.169881394784 -0.130667443357 0.119248076483 -0.0395467679658 0.0525569208365 -0.120736491082 -0.0693231247196 0.146529718488 -0.122106024205 0.0603223142168 -0.0269796151657 -0.127403478728 -0.14465595756 -0.00262451594443 -0.0331017697182 -0.126253152965 -0.014706856849 0.0327765667655 0.0736830578863 -0.0729138422382 -0.0533703684811 0.12100367296 0.0447637343928 0.0331171614373 0.108014494854 0.0395655074633 -0.0797048371204 0.0739741926411 0.141784658568 -0.131763790538 0.129071725156 0.00654338174106 0.0280428274171 -0.0591573777807 -0.0630852822569 -0.165974089018 -0.0638979564322 -0.0073054807189 0.0858699642614 -0.0765367599849 -0.149345376711 -0.00821352421679 -0.129817059074
IMCEAEX-_O=CAISO_OU=CORPORATE_CN=DISTRIBUTION+20LISTS_CN=ISO+20MARKET+20PARTICIPANTS@caiso.com -0.0709440360113 0.0880276909209 -0.0328504749769 -0.134228338349 -0.0672811257375 -0.013636940709 0.0597172307386 0.0171878495352 -0.0952438083661 -0.0682104024196 -0.042873343161 -0.0961103744947 0.130769980145 -0.0355727230639 0.102879242576 -0.0726728414135 0.0932080254753 0.0710436929646 0.103714121599 -0.00683440674736 -0.149854383518 0.118087782151 0.114507968571 -0.120727369432 0.0914910751434 -0.0973835085771 -0.107582922542 -0.0327513012747 0.0232671792532 0.113210608396 -0.0898748104408 -0.111856168658 -0.0935698232708 0.0867655472089 0.0658440169986 -0.113874678323 -0.0113520735576 0.137643583874 0.0963263231083 0.0604381659504 0.117358191419 -0.0432447085957 -0.0491814925017 0.0590100745213 -0.141417400618 -0.0697757661893 0.0411300062547 0.110820996681 -0.0919324343819 0.117904087372 0.000888495730149 0.0981707547478 0.0720872715817 -0.123024979015 -0.0485001833781 -0.0498248853455 -0.11432210041 -0.143532830025 -0.125584508562 0.116369227247 -0.0427495537717 0.0495023390266 -0.115897328771 -0.0599666131151 0.129182888718 -0.100538075733 0.0652885880298 -0.00972043011301 -0.120928350567 -0.147257681357 -0.00163590201724 -0.0213119312552 -0.116217177292 -0.0286120297961 0.0234533354505 0.071880881897 -0.064222344717 -0.0507876774712 0.107082241085 0.0426334629469 0.0240882760929 0.101887205817 0.0177627020086 -0.0898268919121 0.0699409555858 0.128255735104 -0.105761857878 0.129487009051 0.0200123689858 0.0360228939144 -0.0611955494787 -0.0540605061092 -0.141689877693 -0.0627822871054 0.00377495957829 0.0653965273715 -0.0705735477526 -0.122279911466 -0.0217204503349 -0.116678799087
christian.yoder@enron.com -0.0740330916698 0.100593758765 -0.0557477047683 -0.15589127101 -0.063625958163 -0.0319222832967 0.0806482470247 0.0282392056961 -0.116206185043 -0.0688799424527 -0.0612538071231 -0.122384506591 0.134334051014 -0.0411727186598 0.118821090186 -0.0853553185384 0.116605666192 0.0695023504801 0.117433268569 -0.00262054150515 -0.162903536735 0.14031631386 0.150899298827 -0.143309900687 0.11052093488 -0.108684770788 -0.116114692503 -0.0596912541049 0.0409344403772 0.137430929257 -0.0904625369164 -0.152038287045 -0.105736112065 0.0893787505669 0.0724062873466 -0.141431782669 -0.0236028171349 0.162400265751 0.107572993284 0.0810034117912 0.149388799177 -0.0353694905662 -0.0425597885339 0.0701695884986 -0.156401968211 -0.0699362468302 0.051531474988 0.131717169277 -0.123196907058 0.156836871064 0.0156833754643 0.0860375903297 0.104037153848 -0.137751547129 -0.0687312157111 -0.0562419299159 -0.125090570968 -0.167898940359 -0.162494552173 0.147379329688 -0.0520938178697 0.063468180985 -0.100155280506 -0.0807054473731 0.149437232793 -0.109231780635 0.0804230742877 -0.0122015233535 -0.128996554534 -0.168272546136 0.00824432696208 -0.0238102587725 -0.149219363954 -0.0403934124104 0.0179909526796 0.105191872894 -0.0704862600299 -0.0605255172648 0.110232891863 0.0472471275357 0.0211221183864 0.116014989112 0.0242547408838 -0.0818136644058 0.0920813813497 0.134481433809 -0.122449068317 0.146174494657 0.0174299422209 0.0413601469302 -0.0592207265373 -0.0744839087179 -0.16676053555 -0.0734405981412 0.00542007608064 0.0639027830259 -0.0873600292368 -0.125291763093 -0.0273552844331 -0.115180033488
chris.stokley@enron.com -0.0911446756616 0.123945112453 -0.0404591345533 -0.157661798196 -0.0766623451051 -0.0411464316849 0.0550694038043 0.020062828329 -0.13391872509 -0.0894038134944 -0.0841513809448 -0.118196819759 0.1404330359 -0.068172841225 0.119114254426 -0.109169492671 0.11874160157 0.0926077741628 0.177011900352 0.0305607883248 -0.165287693631 0.11439389583 0.152240425599 -0.160644255773 0.0758930215142 -0.110358916501 -0.139849476297 -0.0454426417778 0.0174047349514 0.121630321657 -0.119618321266 -0.132688509559 -0.109043587025 0.11388793779 0.10599398662 -0.137263380592 -0.00776915838232 0.171208631939 0.101636443404 0.0789450316452 0.173097155357 -0.0503218719262 -0.0352982397268 0.0659162490624 -0.17626315422 -0.0783133284733 0.0500198057913 0.135825279211 -0.137737691416 0.141438696183 0.0200417722013 0.0993472106335 0.084321005996 -0.143189411963 -0.0855485556703 -0.0746831029606 -0.0895149142136 -0.195508858212 -0.123805434791 0.125569283019 -0.0417457902028 0.0577628770836 -0.136552881069 -0.0913157518652 0.154168236187 -0.104965641744 0.0823429271896 -0.0179210918445 -0.139820437217 -0.145181082655 0.0111204306415 -0.0265264635649 -0.142139537452 -0.0245149700821 0.0233106196593 0.117856991273 -0.0743902053156 -0.0790100358563 0.12155397489 0.0571171996776 0.0195347958586 0.119606079023 0.0323640969613 -0.0944933006459 0.108213703971 0.142308516584 -0.139940447255 0.113607141986 0.000953468480345 0.0335021449994 -0.0353994322736 -0.0888197597882 -0.206339235411 -0.0693523716067 0.00412305780855 0.0696580043642 -0.0779999043953 -0.149821500287 -0.00543533584136 -0.150893981863
40enron@enron.com -0.0367657742212 0.00928283971733 -0.0204792571456 -0.0663748652308 -0.0411494127332 -0.0131904984224 0.0625281352578 0.0295111583176 -0.0150424802454 -0.0181735339417 -0.0121407066892 -0.0736508227466 0.0749124324499 -0.00818346095875 0.0382793117113 -0.0216475228247 0.0676766114493 0.0363991691857 0.0325574782082 0.0015162483878 -0.067579679872 0.0940696981667 0.0748625989353 -0.0210956090386 0.0778820685049 -0.0792774530867 -0.0549308289481 -0.0412354056529 0.0327712162436 0.039517411758 -0.0271898232976 -0.0717001177285 -0.0747688230188 0.0432917839083 0.00767146038618 -0.0775588352006 0.011899929546 0.0591453544626 0.0561986158839 0.0369875792165 0.0407244037405 0.00915614840625 -0.0422853931564 0.0615795261729 -0.081915489665 -0.00953017339556 0.0393027703391 0.0508253608792 -0.0404120554621 0.0864567865366 -0.00510020860723 0.0358735778606 0.0547496108156 -0.0661256310806 -0.0149836088687 -0.0393345671464 -0.102626393947 -0.050415204861 -0.123384072159 0.0828853233457 -0.0282222902702 0.0318869082914 -0.0626145899318 -0.0373537316595 0.0580326392489 -0.0382678108363 0.0262892855353 0.0107366899726 -0.052558492363 -0.0875349797802 0.0165998965414 -0.00800846505664 -0.0602009573314 -0.0134982094978 0.000284622341297 0.054399440702 -0.0266103726093 -0.0291047071322 0.0602323571287 0.0445784186706 0.00418144393085 0.0458673215581 -0.00204794740926 -0.0503077237938 0.0522997808791 0.0940430864651 -0.0461796964619 0.0707275339304 0.0312443131752 0.0279206294803 -0.0463392806668 0.0062966673154 -0.0641990524987 -0.050934231205 0.0120382048684 0.0282662755413 -0.0303001096815 -0.0400955638047 -0.0237592799802 -0.0436393084961
jesse.bryson@enron.com -0.087319961769 0.111411577254 -0.0504062167751 -0.192789686668 -0.0898349680996 -0.0260453370378 0.0768097452642 0.0189163783859 -0.147022192779 -0.0908161939918 -0.0631602539462 -0.123561218864 0.171909623679 -0.0667162227811 0.155887430638 -0.110918590525 0.119102357994 0.0777135824208 0.153546872565 -0.00613582560578 -0.210646265422 0.155654196975 0.164820784171 -0.17467570082 0.124533369667 -0.125649439038 -0.147033858213 -0.0492815831513 0.0388113556664 0.170266156543 -0.126032156807 -0.169607195827 -0.127846371732 0.129133565876 0.0971668890906 -0.148984965051 -0.0301418249951 0.192303254592 0.138576740836 0.0726847756815 0.172193925588 -0.0656846552681 -0.0609150804369 0.0788374666206 -0.184664425476 -0.0925784543984 0.058574585313 0.161876590757 -0.141112702195 0.167490999771 0.0106619350656 0.128244748612 0.0939607403338 -0.166162392652 -0.084178955719 -0.0669087060165 -0.149496846319 -0.206994924173 -0.179399301087 0.15922858643 -0.0660408523041 0.0619463792908 -0.143774723424 -0.0767401895042 0.199534448045 -0.14523009258 0.0929800198759 -0.00849390589662 -0.146123992781 -0.191741364734 -0.0127316619308 -0.0284973917202 -0.17038896726 -0.0413241252499 0.038150335936 0.0923379911783 -0.100955131137 -0.0649603321353 0.158074254412 0.0675898652856 0.032577748086 0.139005616014 0.0491849374374 -0.109340176139 0.0827469611757 0.167356045129 -0.161149795672 0.164282093867 0.0214461291517 0.0369735092707 -0.0822443563972 -0.0890569115342 -0.216873400194 -0.0868086984439 0.0072452649718 0.0939276729611 -0.0946941742827 -0.181121109288 -0.0262608417334 -0.170782148861
kathryn.sheppard@enron.com -0.113063439254 0.12938086404 -0.0612281057621 -0.200422891379 -0.104428235593 -0.042168012862 0.10857904917 0.0411696946485 -0.140416908189 -0.10218304604 -0.0956245481474 -0.168547401391 0.196529026687 -0.0729464483571 0.150153505083 -0.114180985771 0.167382380928 0.105329682712 0.19015903097 0.0292870246494 -0.206581657949 0.168012241821 0.207866822545 -0.191959744952 0.139720322618 -0.155894335607 -0.176843637639 -0.0551542842879 0.0455131715761 0.166907652217 -0.146845776291 -0.186833432475 -0.140658094793 0.12092016512 0.0972829363578 -0.183887558834 0.00172040113264 0.216301671602 0.133369741953 0.108228631948 0.204057386097 -0.0261973541922 -0.0725322276067 0.105999122743 -0.219325230098 -0.092109270975 0.067914825308 0.173214210723 -0.166602327114 0.200802293078 0.00992133370295 0.108781919514 0.121546445583 -0.187357444435 -0.0856011194171 -0.0864766600139 -0.161630430495 -0.22247586413 -0.192120573942 0.181276017668 -0.0735527410203 0.0762777064776 -0.158581398365 -0.110207326695 0.187472627203 -0.127741248143 0.113695355509 -0.000573995875501 -0.171698846244 -0.210336238591 0.0306384980803 -0.0274968868305 -0.188389264124 -0.0387183939393 0.0171156317934 0.152813515866 -0.0804018914998 -0.0883441176667 0.148127921675 0.0785966986554 0.0220111196691 0.154913366348 0.0179878653483 -0.137400511344 0.137707312047 0.176304117358 -0.171818116855 0.176786847211 0.0296046673253 0.0523707209878 -0.0780592990943 -0.0931799690775 -0.235590268725 -0.0991787273248 0.0187176282991 0.0748085905228 -0.10288424548 -0.158433683278 -0.0411971242229 -0.167639176022
kathy.axford@enron.com -0.0925341925174 0.0962009852676 -0.0464833698751 -0.150137299011 -0.0805404198845 -0.0270719536359 0.0821919149439 0.0246857850958 -0.110212901802 -0.0705085403591 -0.0761741654595 -0.131796210175 0.152699500987 -0.048051913192 0.112514877854 -0.0947336733062 0.127459008811 0.088632796614 0.15218711416 0.0245190090013 -0.162721329982 0.123458967853 0.167162360695 -0.148624749907 0.117444357346 -0.115398244201 -0.127678547262 -0.0406536636505 0.0319857759115 0.132916347084 -0.112855687593 -0.151601239417 -0.102566102441 0.0987065846716 0.0755085260602 -0.140906515643 0.0114815849314 0.17133172231 0.107535030414 0.0894897534177 0.164746606923 -0.0187277051802 -0.065553737618 0.0894442946248 -0.174202290691 -0.0817651858686 0.0467534991701 0.135903445426 -0.124897464493 0.165583401436 0.0135319786532 0.0797859188316 0.0953017761473 -0.160295371912 -0.0612478860256 -0.0676626922866 -0.132460197269 -0.169297051609 -0.150435355201 0.143548087586 -0.0585729741665 0.0562896759837 -0.131636395555 -0.0904967432697 0.143513361468 -0.100507169128 0.0865643108305 0.00371681685369 -0.140779325057 -0.16326813378 0.0203299839838 -0.0212578745761 -0.152087224343 -0.0430257271461 0.00433874879096 0.122438350353 -0.0640856276672 -0.0683194092794 0.116220853544 0.059354542575 0.015060225398 0.127956060948 0.00322127171332 -0.103539625709 0.103453746808 0.137579363033 -0.132581262039 0.143786950128 0.0226645658601 0.053577067198 -0.0649585637905 -0.0785625278986 -0.184710596826 -0.0720696639304 0.0184840684592 0.0662809281684 -0.0803785717607 -0.121522479593 -0.0395576522491 -0.139742284746
leaf.harasin@enron.com -0.0367969127643 0.0870546575634 0.0275917682972 -0.0539607266763 -0.00439358463499 0.00862966045077 0.00717200674031 -0.00976746726825 -0.054761582381 -0.0401502617009 -0.0160923481735 0.012242590532 0.0203734928412 0.0171041358884 0.0265599257678 -0.0168782171288 -0.0353965976434 0.0690989221021 0.0410401861189 0.00997429776153 -0.0553593500402 -0.022446869339 -0.00453149431699 -0.0641944055972 -0.059647070778 0.0342899139542 0.000502624729456 0.00674234331239 -0.0615728599875 0.0132488045392 -0.0211516512268 -0.00953844440212 0.0457028162738 0.033765143016 0.0367836648992 0.0292323175749 0.0229961122705 0.0510223419915 0.00341412796846 -0.0144651116282 0.0288828630804 -0.06043617399 0.0150550466546 -0.0441864975651 -0.00164479733604 -0.0841678951515 -0.0345655205579 0.0382055908069 -0.0354925407957 -0.0237484396752 0.0131703052286 0.0508537296068 0.0144875346861 -0.0231167319643 0.00132710252471 0.0344059684542 0.0683141416712 -0.0704218162085 0.0316678519675 -0.00473091998353 0.0310575607573 -0.0108804780519 -0.0359231330495 -0.0153106502083 0.00636525722985 -0.0540451375152 -0.0447296256772 -0.0189277642741 -0.0458417460053 -0.0371841885602 0.00711997035241 0.0257904265215 0.0241606881431 0.00645811245234 0.00655093323698 0.00482519255742 -0.0130939755823 0.0250630326377 -0.0058841987253 -0.0712513675568 0.0333665355823 0.0539796904199 -0.0222570849091 -0.0396352158714 -0.00255197611025 0.0119826158626 -0.0528720192225 0.0374391288222 -0.00948415312304 0.0209295580033 0.00985721910505 -0.0776737655886 -0.0365929870482 0.0423827391567 -0.046552775608 0.0493047701559 -0.000174778110985 -0.0165281664412 0.00197600277197 -0.0232253030532
