1495 100
bill.williams@enron.com 2.48707072499 -5.56085690145 1.67528361385 -2.09550268123 0.563377570871 -2.85853742948 1.73393022908 -0.853719571529 1.5602663459 -4.63348797917 4.23701990769 -0.321048816522 0.0654019690199 -4.87903549201 -4.23531756758 -2.33413539967 -2.2658871182 0.557320779358 4.15044536664 -1.84891958772 4.94647156232 -0.694788995821 -1.03322152118 -1.54700996325 -0.835757562931 4.21156665047 -3.72957627165 5.21194593241 -4.28495362629 1.54671334894 1.50248650915 -0.371111246189 4.16536507564 1.17155123423 0.318423187049 0.17690206336 2.18992051321 1.93532179385 -0.0379846213888 -5.84512970888 -3.25198093364 4.75261847471 5.13475548797 -0.701754587108 -2.69492929921 -1.02881959803 -1.86389879718 1.8630417775 2.16640738183 1.59191924816 -0.933315940057 -0.773816287157 0.799717532588 0.0152486312305 2.32564666367 8.88878988381 6.87056757389 1.93673093028 -0.354447661027 -2.83733458036 -3.24045601708 4.07922512157 1.67866187052 5.27360034164 -5.30737065403 3.0944732576 -3.66154529337 -5.29862683835 1.71545646086 -0.956947301965 1.38294100668 5.86652955888 -2.26078557167 -4.65937153704 8.84556640356 -4.36809022226 -1.59218217736 -1.03074430985 -3.75329149266 1.41232548531 -5.39227063654 -1.25921877859 -3.29204520245 7.08262412666 1.96765641788 -2.87252940636 3.3799091856 7.72165490185 -3.13945861693 -0.125273939758 2.87533884391 -2.29134712894 5.79243198718 -2.26526831035 1.84929985762 8.68034826389 -5.16467488542 1.88886818695 2.13482479431 -0.19728344766
geir.solberg@enron.com 0.532929632688 3.31205313031 0.0618421994693 4.68377183561 4.03158198239 2.15143511554 -2.24400846824 -1.58550729671 -0.210376523982 2.09158672288 4.55602568508 0.598409484821 2.9211441206 1.03822309936 5.02049931837 4.21482086442 4.06502082537 -0.260668338138 4.30490553487 -3.60275352974 -1.96191170653 0.536908129855 -0.0426281648581 -1.62807317616 -1.30539193585 -1.17212338705 0.11662948934 0.0564698019433 -6.02392213422 -1.77310575513 6.44927504077 4.84490969935 -0.151926119834 2.89155320414 3.56431390734 -5.2366205415 3.26768320451 0.98622533286 -4.19311958065 -5.03082185497 -0.564067366557 -1.41200727827 -2.95562453707 0.576558585309 -9.78355053501 7.28272683112 -2.61458311997 -4.83682235379 -4.17637966052 -3.0974204453 5.0951841683 -4.63307930288 -6.94827365078 2.40515987977 3.37221326493 -3.30083904233 2.47618477266 -4.80603867761 6.11977620221 -0.237809798665 3.50355454847 7.04021396448 -2.07643776267 -0.733450146966 1.52268188613 0.663470256343 0.715357537642 7.8816564876 -0.376658322707 -2.42448095499 -2.81215863419 -6.97578418038 -3.15408205972 0.338329013589 -2.72411839563 1.06438345248 6.66930417066 -1.28076483207 -8.90953760315 -4.31287162776 0.447944910292 4.18111096491 -0.220085385608 -6.93776468302 -4.9854355286 4.24666157802 -4.01154555721 -0.489122508803 -6.14139269366 1.7959063499 3.09807553468 2.47231336158 6.89277001167 -0.419916043059 2.19047137248 -3.72077307917 -1.72566552775 -3.67386058853 1.5022099042 -3.5741484261
ryan.slinger@enron.com 2.17004462435 1.29515227267 2.47974035468 0.877752429528 3.05474295671 2.90981624502 1.0252674943 -2.41530370019 6.99030922324 -3.82921786531 -2.66389825944 0.987330438748 -7.48587347772 -2.21668423939 -1.17895850554 -0.0612067213102 -0.668277030047 -2.79307040494 -3.1928956543 2.26012070563 -4.24427169713 0.146519212991 -4.48172742553 -1.44258907227 -2.9618543327 4.40437641691 2.70455667626 -0.684615106888 -0.279699220473 6.93115078189 -2.85491389222 0.442394582359 -6.69275068319 -5.92768831111 -4.91014582016 4.12564414003 -7.02810524693 -2.74455954777 7.08525655246 2.24020847206 5.02520004908 -3.36610762708 4.33375677108 0.189309690727 2.84201970889 -0.702193121403 -0.153500859631 5.94133907216 -3.08184876799 3.27416496749 2.4869624451 -0.749815433141 8.00761621768 -0.930625579273 -6.46736626119 2.44657433258 2.12334372112 0.208545458341 -4.96008163237 0.206102421537 0.871275568102 -7.19501064815 -1.61794523306 0.702270861921 -3.28314847082 -3.59855934359 -0.682359091234 3.62948329357 0.104788021462 -2.6165203027 0.460960475271 6.15560569623 3.64749059998 -2.24374586207 4.54207316736 -0.124373114086 -0.385896912838 4.36060080708 0.558536652103 3.91654609627 2.84932686533 2.94039273995 3.87842724714 0.105235163842 -4.04475059096 -4.14391599695 7.16167035259 -3.49874047706 4.44530159874 -7.00650980221 1.17547289209 -11.1232592895 2.37882761889 -2.99578356101 0.588681147001 -0.627059942294 0.0111427500469 0.675709288856 0.140891401116 4.76865593132
mark.guzman@enron.com -7.42302819522 -1.50569226852 -1.34411353419 4.39523306468 -1.61574571558 3.4196300895 -10.4633339605 3.78520294385 4.76230713175 0.907941319276 1.73913392027 2.25199588864 2.05980172856 2.03052766123 -0.888330466846 0.612615461825 -1.55410364408 -3.1555217916 -3.18568708115 3.79712794463 -0.286627147527 2.94316821759 4.05740050802 0.358584669725 1.18846476468 -2.54037049552 -0.66286627274 -4.68626452136 -3.03312265254 -2.16134399025 0.268404815166 -0.203058191744 1.36644630159 -1.29396413134 -0.478006491237 2.2463184803 0.794731512103 -4.9866885587 1.90708351112 3.08501321556 0.176479430513 -7.56843119941 0.179341445828 1.3556407697 -1.41803089673 -0.340519398472 3.37733060338 1.81660539722 1.09475003563 4.09257662819 -1.79673380272 4.87641369767 4.10461001143 2.65418777745 -2.66727019803 -5.90092964147 3.07468412651 0.42594092439 1.11918022861 6.52487172975 3.15357068016 1.87872769387 -1.99695491764 1.13140010476 2.0447686117 -5.10226422193 1.12034692987 2.03758068855 3.8064364885 4.59588334572 -1.33264733725 -2.57479157766 -0.314809741887 5.00867951684 -7.87067533353 -1.18988101194 8.67587277557 6.32054913866 2.76858387582 6.61483904897 5.30670914485 8.81815513572 5.0232053647 1.66578417802 -3.54483481697 -1.85526989943 -2.96922923938 -0.17248195223 2.97830144587 0.706326638651 1.12913713118 -1.06156909004 4.72226355772 2.47588532307 -4.45965312472 2.62186859263 -3.95368891594 1.59295859791 -6.04141854828 2.01770648161
pete.davis@enron.com 0.514155707837 -1.99125772863 0.77987846313 0.524349452942 -1.96332427648 -1.19662366428 -2.30225021675 0.491656324171 -0.213204489741 -2.67445140327 2.05062807509 -0.244841187425 2.55520096173 1.21353758698 0.141486155152 -2.73368447178 -0.886704596778 -1.96666808332 2.70025467412 2.32247271334 2.11341207951 -0.355330464011 2.99388753262 0.97971367898 0.304069424827 -0.183950523092 -0.0614448466482 -2.7894620087 -1.34917001491 1.08287662854 1.02654906845 1.97880000784 3.5426707913 -0.896786824461 -1.12690766428 -0.31865666763 1.72700091072 -1.18950792672 -1.45278296006 -1.32945416814 -2.14268783582 0.101284048709 1.00522533396 1.59729264138 -3.94443392036 -2.50964376917 2.09895925272 2.30888098107 -0.304641330894 0.777726635502 -1.45179869338 2.93246697678 -0.336286227501 0.750607688779 -2.618855269 0.291904307951 1.80534827236 1.98839983878 0.604662805395 -1.2339573846 -2.09454312353 1.85651268701 2.23341945165 0.700888843517 1.45191747639 -0.947333758186 -0.195922015886 -0.413028937985 1.86882584512 1.76614194764 0.2458605241 2.16780555319 -1.90301807369 -0.835692610574 -0.388872623747 -5.08622256544 3.04774646466 -2.60815900541 2.60846067745 -0.113357200865 0.774609817021 1.16357304868 -1.18835552022 3.82839261157 0.0218055398195 -0.720436778291 -3.1347181416 1.86556124999 -0.518652932246 0.977162089353 -2.99425308237 -1.00805038994 -0.0963879707939 -0.2671310574 -3.23048332584 5.51633675019 -1.85090307565 5.06508566317 0.848766983657 0.564863549576
craig.dean@enron.com -4.10784065689 -2.22789046574 -0.307900445483 -6.83638406938 -6.07644363981 -2.84510182224 3.49209527995 -0.156550998549 -2.12414207129 -1.34709434331 -1.8647071269 -1.68988362076 0.853106432231 1.32947835557 -1.00983149819 1.78595890938 -2.96745361754 3.85442292484 -3.5818911132 1.1570244366 0.210516253549 1.20501334069 1.79389839818 -2.06403569698 1.48059716534 5.35309935271 4.55319798042 0.437156688348 2.64052679154 3.68007225 -1.71441747209 -1.43839535594 -1.89181097018 -2.73874059673 2.69601616337 6.17663256517 -2.98835499999 1.16957983512 2.42300107193 1.27257039965 0.531079640434 0.691978355064 -0.149063775566 3.16835148342 6.90541754014 -2.49987802479 2.48984767952 -2.62033862121 -0.38914924509 2.09627240989 0.421505595255 4.74631350124 3.74073915804 0.654478124028 -2.12794321708 -0.268380505292 -3.49626407353 -0.906398596478 -4.5824990927 6.09621383991 -2.41710882643 -7.61673469317 -3.75788417697 1.39119701004 -3.64649055735 -4.58793167068 -0.554168118574 -2.25245722413 2.50402264249 4.40194719188 -4.05991620663 -0.973444515901 3.74332193182 4.39145106789 -0.653937978393 -6.25319974631 -1.68205590579 5.10813583793 2.75222726087 5.96188036409 -2.04812756605 -1.12438553158 3.2494604934 -3.48548755568 3.33782416364 1.17185839043 -0.331528307777 -2.68202445278 5.22218243653 4.65345350122 2.39436563768 -1.2203935038 -4.90166138996 5.82861367662 -4.40754617104 -6.84704834331 -1.55338533815 -1.55968458189 -7.10213607509 -3.00616521425
john.anderson@enron.com 0.836184851873 -1.97977653804 -3.30074453289 -1.2259741208 -7.95782970269 -2.65290119691 -0.157373887385 -1.99421844681 1.44413035636 -3.86120616337 -2.45621285926 -0.226916014744 3.50580555501 2.06980471751 0.146579643854 -8.50304563011 -5.00424067271 -1.86013177666 2.09604552136 -3.53047093966 4.68693614495 -2.48084510798 5.20760365763 -0.152738618143 4.13970482824 0.904086415706 -0.230658094942 0.623166118973 4.50623347674 -4.11525814492 -1.1187027406 0.0526402941818 5.15601250751 0.237399432584 -1.39892426156 1.13787700428 2.63262311533 0.14373417858 -1.13864769568 -0.587067894017 -6.4362095007 3.55922405997 2.0906821658 -1.08330061631 -6.69203261675 -6.08862297654 3.47397796292 2.69208832503 -0.587695608318 0.538714628071 -5.19004240276 0.80484995549 -1.64798984051 0.72522499596 1.56487723354 4.8616649655 -1.32796555427 0.359138288919 -1.25024273945 -2.31676337536 0.0802872605035 1.45097121968 -2.30753744124 2.23193073314 4.79171917581 4.28469340483 1.02691988012 -6.13810405954 -0.505922414279 -1.04870835816 -0.107303591486 0.622261046329 0.604048930184 0.514442945422 -0.717042758237 -5.22821106041 0.53206025005 -5.42367299848 4.47350310037 0.454880218761 -1.95901196157 -3.62077163803 -4.16488120098 5.83653974932 3.19767327825 0.131180362944 0.089689584708 4.21785741211 -1.71370573556 4.29514156038 -2.55874748994 0.723101159512 -8.11091484407 1.45478239143 0.904020699805 7.45839915342 1.34489139937 2.72033631714 1.72427143117 2.46792937561
albert.meyers@enron.com 3.08371874315 -0.773866997747 4.63356031148 -0.393687123977 5.24085132845 1.55839415081 4.72566508815 -0.990142143733 -6.18570268219 0.709856791094 0.571677430399 -4.98781394275 3.9101521813 2.5343214121 2.92802632074 5.5345099812 4.34882993326 0.185668571299 4.45954365904 8.3192333569 -3.56645946566 -0.162614423905 -0.288170765322 4.19960609328 -4.0080855053 0.0814053794483 1.13988266444 -2.31426675307 -3.11952586722 2.68491152253 2.08129268459 -0.566013287979 -0.404497247552 0.626024965813 1.902286392 -1.931059187 1.20179111054 2.06632098246 -3.69751102307 0.742577259725 1.59736492935 2.94952354164 -3.50358510502 0.542177104806 4.08528130835 -1.20677505687 -1.77490462549 -2.66955291525 1.10517051042 -5.20179742836 0.464120262357 6.27975566859 -5.06194698784 -7.40622034612 -3.22904004911 -1.26054211491 -5.48869209373 4.20551624441 0.10814481128 -1.53962258502 -5.8099005777 -2.00365027903 5.2338059242 -1.87939039554 -1.64948012261 -5.9307772347 0.195850859045 2.84009309261 -1.77344330648 4.49271201228 -0.023335111826 -2.01615248089 -1.93806938816 -0.274784249225 1.20108044749 0.140213363542 1.49394689257 -6.07823819952 0.747621242915 -8.94979717686 6.36622399068 -3.64380597103 0.546737062098 -4.38358944882 4.06883410455 4.92581378321 -2.69333659848 1.22062030278 1.10239634025 -0.601012727042 -3.53184339339 0.955975967504 -3.40672608026 -2.71762917648 -5.97986786212 -6.74406739274 3.68552975195 0.420320632596 -0.000550059051715 -4.45291049122
michael.mier@enron.com 3.34107753077 3.8837217434 -1.9891185523 6.70753675102 2.81380097606 -0.399218356515 -1.22200990655 -1.39901344721 -1.8298490841 2.95190593563 -6.47795267407 -2.82736746066 -1.56183784358 2.84663159108 4.59798610905 -4.27951117418 2.72986429029 -5.84046461683 0.993473361642 1.18845440764 -5.79034964516 -1.60813366433 -0.133738094674 -0.371633237638 1.62386669145 -6.76211610233 -1.13756028545 -3.20880846981 1.60787909114 0.494874854947 -4.6296720744 3.60866764922 -4.23394250792 -2.96456842713 -0.654241824062 -7.37717588063 -0.207111090297 1.76958361345 -0.827034586584 2.66411138204 2.15444219329 6.39938677595 -1.76715653146 -5.36529948518 -2.90570684219 3.29794964161 -3.42534729493 4.73615782677 -5.30628057079 -1.54934145025 0.522996725212 -0.120831255765 -0.00718592169688 -0.665024005191 -2.07383916069 0.0334786231161 -1.0910255938 0.812868010993 2.04986784776 -4.02506004116 -0.109556825165 -0.00197584829795 1.95978070088 -5.54019753572 7.07717886742 8.27951645073e-05 0.866855496656 1.52095058207 -5.42317579591 -4.10686228242 2.19786225379 2.44512688304 3.30037449523 -2.2154873956 -1.8113480074 7.31371326446 -0.974734698556 -6.65185996877 -1.97560517598 -8.04681078568 -2.50602031125 -2.91452466342 0.611625111451 -1.90652112148 0.464020103675 1.32781769045 -1.69066044723 -4.74446446799 -3.9530977515 -3.97244449428 -0.901016655975 -0.297567507731 -6.25047199374 -1.50895833564 4.63455994284 1.16612126376 1.91965654408 5.86043556212 6.42877798818 -3.59195475788
tim.belden@enron.com 1.35383456143 -1.16017670296 0.4237924928 1.35173235937 0.0278374376729 -1.32988383961 2.79697782174 -0.767013851674 -1.97054913976 0.66558243814 -0.374387847068 -1.86627555715 2.48238709735 -0.338849826795 1.56949957312 0.575170326844 0.861435708363 -0.490946310438 3.02805958182 -0.798817810527 0.599995503661 -0.272213348795 2.02575204448 0.168694725731 0.728612498582 1.13757168471 -0.679788513562 1.10036949455 -1.39358678385 -1.93578477081 0.593965746299 0.221861124715 1.39192870776 1.62341121301 3.03098488106 -1.22989045347 1.94949172751 2.67348409885 -2.0874990035 -2.89509606621 -2.03159567132 4.64786745098 -0.356682827204 -1.96988841777 -1.49783358857 0.637770098272 -2.07442091434 -2.14069965137 -0.399615868668 -2.60717049842 0.252420620878 1.61015049043 -3.53528130136 -0.759069912454 1.20543512177 1.48612104577 -1.167880953 -0.976073953438 -0.382493751348 -0.392418431211 -1.2126879543 1.61057134791 -1.82572922622 0.150339434119 1.46311071119 -0.0793638059004 -0.21435127831 0.41867710888 -2.08440292693 1.38697130518 -1.26234310004 -2.19943382113 -1.69864430615 -1.09731318271 0.40923217115 0.213440122574 0.327186564923 -3.10732528382 -2.3007415661 -3.65026267565 -0.842591097058 -1.49934434134 -0.406971502022 -2.23332620032 2.02987471288 4.54703003461 -2.09852369153 1.84255022112 -0.995915385443 2.44489368981 1.54904753576 1.88865656474 -2.95647411565 -0.291501149282 0.594776533138 -0.461901166611 -0.0907836539222 -0.151857295307 0.909674441354 -5.60757105767
jeff.richter@enron.com 1.62077470057 -2.01406832817 -0.629063674882 -0.0933540974583 -2.79306593262 0.440095072023 -0.035392154299 -1.64787734409 1.10295085341 -3.67187357039 -2.04048859931 1.68741185153 0.752610125863 -0.427110668927 0.383076575954 -1.52869315222 -2.11005616421 -0.456352201895 0.508218578091 -0.633730803037 0.125746970435 -1.52695695543 4.25774012443 -1.60338249243 0.371569891204 -0.0318693185215 -0.180181633526 0.377527370262 0.978336905798 -3.75200161466 -0.402620006803 -1.18490539772 0.690719740284 0.944001048247 0.0537908863564 0.921697777111 0.51240408203 1.4161871171 0.35865526967 -1.28664056106 -2.38217094351 1.386055763 -0.262987390852 -1.26072753061 0.461128585204 0.0988468088356 0.15198617159 0.059077568685 0.182113164764 2.80009490116 -1.67621364812 1.91999152239 -0.722996378203 -0.114768081347 1.73115542336 2.7124350513 -0.745368775508 -1.08540986535 -0.250345128184 0.0262349081812 -1.61409242627 -2.66233886446 -2.86644623054 2.46374504381 2.25002925511 -2.21775458878 -1.88912158043 -3.67035292426 -1.37199376801 0.434966292085 -0.994870321519 -2.76274940912 0.597163060748 0.634923138789 1.48847752537 -1.6187604075 0.50059248952 1.9656504849 -1.92268945686 2.04045026862 -2.03154432426 1.51751227194 1.34550228727 0.0738138808218 0.961798159314 0.83961286274 0.77558834729 2.23726971154 0.350031843763 1.19420646164 3.5723933606 -2.2909416066 -4.02996474232 1.06634846377 -0.4552815463 1.23428465187 1.26392385923 -1.55511415963 0.342365667748 -5.02372586867
mike.swerzbin@enron.com 1.55432912268 0.18449768106 -0.0744236211299 1.63113802354 -0.391103268386 4.07272786628 -1.10284685496 -3.59124316858 3.17066506401 -2.85050368309 -3.32600321304 -0.756710806711 0.106049853623 2.48484366238 1.34937090095 -0.736448127625 -1.83367192287 -0.949957596438 -0.302506343205 0.0158557864688 -0.805839476849 -2.62633269538 2.34595882537 -1.4996146517 0.900938209557 0.789833262428 -0.678599876199 1.84862248661 1.26962186732 -3.92342284859 -1.60569206996 -2.29844101269 -1.40686208396 -0.605722463397 -0.495191153392 0.0185896632302 -1.12296036575 -1.13478496301 3.16645081695 1.03353579955 -0.636583500742 1.67142483574 1.2950768303 -1.7340676256 -1.85287977293 -0.975540364103 0.0503910927339 1.24033878883 -0.00356652583542 0.187800167594 -1.8444568884 2.03994942322 1.00105829928 -1.8980738118 -0.579023584718 4.39935848853 -1.4428831017 -0.402897332326 -0.265967465399 0.362065947939 0.359815796766 -1.98238357893 -3.40375449219 0.583246168039 3.2828398664 -1.97063468525 1.09245731725 -1.277083172 -1.81399165048 0.467921613698 -1.09831966217 -1.5925414023 1.85617165913 1.12685277829 0.672868667016 -0.527583550625 2.49572176316 -0.644189380805 0.732949850467 0.440798944913 0.487482449303 -0.210364211588 0.363458713592 -0.6794365297 1.69397691044 0.904330783709 4.05688610656 2.50280053627 0.229089969155 1.36987450622 1.60631413922 -2.5613414058 -3.31404050897 -0.161554456002 -0.309215745225 -0.616885965099 1.40299737927 -2.79394652033 -0.327031281457 -0.561792093605
mark.fischer@enron.com 0.0388855202353 -0.602350285212 0.207900133987 -0.283034144007 0.54718787793 -0.120288712935 1.37260332386 -1.35198075475 -3.21887622688 -0.677842596167 0.783943043559 -1.79623124631 1.05278380191 1.57509505002 0.507406200268 1.86450240949 1.13827953773 1.24269447777 0.756540456811 1.16669511734 -0.413978465298 -1.76817357947 1.99838216632 -1.79470623058 0.643328672523 0.304662932009 -0.532029137449 1.49684374355 -2.3278479726 -0.242264536109 0.360565806818 -0.0404304227855 0.679162069239 0.376873688287 3.37609787531 -2.0633627951 0.0606135439146 1.53565195903 -0.764499357961 -1.75846625034 0.988060811424 2.24210653358 -1.25566886044 0.0861737550924 -1.5105216964 2.54087705403 -0.811637828434 -0.538369422623 -0.636315195885 -0.0532426118924 1.93083432207 1.87378644767 -2.09238208811 -0.818490778004 1.02992997746 -0.231142350071 -0.208303791897 -0.0285016769485 1.35353386953 1.18631987904 -2.60930260614 0.0844634025564 -0.974145257534 -0.510796476617 1.34613073619 -3.16676428696 -0.617221288097 -0.769351343862 0.0517241984649 2.01317372193 -1.25961432155 -2.74895832324 -1.25733858225 0.996144896576 0.224336567155 -1.67802716513 1.53591167679 0.613767427207 -2.6545147512 -1.2224123384 -1.51659149363 0.019920727732 0.0163839935777 -4.17640225158 0.744838669514 0.869127048461 -1.84554355213 0.0688057736812 -1.51942772733 2.80713849906 1.89009890472 -0.0183653252047 -1.08830022844 1.16273390609 -0.968899330494 -2.87022209001 -1.664506237 0.493855308748 -0.431269042484 -5.70624512552
chris.mallory@enron.com 1.04252113752 -1.09591585359 1.4079856031 -0.455756785083 1.55952679073 1.82618004041 0.244062657714 -0.896848963354 -0.505361374501 -1.75621692504 -0.835995310637 -0.520625049595 -0.0468639263683 1.13590797729 0.738400783849 3.54487657707 0.44622081511 0.177252718656 0.649095886569 2.88581469402 -1.33209245179 -1.00086945144 1.85962982343 -1.7034112208 -0.301833985664 1.65290061221 -0.209282858437 0.741495921042 -1.41506595862 0.719413633839 -0.00850693493712 -1.19029453949 -1.36691342811 -1.09308168367 1.40853985222 -0.255363389808 -2.08495392273 0.42792020543 1.405862842 -0.526139446927 1.00632861588 0.278260970834 0.257134002357 0.809162346841 1.14272724414 0.310665998051 -0.676336679229 -0.368608738015 1.01792410017 0.699639118444 1.08258217384 2.51897936469 0.55783229751 -0.657618519673 -1.59593401636 2.4706735035 -0.253490760415 -0.541655789712 -0.629070318635 2.43099939858 -2.26889749923 -2.29897931924 -0.327212810771 -0.189992664133 -0.124665746164 -4.18191187654 -1.08720407912 0.202751362719 0.911318694866 2.64634426378 -1.78772068606 -1.47876729852 -0.304093266518 0.931240478396 1.36618661882 -2.80181802078 2.36507797556 2.05844045356 -0.428996223832 1.17933316082 0.379018723155 1.35408563586 1.20429102354 -3.15121265789 0.272679926313 0.50340481555 0.645595249057 0.183670845787 1.35115988018 0.800107085113 2.16865090451 -3.11028869066 0.352850430692 0.758089290716 -4.26648054374 -2.33012406311 -1.51360143063 -1.75645211804 -2.15074592299 -3.65041203553
diana.scholtes@enron.com 0.553148316329 0.323105938907 -0.37604930112 2.63442853792 -1.66747083184 3.31719474028 0.0459695919831 -2.85823061653 0.879952974423 -1.90419558876 -2.75947633929 -1.21398508992 0.292486446557 1.98128168111 1.68293093559 -0.55715709923 0.160060001135 -0.950659135934 -0.53997173711 0.834206407476 -0.334900811939 -1.80561434137 2.90270751471 -1.56498850524 1.87195883751 0.815758399809 0.358724387183 0.83858753955 0.0430373765993 -2.16209552751 -0.987979387721 -0.0219433332653 -0.925148346035 -0.12555386533 2.04609237051 -0.551912356439 -0.753857860902 -0.62462689121 1.74188381361 0.919700700915 0.0156861869865 1.74333816451 0.300641001974 -1.1374964778 -3.17991445432 0.855973049839 0.817051056456 1.03706892877 -1.87687294499 1.00884036504 -0.0378115794228 1.84795197986 1.80738782431 -2.24131672875 -0.842132083985 1.97021010397 -1.96546829161 -2.45878362607 -0.326173190865 2.11888058647 -0.500121631321 -1.36414127722 -3.57609553705 0.479888221768 3.47340514405 -2.1220704305 0.515924416203 -1.32049427686 -1.22561106943 0.0556091547147 -1.69611005873 -2.22236641488 1.98535691786 2.29503247729 -1.58414249197 -1.23688556431 3.45751523138 0.652393314756 -0.134744736119 0.000682601639288 -0.747806380482 0.0800017221502 2.0114485492 -2.51339019696 0.28110232402 0.899953645349 0.295509831178 1.16179978732 0.274606507584 1.68054499548 2.00568755596 -1.90312888938 -3.23531270058 1.34086758912 -0.801782975517 -1.206295493 0.0478485242583 -0.720684032701 -0.773259599119 -2.85877216787
tom.alonso@enron.com 0.863803445805 -0.841829428083 -0.051061388567 2.58975970258 1.62784201082 1.80405820249 -0.212525594242 -1.48317449999 0.0959822767172 -0.72624851333 -3.09919881674 -2.07675475884 0.535167519742 0.761564769186 1.57178886777 0.98319220356 1.06674428541 -2.9526769524 0.959290835637 1.67910248922 -1.45328693121 -1.22269855058 2.3413510033 -1.08719298982 0.432148241464 -0.134646371436 -1.50558242075 0.765990272226 -0.785713101852 -2.56288561847 -1.67961736023 -1.80984492875 -1.10218006006 -0.812433603457 1.52876476721 -0.982174712148 -0.470098257828 0.598219887358 0.594142271324 0.0369982517084 0.388244005375 3.15727477008 0.333548367359 -2.43921618038 0.318154345582 0.0620337387273 -2.02693240324 0.746726378397 -0.27895399652 -0.366916999941 -0.670061962752 3.3591013079 -0.30554191262 -2.26088785267 -0.272826139644 2.15534078867 -1.49564037991 -0.707105288929 0.106333036361 1.54478373002 -0.788341208861 -0.206615698539 -1.30130991492 -0.978921963598 2.69192575514 -2.2563389134 -0.244799213348 -1.09705310064 -1.75183055174 1.12967625095 -0.875622349294 -1.74910592076 0.304034168239 0.305220343496 0.572255000936 0.968541282174 2.08256183351 -0.54236104381 -0.287427584796 -1.82420695138 -0.0226507292064 -0.51011052339 1.64369361528 -1.61929900302 1.09955512536 1.98976379032 1.38571559352 1.44825268276 1.23918875757 -0.167268619265 2.77780558574 -1.8136917848 -3.3677657153 0.0177043065305 -1.2327256941 0.86425441841 -0.321724781782 -0.517053520815 -0.26228744552 -4.43759435863
matt.motley@enron.com -0.721027921845 -1.37995771368 1.45677392567 0.246918842307 -0.586056075788 0.733479921896 0.500513483459 -0.593347654196 -0.335638146745 -1.20905189248 0.188630673595 -1.26233016785 1.06311060263 0.0800550339179 0.307674012156 1.62552132829 -0.604879603697 0.11742117657 -0.431340405371 2.03389168676 -0.0932416207029 -0.0806062676816 1.22436355125 -1.75116677039 -0.456517794835 1.33352457779 -0.143384627626 -0.0721290041036 -2.85846340492 0.976334807358 0.402883845619 -0.414844989898 -0.81645552018 -0.812238717203 1.82895286099 0.217936615259 -0.225314143544 0.12022805971 1.4190759074 -0.203282510242 0.965883673738 2.55740414346 0.28217596731 0.405832974896 1.093042169 1.33136870514 -0.907381338798 -0.846104123848 -0.335686651993 1.53987516969 0.821355363606 3.85040921082 2.09206753232 -0.450951978953 -1.30990396371 1.71608739012 0.419402312367 -0.513761985531 0.504114778192 2.72271930443 -1.85974348502 -1.72101722309 -0.435216065043 1.03335851024 -1.00800740244 -3.60097063361 -1.32723544799 -0.879359114364 0.659525553501 1.13719726452 -1.84832213183 0.489624278299 1.03290076547 0.129537218928 0.837397690079 -1.92587239906 1.45496150303 2.76651184077 -2.43495735519 2.00663280996 -2.33377733092 1.22282035811 1.94272525482 -0.879868212434 1.15722112055 0.322757166015 -0.275574340338 1.13687349488 0.934095659021 1.60802457709 3.86855511337 -2.17092109382 0.553218279216 0.912240108083 -1.57374465793 -0.483992053847 -2.99191057658 0.295586180446 -2.00389603451 -4.44884874834
robert.badeer@enron.com 0.219117292934 -1.4705655523 -0.186996376479 0.0459859722029 0.190250249438 -1.60503781429 1.45612338623 -1.15898817455 -0.577387834299 0.276533356706 -2.44193547756 -0.677158967964 1.73956809711 0.146875489835 1.7823868819 1.583459604 -1.04031467417 -0.485808894924 0.997653346803 0.422742163738 -0.568412483539 -1.60829116083 3.05974648963 -0.981194682628 0.753985150143 0.707632821203 -0.520078860634 0.920068149111 -0.902828897211 -1.54848508693 -0.281861463876 0.276957288236 -0.341558772379 0.752952256404 1.62346150194 -1.72976254411 0.625150166427 3.06834809971 0.0478312546625 -0.592390123588 -1.97940153295 3.67467813004 -0.87329789679 -1.99513002031 -1.20216622095 -1.13757941473 -1.54284551581 -0.555880601106 0.740818841111 -0.975422135795 0.169514137584 1.56134784063 -2.78545982715 0.581067358897 0.08583812192 2.62149659876 0.123980107703 0.00166832393886 -0.481386737574 -0.320593011135 -0.968712170242 -0.382394741675 -0.718917912185 0.0434335379605 1.85738946666 -1.43473278643 -0.574410524244 -1.68905944746 -1.23710752075 2.11129519476 -1.46710031344 -1.84817881648 -0.329890465275 -0.453979945211 0.271301188488 -0.228528990299 0.835168374412 -0.693000573953 -0.145355563017 -1.92809580544 -1.26436826146 -0.589954509643 -0.845819483565 -1.70064234712 2.76328914625 2.03009446499 0.335271909191 -0.0178462083337 -0.723889594983 2.60834392821 1.92904545072 -0.755872185682 -2.82031118913 1.04020416237 -1.38998099648 -0.854063259662 -0.500116087713 -0.819476146798 0.413166064321 -4.98921166104
phillip.platter@enron.com 2.02442427298 -1.01724563993 0.542634389 -1.19649279158 -1.89887860243 0.69003093069 -0.946745011563 -2.99886325117 -1.3609245611 -2.30493840789 -0.377378402899 -0.186405483556 1.04619837031 1.06656923161 0.405713562374 -0.28179882416 -0.909385327018 1.77630471161 -0.0860094433048 0.100554910455 0.870547210059 -1.81322531075 2.42673939042 -1.77445985608 -0.105653957203 1.24435936099 -0.119110648469 1.33243688304 0.936308087375 -2.84290049917 0.145663537586 0.221348233892 -0.850538901702 0.701590732639 2.05669916181 -0.0887915728229 0.348602319742 0.0412552336855 -0.829746685285 -2.32725437717 -1.3001622924 2.66166599002 0.0872767259351 -0.180315849941 -0.490639263811 0.621932079227 -0.601623813812 -1.05218342579 0.241619525139 0.659183424564 -0.92690108532 1.50350974238 -0.125660263454 0.0400090013351 -0.831808956271 2.66185719212 -0.581916240067 0.0704059218644 0.969086772799 0.33905587733 -2.31091921934 -2.93307225602 -1.74921927258 2.48825290878 1.34965947915 -2.01151351934 -0.488978103489 -0.97014163308 -1.42120964277 1.6866168019 -0.918843488831 -1.76125465617 1.96024871246 1.14632806775 1.65931985127 -2.63597526216 0.434702484689 -0.63665144237 -1.92368959435 0.369850402861 -2.49561774309 -0.334262270347 -0.18102286433 -0.670837769358 2.16146087913 2.0176836367 -0.471914680846 1.44405549826 -1.05160245678 1.9226383751 0.0173317251337 0.819582911824 -1.41828202465 1.39742107924 -1.0505192077 -1.4492506872 0.59290407184 -2.08215930954 -0.136106471916 -3.54992497493
sean.crandall@enron.com 1.1829940842 -2.10808489403 1.69750599971 -1.01816714019 1.27985316236 -0.146506090003 -0.107791736699 -1.34424752463 -1.10905846338 -1.73641726417 0.720062582052 0.299896013393 1.42196513899 -0.305428864256 -0.187077254347 1.79855634762 0.198980773878 0.257423022458 1.69551389675 1.18925236479 0.389587857317 -1.801255809 2.48715345356 -0.526983286289 -0.826104667958 0.771308478865 -1.24997108607 0.891548248617 -1.29250747158 -1.8558885634 1.05814655708 -0.732555406104 1.36811737214 1.11530652652 1.80636996937 -1.00130380945 0.606073295768 0.96084139657 -2.10903846762 -2.84425836795 -1.05238359485 1.11929331647 -0.445553758507 -0.823432813932 -0.0073269892798 0.457606628421 -1.31259646789 -0.455408879671 2.0867787229 -0.191586045625 -0.82567659434 1.88541629578 -2.74638510272 -0.508908670969 -0.223710735876 1.85225597904 0.3739960491 0.506622090105 0.76162191641 -0.0946043671857 -2.62236931655 -0.270133557857 0.174911968585 1.78879405674 0.776253558287 -2.99047367268 -1.2765707053 -0.542375505601 -0.648017718841 3.00037954831 -0.107233835931 -2.60676552535 -0.918313048087 -0.262138141994 1.81792998724 -1.74600265703 2.16464176631 -0.359074257358 -1.36826711005 -1.10175301691 0.589934545523 0.575200215318 -0.237750213122 -0.551202943541 0.847527989529 1.60264485693 0.16069003768 1.82316147998 -0.299170584163 0.346746904362 0.477342561215 -0.671837489667 -0.364255211935 -0.39954112107 -2.21985368083 -0.0158150264359 0.257690319964 -0.988445030908 0.230383367487 -3.97432792451
m..driscoll@enron.com -0.148461283147 -2.28063229559 0.441883018382 -0.89957735059 2.79208702295 -2.3419760524 0.411431576667 0.978359080852 -2.85962178314 0.312580446354 0.283228428925 -1.52017897297 1.31162510633 -1.07190999536 0.853972591352 3.63714499702 1.87024946153 -0.917389772164 2.64837747512 1.08139260028 -0.765398250367 0.273550510605 1.07174299792 -1.26522872205 -0.744959672191 0.783063414555 -1.18564694091 0.274751477893 -2.39204312317 0.785920086134 -0.0860110273383 -0.460060211588 0.525039476916 -0.348240330423 2.11926025767 -1.11248707854 0.0623956275895 2.59428152536 -1.57101021154 -3.08338086603 -0.170405708238 2.30149165291 -0.786619771058 -0.226850849073 2.26157865564 0.543115798993 -2.69868153142 -1.60109074881 0.577547263709 -1.30317512335 1.53535851836 2.21661093227 -2.64944720336 0.690790386564 0.294245361848 0.531164215312 1.00441110924 0.395608230291 0.637724502385 0.666322730529 -1.84915706426 1.18618157624 1.34515591112 -0.563874371802 -1.40477990361 -1.45979487254 -1.68016851016 0.338050132895 0.402864110973 2.73479703637 -0.962857139936 -1.07642301431 -2.13404859626 -1.09726129394 2.26521423007 -0.866082856376 0.104367093722 -0.199229156197 -0.933660227802 -1.99442510716 -1.53681322628 0.121281617438 0.577594366322 -1.83750936212 0.76413982753 1.81652914321 -0.699213107786 0.280371822117 0.825820146467 0.141224506325 2.48056810833 -0.605088767905 0.544701680511 0.833589136732 -2.73193382953 0.368335566813 -2.49290648473 -0.00450729889164 -0.420780792573 -5.30022705223
holden.salisbury@enron.com 0.440539506609 -0.573519947935 -0.0842709590216 1.96749668182 -1.82361810382 2.75425178857 -0.812847688636 -2.02190123003 0.758021939509 -1.39800789087 -1.10676639881 -0.177836251985 0.110660766324 0.498687317362 0.73361456048 -0.574087421324 -1.0699530303 0.115797807469 -1.01424370876 1.70938436088 0.310810966475 -0.553889548272 1.81131120784 -1.61394012508 0.622737544996 -0.126248020604 -0.665554761982 0.0529517958293 -1.13400848773 -0.914570299154 -0.414447217253 0.440937032605 -1.41706974108 -0.226226139357 1.31414312998 0.0456443008261 -0.0512278385643 -0.709191882218 2.26023556548 0.67841739063 -0.00453233578248 2.46868597301 0.606968966301 -0.632930482153 -1.53150031305 0.956357684193 0.261561885662 0.390427843294 -0.973952749658 1.90719856078 -0.444703668658 1.90967827363 2.83610958598 -0.978952734145 -1.15725386515 2.62130208029 0.273042401169 -0.559715091108 0.387591912906 1.26663199559 -1.16479904641 -1.79761036501 -1.37453275888 1.41975464361 1.26162276487 -2.39204571322 -0.379117742554 -1.90332112998 -0.375680493011 -0.207764827682 -1.14450266777 0.430209062551 2.32003935324 1.45726970156 0.0716198097491 -0.976893063521 1.83836282492 1.82645011743 -2.07403470046 1.83252893234 -2.08383691812 1.04766416732 1.11961005349 -0.313056537459 1.69559967215 0.0965331897866 -0.0328154493142 1.51329609713 -0.503257350819 1.44144825343 2.2944979941 -1.0581347149 -0.0642852106852 0.569778400023 -0.184016012888 -0.245041017879 -1.59889438991 -0.143514701774 -0.434166512249 -2.55093083095
jesse.bryson@enron.com -0.46085715818 -1.57521619095 1.83375484277 -0.753312726073 1.32417356358 -1.57481537173 0.692881462392 1.67540505485 0.255344231325 1.30936195254 1.98086571815 0.396896292075 0.787878425475 -1.55244148839 -0.509694317281 3.87128015511 -0.388378858907 0.856107475191 1.29283796716 0.533757522616 -0.698239997239 0.646761277 0.143577571332 -0.346169764852 -0.816957463751 1.40743017979 -0.246320486291 0.581214318986 -3.06550245835 1.71613466608 1.78938325966 0.067990088259 -0.298530107775 0.193018683431 0.746196252591 -0.346954118269 -0.092805563596 1.91204034313 -0.303151693862 -1.87947140323 -0.312872266728 -0.230054225896 -0.219524848251 0.5332418597 0.981248033489 0.25882613598 -2.48254311734 -1.95692300707 1.61184779267 -0.597324682077 1.38924329643 0.0558796176862 -1.6161614281 2.482345561 0.672613494055 0.885736494341 2.16171599326 -0.0189232182323 -0.782798664508 1.1861867695 0.0845808353919 0.822380354864 0.780909500556 0.474383793748 -3.21500115852 -0.881623136098 -1.58870987276 1.93042503132 0.800963887064 2.55140136906 -1.46403229272 -0.724811931328 -1.87612800307 -0.851991743951 1.07967546659 -0.983176256619 0.377248177286 1.29036559621 -2.02167993613 0.901375061381 0.830268731843 1.91948312802 -0.199293832357 -1.83898644499 -0.279145395572 0.942136158959 -0.380673291856 -1.11365771139 -0.0411275119774 -0.0247322787941 1.35248017275 -0.411559299109 3.64050243859 -0.867223771358 -1.69319809927 -1.45765220486 -2.19659301797 -1.23201257304 -1.69944188135 -2.55132945296
cara.semperger@enron.com 1.3125384496 0.434775636434 0.128658072155 0.802865058125 0.538663190592 2.20493905505 0.802693899697 -2.6051900333 1.05655122293 -0.812572637785 -0.973028831317 -0.53009662402 0.851172029559 0.35304679348 1.44522485659 0.0782724873898 -0.384976869598 -0.272582671904 0.0108696509966 -0.128542741713 -0.765350106342 -0.358227961983 -0.243861256019 -1.3601836777 -0.470200407282 0.876845958791 -0.144500606677 1.17050601494 -0.184766027768 -1.18665567437 0.295138786693 -0.224181285714 -1.18917498938 0.425983430927 0.463107663281 -0.0606954280025 -0.0154013922138 0.153804095155 0.807818825035 0.434833166633 -0.23130884249 2.07672886255 -0.13328072887 -1.23798121505 -0.553638483427 0.574404754937 -0.883510973085 -1.17923671656 -0.753319952016 -0.26857512909 -0.0190813248889 0.819502529233 0.16734803425 -1.91798312182 0.0878362956577 2.40896853061 -0.902480175998 -0.438200892939 0.858989894114 -0.217905967979 0.426562410645 -0.934223254597 -1.42385348604 1.54904913987 0.22800885293 -0.697993928249 0.753046663158 -0.492019678591 -1.4433466528 -1.42503711167 -0.953415714963 -0.72828589637 1.84522388095 -0.300361593829 0.785931085281 0.531636375699 1.22417637775 -0.501725037018 -1.91749052007 -0.758451431232 -0.321301625763 -0.530236551027 0.655046887621 -0.891613315402 1.31340010533 0.909880089358 2.29287600034 2.04942569228 -0.585129463682 0.953168798284 2.04800738578 -1.28474185516 -0.906934504361 -0.267622478637 1.05113131761 -1.15111306799 0.581702141939 -2.4333629173 -0.0640286763425 -0.83154680897
h..foster@enron.com 1.65640763148 -1.23286698407 1.00197463117 -1.62041974668 0.280879130191 -0.616024997504 0.384426904856 -1.71918192783 0.23716690219 -3.05175845494 -0.478344871472 0.595921230562 -0.12346925707 -0.461027375976 -0.0278382092105 0.940476053808 -0.580564397155 -0.0831618900728 0.868746331143 -0.76278344444 0.144505636688 -2.64924933296 2.00235192857 -1.51472689597 -1.2116178605 2.34519643422 0.374313873126 1.10973563644 -0.0365649020439 -1.02500645087 0.126323008836 -0.803709169778 0.0494492089286 -0.422790714926 -0.274562512208 0.214049453202 -0.723569230144 0.84345055782 -0.178024003663 -3.16527803019 -0.955619955766 0.436858029289 0.518359213553 0.0619645775993 -0.825193259592 -0.68489734833 -1.16233705774 0.157713518077 0.14173031816 0.494343407855 0.037180781821 0.548508657551 -2.11965913879 0.8875405792 -0.305577904149 2.22388390596 0.670815590254 -0.668299113903 -0.596755780673 -0.314909146392 -1.3997433569 -1.54408581928 -1.10843988583 1.23756196799 0.721543070069 -1.5702473604 -1.571054829 0.0365093048014 -0.4238697344 1.59071904751 -1.03073211386 -1.62424729969 -0.323246452239 -0.452818556848 3.02350261384 -3.35397016756 0.606886628574 0.0445701322958 -0.251647615843 0.25837689038 -0.395441665301 0.0740751267785 -0.499588580031 -0.558842262421 -0.80691466224 1.29418739299 1.45529813962 0.401730218643 0.220076054292 -0.136554868819 0.743426106318 -2.92940017727 -1.12081185602 0.403562135652 -1.76169037698 0.00449666115085 0.678221113972 -1.03054578855 0.828605193471 -2.02384713152
kate.symes@enron.com 0.330402336572 -0.248139873213 0.432161464684 1.61464385027 -0.682304711329 1.60183921185 2.22523791166 -2.05354887947 2.24875802813 -1.38843805216 -0.91467389026 -1.24700579858 0.689445021109 -0.00931606890223 0.904400821174 -1.31979896848 -0.278659218342 -1.44550543718 0.786872418691 0.266083975035 0.00223511600524 0.090887273359 0.618115065802 -0.0512299232532 0.170271207992 2.03945270806 1.18574642325 0.893521039338 -0.948982513847 -0.00536729360376 0.453957972336 0.550866020906 0.279556604034 0.241066106971 0.755673130355 1.4324607289 0.484476013673 0.098755363067 0.875654607319 0.489499207363 -1.03010761016 1.7668573133 1.21007571178 -0.953329634046 -2.40812609844 -0.895954080759 1.21474975439 0.566034081485 -1.60162341245 -0.0443430296528 0.182056687371 1.29985678177 0.620731452661 -2.84821757958 -0.242676300613 1.53750246133 -1.02016965612 -1.38836370242 -1.27921795924 0.441738686242 0.737922453201 0.465289999744 -2.78674581237 1.01112763551 0.383261826373 -0.367771026781 0.859455278626 -0.982681471921 -0.452470427344 -0.937200201196 -1.36160602838 -0.4937655471 0.585745111514 -0.212342047957 -0.381660224274 -0.930354287845 2.31213616777 -0.472062846109 0.247946167942 -0.896009593497 0.969967830511 -0.335592472356 1.14946153481 -0.441055445665 -0.0407300213995 0.806906836706 0.999631768911 2.29205375997 0.78856363424 1.12542355172 1.98320816333 -1.920305861 -2.23591528533 -0.243838184692 0.600678228613 0.728401541514 -0.172433378908 -0.143662879033 -0.569071330188 -0.100874949017
stewart.rosman@enron.com 1.20138939816 -0.698619988377 1.24712660629 -2.85942179997 1.31191324572 -0.27458086889 1.53598287086 -2.62038739679 -0.544800123735 -1.98403401657 0.678123765412 0.736822011279 -0.673340610909 -0.776895896324 -0.871636004376 0.81485270498 0.256391366466 1.49880617492 -0.0581800752739 -0.663521415455 0.258023267377 -1.24845361277 -0.145530556341 -1.28752073491 -1.60784571198 2.53389297775 0.0962875646644 2.3986137975 0.174691058121 -0.139982726701 0.525874942567 -0.551234625426 -0.796997614338 0.725426451486 1.68579665708 0.618340841456 -0.821721979248 0.698290108434 -0.839640822412 -2.61832721298 -0.146821968375 0.861660092199 0.349825808709 -0.331783596485 0.816037046364 1.23579994433 -0.81258949514 -0.141463604079 0.661869895847 0.351309670765 0.445875905348 -0.16002349977 -1.12694933418 -0.813767614825 -0.610633290588 1.55569375453 0.269401103087 0.0736181998584 -0.0724991291311 -0.41147976112 -2.02435137315 -2.26963807843 -1.34113478491 2.06614750446 -1.41289535506 -2.06344022617 -0.890616974931 -0.385851362146 -0.575955930422 0.922415155986 -0.220090038851 -1.35126259243 0.685792771285 -0.414374573557 3.13273238417 -1.55343211136 -0.0186348587636 0.99821281954 -2.16778812448 0.277654278731 -0.70148827863 -0.150322617036 0.29076919615 -1.0317370852 0.449367972546 0.642102159078 2.185107085 0.912499599629 -0.457406199169 -0.272524365619 1.1907700189 -1.01985427655 0.425593300126 -0.0791807612453 0.185887402517 -2.12350743621 0.896027175601 -2.14164094602 0.331473807021 -1.76487940431
leaf.harasin@enron.com -0.151784667514 -0.89281522414 0.134318450867 2.22268426396 0.259971836257 1.22554047076 -1.33745767198 -0.697363958084 0.537557965267 -1.46106259746 0.102558643584 -0.747072709837 -0.482471693102 -0.0172752881955 0.237548783641 -0.306004721543 0.0186786643535 -0.875318594781 0.0160431479007 1.20624888327 -0.0770320119898 -0.0431587597984 0.397362991046 -1.80174105253 -0.188522418426 0.305494753479 -0.616576723137 -0.401687664562 -2.59035538801 0.854000015495 -0.364897017343 0.871519930049 -0.469433946484 -1.29158486464 0.57199360308 -0.184220960114 -0.0209192405271 -0.661200830093 1.66040385799 -1.03877257664 0.914964205497 1.72876478708 1.12109487101 -0.0248561441492 -1.51361448752 1.38852870952 -0.244088342459 0.811673104765 -1.72218965666 1.64374366012 1.04085618022 1.79116864259 2.65081041134 -0.142132069802 -1.37128472385 1.32442377108 2.27981779465 -0.396941629776 0.980269905821 1.10175444232 -0.449191449565 0.215227738482 -0.515696602262 0.554971678912 0.463547116068 -1.74213307152 -0.815354207702 -0.246107108436 0.765590672055 -0.445648339055 -0.836141973297 1.60618512171 0.925469904347 -0.0961183925101 1.0529091136 -1.17749562034 1.5200343878 1.26437702647 -1.48384296992 0.785029592425 -2.38551283441 1.61161975952 1.61834506592 0.249193176435 -0.472076219504 -0.378373867357 -0.200241215562 1.16928746339 -0.087949525265 0.437099079527 2.41903863575 -2.10007067888 1.64461848801 0.877372287182 -0.152950274256 1.63280106056 -3.01390515909 1.62118486064 0.11673461708 -1.55735399274
paul.choi@enron.com 0.674242691123 -1.65977691346 0.990650129341 -2.34998798302 0.241490797484 -1.28347461127 0.936136416206 -1.53897743711 0.0396435215945 -1.94070245703 0.068927444205 1.31845511228 -0.186384503404 -1.30893242857 -0.685152124719 0.898500930242 -0.752660247649 0.902700538858 0.2978143261 -0.867071906925 0.654216260159 -1.57288967045 1.70455868055 -1.03246530315 -1.02934454001 2.09540269273 0.0358325051169 1.53522845254 -0.0432673450641 -0.773056089128 0.487688837568 -0.434741417105 0.0378682218517 0.755414954122 1.11584615755 0.367541860588 -0.258227893214 1.42259408209 -0.634859039137 -2.9238603908 -1.46814249215 0.866489576768 0.341322010806 -0.487461486908 0.185477324125 0.104933434269 -0.977873021575 -0.262529884701 1.11806223229 0.786345734544 -0.0703979740372 0.101631763209 -1.74881659618 0.889553719985 -0.400773357674 1.98430329196 1.00262811941 -0.356156633257 -0.693153689669 -0.434422415064 -1.88867429865 -1.70963477624 -1.18359593768 2.10644807257 -0.485447884065 -1.79281376207 -1.63384961263 -0.816299055713 -0.401804472455 1.92288406382 -0.616040904403 -1.60609350834 -0.0773659251642 -0.416227695991 2.60826021662 -2.32415425326 0.207362134495 1.21148709214 -1.2068370987 0.849463336246 -0.956241572107 0.498292030331 -0.107150933216 -0.372576834198 0.344193540268 1.14512582607 1.49183008701 0.636205735813 -0.0921205980568 0.222884753516 1.29264960941 -1.36406788358 -0.0367088721683 0.311085767941 -0.972876259597 -0.780405761136 0.398269782924 -1.55929164913 0.529256999233 -2.80205778489
lester.rawson@enron.com -0.107312390129 -1.42749932725 0.392024462616 1.96894020854 1.08272201779 2.04747923077 -1.00144267844 -0.899030579918 0.808148432617 -1.16425074402 -0.112273014314 -0.380072879863 -0.049676110808 -0.0718003776589 0.27895283925 0.943324477053 0.0844890286108 -0.657449977511 0.183699054326 2.11873292699 -0.185980988723 0.278270184017 1.03752910399 -0.804386716739 -0.0837939203629 0.507320800884 -1.06229508198 -0.0905100694666 -2.41212007055 -0.207681873706 0.116047381456 0.221785054805 -0.211760023489 -0.202605890781 1.10012066509 0.180280150249 -0.0341646533628 -0.424926092105 1.29951132184 -0.321003863492 0.457846321132 1.01050159873 0.833173820351 -0.627793451679 -0.618947622806 0.508473339811 -0.236176368882 0.541233928477 -0.0723373040247 1.08870790343 0.21615702987 1.93171480537 1.90068567435 -1.4459841553 -1.64824328024 1.47203963679 1.15827097593 0.224005033287 0.375160742199 0.93149732102 -0.861307297037 -0.240295998039 -0.535408554766 1.24255328044 0.32845336044 -2.53182180838 -0.528318430362 -0.590624826649 0.298328078504 0.774818111294 -0.438411925208 0.368980179695 0.412806075521 0.261862971943 0.752126381229 -0.423121755423 2.34317121399 1.38186692533 -1.12252428199 0.37071813737 -0.302095944485 1.75528619506 1.68817830755 -0.120642024135 0.565559921418 0.0382957947666 0.717077938562 2.09797551855 0.592280095828 0.426107226081 1.97519828323 -1.87446121231 1.40193640258 0.0858122331238 -1.19849671944 0.640600957867 -1.8112019105 0.002062549978 -0.367306642962 -1.79389531552
christian.yoder@enron.com -0.623853482235 -0.85498319403 -1.09440636901 -0.272768862244 1.28225957514 -1.54320092634 0.868349297781 -0.634974709818 -0.00312017726068 -0.0972203128662 -1.48598931348 -1.11470234082 0.882633284314 0.0875688029215 0.523182752911 0.689846425227 -0.102181159128 -1.37659101347 1.64576886294 -1.88006892589 0.249429354285 -0.644616370249 0.321614422034 -1.35715662636 1.09229973551 1.71374524131 -1.24922340139 1.75588769213 -0.12989266282 -1.31085478271 -0.91328646818 -1.29994066615 1.09271141351 -0.562612208652 0.609110620239 -0.342603391698 -0.221371971648 1.29766296916 -0.312142243 -1.65291423767 -0.709181623074 1.76119556013 0.375070695356 -1.67964221688 -0.850812933053 -0.943993830526 -1.41357280504 -0.0382826610368 0.198095968472 -1.76981414539 -0.0978157512605 0.410651450826 -2.27831127204 0.161407432745 0.968883936879 2.09087229739 0.353419006351 -0.191895322724 -0.102270914457 0.16115937091 0.910988820061 1.73136926493 -1.48585658743 -0.103279788054 1.10368231755 0.667578189735 0.206592765622 -0.448622224181 -0.416983871867 0.409267035359 -0.368903657408 -1.08923339626 -0.508959919972 -0.766686438229 1.26709266098 0.315206698679 0.626114346524 -1.54936331728 0.469827060626 -1.78395827742 -0.293297975604 -1.45633342847 -0.860092829892 -0.291189732981 0.961775254057 1.17947496996 2.3595551944 1.21977714662 -0.101979015765 1.1476505449 1.8955872152 -1.07284557186 -2.05804909871 0.651216556454 0.77710654158 1.01556078628 -0.33780785443 -0.937984219211 0.404472488774 -0.595902639612
john.malowney@enron.com 0.939834096265 -0.435917255921 -0.148555074511 0.68242957854 -1.61341402686 2.35528402839 -2.50165837768 -1.77465732332 0.968410805603 -2.13920220227 0.145809650986 0.4650998795 0.312877981278 0.368753527894 0.138002997383 -1.24408871481 -1.18866356799 0.917967023354 -1.78063580156 0.35041937193 -0.125179942344 -0.705884558282 1.02104664236 -0.741332070483 -0.873318857252 -0.545269763447 0.214163893111 0.0193616712114 0.299209363802 -3.15938400081 -0.0619716429043 -0.179790129713 -0.792147896252 1.00345914795 -0.150900830589 0.779235747737 1.17416956598 -0.836199612323 0.657113887268 0.33512814317 -0.608467052724 0.722054490477 0.0168547976025 -0.784343630685 -0.0281437922568 0.632938037921 0.371165134059 -0.416297221563 -0.555422674109 1.94026350828 -1.27158948784 1.18204967706 1.74585243164 -1.31262516188 0.0155031959733 0.575465017804 -0.335238926326 0.41163083718 1.12360147949 -0.407085335139 -0.488376414999 -2.04709645138 -1.4152192832 2.74790452515 0.44856908924 -1.53471807322 -0.243609316134 -1.42729528327 -1.52310865267 -0.322802519598 -0.12190235437 -0.431056843631 2.12780919654 1.07764724082 0.512414045342 -0.0885511097135 0.146522528275 0.763749295091 -1.98015767449 1.16095165655 -1.50132801352 0.993431847507 1.54645194711 1.04356554382 0.935638877028 0.216165383235 0.570423931414 2.0848430048 -0.497702373304 0.382885674576 0.66654085937 -0.127517265741 -0.242079487908 0.567822201981 0.584577582123 -0.358508082611 0.929659 -1.38890736251 -0.0408495723363 -0.978731877424
bert.meyers@enron.com -0.0466831498177 -1.18603117968 0.879137259475 2.01054544773 -0.334142586838 1.28394137516 -0.316478733431 -0.640064190802 1.51172043046 -1.10698123542 -0.00738970565465 -0.393830056393 1.15080444348 0.0741481270819 1.08591197681 0.419202202775 -0.743547566849 -1.63510794606 1.1699241585 1.85786752241 0.286054108367 0.870536687878 1.21892524146 -0.523235054309 -0.192581341097 1.1383540222 0.0317467433152 -1.4651597783 -2.40490005626 1.47761937262 1.08816896845 1.08798407179 0.361638573184 -0.87308767222 0.362566166506 0.890725996774 0.0277408154965 -0.512532967814 1.32548361602 -0.238034898513 -0.23169223754 1.30723621013 1.06870462983 0.140548195769 -1.09697628294 -0.76923338642 0.403415074649 -0.264213888419 -0.82224357676 0.152335227548 0.204457738824 2.30298771153 1.31050382051 -0.330630019561 -2.53703421799 1.75997349416 0.771676712352 0.0997635026216 0.018989229201 0.754278678448 -0.393193268195 -0.100036774002 0.0186111447459 1.28741327768 0.166191345415 -1.76279196361 0.168127510549 0.944747224651 0.704767787531 0.231494746426 -1.04125815761 1.19809996996 0.296070608362 -0.527630841132 0.0756909033673 -1.47834215218 2.97425496744 0.264533695054 -0.332196745123 0.439840492892 0.325163057783 1.67856251995 0.626117523456 0.500293282945 0.272754783063 0.913588859923 -0.395225162174 1.88517713867 1.03059073712 1.139505512 1.27360508868 -2.06607557977 0.5655407225 -0.379287427442 -1.78460214486 1.20049515439 -2.10161968498 0.57703242899 -0.707997530401 -1.12034861015
stanley.cocke@enron.com -0.777411048536 -1.40691225329 0.853193526532 -0.996469391614 0.935021435713 -1.59594302202 0.835146499509 1.07225867234 0.317880169167 0.396022928328 0.89226389589 0.431702805595 0.0726151579717 -1.83218878761 -0.772909060697 2.12782119416 -0.144424843186 -0.386845905565 0.650125971794 -0.286924589482 0.000692541491493 -0.0730783344868 0.535778997653 -0.590984111443 -0.488447804997 1.47455375347 -0.181545546599 0.516125788531 -1.42575743283 1.48550836778 0.340600290804 -0.519849834381 0.698884947728 -0.137687313321 0.610969192723 0.392824395426 -0.746379896422 1.34705461607 -0.027146179306 -1.68361182833 -0.527808874934 -0.251060132697 0.300433990362 0.238873323052 1.07668195648 -0.414630689461 -1.37218510823 -0.84284856001 1.19465324676 -0.287282609554 0.826990185162 0.225694555783 -1.52509216323 1.88491402823 0.429462646616 0.371326445621 1.42844501691 -0.0567769194514 -1.22731012083 0.735781740228 -0.276829677598 0.482054196951 0.125169866334 0.531491683603 -1.70151875228 -0.31879720371 -0.860745950781 1.05104915156 0.737755097961 1.92713398107 -0.750762587755 -0.527337593385 -1.75757312299 -0.769978959334 0.91053801223 -1.13425219444 0.280445673386 1.24522699007 -0.473078681179 1.07929280141 0.776598611587 1.01238025331 -0.429166961019 -1.03735672502 -0.86976200642 0.633167985425 0.0936695248747 -0.705504416991 0.874783834161 -0.240623497384 0.999506890915 -1.05205247629 1.48400034034 -0.551819004657 -1.33753412647 -0.203004703838 -1.71899475552 -0.271001820356 -0.908939266796 -1.81680378766
michael.etringer@enron.com 0.729356765518 -0.352817847067 0.0920837553148 1.01829303925 -0.952197490861 2.22105514711 -0.947569234263 -1.54804062197 1.06578310737 -0.918816882791 -0.242729522586 -0.387672747252 1.48859657596 0.858359909347 0.800704714801 -0.382989840059 -1.09029670577 0.429146163476 -0.866408222532 0.276853718073 -0.21624928177 -0.721265197739 0.947247923982 -0.354436291036 -0.365233863978 0.1709427247 0.0112045323727 0.553212592376 -0.124540394575 -3.0474712431 0.238277917574 -0.71647225248 -0.260604790658 1.12364636522 0.304813703314 0.336457701947 1.08554491023 -0.350188925793 0.592071658714 0.903934335529 -0.961681767153 1.26133343583 -0.327901433957 -1.14884447041 -0.443841646645 -0.0831257588958 -0.25092821783 -1.20336456254 0.0128233473281 0.290996965979 -1.12163925723 1.81748310993 0.359275040579 -1.71704056981 0.212727231257 1.37679038536 -1.20404006327 0.221698357971 0.634020136023 -0.0259802585525 0.0554042120681 -0.866329295757 -1.48496576988 2.22882415 0.684139307681 -1.16215490466 0.538998938542 -1.00777711001 -1.62269389833 -0.101929048327 -0.616430184492 -1.04871103207 1.53521701026 0.573606208835 -0.298657399595 0.275680574283 0.917653326342 -0.40231935666 -1.11115275823 -0.11364928156 -0.122236527643 0.0676106492405 0.954462850782 0.211463186405 1.57035407366 1.02911308922 0.959445249659 2.50924611281 -0.452732148363 1.28253610044 0.809994604312 -0.103072577261 -1.1096502981 0.137972892732 0.337214223192 -0.911501743935 1.05204671163 -1.97525963327 -0.4841670068 -0.838258413523
monika.causholli@enron.com 0.622609708878 -0.725943935824 0.903351386981 0.533995436537 -1.3947243391 0.0692337647085 -0.0013637213338 -1.17308385358 1.60815280399 -2.06609770883 0.0210124676175 0.257920221577 0.847387266022 0.114241570331 0.862318757882 -0.807490004294 -1.2990558064 -1.4647424375 1.12906439883 0.689447931741 0.706346117554 0.143850465408 1.45530685427 -0.885810587611 -0.123193952803 1.73260240281 0.851429764857 -1.37958019388 -0.931604228579 1.99020876989 0.924941801415 1.57894162398 0.444903463583 -1.31504100491 -0.366935500038 1.08845544965 -0.563772661345 -0.54584974028 0.982063325574 -0.950794330064 -0.631146649405 1.01373022577 1.32291869105 0.618083428585 -1.74567064931 -1.05765768008 0.826535705868 0.338229563719 -1.28566038398 0.474788780049 0.269667736532 1.52580235031 0.838974219383 0.944968406951 -2.83194508093 1.80774068845 0.909560024092 -0.132669859084 -0.323084913357 -0.0649211915906 -0.591124283519 -0.934755366005 -0.330179145714 1.43810061621 0.464792521966 -1.36308645915 0.230518073669 1.12461537228 0.69274926072 0.0428526164713 -1.06195180086 1.44043554208 0.432374970437 -1.04920677055 0.514800697633 -3.01703903404 2.47073528019 -0.175495692811 0.249884949962 1.01742093606 -0.126693706883 1.30549502458 -0.182039150666 0.916522518924 -0.346002090174 0.578889645376 -0.31195074386 0.876798322671 0.735372624847 1.14111395885 0.365237237416 -2.65093803244 -0.354420812541 -0.185069064411 -1.56848504019 1.63856249889 -1.51814177841 1.09826135971 -0.0822378904683 -0.545388632027
tracy.ngo@enron.com -0.666795597621 -0.200830231677 0.475362113129 0.258181357271 0.726839105896 0.673579926469 1.83025465564 -0.864567811537 2.21956602069 -0.839483536273 0.582259635961 -0.426256152054 -0.983976319111 -1.22248080425 -0.715191935875 -0.274413288105 0.512558354021 -0.402671410557 0.346271420222 -0.756719581502 0.154192417951 0.557895320083 -1.10535626889 0.189773953693 -0.346654577714 2.29384212232 0.94204126899 1.76340431025 -1.18746614034 1.00648270433 0.689426615501 0.49135098259 0.179163317786 0.261107828252 0.584899020823 1.51075447516 0.153907333617 -0.131869746147 0.516681523947 -0.404494054435 -0.285634385686 -0.378020101603 1.40979919194 -0.0897359016842 -1.82331466717 0.0858567871444 1.06290296373 0.740655542744 -0.935663560225 0.446134363166 1.12659708789 -0.763973528182 0.880867045158 -1.68858232658 0.723520949695 0.148649564911 0.765698961334 -1.74676650146 -1.53142418094 0.715835733839 1.48716465122 1.28690817595 -2.39805221865 0.566860009278 -1.45334585246 0.254513111537 0.147254015268 -0.585394655288 0.790611170989 -0.681336807647 -0.838715929566 -0.371500117487 -0.303137909386 -0.117422971816 0.332178539975 -0.768745035334 1.20045069115 0.997590668125 0.0280850696115 0.160526239415 0.907075422095 0.310753058169 1.18561374461 -0.25898844614 -1.65738016515 -0.587547550586 1.4460441916 1.09618431259 0.726621600628 -0.229101089935 2.01446484857 -1.63751880467 0.800404875416 -0.00777831638623 1.10087171744 0.529681260139 -0.815988829263 -0.341352983654 -0.660994353801 1.48637439665
fran.chang@enron.com -0.486292495366 -0.477913936848 0.4738872803 0.584228946418 0.223095167325 0.927635874564 2.04840442156 -0.967185910783 3.15377449723 -1.20638468238 0.0238298205651 -0.359660185746 -1.07030793724 -1.40428402054 -0.819098419767 -0.901054882954 -0.0655214592382 -1.03538928875 0.27572935895 -0.719070686057 0.0105267729919 0.410022587034 -0.587853647704 -0.000588812614757 -0.186963682437 2.65858854675 1.00548408991 2.05184854186 -1.18900501317 0.459439925888 0.309444036928 -0.139867960521 0.14011586292 0.178021510539 0.406491443144 2.17715968239 -0.201747544531 -0.0867318017935 1.12223695976 -0.11636590068 -0.595338794477 -0.383626996948 1.97643864591 -0.489090406917 -1.56360979522 -0.327693961933 1.1225045071 1.40403841142 -0.860675858831 0.75570525211 0.746572775422 -0.297957827236 1.13274982134 -1.9591459953 0.802299417001 0.833553185269 0.447036584314 -1.85203873488 -2.10338960229 1.03851161841 1.54773583835 0.970393544013 -3.17439014243 0.829068616394 -1.39045901735 0.261207658252 0.0641113294734 -0.96077622766 0.442735334028 -0.880346931665 -0.949702969208 -0.430639504229 -0.354617681137 -0.227184204735 0.441724169834 -0.659405101446 1.24590998979 1.48628407599 0.0823401947066 0.754399367981 1.21362948559 0.571747510054 1.45723945136 -0.229669746996 -1.66657076343 -0.718108394519 2.05721520929 1.40670327774 1.23725906354 -0.381312982062 2.63191893051 -2.3021040838 0.176597570146 -0.453298896067 1.24814171484 1.2033670906 -0.715722784503 -0.386912603262 -1.06344528849 1.06407830891
corry.bentley@enron.com 0.236151637598 -0.125564139575 -0.84777703431 -0.389980195845 -2.45062627149 1.13073173523 -1.89232590566 -1.07784904445 0.687140091812 -1.4944767103 -1.04799683526 -0.547540757041 0.805876115679 1.12725207691 0.675029413869 -1.55533583115 -2.05175477903 0.755685821286 -2.07938270791 0.883040771425 -0.915897614181 0.128616585862 1.02950304621 -0.42763537948 -0.264523238359 -0.328381348462 1.27314568443 -0.81073002322 1.32179773898 -1.80838003654 -0.69974331522 0.2383962548 -1.50355448768 -0.163481627 -0.8402367095 1.38946276634 0.738496206084 -0.32982062292 1.08604579733 1.80884162538 -0.557013413644 1.05178984335 0.0241063638269 -0.255279795272 1.17226369204 -0.932948928838 0.47911799444 -0.507190651794 -1.17577717855 1.6270495515 -1.2915089312 1.71093485714 2.50207018019 -1.00321935094 -0.645458855333 0.43799535859 -1.26868699537 0.825796484999 0.250730769835 -0.204980378039 -0.344855908533 -3.08452669311 -1.10446280133 1.87255557895 -0.0112938386583 -1.34155296253 0.250322913613 -1.51978750038 -1.12074632881 -0.351183133336 -0.636465391924 0.71810751019 2.68694867984 1.21784657713 0.0137893349494 -0.473656270428 -0.879267102962 0.00195867848081 -0.577658371222 1.15444535911 -1.50808528093 -0.363989369171 1.51748768679 0.896710651567 2.07750031518 0.205194468786 0.450829568682 0.795127492139 0.299576337376 1.07285043064 0.459536489305 -0.50135902404 -1.74337976641 1.53459875485 -0.111831206821 -0.508538286792 0.798082476443 -0.610288942096 -0.80124246415 -0.295627360111
c..hall@enron.com 0.0753905505897 -0.88442943897 -0.20266594475 -1.23640321027 1.25898482741 -0.808209153286 -0.0254334318385 0.208825481728 -0.914020294009 -0.687347610101 1.02857840319 -0.337515679781 0.50462886878 -0.41262827624 -1.12477707162 0.411344693032 0.0635058633951 0.355660925049 0.948878491124 -1.33714287981 0.322015300287 -1.05908367014 -0.854317916124 -1.08265413591 -1.10071720708 0.828825871053 -0.531412808895 1.54056689049 -0.556076483437 -0.917154103266 0.0965990056039 -1.93716829152 1.4132548118 0.264391394677 -0.431968457668 0.150361134204 0.473507326251 0.741909550794 -0.66214599659 -2.04364797709 -0.345069022983 0.0815251809811 0.0511197033172 0.164755242833 0.551214667588 -0.322474476738 -0.732490503862 -0.997515824724 0.738671483917 -0.835136850742 -0.0756022956379 -0.320046269489 -2.37118691265 -0.0779040961182 2.48233507531 0.461277968959 0.737839696569 1.00809817794 0.795744692833 -0.127585385836 0.252674457066 1.51751438797 0.1037053255 0.68439419639 -1.18274240165 1.31971151746 -0.442173032133 -0.0167194869 -0.0418570412759 0.223358758267 0.125856521925 -0.807957713698 -1.15269250904 -0.128259718966 2.3299046584 0.0233677450887 -1.37188868045 -1.1368798278 -0.604190877377 -0.714902064986 -0.172789146528 -1.05368441334 -1.28580743288 0.299575949661 -0.48965056337 0.502981033988 0.727039894142 1.37420199317 -0.96194397273 -0.218559793465 0.526217055626 0.293528480946 0.405023342642 0.33664940671 0.609909873617 -0.0252316078445 0.136227336441 -1.06286742721 0.00731767359694 0.730530976304
dana.davis@enron.com -1.22587891988 -0.812454824451 -1.34550080194 0.130467395348 1.11578675057 -2.19431117494 0.749638130636 -0.539457795085 0.112325073546 1.02284070986 -2.016720707 -1.38124981446 1.04875278029 0.218757251795 0.86963365381 0.494258839608 -0.405490432158 -1.45655379537 1.56162950011 -2.09156525345 -0.389146043337 0.0946285840355 -0.109365637153 -1.39671989084 1.67178891051 1.6311004424 -1.35792408553 1.59276401432 -0.0622418449842 -1.00549028866 -1.23728207779 -0.764284148248 0.384211279515 -0.714741988247 0.824065103867 -0.842715961177 0.0593862788452 1.9699039307 -0.386721200619 -1.23830814941 -1.07279849429 2.55941251535 0.126434711867 -2.24348118411 -1.03468495507 -0.833832010882 -2.02387862929 -0.174450321773 -0.0941700140026 -2.01935110338 -0.261866181826 0.301073232098 -1.93276994181 0.574030781473 0.787386792789 2.53703307807 0.648963448023 -0.268075109403 -0.423710174243 0.300276485619 1.42118524595 1.82036488569 -1.73864976131 -0.192340384904 0.763611188018 0.778088308121 0.203238457585 -0.224248035399 -0.914814041529 0.25602441663 -0.59733008489 -0.791162372059 0.367515345968 -0.456772738207 0.627225294421 1.09384279361 0.585196500061 -1.93037050533 -0.186745635854 -2.17643198174 -0.517059626579 -1.74414601063 -0.392252073223 -0.44221045735 1.89678949043 1.67293870365 2.50635121111 0.615875051387 -0.703870482533 1.26332414347 2.19809085503 -0.70093665446 -1.98489444449 0.803108730476 1.6297613212 0.376220506938 -0.558455910435 -0.902605442862 0.209353061229 -0.818805688149
leslie.reeves@enron.com -0.0171956969047 -0.524115856847 -0.726293108432 1.20871158394 0.818271253335 0.411894533516 0.0929095752105 -2.04562401089 0.727016787089 0.35512727404 -1.8890476533 -0.845328772679 0.848963284796 0.293844775052 0.792025169754 0.232991400648 -0.632009900301 -0.644051323456 0.387695083256 -1.24034009952 -0.32323687626 -0.571876817061 -0.0932380032878 -1.49805149045 0.932593412301 1.22532431072 -1.75517357124 1.7595697498 -0.0859888244309 -2.6014257695 -0.940965331015 -0.948526194364 -0.487263933827 0.0885839460356 0.709047009696 -1.01896152047 0.199335444713 0.818429025437 0.367349442971 -0.548983692502 -0.987904120466 2.88886650858 0.0348527556283 -2.60709875009 -1.40681309798 0.00199056642438 -2.26679798458 -0.335652985946 -0.014848876619 -1.18368612297 -0.985369336732 0.684088459027 -0.619803885126 -0.664841341948 0.136970854503 3.62834520352 0.358544039802 -0.141849778769 0.341294545839 -0.0534420264145 0.999241076013 0.51820391705 -1.99688248912 1.34871793268 1.28779841513 -0.166196070678 0.247673504444 -0.716052171144 -1.95780603585 -0.325630449802 -0.420308946516 -0.663666011605 1.97135371896 0.0119737497642 0.816367367244 1.46915398373 1.18147250149 -1.53895282901 -1.4081029418 -1.71737454152 -0.658931669076 -1.50504023019 0.0536951298801 0.0532206599734 2.59492718372 1.62027413462 3.22186556582 1.87795645526 -1.4429489288 1.02084577755 1.95318827921 -0.762407153575 -1.15727261228 0.148485870869 1.98628773492 -0.443196093365 0.446001375293 -2.07054565219 0.74512359206 -0.668201267177
d..baughman@enron.com 2.09979451839 -1.04950145364 0.526276679311 -0.137777489591 -1.41547813261 -1.0097271543 -1.35064994227 -0.657927843516 -0.307740265639 -0.523985443428 -1.96590533237 0.185446890794 1.12895037524 0.399099855562 1.3415978688 0.59644738635 -1.70041972375 -0.0517145745553 0.872413038428 0.569528540813 -1.3016156999 -1.9400734637 2.45719915311 -0.968777032946 0.201834307887 -0.968641596954 -0.283012425857 -0.516062587559 0.685428683398 -1.65549756292 -0.393515833592 0.40280789784 -1.29517565196 -0.264087175482 -0.429342100711 -2.09513848023 0.471410586197 1.97650796828 -0.594760685418 -0.631260764526 -1.55544836472 2.19193222948 -0.70064662076 -1.14216959721 0.45357796161 -0.632131512724 -2.24708422764 -0.74307837274 0.693497418992 -0.0247884780875 -1.61527185924 0.692855224952 -1.39500506906 2.25578587395 0.274574847235 3.27393044179 0.0428879664929 0.191788320203 0.151156786081 -0.639797050684 -1.40738068681 -2.09839995745 1.06974466275 0.619165965305 1.25260880262 -1.03802701625 -1.53593174009 -0.350304777185 -1.94676198948 1.33199532907 -0.634689096708 -0.854566939548 1.31949375678 0.158801044201 0.934840163189 -0.583360680095 -0.31658117422 -1.45813443993 -1.53602351689 -0.45974697019 -1.44080677245 -0.477783905351 -1.20723670326 -0.33533493113 1.96156235687 1.58263897478 -0.672226909774 -1.13007840824 -1.19851365618 -0.0640980746294 -0.476820181613 -0.123393207013 -1.83068426561 0.0640405476627 -1.28064843522 -0.527628851334 0.610491469277 -0.645556282428 0.402606326508 -4.01217389706
kayne.coulter@enron.com 1.96103489815 -1.04800328985 0.674806790909 -0.0219677472275 -1.30383008956 -0.8250028251 -1.52860927402 -0.173423601694 -0.403222037039 0.135126882135 -1.25928047953 0.257244261207 1.62628770899 0.170457133773 1.18101428893 0.620347932905 -1.61010541572 0.234737480737 0.983883363126 0.727390424705 -1.53824974049 -1.47925915876 1.96739801291 -0.33464068237 -0.108326178941 -1.64535243158 -0.289632535162 -0.739303626941 0.449646355371 -1.7860991681 0.110828361629 0.383836365176 -1.04650365679 0.367434506314 -0.433042245674 -2.11680755573 1.15384208253 1.98430740662 -1.2781137972 -0.179246318494 -1.75517388035 1.76315028503 -1.18382129211 -1.1969843128 0.961548019287 -0.401405792975 -2.2931809215 -1.40255547637 1.0844322302 -0.282630333311 -1.95145460505 0.622132145419 -1.74964848262 1.84527610481 1.00690476206 2.64110461926 -0.191000053504 0.580179440026 0.468234098124 -0.790484123745 -1.19403104377 -1.56187793705 1.59994918264 0.932748683111 0.565069281927 -0.774891924022 -1.38622743946 -0.15736620626 -2.10351694899 1.2045782588 -0.326050919735 -1.16379003373 1.25832033084 0.348791120807 0.418429727495 0.304052627669 -0.425315747059 -1.85201609803 -2.02872530774 -0.832387672561 -0.642410957374 -0.408706378561 -1.12239360623 -0.202636990342 2.03099395914 1.66387122885 -1.14223042944 -0.860896625881 -1.45144801797 -0.397951489448 -0.918301526512 0.953014178146 -1.32904085232 -0.448783373032 -0.891950510129 -0.844283831185 1.00022170338 -0.898569216235 0.0967353322715 -3.6648610082
juan.hernandez@enron.com -2.85106445214 -0.031315039783 -0.170975434914 0.997876480057 0.950095419827 0.104388605875 -2.87392958104 0.657424491728 0.687362941245 2.08106011487 0.299666387497 -0.467948977712 0.59961750747 0.917231419359 -0.409929017589 0.434532596548 0.123087927912 -0.432309710624 -0.573090038018 0.645820102679 -0.983155821612 1.67407567674 -1.83779833859 -0.0979031514196 1.26100239928 -1.19865795108 -0.754811641987 0.0921767348421 -0.545629378175 0.178141394631 -0.973802693878 -0.553201408949 -0.423178233616 0.42051780869 0.630946881188 -0.748635997999 0.78744419233 0.216449661386 0.39021034113 1.79162491645 0.653371363369 0.577485420257 0.227946432302 -0.825413226025 0.623214580344 0.558173563924 0.58388591277 -0.035917530667 0.558936132581 -0.90302374487 -1.01063444126 0.132385445306 1.34219306138 -0.726326750797 0.347518672387 -0.349182794863 0.887457163758 0.738518445073 0.736662533993 1.49140262349 1.98760296946 1.94887260347 -0.152109742101 -0.620876001331 -2.53536846062 0.329442590476 0.258082824157 0.899268131155 -0.259054704947 0.743513281645 0.111978719679 0.206592168825 1.043616297 1.75288482903 -1.55288162573 3.26837642452 0.622655694278 0.118808349998 -0.982727144283 -0.480332769355 0.0689986576163 0.425998108853 1.41975516852 0.248810859531 1.15165672749 0.0720116846601 0.315784316472 -0.0226441502094 -1.17883202295 -1.01266705532 0.458857817501 1.88099296987 1.81730324712 0.149442168496 0.815768411732 -1.38479975771 -1.32137059074 -0.564876628562 -2.4112510276 0.397204401022
rika.imai@enron.com -1.84438642389 -0.108339069359 0.0372757365454 1.5956432894 0.814142654548 0.464020168341 -2.6352459248 0.585100632534 0.438955914083 1.85590703607 -0.0204592961125 -0.895833726442 0.590904546015 0.626035052775 -0.459587508316 0.678765510819 -0.0805729524599 -0.315921567946 -0.708092822363 1.17736989325 -0.904082952088 1.1338169178 -1.65578122005 -0.0249249822252 1.11847822273 -1.71009650991 -1.29800099654 0.119651612228 -1.1110684032 0.735812196991 -1.03695794969 -0.5246109691 -1.19124264012 -0.174824077022 0.229453846008 -1.62916198601 1.05262200753 0.275996636712 0.602794170167 1.88949267093 0.906557090511 1.50685025057 0.117810981184 -1.07644639417 0.485825869876 0.487782614506 -0.513621849496 0.212776438838 0.0416656849179 -0.678483912866 -1.29947600593 0.23341349147 1.77695256992 -0.620306753616 0.278956022303 0.764226867234 1.13797625759 0.896108693468 0.469083683274 1.27187626905 1.023921615 1.55331444128 0.83498357663 -0.629785806729 -2.00052683566 0.220875036397 -0.184584890002 0.429005573454 -0.213497345027 0.30752916098 0.313159618487 0.957927130619 1.61489188 1.18658644458 -0.952252043869 3.0032963454 0.25283568412 -0.158838805411 -1.20892768127 -0.579789589387 -0.556139813639 -0.26200332266 0.774818792052 0.686123235402 1.66879130492 -0.300240636264 0.00388042384646 0.0595547170787 -1.6675231224 -1.49377581541 0.183896076181 1.762524773 1.78768666047 -0.633029594832 0.847671797437 -1.10405014562 -1.61079037501 0.0745245769504 -1.84800404075 0.306438895448
lloyd.will@enron.com -1.32296413678 0.159450870641 0.343408792131 -0.239420356934 0.645158455424 0.0088094311715 1.18186409661 -0.559302260045 2.22162889066 -0.18529337793 1.29495560785 -0.651282904 -0.386490455123 -0.905339753487 -0.839996358119 -0.559563540247 0.725234769524 -0.529139801021 0.336164605936 -1.03331827637 0.035502061786 1.62609712784 -2.5180514616 1.2123093023 -0.351726444034 2.27912526492 1.3453307153 1.00113104347 -0.406479946694 2.2220667361 0.923426385033 1.31645282665 0.183652606118 0.0579664876772 0.156826393956 1.78768729482 0.548626232092 -0.593934110496 -0.505610309166 0.295919990362 -0.208147943748 -0.926313937628 1.17007834057 -0.219577368256 -1.70974188757 -0.481806787844 1.40285970182 0.702758684211 -1.23122709106 -0.400966260472 0.427787468439 -1.27278261157 0.643985758898 -1.89834548672 0.45210621719 -0.779223143377 0.34680959106 -1.05278953597 -1.74900173453 0.266838453703 2.18328016731 1.59281167261 -1.64844002239 0.877883228557 -2.39526131157 0.644161565444 0.742108111407 0.525067760537 0.744870629429 -0.905813832526 -0.092233103876 0.234389801077 0.430819172191 0.1182038871 -0.426742498196 -0.201330391772 1.56320009802 -0.383617255856 0.456138541645 -0.71983322698 2.50710262486 -0.0281002007367 1.03465289727 0.389791677592 -1.58793373469 -0.566099536582 1.31604885009 0.832986256078 0.329836878824 -1.06075851474 0.215975424088 -1.02384500427 0.841562862631 -0.476427331567 1.63512953605 -0.224991954838 -0.0375274025372 -0.24900190879 -0.99135263313 3.78322958879
mitch.robinson@enron.com -0.326377376278 0.942904808844 -1.84358971307 -0.991611793622 -0.732588518431 0.440587173402 -1.61896132678 -0.926157074462 -1.39187315257 0.341214451146 -2.22869335295 0.023746733756 0.821532681257 2.63918468438 0.768325725093 -1.78544080901 0.075532734508 -0.607261648252 0.447140405506 0.0930365293447 -1.66318376945 -0.936126682342 1.7123260677 -0.905978620659 1.54251310805 -1.96672261237 -0.630819404335 -0.186203430291 2.18368749896 -1.90998447774 -0.963236558525 -0.183321910549 -0.775128890825 -0.486530936397 0.954288857986 -1.75297892044 -0.735039712628 0.0240012121293 -1.27170302739 1.17581616144 -0.14695477463 -0.131955031559 -1.24311060915 -0.887080913596 -0.579883465661 1.43778640031 0.269978753133 1.93624864766 -0.571075936607 0.282910000409 -1.43746465009 0.0143956783883 -0.917917017386 0.148284208606 0.505312039814 0.343180092417 -1.78864316904 0.740082458609 1.24649341976 0.480093804664 -0.752462938829 -1.83085966423 -0.67148813438 -0.517993735742 2.12010742111 -1.16249481647 0.318020401712 -0.665783214244 -1.10003724524 -0.157277944339 0.543430770494 -1.96577705093 1.70119364052 2.83820526296 -1.39817104633 0.937430961594 0.816922945677 -1.03229670309 -1.26148072625 -0.0671960494447 -0.0163685192536 -0.732876278968 -0.342460082707 -1.71107556516 1.11996520741 -0.189238211045 -0.499027823631 -1.37200464133 -1.9997576475 0.0580701109905 0.0794496832681 1.20966007142 -2.11941884651 1.37985329226 1.04157246532 -1.61792871494 1.55056799408 0.0887569523213 -0.0115499606005 -0.737320513744
j..sturm@enron.com -0.0797775362718 0.744314258052 -1.49486492019 -0.892543604781 -0.137433629322 0.394812912643 0.224029442146 -1.06803781749 -1.88209540454 0.399229327379 -2.29572419731 -0.983143625695 0.865550529003 2.67386542628 0.993876037109 -1.20848578536 0.55361170407 -0.572016604848 0.681868375815 0.881371450956 -1.91811174628 -0.649793360846 1.62585469074 -1.04012404436 1.68715495796 -1.33502522416 -0.581738481523 0.574271575683 1.51564203455 -0.858734956276 -1.00771357227 -0.301674734229 -0.620184394713 -0.385956664309 1.92329465468 -1.57995237515 -1.03397896276 0.689159206674 -0.901446411926 1.42304603998 0.223272178617 0.867433011265 -1.06867256774 -0.883760064564 -0.225836700167 1.55335338839 0.220599506443 1.69965386399 -0.449042206313 0.0503260265571 -0.56696689404 0.751261202653 -0.797123785018 -1.2028464698 0.584235468397 0.614426411836 -2.43119955152 0.594437266271 0.677362777808 0.765276943936 -1.43495296309 -1.57598264578 -0.686583954357 -1.11402551226 1.76834124865 -1.71317781951 0.306985313528 -1.43941184046 -0.843152261085 0.00702430488946 0.172661894702 -1.86641898518 1.01727446018 2.34107420882 -1.13292428252 0.776464570483 1.0440878251 -0.73820887791 -1.27312155225 -0.761163238922 0.0570876558342 -1.19644831321 0.0924645343385 -2.94512261268 1.50819740303 -0.191926980374 -0.297686199262 -0.826426110623 -1.48691008479 0.839221896851 0.985851088087 0.551389440783 -2.87562758368 1.13388889211 0.429895648984 -1.97793661231 0.826652887339 0.256929032773 -0.671349145489 -2.15640417606
kysa.alport@enron.com -0.112782738662 -0.528309804348 -0.240610160761 1.44081960919 -1.04760781346 1.01623317244 1.57478614559 -1.19440499619 2.03366412342 -1.16641382381 -1.24795437134 -1.04422343095 -0.0240700078422 -0.027917670283 0.144907914865 -1.76041339473 -0.306940943244 -1.38299786307 0.398325054591 -0.212920028145 0.187377559441 -0.306700424548 1.22808477046 -0.0220520835279 0.925313992711 1.32197432486 0.595902334813 1.43431279807 -0.470832564469 -0.94055699442 -0.463004415918 -0.275920299899 0.436028548541 0.267242572901 0.795013179939 1.16892352266 0.473552045385 0.243758963189 0.984916865431 0.392450199355 -1.12566579127 1.31484678084 1.39230395964 -1.02038007205 -2.25923973742 -0.768091469671 1.18450171086 1.48932024612 -0.998517478197 0.531724437345 -0.252582912009 0.892614779171 0.571848695304 -2.28316215532 0.8728460293 1.25360533999 -0.756437897315 -1.56890971207 -1.61630370931 0.864500881408 0.645993968296 0.915955151763 -2.90930142183 0.193429091177 0.85588302509 0.0631708430909 0.232079189145 -2.04616906641 -0.356637521762 -0.458442395006 -0.986933754634 -0.862261278962 -0.111366481689 0.494814906667 -0.429545043375 -0.612176278827 1.51294211501 0.280461859195 0.605943932934 -0.234382664353 0.473372302334 -0.337535893307 1.02003140343 -0.411129603597 -0.273627525039 0.227905676873 0.86081206343 1.71161756828 0.712261167241 0.780077161479 2.06146282884 -1.3800884 -2.38681015152 0.0799194374743 0.744299824963 1.29423091083 -0.326669355707 0.312927506598 -0.671978587644 -0.532451223466
rick.johnson@enron.com -0.0936932828584 -0.155398005741 0.222846210451 -0.809793934259 -0.840165067811 -0.867962296689 0.247420698589 -0.222261558867 0.372435363732 -0.604770348571 -0.362839717866 0.213009172475 0.109368577435 -0.057937505144 0.223416266133 -0.250326200311 -0.482444561125 -0.33218286463 0.196661908811 -0.0836026217886 -0.470085484949 0.191366676618 0.489666884167 -0.286414363985 -0.170309416155 0.550689144507 1.06693476182 -0.319400605528 0.460469337973 0.742098629236 0.112885716397 0.692165367934 -0.331227911513 -0.40740626519 0.265259069034 0.551895943252 -0.0989117826575 0.602228389392 -0.12772603798 -0.438602973378 -0.396023228275 0.0579858527393 0.286652863948 0.174561347896 0.292739325919 -0.114569597509 0.298959240422 0.013906181402 -0.652386256089 0.300482917098 0.141108185573 0.320523567183 -0.15431443801 0.768291957502 -0.384506239753 0.0150735355835 -0.176087679704 -0.256098014689 -0.674282442159 0.238056039996 -0.329375093774 -0.855113021707 -0.657981201241 0.522464367842 -0.524691888023 -0.530052953434 -0.187803843626 0.343878638894 -0.161673328344 0.521855669469 -0.615283153245 -0.481383527983 0.446597289696 0.355924737594 -0.114553357623 -1.11387288128 0.372804932769 0.123532260242 -0.145198463699 0.487265449773 -0.154636457303 0.309424881287 0.452451777088 -0.460119905169 -0.470802209967 0.556191955071 -0.34613068206 -0.675213943254 0.397173377246 0.133265156997 0.186947180253 -0.479492138022 -0.743249968832 0.453013109249 -0.473985051099 -0.704082825477 0.114071176201 -0.0379483780994 -0.610751601852 -1.03845360168
v..porter@enron.com 0.422741470989 -1.09059829625 0.640568757931 1.94008165631 -0.263061188088 1.25347509676 -0.547759968896 -0.650298125292 1.53244068118 -1.22702776485 -0.327855003791 -0.102922910898 1.14269011959 0.0825244918816 1.02836055087 0.0581197762212 -0.876812709699 -1.67407964925 1.24603069468 1.61211032116 0.115808830498 0.285299333094 1.46910088724 -0.311595281115 -0.194319674477 0.628503308216 -0.300380313636 -1.28723258842 -1.96929733174 0.433817645935 0.876419616715 0.650994182258 0.327362989888 -0.670840790317 -0.224869788013 0.397193450958 0.259348724277 -0.34517050452 1.04713086605 -0.14552386966 -0.5509913662 1.01862579454 0.785376651855 -0.245232052474 -1.36482928332 -0.862794142372 0.100504258922 0.243664879284 -0.573913737945 0.239021289632 -0.348349671745 1.94509501389 0.664123866413 -0.316455715907 -1.83582705397 1.95945440818 0.675094449689 0.297514850488 0.0129764009973 0.201023446912 -0.466265744943 -0.205710090785 0.110173790588 1.14234944719 0.645583162508 -1.50854210272 -0.138182205264 0.43529063918 0.242773156042 0.0999858879759 -0.700351263398 0.830983154162 0.113327749796 -0.461853917222 0.249520403053 -1.09022206486 2.51562834529 -0.089782864578 -0.443166678603 0.261827807784 0.567634250633 1.40313424378 0.294299728884 0.774063804313 0.430522236814 0.676926310058 -0.0958720816531 1.76341780816 0.452542781971 0.673532844867 0.993160318706 -2.00417433961 0.166643811127 -0.636443202515 -1.37469906528 1.4640669721 -1.22882129184 0.60086260471 -0.100040742443 -0.968512024648
m..king@enron.com 0.666730413652 0.198743710343 -0.282112929955 0.928251150604 -0.593400341443 2.55750870455 -1.45962708479 -1.9294716403 1.57067406078 -0.871101515657 -0.446492884077 -0.0997738599468 0.866746793996 0.58123422892 0.562237031866 -0.772405685412 -1.07016331029 0.471347437661 -0.801667087964 -0.576593692357 -0.39476972652 -0.526165593155 -0.374188845542 -0.85257400271 -0.232191461594 0.0293182728184 -0.460263216814 1.11000366465 0.305866715112 -2.81038544103 -0.0738329080179 -0.779566636286 -0.87864923974 0.886882652193 -0.216641531032 0.0160632517173 0.801908480921 -0.62980974782 0.781677233493 0.89973500817 -0.722108069106 0.983175326777 -0.0459848312848 -1.2934098562 -0.662031104658 0.437344788132 -0.40083466646 -0.82625903455 -0.189341743952 0.31781466537 -1.36385457165 0.459067212017 0.895327135873 -1.47772026599 0.879207148604 2.10636003289 -0.486440984427 0.0707351600558 1.11663227788 -0.21944830751 0.918176654341 -0.667055298256 -1.46196671022 2.35935789163 0.0332157560829 -0.0867057472032 0.529696435377 -0.910975319491 -1.71706679428 -1.2988603895 -0.290642305912 -0.676875102478 2.39609416852 0.851062037499 0.203945939043 0.937174763591 0.722989703081 -0.468566566066 -1.78226811218 0.13338632926 -0.461483359542 -0.312454668212 0.713871697156 0.620029738211 1.42702780814 0.291000060802 2.16095941468 2.31050443838 -1.23962878055 0.348388606695 0.999622261047 -0.042643665541 -0.0456825366907 -0.0643858388356 1.60867056476 -0.787086911278 1.12539414537 -2.5157827356 -0.310839841672 0.622387329692
paul@enron.com -0.31470458374 -1.45688511398 -0.707717810527 -2.29248547022 -1.6790941261 -1.51395205556 0.267474038951 -1.07795251238 2.38270420546 -2.3896849786 0.993031168421 0.460279017892 -0.876061450013 -0.919515863943 -0.82305041659 -2.28824972802 -1.87281715326 0.508018649942 -0.451583904596 -1.97052955584 -1.07503777539 0.718143206943 -0.357047391278 -0.54554513154 -1.66055308975 2.62717491757 2.79516911683 0.990062200255 0.760140069853 0.456316301889 0.387166376785 0.455925726366 0.852154600774 0.430790727313 -0.922450003182 2.83108821301 0.775926010265 1.6244361682 -0.656033527681 -1.65367634916 -2.40655750371 -1.57127243895 1.98201819126 0.227749036124 -0.669588693939 -1.06738566372 1.61456036749 -0.237800547492 -1.05333595284 1.9178352387 0.0970325710136 -1.07627083074 -0.850787981603 1.00244275414 1.42834568399 -1.12674196282 0.665880991823 -0.552506286198 -1.97901604108 -0.729825106526 0.872517320021 -0.9394383955 -2.84904575905 2.91119043593 -3.13505906353 -0.462288155346 -0.80281587726 0.157654186665 -0.455605112526 0.122400400786 -1.10919376017 -1.47905789412 0.678127479504 1.15698858129 0.912270806207 -3.0319851075 0.480553446139 0.415037317895 -1.26636854578 1.26802408507 0.831496042082 0.284106197293 1.35733919336 -0.00484236447873 -2.19539242491 0.955553194186 1.61779540586 0.514288222333 0.129193614613 -0.142841304628 1.0883063216 -1.78944537929 0.217892241278 1.12444696821 0.803355771807 -1.17763725906 1.22467879896 -1.25712618642 -1.12645696905 0.730240663868
elizabeth.sager@enron.com 0.89903713788 0.247993907268 -0.154856947236 0.348036252757 -1.61065703343 2.28946100657 -1.7946737459 -1.59155880855 0.896920357385 -1.49755475106 -0.0660516776671 -0.199910976592 0.647804490343 0.896049006477 0.599123365311 -1.37068242759 -1.170921955 0.898661398838 -1.66982486412 0.56563755044 -0.460845256238 -0.211187655929 0.271383288932 -0.306657391143 -0.721398752379 -0.368482850722 0.789063051829 -0.215330360129 0.707495734783 -2.13952366232 -0.0189946643934 0.155163981951 -1.17645505874 0.64285602934 -0.452670046622 0.870779718266 0.948785448993 -0.919686736684 0.809245066747 1.33489755043 -0.374081633031 0.778272725949 0.0501525623438 -0.360819521181 0.147939412061 0.111844120585 0.601707573379 -0.679115961625 -0.929986915597 1.25560045014 -1.07148458333 1.09703039122 2.03000379177 -1.64685602832 -0.318785536044 0.534925354303 -1.02268529343 0.509368923006 0.917380008011 -0.479564733745 -0.140767837847 -2.06111453035 -1.03812508431 2.11107355655 -0.0895673645742 -0.99279677068 0.459581714887 -0.996549583455 -1.31368023977 -0.857523768935 -0.288396300119 0.242380459401 2.35204458546 0.857164615232 0.0373056962258 -0.0441069976523 -0.124771073348 -0.100120284595 -1.24896104955 0.696840681968 -1.03595199031 0.136633655884 1.30038851942 0.847870840278 1.26019594983 0.0888962493923 0.560965021372 1.68965230717 -0.363940779631 0.599878778888 0.182958275131 0.0399824731528 -0.503351549152 0.553965108629 0.545156999009 -0.7058594523 1.04211289754 -1.25339545696 -0.409350554422 0.186325586888
ann.murphy@enron.com -1.0077990112 -0.405660497397 -1.9755597839 -0.98091871098 -0.0490399620534 -1.10135337984 -0.234837954936 0.797504410647 0.18382908231 0.734621205289 -0.645236008661 0.0710075215476 -0.776239062246 -0.674444797567 -1.22187510964 -1.73412627259 -0.970129238724 -0.610443618505 -0.0523047717678 -0.261581557913 -0.035036144534 0.450693968641 -1.50497992851 0.490869882542 0.41043421031 -0.391260865348 -1.43826215686 -0.00464331134995 0.43026422886 0.680022732571 -0.828351112458 0.151276180171 -0.0548193644323 -1.09367344707 -0.650919955214 -0.146789531806 -0.192490641215 -0.103587901527 -0.463749546131 1.01165681439 0.130176973433 -0.966104789076 0.664343288097 -0.632367679004 -0.0859216336973 -0.514475449543 0.0182490983381 1.73886395755 0.316154775718 0.92184680621 -1.0803730792 -1.06160926218 0.944230171503 0.427094293333 0.470692779689 0.564715556789 1.31863419216 1.20736774726 -0.474876823088 0.0105633688836 0.810557717893 0.13945533018 0.803252062575 0.150986722481 -0.967751462646 0.985107930897 -0.535391977022 -1.16037323179 0.484407888567 -1.18684741216 1.13338372463 1.44663881002 1.27207997253 0.828942431448 0.402815305507 1.06704666238 -1.61355851721 -0.76054934652 -0.46405225778 0.927012269083 0.263701205522 -0.759029955224 -0.540955633248 2.01342362784 0.790852512379 -2.09117620243 1.04619995322 -0.360198538689 -0.772830963675 -1.41495054977 -0.5225281427 0.586718045732 1.39566488503 0.145634785412 2.0388149941 1.5284471116 0.292787646386 1.42502035955 0.570495088899 2.58755366628
stephanie.piwetz@enron.com -0.835580825131 -0.109133731408 0.232135588178 -2.82445328025 1.03071039517 -1.63830817843 1.60257817861 -0.852309855134 -0.138910236645 -0.634794742386 1.02721558855 0.512637672766 -0.712698448733 -1.25319874489 -1.16015395324 0.746761718372 0.181725782924 1.3541120618 -0.0175800663175 -1.81897158597 -0.144743437956 0.166667085283 -1.36949968186 -0.39717143749 -1.10909139477 2.13316757723 1.11319777663 1.65672164665 0.214052954157 1.21924450982 0.566310952608 -0.159528145397 -0.330026181485 0.25937444878 0.819136526596 1.1740062651 -0.403577071171 1.08743617751 -1.06563636086 -2.06923211078 0.0022853443565 -1.04180197095 0.0338211664805 0.545186535463 1.11280594359 0.689206137884 -0.506034372025 -0.84656213932 -0.0501479780623 -0.0672778355511 0.903663221327 -1.62649339365 -1.28749151303 0.0609461438718 0.717535789939 -0.608653703422 0.517574097008 -0.432345212109 -0.705698797511 -0.0846310966477 -0.216801488553 -0.33222434605 -1.11355999781 1.243942106 -2.33619333805 -0.0754804402354 -0.520779337138 0.756940330975 0.195565364463 0.204485870525 -0.19464520253 -1.44087461911 0.207468347937 0.202419436073 1.83209070735 -0.588911770687 -0.70103974012 0.650346128554 -1.39317915945 0.0264438251244 0.149207777192 -0.70173957213 0.420331120598 -0.976787378486 -0.858912835796 0.625236888937 1.60877612231 -0.291374558344 -0.236185387457 -0.906284728104 0.846079115183 -0.448441469832 0.843588891058 0.49392647069 0.827665963664 -2.19922916077 0.907934256543 -1.58746161308 -0.194946081093 0.394467948492
amy.smith@enron.com -1.22905295119 -0.995166778055 -0.778393813778 -0.811441366058 2.01886112798 -0.816125926476 -0.412721582626 1.46327780388 -0.538216912388 1.16805442831 0.668675033368 -0.872595444628 0.49490615527 -0.625130401606 -1.42140937232 0.448116974 0.488278799084 -0.206125936084 1.17238112831 -0.306760565335 -0.630791975657 0.344196848835 -1.61369511377 0.559036635014 -0.443611831695 -0.44278432751 -1.27193978466 1.39604664087 -0.994770845895 -0.37719084504 -0.250466438613 -1.65041459795 0.947259303213 0.436781992405 0.363787443144 -0.230131144262 0.82993069451 0.738062129289 -1.36203230892 -0.22937811886 -0.123472653487 -0.892687336216 -0.237466541329 -0.759389816934 1.43229679807 -0.191648237582 -0.912502248599 0.0653746744342 1.5893304291 -1.03741935984 -0.66375828762 -0.538518796917 -1.6801489205 -0.906745832867 2.91888886895 -0.383548557599 0.350684872722 1.65312059348 0.234101704294 0.270897354493 0.462775835006 2.19735300282 0.915440339119 0.286932704282 -2.15607202396 1.30197725137 -0.385698974436 -0.503756218638 0.0883651565765 0.197890885925 1.09868458895 -0.872286409955 -1.06456813104 0.715756951738 1.08885042362 2.14419804115 -1.1382829718 -0.975338973716 -0.848524451646 -1.12197727141 1.54574988314 -1.20365737871 -0.496015980954 0.159548640774 0.195233175516 -0.440290489535 0.71059702355 0.844909972988 -0.97820487537 -1.64732921524 0.427354887308 1.52424980541 1.45235854254 -0.447004787695 1.24380515294 0.0751339371275 0.227983178857 -0.499987860521 -0.627414352938 1.38064411926
kerri.thompson@enron.com -0.488985983979 -0.169301944599 -0.831637476628 -0.710294866329 0.247838721179 -0.0363674436197 0.741560841695 -0.25140168519 -1.62079377327 0.222378289727 -1.92406903828 -1.34043674664 0.584212029683 1.82655271487 0.355531636428 -0.308957776783 0.560655149436 -0.899517667226 0.491364096964 1.38003364602 -1.08741260765 -0.350236322197 1.44813971309 -0.764140223846 1.48318628283 -0.333987029972 -0.689833266081 0.667005213679 0.698525081048 -0.0285584416781 -1.35494147948 -1.13278979511 -0.165309330391 -0.740297159809 1.74117709844 -0.770036863638 -1.20009182044 0.609026711053 -0.113751152833 1.13180649951 0.453844024924 1.087813575 -0.338203831507 -0.602830370418 0.739298570415 0.463468029805 0.132970927144 1.52651469181 0.286805081627 0.0264404785446 -0.243154895415 1.78918715701 -0.106101894215 -1.24100222186 0.023505818493 0.585342305232 -1.88068241757 0.493324846602 -0.273135745049 1.49482050173 -1.54037030202 -0.998813825745 -0.438980490131 -1.34329286809 0.990993899116 -1.72027177782 0.00717986851076 -1.64773324779 -0.0394675995137 1.03172128723 -0.130536184707 -1.02862730164 0.0065478994435 1.43206466938 -0.592910500515 0.0473822581786 0.850001872379 0.0660109612144 0.199045389309 -0.283948412036 0.125553174963 -0.988116915425 0.569622846643 -2.16874453925 1.35418804042 -0.269896555675 0.00710330553985 -0.350155379266 0.0893074679851 0.773014279669 1.30771185323 -0.246123350586 -2.5084943825 0.881485727029 -0.798502038006 -0.863699457239 -0.277187595292 0.635714142382 -1.26783566827 -2.34874162321
kimberly.hundl@enron.com -1.77892682761 -1.28661600386 0.221557308116 -0.00637846068641 1.38591110657 -1.9869819841 0.840135898176 1.36502100239 -0.0789499797652 1.04016873751 -0.452176593467 -0.801650110626 -0.186102897161 -0.967401968405 -0.460057132015 1.53033856362 0.422773661957 -1.60429032134 0.628729339279 0.699513962841 -1.01146285065 0.476390238999 0.532763621356 -0.0346319678949 0.316304765349 1.08466045588 -0.190870438935 -0.310375982763 -1.65385357011 2.12374147969 -0.589048410715 -0.131679356703 0.487015235372 -1.17525997979 0.84175589024 0.0653393409917 -0.876479181835 1.29712433842 0.0665097921913 -0.736847078603 0.287656787359 0.0644010892669 0.26896546678 -0.0780544085017 0.80690535766 -0.530225851745 -0.990530309319 0.698945283167 0.204902947976 -0.366847110945 1.10656865433 1.21064906446 -0.809670340599 0.942020567988 -0.596045538967 -0.578265347427 1.15904827087 0.104879194074 -1.73754718905 1.33741480171 -0.212394248929 0.775573123757 0.0392455236862 -1.01935243273 -0.657024427748 -1.12839968555 -0.817288461588 0.936383282969 0.806113088546 2.07181411852 -0.557756379847 -0.16768363479 -1.49089470465 -0.0648753008682 -0.0647592020162 -0.415731725828 0.655759952923 0.817974458467 0.52560389803 -0.14616127304 1.30126471304 0.491151056653 0.735220231923 -1.49400921151 -0.830726986484 0.559076796506 -0.259065255872 -1.54109389775 1.26461353072 -0.50742136349 1.14436459688 -1.6384749126 0.293494639278 0.0598348952254 -1.49058645786 0.0746270627368 -1.97078960727 1.43889978868 -0.904333864253 -1.77318170665
sharen.cason@enron.com -1.2597133556 -0.200043317784 -1.32426044741 -0.978364075504 -1.9999579261 -0.675347817007 -0.428639020156 0.705960478125 -0.397528570104 0.0216227472234 -0.132124808073 -0.759641510915 0.0974241646988 -0.195800158205 -0.750572604102 -1.18887815277 -1.33240645939 1.05421201521 -1.66386069285 0.833091732724 -0.807259180252 1.46557638991 -0.30807558797 0.409042169556 -0.0884010002043 -0.560720580902 1.27893830162 -0.939581047817 0.481411563691 0.665583704617 -0.594437510988 0.570596690482 -1.06393715356 -0.538724524963 -0.724374913697 1.40350600802 0.714400679492 0.345746175862 0.451519499783 1.33744139996 0.011677901301 -0.0190877046033 0.0423709057199 0.848376828174 1.90180301353 -0.643884219434 0.232975498777 -0.374217473572 -1.17979396902 1.64018156348 -0.338396224256 0.236936574441 2.32833029468 -0.217887360992 0.417667776776 -1.0947402927 -0.222701709578 0.848979728277 -0.675562219113 0.351319165146 -0.250102935164 -1.55453267518 -0.157062884996 0.741959351433 -1.65516715563 -0.0459453100123 -0.406446711455 -1.07242690039 0.0570561885247 -0.442673337717 -0.250681546565 1.36554347528 1.67548212474 1.53855539914 0.0690319982563 0.0322067111084 -2.24381027502 0.353817848677 -0.947158423246 1.31377252449 -1.21950322284 -1.118974579 1.15255048779 0.655294662239 1.04599122598 -0.281095165214 -0.720703999444 -0.587814130235 -0.0467551352009 -0.0314232453749 0.493885598625 0.29700829373 -0.0328620418043 1.60575067338 0.367374359934 -0.555594518201 -0.0407982942371 0.990614262077 -0.751039014568 0.602039711428
a..allen@enron.com -0.674509337544 0.0591703378097 -1.00101470057 -0.584535073293 -2.2515767277 0.357297073311 -1.08438127017 -0.118300722568 0.132099309054 -0.575384608338 -0.588477820788 -0.524721130256 0.361947211298 0.66764008702 -0.0114730822261 -1.31727623407 -1.42262888066 0.738200225338 -1.93967508634 0.948109217123 -0.88710176139 0.834057796718 0.509391997178 0.272442263742 -0.164086109014 -0.579154849371 1.54589114604 -1.22072136958 1.1482652334 -0.376730365064 -0.60940351637 0.434516388999 -1.1399093493 -0.409847232681 -0.745035109105 1.53761713481 0.517349496576 -0.262610468788 0.686319166135 1.70803619292 -0.110056867365 0.0626714245341 -0.116692721336 0.46453115464 1.51149527317 -0.830106370518 0.755095754533 -0.378701234166 -1.17302103823 1.4910590488 -0.779592714475 1.05616543265 2.21588533683 -0.65674657416 -0.477005589395 -1.01081170445 -1.10744451205 0.739064704225 -0.395618226853 0.226636563639 -0.234468195464 -2.35892827677 -0.754013617507 0.953115146342 -0.467872387284 -0.963905946624 0.186143359512 -0.811180720711 -0.413329349316 -0.116590754786 -0.408001543146 0.676404884236 2.00584888988 1.52310655513 -0.492122349226 -0.270135232989 -1.17856435297 0.24284567489 -0.246498671549 1.21261377678 -0.70307626896 -0.515372339247 1.37358790577 0.486220799401 1.16581903656 0.177575389389 -0.500009126462 -0.181794473726 0.44985064196 0.484391348757 0.0617917416901 0.0778199329044 -1.2258436493 1.5013622862 -0.155674736663 -0.911416618206 0.676239937863 0.236557502281 -0.863438513349 0.351014848929
amy.clemons@enron.com -1.90011655814 -0.649370318328 0.276525956697 0.356878868123 1.28127211142 -1.67952833918 0.264754490015 1.27298988048 -0.561704986194 1.20157274873 -0.155571499574 -1.14179769111 0.311546925583 0.0849824721795 -0.18053638757 1.10963740674 0.745843646893 -1.53197811247 0.723986127066 1.31615813578 -1.08370794968 0.91677731036 0.414663708964 0.601353441273 0.517185024822 0.599707256489 0.0770355734126 -1.11613537685 -1.58448229269 2.19342333638 -0.22294398197 0.476172148998 0.536902532561 -1.42607392594 0.662849562857 -0.148117526946 -0.53666513229 0.462609222189 -0.547663462394 -0.317170093047 0.960848444465 -0.415121098377 -0.171371534272 0.265547733945 0.0556777971427 -0.26232397866 -0.279807124387 1.04813596667 -0.441463826957 -0.523544081219 1.11270286587 1.70181630109 -0.721039735976 0.404505132524 -1.33199559569 -1.8255595508 0.847688818368 0.397280306896 -1.13865223764 1.43684391451 -0.142280563778 0.935648300296 0.130204867271 -1.57512570935 0.15641021864 -1.75108154234 -0.255642199416 1.59393434963 0.997013731659 2.0275862329 -0.389957440494 -0.324766228503 -1.37061425093 0.303833098837 -0.96980207884 -0.514389521039 1.42461954689 0.122824555293 0.98179671503 -0.894316429278 1.99549856199 0.520226221881 1.05791091786 -1.47907627389 -0.905917479278 0.592825930482 -1.16131405231 -1.71233191776 0.871244706227 -0.190079080064 0.284236787525 -1.17447969328 -0.0118685812787 0.310774259696 -1.5889471913 -0.108684626829 -1.57591433984 1.9938258169 -0.939738081035 -0.906683694453
evelyn.metoyer@enron.com -0.389519040098 -0.477773838882 -0.605887754241 -0.0949391779246 0.373677204956 0.37227989952 0.458493833634 -0.400426004601 -1.50927930884 -0.181148579066 -1.57936214098 -1.44026463219 0.474859382975 1.66793429183 0.349136269362 -0.00516967531499 0.684848320517 -0.841650045213 0.451691178111 1.72874586777 -0.983253934887 -0.4965509999 1.71009139609 -0.897078353697 1.31344977613 -0.256225562994 -0.826244922101 0.706133209778 -0.0503670577966 -0.20891384788 -1.28617051216 -1.07932038608 -0.129379764544 -0.635178452775 1.90867990133 -0.798172550011 -0.959386878969 0.529826516179 0.154258782265 0.74680998326 0.53701043659 1.25379271512 -0.144724321264 -0.541418315992 0.316932504046 0.666389158569 0.00605343992297 1.47257163256 0.124160313407 0.341950725562 -0.014834510804 2.16085406012 0.135682604037 -1.43344923183 -0.0266098201918 0.554722164884 -1.42757847041 0.32896446748 -0.148359077098 1.66261344438 -1.72753653989 -0.766544694051 -0.611155984183 -1.18857614687 1.06402682136 -2.16183076886 -0.207810280038 -1.69181797269 0.0446426324911 1.30524898992 -0.38167916899 -1.15059069956 -0.223644371151 1.45408638798 -0.381866657408 -0.318476739785 1.24724248511 0.482746065495 -0.0851995717172 -0.208532264336 -0.103648032842 -0.498351686626 0.952944858671 -2.25093103299 1.12507876622 -0.141783695964 -0.101946874765 0.033442258493 0.122979399305 0.788622742888 1.63283802372 -0.594055287013 -2.05712227186 0.835382741325 -1.14785271414 -0.687788485371 -0.74545874269 0.71600974323 -1.21984456096 -2.9259691597
kimberly.indelicato@enron.com -1.81682856105 -0.0681718887683 -1.31191982381 -1.30340436211 -1.51398700773 -1.35997674528 0.421546852336 0.909225872999 -0.588082354761 0.51609241155 -0.00813384335137 -0.853889324925 0.0223492201425 -0.599597626583 -0.946664791598 -0.637347796691 -1.01854670346 1.08489187639 -1.34405541848 0.352131580513 -0.824059933044 1.75389556836 -0.777922169918 0.202434162094 0.0292332619152 -0.15871791816 1.33072749132 -0.480177177763 0.257939459917 1.52546350188 -0.479675202363 0.538472943164 -1.04209654728 -0.733547451304 -0.347226782669 1.34179402526 0.380662356004 0.796803190768 0.259530134821 0.924477659097 0.191316691269 -0.151555662448 -0.07844344475 1.13429445697 2.07183887441 -0.419664727204 -0.101138905632 -0.696143023407 -1.14975784848 1.26826170768 0.225703486501 -0.220490698604 1.790728501 0.116032390561 0.817354193965 -1.20535051978 0.02330528421 0.498356430372 -0.906763691035 0.748456141898 0.0330336849262 -0.918260802258 -0.134897093425 0.462068995926 -2.0875230269 0.400801391843 -0.43690732608 -0.628006791626 0.352873751495 -0.416863929991 -0.488434469833 0.950827615052 1.4032755949 1.52668872111 0.0641862305462 0.156773378478 -2.25199327058 0.446390246185 -1.03911338045 1.08693358168 -1.07839785867 -1.50112787107 0.956976413965 0.0436953581434 0.659039594829 -0.102889829933 -0.579364322589 -1.01671530331 -0.12117276116 -0.13519770683 0.89579889307 0.268557013931 0.237700829091 1.75143888308 0.48775195683 -1.00025851889 -0.373508750085 0.830593242199 -0.984217378919 0.626824339318
